{
  "policy_type": "mappo_timeout_policy",
  "algorithm": "llm_mappo_ctde_gae",
  "episodes": 2500,
  "nodes": 75,
  "seed": 7,
  "hidden_dim": 128,
  "features": [
    "bias",
    "rtt_norm",
    "loss_rate",
    "log_gap_norm",
    "recent_split"
  ],
  "global_features": [
    "node_count_norm",
    "alive_fraction",
    "mean_rtt_norm",
    "mean_loss",
    "mean_log_gap_norm",
    "recent_split",
    "round_index_norm",
    "recent_split_fraction",
    "best_node_quality_norm"
  ],
  "arms": {
    "very_short": [
      150.0,
      230.0
    ],
    "short": [
      280.0,
      420.0
    ],
    "medium": [
      520.0,
      760.0
    ],
    "long": [
      900.0,
      1300.0
    ],
    "very_long": [
      1450.0,
      2100.0
    ]
  },
  "actor_critic": {
    "actor.0.weight": [
      [
        0.04599466919898987,
        -0.28133293986320496,
        0.13021023571491241,
        0.1104750782251358,
        -0.23656687140464783
      ],
      [
        -0.0570884570479393,
        -0.23203152418136597,
        0.14671801030635834,
        -0.12718035280704498,
        0.3420122563838959
      ],
      [
        0.34259670972824097,
        0.006901893764734268,
        -0.23103627562522888,
        -0.29584184288978577,
        -0.07314286381006241
      ],
      [
        -0.1322866529226303,
        0.14773215353488922,
        -0.4323955476284027,
        0.4124302864074707,
        -0.39107176661491394
      ],
      [
        0.3500881791114807,
        -0.029999418184161186,
        0.278558611869812,
        0.20692752301692963,
        0.04848913848400116
      ],
      [
        0.08730621635913849,
        0.3885541260242462,
        0.16504037380218506,
        0.2828923165798187,
        -0.31893640756607056
      ],
      [
        0.29427456855773926,
        0.2042100578546524,
        0.16483445465564728,
        0.07323407381772995,
        0.2584688663482666
      ],
      [
        0.42540857195854187,
        -0.10225029289722443,
        -0.2522008717060089,
        -0.13996532559394836,
        -0.26375865936279297
      ],
      [
        0.21582695841789246,
        -0.17353972792625427,
        -0.18925169110298157,
        0.4011090397834778,
        0.444150447845459
      ],
      [
        0.0679687038064003,
        -0.13131976127624512,
        -0.11252538859844208,
        0.18406382203102112,
        -0.46727558970451355
      ],
      [
        -0.3772214651107788,
        0.32445085048675537,
        0.4080263674259186,
        -0.017255837097764015,
        -0.3833746612071991
      ],
      [
        0.018919751048088074,
        -0.2641347646713257,
        -0.058135420083999634,
        0.17830820381641388,
        0.15991462767124176
      ],
      [
        -0.04552589729428291,
        -0.009161309339106083,
        0.06211169809103012,
        -0.39255842566490173,
        -0.19195476174354553
      ],
      [
        0.02480047568678856,
        -0.30892375111579895,
        -0.2515113353729248,
        0.13183431327342987,
        0.21831203997135162
      ],
      [
        0.026074303314089775,
        -0.23446451127529144,
        0.18257126212120056,
        -0.28248757123947144,
        -0.14873729646205902
      ],
      [
        0.42285969853401184,
        0.1180252805352211,
        0.0682249516248703,
        0.16351330280303955,
        -0.10389344394207001
      ],
      [
        0.4046463370323181,
        -0.4149691164493561,
        -0.17508937418460846,
        -0.11370203644037247,
        -0.23693905770778656
      ],
      [
        -0.12426227331161499,
        0.32424628734588623,
        0.2938249409198761,
        0.05989249050617218,
        0.4254167079925537
      ],
      [
        -0.29637202620506287,
        -0.3251956105232239,
        0.14146095514297485,
        -0.06288295984268188,
        -0.45071879029273987
      ],
      [
        -0.3161492943763733,
        -0.3152892589569092,
        0.30098792910575867,
        0.18191564083099365,
        0.3138810098171234
      ],
      [
        -0.3107682168483734,
        -0.4920158386230469,
        -0.35023584961891174,
        0.026199504733085632,
        -0.1304183006286621
      ],
      [
        -0.3026342988014221,
        0.32225653529167175,
        -0.14658159017562866,
        -0.23600728809833527,
        0.1971176713705063
      ],
      [
        -0.13575981557369232,
        0.290401816368103,
        0.1123083233833313,
        0.03406289592385292,
        0.0915239006280899
      ],
      [
        -0.3251502513885498,
        -0.2971392273902893,
        -0.2696075141429901,
        -0.2853012979030609,
        0.03822578117251396
      ],
      [
        0.09720051288604736,
        -0.19576843082904816,
        0.2805907130241394,
        -0.2873920202255249,
        0.0877828374505043
      ],
      [
        -0.11805922538042068,
        -0.4515853226184845,
        -0.3566698729991913,
        0.16007237136363983,
        0.12845484912395477
      ],
      [
        -0.26801422238349915,
        -0.18911561369895935,
        -0.4693370759487152,
        0.21565385162830353,
        0.36175569891929626
      ],
      [
        0.164493128657341,
        -0.29547929763793945,
        0.2166493982076645,
        0.3333381414413452,
        -0.10230676829814911
      ],
      [
        -0.06713665276765823,
        0.10067877173423767,
        0.002448227722197771,
        -0.1866241693496704,
        -0.45093274116516113
      ],
      [
        -0.3105819821357727,
        0.03080558031797409,
        -0.01673874631524086,
        0.39930805563926697,
        0.018405426293611526
      ],
      [
        -0.10064583271741867,
        -0.4952442944049835,
        -0.47086408734321594,
        0.14065322279930115,
        0.3570030927658081
      ],
      [
        -0.008615434169769287,
        -0.46474289894104004,
        0.09287663549184799,
        0.3128092586994171,
        -0.34750065207481384
      ],
      [
        -0.11554908752441406,
        0.08056936413049698,
        -0.210504949092865,
        -0.39018481969833374,
        0.2245631068944931
      ],
      [
        -0.35723936557769775,
        -0.08606858551502228,
        -0.21010182797908783,
        0.36267223954200745,
        0.10080888867378235
      ],
      [
        0.21642708778381348,
        -0.34624940156936646,
        0.3327626585960388,
        0.015084858983755112,
        -0.27944448590278625
      ],
      [
        -0.01786641962826252,
        -0.37758249044418335,
        -0.0827949121594429,
        0.20458976924419403,
        -0.24759803712368011
      ],
      [
        0.3825357258319855,
        0.1322891116142273,
        -0.08419019728899002,
        0.12123648077249527,
        -0.07978003472089767
      ],
      [
        -0.08685237169265747,
        -0.3366050124168396,
        0.21542184054851532,
        0.24490579962730408,
        0.1416497826576233
      ],
      [
        0.2490091323852539,
        0.5077383518218994,
        0.48412927985191345,
        -0.4123711585998535,
        0.15004467964172363
      ],
      [
        -0.029856154695153236,
        0.09494482725858688,
        -0.14505809545516968,
        0.07931175827980042,
        -0.453319787979126
      ],
      [
        0.18886636197566986,
        0.41804447770118713,
        -0.09206095337867737,
        -0.3504437208175659,
        -0.39025548100471497
      ],
      [
        -0.1052103191614151,
        0.029788967221975327,
        0.08770208805799484,
        0.07461492717266083,
        0.3527468740940094
      ],
      [
        -0.08126343786716461,
        0.19049164652824402,
        -0.17349211871623993,
        0.4730379283428192,
        0.21965496242046356
      ],
      [
        -0.0702790766954422,
        0.3601825535297394,
        0.2254960536956787,
        0.11939109116792679,
        -0.08014125376939774
      ],
      [
        0.06242276728153229,
        -0.0192952211946249,
        -0.31398075819015503,
        -0.020352531224489212,
        0.06203370541334152
      ],
      [
        -0.2432333379983902,
        0.03810606896877289,
        -0.1918119639158249,
        -0.37415987253189087,
        -0.3049042820930481
      ],
      [
        -0.3626136779785156,
        0.16942188143730164,
        0.3404207229614258,
        0.4490833878517151,
        0.49390727281570435
      ],
      [
        0.17354296147823334,
        0.27827900648117065,
        -0.015586454421281815,
        0.4122698903083801,
        -0.1298624873161316
      ],
      [
        -0.09961118549108505,
        -0.19341731071472168,
        -0.3469817042350769,
        -0.3541440963745117,
        -0.13677044212818146
      ],
      [
        0.37623119354248047,
        -0.22567391395568848,
        -0.4095042645931244,
        -0.12598174810409546,
        0.40825939178466797
      ],
      [
        0.1225973591208458,
        -0.05674333870410919,
        -0.15705783665180206,
        0.3649608790874481,
        -0.4427376687526703
      ],
      [
        0.24262653291225433,
        0.17352963984012604,
        0.3337453305721283,
        -0.2191108912229538,
        -0.1141294315457344
      ],
      [
        -0.2022286206483841,
        0.494059681892395,
        0.0037935918662697077,
        -0.3848569691181183,
        0.2679440379142761
      ],
      [
        0.05786340683698654,
        0.0981040671467781,
        -0.2595279812812805,
        -0.39672157168388367,
        0.43036195635795593
      ],
      [
        -0.33017390966415405,
        -0.14921508729457855,
        -0.1468004435300827,
        0.22384308278560638,
        -0.42816537618637085
      ],
      [
        -0.24174311757087708,
        -0.2486272156238556,
        -0.2343636453151703,
        0.257186621427536,
        0.27167341113090515
      ],
      [
        0.17668214440345764,
        0.41548430919647217,
        -0.24525251984596252,
        0.027054117992520332,
        -0.33029624819755554
      ],
      [
        0.020240919664502144,
        -0.40096646547317505,
        -0.4511127471923828,
        0.2705949544906616,
        -0.20764970779418945
      ],
      [
        -0.0075171091593801975,
        -0.18389151990413666,
        -0.40776610374450684,
        -0.08039014041423798,
        0.017919912934303284
      ],
      [
        0.34255504608154297,
        -0.20856985449790955,
        0.4076598286628723,
        -0.20881956815719604,
        0.2642291486263275
      ],
      [
        0.3918740153312683,
        0.05093050375580788,
        -0.14991004765033722,
        0.3192967176437378,
        -0.13602791726589203
      ],
      [
        -0.1686260998249054,
        -0.21563006937503815,
        -0.4255358874797821,
        -0.08213487267494202,
        -0.4071565866470337
      ],
      [
        0.3069072365760803,
        -0.493725448846817,
        -0.39620888233184814,
        0.04446282610297203,
        0.2272733449935913
      ],
      [
        0.44541168212890625,
        -0.4259389340877533,
        0.30285030603408813,
        0.2679835855960846,
        -0.34300482273101807
      ],
      [
        0.20465950667858124,
        -0.17449058592319489,
        0.07905379682779312,
        -0.4163368344306946,
        -0.2925967574119568
      ],
      [
        -0.2738054394721985,
        -0.14696474373340607,
        -0.07705999165773392,
        -0.05327235534787178,
        -0.30535316467285156
      ],
      [
        0.1986495852470398,
        0.27432966232299805,
        -0.343728244304657,
        -0.38547423481941223,
        -0.06519608199596405
      ],
      [
        0.13114307820796967,
        -0.4061523675918579,
        -0.1077805832028389,
        -0.015319463796913624,
        -0.3941364288330078
      ],
      [
        0.40633654594421387,
        0.39017558097839355,
        0.4087192416191101,
        -0.13722507655620575,
        -0.2657238841056824
      ],
      [
        0.03328896686434746,
        0.30309391021728516,
        0.2616666257381439,
        -0.2586970031261444,
        0.3845398426055908
      ],
      [
        -0.18860989809036255,
        -0.12853451073169708,
        -0.1767553836107254,
        0.18339376151561737,
        -0.45465415716171265
      ],
      [
        -0.3095967769622803,
        -0.01681894063949585,
        0.3468555212020874,
        -0.08563511818647385,
        0.30991336703300476
      ],
      [
        0.40972521901130676,
        -0.02020353078842163,
        -0.340379923582077,
        -0.026558812707662582,
        0.15234655141830444
      ],
      [
        -0.06017623469233513,
        -0.4987265467643738,
        0.20255877077579498,
        -0.23567591607570648,
        -0.36134073138237
      ],
      [
        0.20540441572666168,
        0.16569024324417114,
        0.3852558135986328,
        -0.053564298897981644,
        0.3177366256713867
      ],
      [
        -0.1006612703204155,
        -0.32663071155548096,
        0.3624700605869293,
        0.4034503102302551,
        0.2876664400100708
      ],
      [
        -0.11376070231199265,
        -0.23973354697227478,
        0.03276407718658447,
        0.18152189254760742,
        0.025190679356455803
      ],
      [
        0.18360644578933716,
        0.039523594081401825,
        0.3154272139072418,
        0.25836408138275146,
        0.29686516523361206
      ],
      [
        -0.022960864007472992,
        -0.43279391527175903,
        -0.34606418013572693,
        -0.26261401176452637,
        0.3293735980987549
      ],
      [
        -0.03480806201696396,
        -0.03259310498833656,
        -0.14522680640220642,
        -0.02723461203277111,
        0.3315386474132538
      ],
      [
        -0.02140473760664463,
        0.22918866574764252,
        0.27887827157974243,
        -0.3969471752643585,
        0.1731395274400711
      ],
      [
        0.45573896169662476,
        -0.20970383286476135,
        0.08942483365535736,
        -0.006120527628809214,
        0.26408591866493225
      ],
      [
        0.1028299629688263,
        -0.3940800428390503,
        -0.39323127269744873,
        0.3317525386810303,
        -0.23634031414985657
      ],
      [
        -0.37094229459762573,
        -0.4497326612472534,
        -0.4387189447879791,
        0.07711202651262283,
        0.01734827272593975
      ],
      [
        -0.26850783824920654,
        -0.04205949977040291,
        0.1300429105758667,
        0.2045225352048874,
        0.22581812739372253
      ],
      [
        -0.2578651010990143,
        0.47019749879837036,
        0.4672432243824005,
        -0.2830793261528015,
        0.44728416204452515
      ],
      [
        -0.3544227182865143,
        -0.27353039383888245,
        0.11072362959384918,
        0.1078663021326065,
        0.4273119270801544
      ],
      [
        -0.012534040957689285,
        0.36244437098503113,
        -0.08803698420524597,
        -0.2876138985157013,
        0.00871671549975872
      ],
      [
        0.2549953758716583,
        -0.22669324278831482,
        -0.4314800202846527,
        -0.2996573746204376,
        0.04005153104662895
      ],
      [
        0.4103049635887146,
        0.04483358934521675,
        -0.33892562985420227,
        -0.19175319373607635,
        0.23236121237277985
      ],
      [
        -0.1477513313293457,
        -0.004006029572337866,
        0.38991779088974,
        0.1896909922361374,
        0.33004820346832275
      ],
      [
        0.3917595446109772,
        -0.10459917038679123,
        0.10798786580562592,
        -0.325725257396698,
        0.4761850833892822
      ],
      [
        -0.3008953928947449,
        0.4014308750629425,
        0.38486239314079285,
        0.10414770990610123,
        -0.40843161940574646
      ],
      [
        -0.015720723196864128,
        -0.16731545329093933,
        0.1542632132768631,
        0.251240998506546,
        0.2514171898365021
      ],
      [
        0.15648211538791656,
        -0.39416027069091797,
        -0.4287022054195404,
        0.09225586801767349,
        -0.1319980025291443
      ],
      [
        0.1807217001914978,
        0.4929320216178894,
        0.194630965590477,
        -0.2314455807209015,
        -0.08739550411701202
      ],
      [
        0.26527467370033264,
        0.08951520919799805,
        0.35347551107406616,
        -0.381439208984375,
        -0.027776818722486496
      ],
      [
        -0.23302005231380463,
        0.4015542268753052,
        0.2578461468219757,
        -0.02078896574676037,
        -0.36540207266807556
      ],
      [
        -0.06733641028404236,
        0.3883448541164398,
        0.015456573106348515,
        0.02219904027879238,
        -0.39016178250312805
      ],
      [
        0.3270481526851654,
        0.41684603691101074,
        -0.31132039427757263,
        -0.2867757976055145,
        0.05300629884004593
      ],
      [
        -0.22428585588932037,
        -0.39758989214897156,
        0.10638915747404099,
        -0.13942570984363556,
        0.14942826330661774
      ],
      [
        0.15079842507839203,
        0.44322675466537476,
        0.3120564818382263,
        -0.3914406895637512,
        -0.33008021116256714
      ],
      [
        0.3635902404785156,
        -0.3380495011806488,
        0.31606483459472656,
        -0.2603164315223694,
        0.3895302712917328
      ],
      [
        0.2694934904575348,
        -0.370549738407135,
        -0.4326295852661133,
        -0.2336161732673645,
        -0.2644765079021454
      ],
      [
        -0.2612641155719757,
        0.3238595426082611,
        0.11921092122793198,
        -0.02035721018910408,
        -0.038513075560331345
      ],
      [
        0.17092402279376984,
        0.10615845769643784,
        0.006253044120967388,
        0.42370185256004333,
        0.35394027829170227
      ],
      [
        0.026789337396621704,
        0.3696640729904175,
        -0.034213174134492874,
        -0.29219698905944824,
        0.3049997091293335
      ],
      [
        0.24997203052043915,
        0.08228146284818649,
        -0.3727360963821411,
        0.3199869990348816,
        0.02736886776983738
      ],
      [
        -0.22149144113063812,
        -0.4582805931568146,
        -0.2970026433467865,
        0.369132399559021,
        0.17065811157226562
      ],
      [
        -0.20903636515140533,
        0.43303030729293823,
        0.4474136233329773,
        0.2642444968223572,
        0.009291619062423706
      ],
      [
        0.4179343581199646,
        -0.102791428565979,
        -0.187616229057312,
        0.20521768927574158,
        -0.19993577897548676
      ],
      [
        0.3443881571292877,
        -0.29960739612579346,
        0.10188020020723343,
        -0.36096417903900146,
        -0.3434745967388153
      ],
      [
        -0.0016398730222135782,
        0.3863711357116699,
        -0.30704164505004883,
        -0.08424990624189377,
        0.2374250292778015
      ],
      [
        -0.07012613117694855,
        -0.4575803875923157,
        -0.06401170790195465,
        -0.17501157522201538,
        0.06499537825584412
      ],
      [
        0.1772197186946869,
        -0.1937834918498993,
        -0.28957825899124146,
        0.21372781693935394,
        -0.42700743675231934
      ],
      [
        0.2111477106809616,
        0.23273102939128876,
        0.232375830411911,
        -0.2988591492176056,
        0.22219154238700867
      ],
      [
        -0.2697747051715851,
        0.2619630992412567,
        -0.14500628411769867,
        0.14488379657268524,
        0.051385629922151566
      ],
      [
        -0.29672351479530334,
        -0.4741036891937256,
        -0.16624128818511963,
        0.24301078915596008,
        -0.1473216712474823
      ],
      [
        -0.08678071200847626,
        -0.33335962891578674,
        -0.3802209496498108,
        -0.06949923932552338,
        -0.15369918942451477
      ],
      [
        0.1551700085401535,
        0.49663037061691284,
        -0.2441348433494568,
        -0.09152675420045853,
        0.21330323815345764
      ],
      [
        -0.2866699695587158,
        -0.05639965087175369,
        -0.2335907369852066,
        0.25408244132995605,
        -0.042029500007629395
      ],
      [
        0.037017546594142914,
        0.32784363627433777,
        -0.2539385259151459,
        -0.20042698085308075,
        0.3947160542011261
      ],
      [
        0.17445455491542816,
        -0.08146514743566513,
        0.40355774760246277,
        0.3842628300189972,
        -0.23006492853164673
      ],
      [
        -0.1244925931096077,
        0.13399995863437653,
        -0.34049761295318604,
        -0.4668635129928589,
        -0.27206727862358093
      ],
      [
        -0.40866172313690186,
        0.3302983045578003,
        0.1617322415113449,
        -0.3290215730667114,
        0.016155906021595
      ],
      [
        0.4415452182292938,
        -0.3203427195549011,
        -0.3430054783821106,
        0.1525684893131256,
        -0.36095455288887024
      ],
      [
        -0.4212955832481384,
        0.2480878084897995,
        -0.061452679336071014,
        0.2604716122150421,
        -0.11134865880012512
      ],
      [
        0.43126726150512695,
        -0.25052693486213684,
        0.3046993017196655,
        -0.2963859438896179,
        -0.2051542103290558
      ]
    ],
    "actor.0.bias": [
      0.3601999580860138,
      0.20818141102790833,
      -0.30113133788108826,
      -0.05097014829516411,
      0.2716442942619324,
      -0.34240296483039856,
      -0.0030416613444685936,
      0.2885919511318207,
      -0.3407711386680603,
      0.1866529881954193,
      -0.4441168010234833,
      -0.4115388095378876,
      0.01675235666334629,
      -0.39684683084487915,
      -0.18637129664421082,
      0.26561543345451355,
      -0.06320227682590485,
      -0.3126955032348633,
      0.3843640983104706,
      -0.4436497092247009,
      0.11351151764392853,
      -0.3134608566761017,
      -0.2642804682254791,
      0.047176577150821686,
      0.44834795594215393,
      -0.1090857982635498,
      -0.4357300400733948,
      0.11466909945011139,
      -0.17184865474700928,
      -0.2957751750946045,
      0.19119204580783844,
      0.17479205131530762,
      -0.21911175549030304,
      0.03895900025963783,
      0.07387783378362656,
      0.04442822188138962,
      -0.06456252187490463,
      -0.24136658012866974,
      0.23143166303634644,
      0.34636130928993225,
      0.3461315333843231,
      0.35198843479156494,
      -0.021801559254527092,
      0.02758781984448433,
      -0.17166449129581451,
      -0.08439503610134125,
      0.10696972906589508,
      0.03308774158358574,
      -0.29868122935295105,
      -0.30519556999206543,
      0.22198355197906494,
      0.3303658962249756,
      0.40028440952301025,
      0.2448570430278778,
      0.2639569342136383,
      0.20167414844036102,
      0.2752665877342224,
      -0.09356259554624557,
      0.0972641110420227,
      0.1657484620809555,
      0.09566586464643478,
      -0.01574913039803505,
      -0.22100815176963806,
      -0.3005104064941406,
      -0.2393556535243988,
      0.05305683612823486,
      0.3897418975830078,
      -0.15615825355052948,
      -0.3767927289009094,
      -0.41109299659729004,
      0.19787438213825226,
      0.16096192598342896,
      -0.23893433809280396,
      -0.13844354450702667,
      0.3238314688205719,
      -0.3730491101741791,
      0.2736942768096924,
      0.01032254658639431,
      -0.19968347251415253,
      0.41984206438064575,
      -0.3154163956642151,
      0.41214001178741455,
      0.36574628949165344,
      0.1758098304271698,
      0.28243178129196167,
      0.09138993918895721,
      0.3864363729953766,
      0.08497212827205658,
      -0.4237966537475586,
      -0.20483006536960602,
      0.0582708902657032,
      0.3045959770679474,
      -0.1306767463684082,
      0.16104450821876526,
      0.18360747396945953,
      0.010345526039600372,
      -0.37879472970962524,
      0.41355714201927185,
      -0.2302594780921936,
      0.04354600980877876,
      -0.14236797392368317,
      0.08723553270101547,
      0.30745232105255127,
      0.11084804683923721,
      -0.20171289145946503,
      0.08392036706209183,
      -0.37069594860076904,
      0.3778465688228607,
      0.2538895308971405,
      0.3087209463119507,
      0.11192452907562256,
      -0.42737311124801636,
      -0.3421851694583893,
      -0.39634522795677185,
      0.2544005215167999,
      0.42626282572746277,
      0.2881682813167572,
      -0.167768657207489,
      -0.2432175874710083,
      -0.2637971341609955,
      0.4357573091983795,
      -0.4296605885028839,
      -0.4405607581138611,
      0.1862652599811554,
      0.04315175488591194,
      -0.21734952926635742,
      -0.2540207803249359,
      -0.41928231716156006
    ],
    "actor.2.weight": [
      [
        0.06055792048573494,
        -0.03484684228897095,
        0.018076971173286438,
        0.052000440657138824,
        -0.06876204907894135,
        0.06490696966648102,
        -0.04212082549929619,
        0.06963390856981277,
        -0.03516514599323273,
        0.10730315744876862,
        -0.05856953561306,
        -0.01836332492530346,
        -0.02431919053196907,
        0.06159697100520134,
        -0.06896901875734329,
        0.061222225427627563,
        0.05598190799355507,
        -0.10642341524362564,
        0.021870745345950127,
        -0.015519673004746437,
        0.00011497583182062954,
        -0.057166047394275665,
        -0.04976378753781319,
        0.022009829059243202,
        0.04973838850855827,
        0.03394653648138046,
        0.05927266925573349,
        0.013481486588716507,
        0.07765885442495346,
        0.024278422817587852,
        -0.030620014294981956,
        0.1122501790523529,
        0.006888108793646097,
        0.05749225988984108,
        -0.03401285409927368,
        0.04080468788743019,
        -0.08254898339509964,
        -0.017044642940163612,
        -0.044382210820913315,
        -0.026789579540491104,
        -0.05417341738939285,
        0.058864086866378784,
        -0.014643942005932331,
        -0.026854749768972397,
        0.013596884906291962,
        0.03216896951198578,
        -0.04197794944047928,
        -0.09395146369934082,
        -0.0011990679195150733,
        0.06976444274187088,
        0.02853977121412754,
        0.015912553295493126,
        0.028259918093681335,
        0.046241603791713715,
        0.01607397571206093,
        0.07377193123102188,
        -0.030999578535556793,
        0.03494952991604805,
        0.1328163594007492,
        -0.046913355588912964,
        0.09352896362543106,
        -0.018017541617155075,
        -0.0018122239271178842,
        0.11898825317621231,
        0.09742127358913422,
        -0.047088950872421265,
        0.043612439185380936,
        0.047867052257061005,
        -0.08652437478303909,
        -0.07541342824697495,
        0.04625794664025307,
        -0.12271108478307724,
        -0.003434899030253291,
        0.047459740191698074,
        0.059630997478961945,
        0.05722473934292793,
        -0.009025761857628822,
        0.026667805388569832,
        0.028961624950170517,
        -0.004668285604566336,
        -0.10092562437057495,
        0.029970208182930946,
        0.1156935915350914,
        -0.04995971545577049,
        -0.0300816148519516,
        0.0005410108715295792,
        -0.0003801619168370962,
        0.0327744297683239,
        0.005523520987480879,
        -0.05003874748945236,
        -0.11964493244886398,
        -0.051094602793455124,
        -0.035143621265888214,
        0.05503377318382263,
        0.0561913326382637,
        -0.01431681215763092,
        0.049442827701568604,
        0.021029023453593254,
        -0.05218440666794777,
        -0.03813674673438072,
        0.056475576013326645,
        -0.04438059777021408,
        0.03568070009350777,
        0.09332628548145294,
        -0.01499232929199934,
        -0.07407025992870331,
        -0.10336005687713623,
        -0.07840528339147568,
        0.07436547428369522,
        -0.11803240329027176,
        -0.03571602702140808,
        0.11540688574314117,
        -0.051407694816589355,
        0.04862810671329498,
        -0.006082331296056509,
        -0.024707360193133354,
        -0.08374230563640594,
        0.04456602409482002,
        -0.04142986983060837,
        -0.09399889409542084,
        0.044298067688941956,
        -0.03738025203347206,
        -0.04206101968884468,
        0.04166624695062637,
        -0.03906660154461861,
        -0.03225613012909889,
        0.0737297385931015,
        -0.02887968346476555
      ],
      [
        0.0008485002326779068,
        0.02292742021381855,
        -0.06515014916658401,
        -0.019300227984786034,
        0.08104407787322998,
        0.10165196657180786,
        0.008558633737266064,
        -0.04477859288454056,
        -0.06584431231021881,
        0.02906765602529049,
        -0.032570309937000275,
        0.020076993852853775,
        4.699878627434373e-05,
        0.04943612962961197,
        -0.03206612914800644,
        0.04706897586584091,
        -0.10306255519390106,
        0.010269014164805412,
        -0.08755701035261154,
        -0.08539878576993942,
        -0.121717169880867,
        0.06368353217840195,
        0.07037629187107086,
        -0.0526014044880867,
        -0.09127289056777954,
        0.021460000425577164,
        0.08337515592575073,
        0.05525192618370056,
        -0.03279515728354454,
        -0.07047438621520996,
        0.000473783235065639,
        -0.014081263914704323,
        0.07337675988674164,
        0.015332075767219067,
        0.01662050373852253,
        -0.09295105189085007,
        -0.06141297519207001,
        -0.0015486308839172125,
        0.09994666278362274,
        -0.06051771342754364,
        0.0561089962720871,
        -0.025076190009713173,
        0.004552003927528858,
        0.037513259798288345,
        0.07293649762868881,
        0.06935333460569382,
        0.12916602194309235,
        0.1156054139137268,
        -0.023131515830755234,
        -0.002582958899438381,
        0.009316030889749527,
        -0.031008604913949966,
        0.09686829149723053,
        -0.008488785475492477,
        -0.07164377719163895,
        0.004241837654262781,
        0.09643726050853729,
        0.020064163953065872,
        -0.06242235749959946,
        -0.06413671374320984,
        0.08049003034830093,
        -0.0002934305230155587,
        0.009856920689344406,
        -0.08321752399206161,
        0.006431490182876587,
        -0.019763287156820297,
        0.06398659199476242,
        -0.029967885464429855,
        0.01631716638803482,
        0.08536326140165329,
        0.03983777388930321,
        -0.018186936154961586,
        0.07523225992918015,
        0.03336181119084358,
        0.08670272678136826,
        0.01720494031906128,
        -0.06744424998760223,
        -0.004953889641910791,
        -0.04886408522725105,
        -0.06227590888738632,
        0.06816614419221878,
        0.03533932566642761,
        -0.05373058095574379,
        0.03697025030851364,
        0.052648965269327164,
        0.14490622282028198,
        0.048300907015800476,
        0.029335808008909225,
        -0.11036129295825958,
        -0.06366432458162308,
        0.13788405060768127,
        -0.05840456858277321,
        0.03667173162102699,
        0.04613911733031273,
        -0.07751796394586563,
        0.09064874053001404,
        -0.02777138166129589,
        0.053838055580854416,
        0.07003757357597351,
        -0.0548824742436409,
        -0.05325527489185333,
        -0.012618791311979294,
        -0.029871420934796333,
        0.03366749733686447,
        0.10380563139915466,
        0.06591131538152695,
        0.001962854992598295,
        -0.0176863893866539,
        -0.05055863410234451,
        0.13483941555023193,
        -0.08778300136327744,
        -0.06600730121135712,
        -0.03390936926007271,
        0.01122705452144146,
        -0.0400565043091774,
        -0.030613118782639503,
        -0.02753494679927826,
        -0.05215942859649658,
        -0.105564184486866,
        0.08934426307678223,
        -0.10668836534023285,
        -0.014256460592150688,
        0.09380703419446945,
        -0.10516992956399918,
        -0.04374230280518532,
        -0.12744100391864777,
        -0.043220676481723785,
        0.016712611541152
      ],
      [
        -0.05215412378311157,
        -0.07315203547477722,
        0.010026846081018448,
        0.06870575249195099,
        0.045944176614284515,
        0.026103543117642403,
        0.03299003466963768,
        0.026155926287174225,
        0.09376437216997147,
        0.007784469518810511,
        -0.063651442527771,
        -0.07545541971921921,
        -0.07529488950967789,
        -0.04841914400458336,
        0.058652911335229874,
        -0.08575572818517685,
        -0.06635744124650955,
        0.1151222437620163,
        -0.00869116373360157,
        -0.04552251473069191,
        -0.030055776238441467,
        -0.058688048273324966,
        -0.034916166216135025,
        -0.09157157689332962,
        -0.06698589026927948,
        0.06074254959821701,
        -0.014747623354196548,
        -0.07152064889669418,
        -0.04926444962620735,
        -0.07030224055051804,
        -0.08246145397424698,
        -0.04051671177148819,
        -0.04815484955906868,
        0.007706039119511843,
        -0.015525895170867443,
        0.019801806658506393,
        -0.04425175115466118,
        -0.027185635641217232,
        0.10387736558914185,
        -0.026890631765127182,
        -0.07391577959060669,
        -0.016841940581798553,
        0.07998226583003998,
        0.042648036032915115,
        0.02622666396200657,
        -0.0775023102760315,
        0.09104907512664795,
        -0.023462239652872086,
        -0.046153951436281204,
        -0.018668221309781075,
        0.04859447851777077,
        0.07263131439685822,
        0.10356078296899796,
        -0.0038896664045751095,
        0.032732777297496796,
        -0.015660176053643227,
        0.06487628072500229,
        -0.06635759770870209,
        -0.10648727416992188,
        -0.06170342117547989,
        -0.005048517137765884,
        -0.06393229961395264,
        0.02245255373418331,
        -0.09293176978826523,
        0.014745725318789482,
        -0.06328301876783371,
        0.05148407444357872,
        -0.035498443990945816,
        -0.018022548407316208,
        0.05251690745353699,
        -0.11585011333227158,
        0.030436454340815544,
        -0.05116773769259453,
        -0.10668333619832993,
        0.09001407772302628,
        0.05217853933572769,
        -0.0030744625255465508,
        0.06977774947881699,
        -0.09095510095357895,
        -0.04292771592736244,
        -0.014490136876702309,
        -0.055472105741500854,
        -0.047305360436439514,
        0.0375811792910099,
        -0.0338410846889019,
        0.06384924799203873,
        0.03861957788467407,
        -0.01119311898946762,
        0.013473671860992908,
        -0.01975921541452408,
        0.08250778168439865,
        0.08196280896663666,
        0.03782910853624344,
        -0.05408501625061035,
        -0.0976904109120369,
        0.09569912403821945,
        -0.00707467133179307,
        0.10106091946363449,
        -0.055916961282491684,
        -0.03504165634512901,
        0.07497242093086243,
        0.021366598084568977,
        -0.046676330268383026,
        -0.04482576623558998,
        0.007763324771076441,
        -0.06462495028972626,
        0.07756441831588745,
        0.04894981160759926,
        -0.05369386821985245,
        -0.03637944161891937,
        -0.03539431840181351,
        0.0012848126934841275,
        0.014268692582845688,
        0.05837950110435486,
        -0.05791259557008743,
        -0.01215329859405756,
        0.0913613811135292,
        -0.005876450799405575,
        0.0321347713470459,
        -0.010067981667816639,
        0.047202955931425095,
        0.0072998953983187675,
        -0.0030537003185600042,
        0.012149453163146973,
        0.046280089765787125,
        -0.08272331953048706,
        0.055810797959566116,
        -0.048273053020238876
      ],
      [
        0.06472763419151306,
        -0.015107379294931889,
        0.050627436488866806,
        -0.023207155987620354,
        0.04697723686695099,
        0.044460173696279526,
        -0.0015043906169012189,
        0.0856076180934906,
        0.02959800697863102,
        -0.030474422499537468,
        -0.05752643942832947,
        0.006467015016824007,
        -0.04742742329835892,
        0.05161193758249283,
        0.10790570080280304,
        -0.05854268744587898,
        0.026337899267673492,
        -0.12166667729616165,
        0.06862065941095352,
        0.006479831412434578,
        0.09946519881486893,
        -0.04797157645225525,
        -0.09993702173233032,
        0.10622704029083252,
        0.08977848291397095,
        -0.026237964630126953,
        -0.02853832207620144,
        0.0015478639397770166,
        -0.05143357068300247,
        -0.08306878805160522,
        0.10670635849237442,
        0.10343721508979797,
        0.038008708506822586,
        -0.06817907094955444,
        0.02659890428185463,
        0.10175219923257828,
        0.03386152163147926,
        -0.0059481458738446236,
        -0.02209479548037052,
        0.052987486124038696,
        0.06669709831476212,
        0.0673166960477829,
        0.027627194300293922,
        0.01679270528256893,
        -0.028810471296310425,
        0.0941121056675911,
        -0.05387650430202484,
        -0.04882664233446121,
        0.09412985295057297,
        0.013195982202887535,
        0.04476470500230789,
        -0.015364761464297771,
        -0.09702728688716888,
        -0.07678372412919998,
        0.11172617226839066,
        0.12113246321678162,
        -0.019752854481339455,
        -0.014620165340602398,
        0.1516815721988678,
        0.018166877329349518,
        0.04516652226448059,
        -0.04295581579208374,
        0.08977319300174713,
        0.05695141479372978,
        0.116399385035038,
        0.09026335179805756,
        0.04597441479563713,
        0.06660222262144089,
        -0.0146475899964571,
        -0.018285708501935005,
        0.11955757439136505,
        0.009407046250998974,
        -0.0020166703034192324,
        0.05939207598567009,
        -0.04734658822417259,
        0.07499663531780243,
        -0.01676793023943901,
        0.05791224166750908,
        0.1008366197347641,
        -0.07195369154214859,
        -0.10815414786338806,
        -0.0024274629540741444,
        0.07126852869987488,
        0.10737600922584534,
        -0.09869802743196487,
        -0.07207610458135605,
        0.03444569185376167,
        -0.07102358341217041,
        -0.03931906074285507,
        0.020558422431349754,
        -0.007899988442659378,
        -0.01337088830769062,
        0.02747565321624279,
        0.013759434223175049,
        0.11282557249069214,
        -0.012732514180243015,
        -0.000397596595576033,
        -0.04918503016233444,
        -0.05886569246649742,
        0.018349692225456238,
        0.10365317016839981,
        0.003078448586165905,
        -0.07475468516349792,
        0.11042830348014832,
        0.06782666593790054,
        -0.022124439477920532,
        -0.10561806708574295,
        -0.028757035732269287,
        0.11678018420934677,
        0.0017064223065972328,
        -0.0012463543098419905,
        0.05335449427366257,
        -0.044215843081474304,
        -0.061361417174339294,
        0.08990029245615005,
        -0.022456582635641098,
        -0.12213460355997086,
        0.042069558054208755,
        0.0738505944609642,
        -0.1296154260635376,
        0.013859068974852562,
        -0.11501285433769226,
        0.02810269221663475,
        0.04352056235074997,
        0.02425827831029892,
        0.03459919989109039,
        0.07835742831230164,
        -0.0370953306555748
      ],
      [
        0.01665506698191166,
        -0.04175153002142906,
        -0.02099553868174553,
        0.06793417036533356,
        0.05064098909497261,
        0.04185895621776581,
        0.02141457423567772,
        -0.03445211425423622,
        -0.013260836713016033,
        -0.03434243053197861,
        0.06321144849061966,
        -0.0036374300252646208,
        0.01583072729408741,
        0.047723762691020966,
        0.013009457848966122,
        -0.0617712028324604,
        0.05915828421711922,
        0.013394697569310665,
        0.10054846853017807,
        -0.08366315066814423,
        0.11405590921640396,
        0.015231569297611713,
        -0.11706326901912689,
        0.014216995798051357,
        -0.046459879726171494,
        0.04197893291711807,
        -0.07973763346672058,
        0.01600262150168419,
        0.06288423389196396,
        -0.02143627218902111,
        0.0604654923081398,
        0.004937129560858011,
        0.055402036756277084,
        0.07268606126308441,
        0.04827576503157616,
        0.04950758442282677,
        0.07446110248565674,
        -0.07657545059919357,
        0.021180445328354836,
        -0.045553676784038544,
        -0.0447414293885231,
        -0.09307984262704849,
        -0.03188168630003929,
        0.017277279868721962,
        -0.008992617018520832,
        0.041030850261449814,
        -0.06218918785452843,
        -0.1015162542462349,
        -0.06182260438799858,
        0.028669871389865875,
        0.09350075572729111,
        0.060698118060827255,
        -0.06493695080280304,
        0.017600690945982933,
        0.1057220846414566,
        -0.0387827605009079,
        -0.09512900561094284,
        -0.04850536957383156,
        0.1128961518406868,
        -0.06581031531095505,
        -0.0723365917801857,
        0.057474881410598755,
        0.10132566839456558,
        0.08897588402032852,
        -0.04244973137974739,
        0.09906516969203949,
        0.062274642288684845,
        0.011791182681918144,
        -0.10202225297689438,
        -0.0997190922498703,
        -0.01695651188492775,
        -0.11301799863576889,
        0.05455521121621132,
        0.09490837156772614,
        0.02302037738263607,
        0.041503872722387314,
        -0.0162152498960495,
        0.03071136586368084,
        0.10501682013273239,
        0.052420295774936676,
        0.0307749155908823,
        -0.031027067452669144,
        0.07916512340307236,
        0.0008684888016432524,
        -0.03738826885819435,
        0.03619082272052765,
        0.01476911548525095,
        -0.03446831926703453,
        0.03818482905626297,
        0.01564767025411129,
        -0.08183103054761887,
        0.07051240652799606,
        0.04754025116562843,
        -0.04018160700798035,
        -0.03046322800219059,
        -0.05035100504755974,
        -0.06958166509866714,
        0.034044329077005386,
        -0.05539511516690254,
        0.04970114305615425,
        0.03598601743578911,
        -0.0566163994371891,
        -0.031248290091753006,
        0.07152176648378372,
        -0.09638965129852295,
        -0.026229558512568474,
        -0.13385413587093353,
        -0.07514553517103195,
        -0.002333360956981778,
        0.003867184976115823,
        -0.052671559154987335,
        0.12041720002889633,
        -0.13176943361759186,
        -0.06203141063451767,
        0.0771661177277565,
        -0.0025600919034332037,
        0.018397487699985504,
        -0.0033626281656324863,
        0.05953989550471306,
        0.018345313146710396,
        -0.03224681317806244,
        -0.10227921605110168,
        0.07046665996313095,
        0.10002083331346512,
        -0.0325264111161232,
        0.10314706712961197,
        -0.07741004973649979,
        0.11523383855819702
      ],
      [
        -0.06108975410461426,
        0.00998260360211134,
        -0.0687752366065979,
        -0.05406881123781204,
        -0.04208800941705704,
        0.030841710045933723,
        0.011469422839581966,
        -0.001345851575024426,
        -0.07534606009721756,
        -0.08352090418338776,
        -0.01103642676025629,
        0.023706279695034027,
        -0.0783604085445404,
        0.0739712044596672,
        -0.052524104714393616,
        0.0695619210600853,
        -0.03226115554571152,
        0.08496216684579849,
        -0.0754832923412323,
        0.0494566448032856,
        -0.06538640707731247,
        0.032920513302087784,
        0.09567927569150925,
        -0.020303351804614067,
        -0.028315724804997444,
        -0.008068490773439407,
        -0.04437144473195076,
        -0.10166370868682861,
        0.0004058650811202824,
        0.02670535258948803,
        0.03341149538755417,
        -0.05976494401693344,
        0.00030296563636511564,
        0.027685774490237236,
        -0.02320524863898754,
        -0.05386214703321457,
        0.035003796219825745,
        0.08968677371740341,
        -0.02655669115483761,
        -0.056974150240421295,
        -0.009352068416774273,
        0.08482390642166138,
        0.0874733105301857,
        -0.032117415219545364,
        0.06944801658391953,
        0.07694561034440994,
        0.12507076561450958,
        0.042772140353918076,
        -0.08637607842683792,
        -0.022241957485675812,
        -0.028998877853155136,
        -0.05718933418393135,
        -0.04000864923000336,
        -0.01741594262421131,
        0.05050934851169586,
        0.006765370722860098,
        0.003421106608584523,
        -0.0004276595136616379,
        -0.1333547681570053,
        0.030901188030838966,
        0.007931174710392952,
        -0.0723024383187294,
        -0.11972341686487198,
        -0.11351632326841354,
        -0.01026597898453474,
        0.01851002313196659,
        0.003925123251974583,
        -0.058512117713689804,
        0.06574591249227524,
        -0.011216036975383759,
        0.005802002735435963,
        -0.01373207475990057,
        -0.06553288549184799,
        -0.08783870935440063,
        0.02363285794854164,
        -0.03599371016025543,
        0.006835076957941055,
        0.05695974454283714,
        -0.015862755477428436,
        0.03685453534126282,
        0.0914759486913681,
        0.01779756136238575,
        -0.11230871826410294,
        -0.03948642686009407,
        0.0023667949717491865,
        0.10330794751644135,
        -0.058418430387973785,
        0.04282630980014801,
        0.017352556809782982,
        0.04204217344522476,
        0.12899570167064667,
        -0.03435535356402397,
        -0.028534671291708946,
        -0.09299636632204056,
        -0.07467110455036163,
        0.0713558942079544,
        0.02138376049697399,
        -0.062152475118637085,
        -0.02015126496553421,
        -0.04803526774048805,
        -0.05332918092608452,
        0.0110953813418746,
        -0.031182797625660896,
        -0.10149165242910385,
        0.0185767263174057,
        -0.038133054971694946,
        0.04236369580030441,
        0.026268551126122475,
        -0.04370035231113434,
        0.01020774245262146,
        -0.0030834274366497993,
        0.025518573820590973,
        0.12102354317903519,
        -0.04170423001050949,
        -0.11069875210523605,
        0.015158007852733135,
        0.07224735617637634,
        0.004999857861548662,
        0.07520247250795364,
        0.10251635313034058,
        -0.02398865669965744,
        0.09623707830905914,
        0.07931003719568253,
        -0.07135549187660217,
        -0.026672478765249252,
        -0.058676015585660934,
        -0.006477524526417255,
        -0.10638027638196945
      ],
      [
        -0.04933460056781769,
        0.08396998047828674,
        -0.026866616681218147,
        -0.076353520154953,
        0.07691152393817902,
        -0.018223006278276443,
        0.038769613951444626,
        -0.008535808883607388,
        0.010569428093731403,
        0.06350796669721603,
        -0.08214738219976425,
        -0.036410413682460785,
        -0.011228798888623714,
        0.052663180977106094,
        0.050430092960596085,
        0.08040791749954224,
        -0.017901567742228508,
        -0.01322181522846222,
        -0.020961154252290726,
        -0.08274581283330917,
        -0.08525677025318146,
        -0.0354548916220665,
        -0.030707065016031265,
        0.010904585011303425,
        -0.05813974142074585,
        -0.062411487102508545,
        0.05131829157471657,
        0.031189218163490295,
        -0.0860694870352745,
        0.02125578559935093,
        -0.03807207569479942,
        -0.059578120708465576,
        -0.05782785266637802,
        -0.06938066333532333,
        -0.033997129648923874,
        -0.009524821303784847,
        0.062241796404123306,
        0.026306919753551483,
        0.11004164814949036,
        0.08564480394124985,
        -0.02767069637775421,
        0.09748859703540802,
        -0.02919386513531208,
        0.06460791081190109,
        -0.059396836906671524,
        0.05376695096492767,
        -0.013178262859582901,
        0.0476318821310997,
        0.056468117982149124,
        -0.0026669534854590893,
        0.04728983715176582,
        0.04499245807528496,
        -0.007507705129683018,
        0.026228660717606544,
        0.04675539582967758,
        0.008024178445339203,
        0.08305347710847855,
        0.020198915153741837,
        0.04373600333929062,
        -0.015609774738550186,
        -0.0006627917755395174,
        0.03191698342561722,
        0.012010200880467892,
        0.03202623873949051,
        0.04674648120999336,
        0.014965271577239037,
        0.05616715922951698,
        -0.061069387942552567,
        0.042807240039110184,
        -0.012060715816915035,
        0.03315288946032524,
        0.02803216502070427,
        -0.031652096658945084,
        0.03313111513853073,
        0.01043175719678402,
        0.015405669808387756,
        -0.022307174280285835,
        -0.05538022145628929,
        0.019650673493742943,
        0.06674741953611374,
        0.053919438272714615,
        0.07463017851114273,
        0.05718572810292244,
        0.025966117158532143,
        0.0449259988963604,
        -0.022211682051420212,
        0.028202535584568977,
        -0.04559250921010971,
        -0.0713355541229248,
        0.10497323423624039,
        0.033688753843307495,
        0.05688297003507614,
        -0.03184497728943825,
        -0.06317071616649628,
        -0.010211433283984661,
        -0.011852598749101162,
        -0.04444659873843193,
        0.032519739121198654,
        -0.08103131502866745,
        -0.02704487554728985,
        -0.03809452801942825,
        -0.0580868162214756,
        0.007459651213139296,
        0.013486197218298912,
        -0.02586321532726288,
        -0.012652737088501453,
        -0.036156583577394485,
        0.08954788744449615,
        0.03189723938703537,
        0.04017160087823868,
        -0.04292640835046768,
        -0.07775671035051346,
        0.025337621569633484,
        -0.02071085199713707,
        0.009274427779018879,
        -0.006631731055676937,
        -0.0414925217628479,
        -0.07034201920032501,
        0.02977009303867817,
        0.087102971971035,
        0.067337766289711,
        -0.06885025650262833,
        -0.02643972635269165,
        -0.06446734815835953,
        -0.07099628448486328,
        -0.06378605216741562,
        0.005713742692023516,
        -0.10388387739658356
      ],
      [
        0.0820804014801979,
        0.05993887037038803,
        0.014783220365643501,
        0.035636402666568756,
        0.03425329178571701,
        0.08000417798757553,
        0.00041507952846586704,
        0.09073391556739807,
        0.005767587572336197,
        0.006724492646753788,
        0.06347980350255966,
        0.01942659728229046,
        0.05098649114370346,
        0.004714395850896835,
        -0.04083313047885895,
        0.0847909078001976,
        0.05255958065390587,
        -0.0437997542321682,
        0.05932961404323578,
        -0.05248375982046127,
        0.03395027294754982,
        -0.09736434370279312,
        0.03796888142824173,
        0.05727618932723999,
        -0.048326171934604645,
        0.035190649330616,
        -0.00025237229419872165,
        -0.013714532367885113,
        0.0914454311132431,
        -0.004927776753902435,
        -0.06322626769542694,
        -0.04458490014076233,
        -0.007125121541321278,
        -0.04940180853009224,
        -0.050612255930900574,
        -0.03483619540929794,
        0.07034652680158615,
        -0.05264916643500328,
        -0.057803504168987274,
        -0.022443531081080437,
        0.013895288109779358,
        -0.028398355469107628,
        -0.11029994487762451,
        -0.05466093495488167,
        -0.07051153481006622,
        0.02145812101662159,
        -0.038281045854091644,
        0.0818246379494667,
        0.03448875993490219,
        -0.002915930701419711,
        0.10205388814210892,
        0.021710682660341263,
        -0.05318974331021309,
        0.06687451153993607,
        -0.017234716564416885,
        -0.08050435781478882,
        0.07691335678100586,
        0.09572701156139374,
        0.06932641565799713,
        -0.020900754258036613,
        0.0895177349448204,
        0.057634387165308,
        0.011988833546638489,
        0.04735125973820686,
        0.06148330494761467,
        -0.0344349704682827,
        -0.02667953632771969,
        0.0741846039891243,
        0.025191834196448326,
        -0.036670953035354614,
        0.025121942162513733,
        -0.02822086773812771,
        0.0839364305138588,
        0.08568205684423447,
        -0.08451193571090698,
        -0.07806240022182465,
        -0.05805359408259392,
        -0.011357520706951618,
        0.012121614068746567,
        -0.05097101628780365,
        0.021564725786447525,
        -0.08331514894962311,
        0.0802820548415184,
        0.001088392804376781,
        0.00461147865280509,
        0.021895721554756165,
        -0.016605546697974205,
        -0.049502696841955185,
        -0.02542622573673725,
        0.07391376793384552,
        -0.05666216462850571,
        -0.0038256121333688498,
        -0.07590493559837341,
        -0.0633222833275795,
        0.017853330820798874,
        0.02206302247941494,
        -0.06173192337155342,
        0.02265772596001625,
        0.08350156247615814,
        0.0828179121017456,
        -0.0005299852346070111,
        0.0966494232416153,
        0.08631297200918198,
        0.07470843195915222,
        0.06325672566890717,
        0.00985395722091198,
        -0.0641079992055893,
        0.07492684572935104,
        0.027140483260154724,
        0.011815141886472702,
        0.00795974675565958,
        0.005521354731172323,
        -0.1011900007724762,
        -0.04483020678162575,
        -0.03298768401145935,
        -0.014274436049163342,
        0.03723018243908882,
        -0.04365584999322891,
        0.009109385311603546,
        -0.07525256276130676,
        -0.021722380071878433,
        -0.0008474395144730806,
        0.03773019462823868,
        0.10913018137216568,
        -0.02828129753470421,
        0.10642752051353455,
        -0.06875034421682358,
        0.035817600786685944
      ],
      [
        0.040853630751371384,
        0.0920821875333786,
        0.08691931515932083,
        -0.03959967568516731,
        0.045228466391563416,
        -0.020910656079649925,
        -0.0839039608836174,
        -0.03696789965033531,
        -0.08396357297897339,
        0.11644738167524338,
        0.06471625715494156,
        -0.0646037831902504,
        0.06448958814144135,
        0.08889676630496979,
        0.009242916479706764,
        0.06274906545877457,
        0.12367669492959976,
        -0.003959020134061575,
        0.005562444217503071,
        0.06986582279205322,
        0.050819963216781616,
        0.022509265691041946,
        -0.1080215573310852,
        0.04712095111608505,
        0.0596061572432518,
        -0.03934861719608307,
        -0.06645243614912033,
        -0.001961900619789958,
        0.04685647785663605,
        -0.03970503807067871,
        0.01962198317050934,
        -0.037126801908016205,
        -0.038314301520586014,
        -0.031027769669890404,
        -0.035408634692430496,
        0.08032292127609253,
        0.005884306039661169,
        -0.07551731914281845,
        0.026705525815486908,
        0.09141530096530914,
        -0.054840411990880966,
        -0.044394828379154205,
        -0.09162145107984543,
        -0.08508431911468506,
        0.017093976959586143,
        0.0672348216176033,
        0.021442096680402756,
        -0.07755599915981293,
        0.09259520471096039,
        0.014300882816314697,
        -0.04167776182293892,
        0.04853956028819084,
        0.04084691405296326,
        -0.020488422363996506,
        -0.05197731405496597,
        0.06544423848390579,
        -0.04857669770717621,
        -0.0290742889046669,
        0.03523537144064903,
        -0.0002811936428770423,
        0.019617144018411636,
        0.05709206312894821,
        0.07182177156209946,
        0.036760665476322174,
        -0.019333185628056526,
        -0.01232342142611742,
        0.05453957989811897,
        0.059053320437669754,
        0.03275733441114426,
        -0.046867866069078445,
        0.04292141646146774,
        -0.12474720180034637,
        -0.014894576743245125,
        -0.02175735868513584,
        -0.0932576134800911,
        0.06274774670600891,
        0.07694768160581589,
        0.06155171990394592,
        0.08222513645887375,
        0.056686531752347946,
        -0.08812583982944489,
        0.07639699429273605,
        -0.03483085706830025,
        0.04823670536279678,
        -0.09086089581251144,
        0.004509146325290203,
        -0.020618826150894165,
        0.03856184333562851,
        0.04096550494432449,
        0.057591762393713,
        -0.057795073837041855,
        -0.07087814807891846,
        -0.10346744954586029,
        -0.08238808065652847,
        0.011958116665482521,
        0.054128289222717285,
        0.009617580100893974,
        0.007697317749261856,
        0.04958929494023323,
        -0.08027812838554382,
        0.021535996347665787,
        0.03668947145342827,
        -0.0796399712562561,
        -0.02317654900252819,
        0.06367442011833191,
        -0.0318717397749424,
        -0.13391780853271484,
        0.07642966508865356,
        0.04634016752243042,
        0.00855154450982809,
        0.02402227558195591,
        0.06988033652305603,
        0.012783989310264587,
        0.04383764788508415,
        -0.02486100047826767,
        0.044344786554574966,
        -0.11160127818584442,
        0.05696875974535942,
        -0.057665351778268814,
        -0.07261361181735992,
        0.016818761825561523,
        -0.03393496572971344,
        0.05027143284678459,
        -0.030490955337882042,
        -0.10044726729393005,
        0.10541591048240662,
        -0.06895887851715088,
        -0.027560148388147354
      ],
      [
        -0.01047460176050663,
        0.010203978978097439,
        -0.03727215528488159,
        -0.024282600730657578,
        0.026350846514105797,
        0.03542429581284523,
        0.01714525930583477,
        0.031623393297195435,
        0.02965019829571247,
        -0.040410637855529785,
        -0.022578882053494453,
        -0.0077196406200528145,
        0.035906411707401276,
        0.058834537863731384,
        0.09017571806907654,
        -0.04743267968297005,
        0.044490281492471695,
        -0.013368586078286171,
        -0.010350966826081276,
        0.06133740022778511,
        0.08817392587661743,
        0.00477857980877161,
        -0.07652994990348816,
        0.08333458006381989,
        0.07468241453170776,
        -0.02345617115497589,
        -0.04471331462264061,
        0.09520560503005981,
        -0.09091366082429886,
        -0.00882513727992773,
        0.03859874606132507,
        0.01829800382256508,
        -0.06164617836475372,
        -0.03502373769879341,
        -0.032051704823970795,
        0.04591448977589607,
        0.0512186698615551,
        -0.0430205762386322,
        0.06885723024606705,
        0.030439458787441254,
        -0.02776228077709675,
        0.06019768863916397,
        -0.05630762502551079,
        -0.07512891292572021,
        -0.07068711519241333,
        -0.02923687733709812,
        -0.05832115560770035,
        0.01812898926436901,
        -0.07067081332206726,
        0.12695841491222382,
        -0.0017051117029041052,
        0.01459512859582901,
        -0.03935597091913223,
        -0.020709333941340446,
        -0.0472223125398159,
        0.026758775115013123,
        0.05103519558906555,
        0.05056874454021454,
        0.08560162037611008,
        -0.05783729627728462,
        0.0415341816842556,
        -0.010596325621008873,
        -0.017474278807640076,
        -0.004280085675418377,
        -0.0438084714114666,
        -0.012681487947702408,
        0.07987027615308762,
        -0.011286940425634384,
        -0.063043013215065,
        0.04454435408115387,
        -0.012296187691390514,
        0.0323694683611393,
        0.07880110293626785,
        0.065370574593544,
        0.04024077579379082,
        0.0662498027086258,
        0.028878454118967056,
        -0.07925479859113693,
        -0.02954193204641342,
        0.00817834958434105,
        -0.02676454186439514,
        0.023815177381038666,
        0.05755721777677536,
        0.00812689308077097,
        0.04687272757291794,
        -0.12692347168922424,
        0.03605975583195686,
        -0.09856803715229034,
        0.05498690530657768,
        0.07237812131643295,
        -0.05303332954645157,
        -0.01133835967630148,
        0.007391609717160463,
        -0.02210043929517269,
        0.07781966030597687,
        -0.08022036403417587,
        -0.02220110222697258,
        -0.024874622002243996,
        -0.11033447831869125,
        -0.01722700148820877,
        0.0028872359544038773,
        -0.018121860921382904,
        0.09482212364673615,
        0.022384515032172203,
        0.031883418560028076,
        -0.03162429481744766,
        -0.06991852819919586,
        -0.009245125576853752,
        -0.013255791738629341,
        -0.06707020103931427,
        -0.0184271689504385,
        0.027489405125379562,
        -0.07213239371776581,
        -0.03605029359459877,
        -0.05462796241044998,
        -0.05570915341377258,
        -0.10919149219989777,
        -0.05143670737743378,
        -0.012837001122534275,
        -0.05888401344418526,
        0.06833364814519882,
        -0.014934792183339596,
        -0.057702209800481796,
        -0.07164312899112701,
        -0.05469038337469101,
        0.04192792996764183,
        -0.07865676283836365,
        -0.00537378154695034
      ],
      [
        -0.027037478983402252,
        0.058965831995010376,
        -0.034653231501579285,
        -0.07219742238521576,
        -0.08282189816236496,
        -0.029020562767982483,
        0.053158920258283615,
        0.028522934764623642,
        0.017439384013414383,
        -0.08963527530431747,
        -0.012096572667360306,
        -0.03528542071580887,
        0.06707798689603806,
        -0.05661650374531746,
        0.017917439341545105,
        0.020204804837703705,
        -0.1242971122264862,
        0.07808925956487656,
        0.0013931510038673878,
        0.04250766336917877,
        0.07662151753902435,
        -0.01163831353187561,
        -0.04581451416015625,
        -0.0465582013130188,
        -0.10392613708972931,
        0.03050270676612854,
        0.04087512195110321,
        -0.07560694962739944,
        -0.016742466017603874,
        0.07275695353746414,
        -0.024575944989919662,
        0.025263875722885132,
        -0.011521700769662857,
        0.028531789779663086,
        -0.01825290359556675,
        -0.06387925148010254,
        0.05060293525457382,
        -0.01153885293751955,
        0.01894380897283554,
        -0.0950891524553299,
        0.005356416571885347,
        0.052434418350458145,
        -0.03514261543750763,
        0.11512011289596558,
        0.021606236696243286,
        0.09831155836582184,
        0.10211125016212463,
        0.040890295058488846,
        0.004961551632732153,
        0.01343995425850153,
        -0.0003903693286702037,
        -0.07709869742393494,
        0.04700465500354767,
        0.06388059258460999,
        -0.044052768498659134,
        -0.05786466598510742,
        0.05888035148382187,
        0.0636972188949585,
        -0.028111042454838753,
        -0.08526185154914856,
        -0.024072831496596336,
        -0.006280316971242428,
        0.033392589539289474,
        -0.12702888250350952,
        -0.08112484961748123,
        -0.004654328338801861,
        -0.03191733732819557,
        -0.020925136283040047,
        0.09496437013149261,
        0.1082361564040184,
        0.056312911212444305,
        -0.049943044781684875,
        0.05869900807738304,
        -0.07464267313480377,
        -0.03843727335333824,
        0.07136581093072891,
        -0.06197356805205345,
        -0.041973818093538284,
        0.009112900123000145,
        0.06615297496318817,
        0.02951885014772415,
        -0.10728359967470169,
        -0.06047055497765541,
        -0.07638824731111526,
        0.021996470168232918,
        0.11125067621469498,
        0.06894474476575851,
        0.021923772990703583,
        -0.05732905492186546,
        -0.06745816767215729,
        0.09046705812215805,
        0.01699533686041832,
        -0.014650441706180573,
        0.007727486081421375,
        -0.07954590022563934,
        -0.06439383327960968,
        0.1184048280119896,
        0.03496316820383072,
        -0.0020062115509063005,
        0.03979362174868584,
        -0.05119520425796509,
        0.039495158940553665,
        0.008372880518436432,
        -0.07260730117559433,
        -0.012838734313845634,
        0.0008803685777820647,
        0.0975494459271431,
        -0.012967966496944427,
        -0.08654335886240005,
        -0.04050328582525253,
        -0.03560105338692665,
        0.020541541278362274,
        0.09219634532928467,
        0.0770801454782486,
        0.03475871682167053,
        -0.022323425859212875,
        -0.032619908452034,
        -0.05851220712065697,
        0.0028310175985097885,
        0.1221318319439888,
        0.004701821133494377,
        0.06776239722967148,
        0.03686187416315079,
        -0.10452044755220413,
        0.01321842148900032,
        -0.09482669830322266,
        -0.04815327376127243,
        0.031987257301807404
      ],
      [
        0.08515864610671997,
        0.013946947641670704,
        -0.011142870411276817,
        0.033282388001680374,
        -0.06097593158483505,
        -0.10366394370794296,
        0.0068598478101193905,
        0.036688465625047684,
        0.021523522213101387,
        0.1295645385980606,
        0.05475869029760361,
        -0.023294547572731972,
        0.07284089177846909,
        -0.07135733962059021,
        0.07444337755441666,
        -0.07746188342571259,
        0.027071787044405937,
        0.0072946688160300255,
        0.04024792090058327,
        -0.06872821599245071,
        0.059092190116643906,
        0.046289168298244476,
        0.0032312984112650156,
        0.07033467292785645,
        -0.025057917460799217,
        0.05073142051696777,
        -0.05962974205613136,
        0.025127746164798737,
        0.004383844323456287,
        -0.06624952703714371,
        0.04912964627146721,
        0.014056473970413208,
        -0.051043394953012466,
        -0.08396036177873611,
        0.07983582466840744,
        0.10739792138338089,
        0.08664025366306305,
        0.08077246695756912,
        -0.08968863636255264,
        0.0821494609117508,
        0.0787900984287262,
        0.037280306220054626,
        -0.00014968370669521391,
        0.0075078909285366535,
        0.05631808191537857,
        0.012663745321333408,
        -0.11465748399496078,
        -0.00136614590883255,
        -0.06547796726226807,
        0.09798247367143631,
        0.11509208381175995,
        -0.03209678828716278,
        0.060590486973524094,
        -0.020853865891695023,
        -0.03659868985414505,
        0.0660412386059761,
        0.07169194519519806,
        0.11745142191648483,
        0.10373906046152115,
        0.06424695998430252,
        0.05429861322045326,
        0.06846768409013748,
        -0.026454197242856026,
        0.021948175504803658,
        0.04824455454945564,
        0.0858178585767746,
        -0.00848646555095911,
        0.08459749817848206,
        -0.11670888960361481,
        -0.08818688243627548,
        0.06747009605169296,
        -0.014554312452673912,
        0.016891740262508392,
        0.03602597862482071,
        0.04535539820790291,
        -0.01901857927441597,
        0.0895908921957016,
        0.07288828492164612,
        0.0011413743486627936,
        -0.06834972649812698,
        -0.012204423546791077,
        0.047160111367702484,
        0.0763697698712349,
        -0.051470812410116196,
        -0.0328596867620945,
        -0.05501224845647812,
        0.044166624546051025,
        -0.04438456520438194,
        0.09269031882286072,
        -0.026805613189935684,
        0.008702237159013748,
        -0.07862041145563126,
        0.06439744681119919,
        0.018571771681308746,
        0.00024948513600975275,
        0.03445516526699066,
        -0.05430631712079048,
        -0.06270203739404678,
        -0.056731585413217545,
        0.0748448595404625,
        0.09048473089933395,
        0.0075130341574549675,
        -0.001119552762247622,
        -0.0006314491620287299,
        -0.04992728680372238,
        -0.09701857715845108,
        -0.12982115149497986,
        0.008078605867922306,
        0.11477488279342651,
        -0.028500504791736603,
        -0.05741358920931816,
        0.006083660759031773,
        0.013590388931334019,
        0.028845500200986862,
        0.04788786172866821,
        -0.084383025765419,
        -0.06667865067720413,
        0.08615119755268097,
        -0.017513124272227287,
        -0.09504076838493347,
        -0.05121630057692528,
        0.013038618490099907,
        0.025385260581970215,
        0.018602989614009857,
        0.038102924823760986,
        0.1064358651638031,
        0.03757263347506523,
        0.09604066610336304
      ],
      [
        -0.028003891929984093,
        -0.055808018893003464,
        -0.046891480684280396,
        0.03554431349039078,
        -0.09215525537729263,
        -0.0068617574870586395,
        -0.07856235653162003,
        0.008956328965723515,
        0.03293033316731453,
        -0.049410928040742874,
        0.05168461799621582,
        0.031140560284256935,
        0.08839956670999527,
        0.0880267471075058,
        0.0736963152885437,
        0.03818278759717941,
        0.005644720047712326,
        0.08045336604118347,
        -0.07160204648971558,
        0.08676877617835999,
        0.0880165845155716,
        0.06054525822401047,
        -0.006026296876370907,
        0.0001780743186827749,
        0.023909255862236023,
        0.02025746740400791,
        0.08401328325271606,
        0.010268956422805786,
        0.037575725466012955,
        -0.000940798781812191,
        -0.0907893180847168,
        -0.05338100343942642,
        -0.055663105100393295,
        -0.05636747553944588,
        -0.05701499804854393,
        -0.0024031084030866623,
        0.037567298859357834,
        0.036546915769577026,
        0.020512951537966728,
        -0.0749010220170021,
        0.06064072251319885,
        0.055718038231134415,
        0.06491243094205856,
        -0.03778336942195892,
        0.01957433857023716,
        0.0376691035926342,
        -0.040805596858263016,
        0.017332345247268677,
        0.004361666273325682,
        -0.09624039381742477,
        -0.026662955060601234,
        0.06609880924224854,
        0.01784456893801689,
        0.01770097203552723,
        0.03749224171042442,
        0.028940066695213318,
        0.01086342241615057,
        -0.035433411598205566,
        0.004923241212964058,
        -0.0483505055308342,
        -0.08232566714286804,
        -0.046862825751304626,
        -0.020602069795131683,
        -0.06890016049146652,
        -0.06842850893735886,
        0.10186336934566498,
        -0.01645444892346859,
        0.018505750223994255,
        -0.07691923528909683,
        0.01896262913942337,
        0.08994325995445251,
        0.0795450434088707,
        -0.09769347310066223,
        -0.006850762292742729,
        0.047627102583646774,
        0.097078837454319,
        0.06392475217580795,
        -0.10237640887498856,
        -0.05959096923470497,
        -0.06888405233621597,
        0.059628795832395554,
        -0.09587060660123825,
        -0.0034207780845463276,
        0.07332776486873627,
        -0.0013103913515806198,
        -0.034864578396081924,
        0.025714507326483727,
        -0.00981278158724308,
        0.06859195232391357,
        -0.079427570104599,
        0.04771455377340317,
        -0.013865465298295021,
        -0.04639912396669388,
        0.0023568393662571907,
        -0.07411221414804459,
        0.055953361093997955,
        0.03835019841790199,
        -0.07856148481369019,
        0.024508479982614517,
        -0.03261888027191162,
        -0.01348531898111105,
        -0.10059095919132233,
        -0.08060520142316818,
        -0.0801730528473854,
        0.03904229402542114,
        -0.01660730130970478,
        0.013602020218968391,
        -0.10902438312768936,
        -0.04964414983987808,
        -0.07398637384176254,
        -0.010405954904854298,
        -0.058123502880334854,
        0.06614013761281967,
        -0.034990761429071426,
        0.013105064630508423,
        0.057929083704948425,
        -0.05085306242108345,
        0.09839210659265518,
        -0.05605528876185417,
        -0.007143810391426086,
        -0.10179685056209564,
        -0.005053348373621702,
        0.10895802080631256,
        0.07082287222146988,
        0.029383700340986252,
        -0.030717335641384125,
        0.07004033774137497,
        -0.05113817751407623
      ],
      [
        0.04238390922546387,
        -0.0776028037071228,
        -0.05137801915407181,
        0.09970936924219131,
        -0.08852345496416092,
        -0.03924128785729408,
        -0.011355863884091377,
        -0.026026612147688866,
        0.03330974653363228,
        -0.041300591081380844,
        -0.013746834360063076,
        0.11152911931276321,
        0.08448247611522675,
        -0.04002726450562477,
        0.028636638075113297,
        -0.09298861026763916,
        0.07218144088983536,
        0.001943013397976756,
        -0.01454690471291542,
        0.10312309861183167,
        0.08024473488330841,
        0.0026333800051361322,
        -0.018412647768855095,
        0.039056528359651566,
        -0.07654283940792084,
        0.032619379460811615,
        -0.0030335132032632828,
        -0.0793704017996788,
        0.07020380347967148,
        -0.031248927116394043,
        -0.0013627521693706512,
        -0.02664562128484249,
        0.03901752829551697,
        0.06900956481695175,
        0.03599020093679428,
        0.012813260778784752,
        -0.012645894661545753,
        -0.04447152465581894,
        -0.10890688747167587,
        -0.04926039278507233,
        -0.09324057400226593,
        -0.04423933103680611,
        0.04876444488763809,
        -0.11576738208532333,
        -0.03482113778591156,
        0.07307659089565277,
        -0.06837420165538788,
        0.004102602135390043,
        0.012961389496922493,
        -0.06409208476543427,
        0.01026136800646782,
        -0.04813919588923454,
        -0.08236517757177353,
        0.044227782636880875,
        0.017905615270137787,
        0.06454998254776001,
        -0.02765670232474804,
        -0.02514748089015484,
        0.0513308010995388,
        0.012031001038849354,
        -0.03132728859782219,
        0.03473654016852379,
        0.07441779971122742,
        0.08873771131038666,
        0.031613122671842575,
        0.014856550842523575,
        -0.07867330312728882,
        0.0004983638064004481,
        -0.08016984909772873,
        -0.04481519013643265,
        -0.035210710018873215,
        -0.00854205060750246,
        -0.07334155589342117,
        0.04011378437280655,
        -0.0005206248024478555,
        0.09509462863206863,
        -0.0007509569986723363,
        0.037206344306468964,
        -0.02283838950097561,
        -0.0466448999941349,
        -0.024948326870799065,
        -0.05228062719106674,
        -0.07502510398626328,
        -0.04444355517625809,
        -0.08245384693145752,
        0.0421149879693985,
        -0.03552224487066269,
        0.006275310646742582,
        0.05858573317527771,
        -0.008439944125711918,
        -0.007900158874690533,
        -0.0373438261449337,
        -0.018594518303871155,
        -0.006493348628282547,
        -0.07589629292488098,
        0.013309873640537262,
        -0.00018056484987027943,
        -0.09532002359628677,
        0.09483611583709717,
        -0.09548790752887726,
        -0.004759648349136114,
        -0.01633882150053978,
        0.03595907986164093,
        -0.00275017274543643,
        0.0041255708783864975,
        0.03961498290300369,
        0.07219225913286209,
        -0.02800567075610161,
        -0.0090864859521389,
        -0.10025393217802048,
        0.012185921892523766,
        -0.029430260881781578,
        0.033394113183021545,
        0.028490571305155754,
        0.024863237515091896,
        -0.08860435336828232,
        -0.11390583217144012,
        -0.011259090155363083,
        -0.008781921118497849,
        0.04817147180438042,
        -0.02120290696620941,
        -0.011414747685194016,
        -0.03194374218583107,
        -0.029431182891130447,
        0.03579453378915787,
        -0.016375554725527763,
        0.08939515054225922,
        -0.024414632469415665
      ],
      [
        -0.11311511695384979,
        0.005106364842504263,
        0.011911578476428986,
        0.1077735498547554,
        -0.08905402570962906,
        0.058237671852111816,
        0.023712115362286568,
        -0.03517376631498337,
        -0.024872172623872757,
        -0.0019468343816697598,
        0.031456109136343,
        0.00841954443603754,
        0.019936498254537582,
        0.05870511755347252,
        -0.008654803037643433,
        0.028022481128573418,
        -0.07098367810249329,
        0.05629679933190346,
        0.01769920252263546,
        0.04292282089591026,
        -0.057215772569179535,
        -0.060525283217430115,
        0.016708597540855408,
        0.06659730523824692,
        0.04341385141015053,
        -0.0002545051684137434,
        0.03547535091638565,
        -0.0755886361002922,
        -0.02841695211827755,
        0.016988232731819153,
        0.010641241446137428,
        0.03431064262986183,
        0.0628531351685524,
        -0.07947886735200882,
        0.015164953656494617,
        -0.034047625958919525,
        -0.049233969300985336,
        -0.08449706435203552,
        0.030947232618927956,
        -0.08183801174163818,
        0.00930347852408886,
        0.07914654165506363,
        -0.008777236565947533,
        0.07816140353679657,
        -0.06229536607861519,
        -0.020232627168297768,
        0.11281721293926239,
        0.04806821420788765,
        0.023297730833292007,
        -0.09399963170289993,
        0.0610881932079792,
        -0.05966322496533394,
        0.0770706832408905,
        -0.08007046580314636,
        -0.08248831331729889,
        0.027634860947728157,
        0.057955607771873474,
        -0.09333766996860504,
        -0.013463587500154972,
        -0.0045242891646921635,
        0.022358201444149017,
        0.009807842783629894,
        -0.039218395948410034,
        -0.010278545320034027,
        -0.0916961282491684,
        0.04401019588112831,
        -0.03007587045431137,
        -0.08346083015203476,
        0.06809119135141373,
        0.1102868989109993,
        0.04425174742937088,
        0.09347550570964813,
        -0.09592978656291962,
        -0.03172402083873749,
        0.04844777658581734,
        -0.01796405203640461,
        0.03732026740908623,
        -0.02446959726512432,
        0.05914325267076492,
        -0.0018422025023028255,
        0.024745145812630653,
        -0.025750789791345596,
        -0.014651796780526638,
        0.05876113474369049,
        0.008414104580879211,
        -0.015425071120262146,
        0.019803069531917572,
        0.022474147379398346,
        -0.09995578974485397,
        0.0695432797074318,
        -0.024280758574604988,
        0.04924268275499344,
        -0.037625089287757874,
        -0.017895082011818886,
        0.0130756925791502,
        0.006154863629490137,
        -0.04901282861828804,
        -0.06374961137771606,
        0.06419355422258377,
        0.005462918896228075,
        0.0673571228981018,
        0.030632879585027695,
        0.021623678505420685,
        -0.04475611448287964,
        -0.0019955423194915056,
        -0.07321131229400635,
        -0.010519323870539665,
        -0.0760684683918953,
        -0.0963284969329834,
        -0.00033873680513352156,
        -0.04842216148972511,
        -0.006586713250726461,
        -0.04670843482017517,
        0.04340311139822006,
        0.008363124914467335,
        0.01285700872540474,
        0.03256050497293472,
        -0.056419022381305695,
        -0.08888863027095795,
        0.04989732801914215,
        -0.0073691923171281815,
        0.03765123337507248,
        0.02700014039874077,
        -0.07612451165914536,
        0.09209921956062317,
        -0.11499641090631485,
        0.08524292707443237,
        -0.1060783639550209
      ],
      [
        -0.10196373611688614,
        -0.013835038989782333,
        -0.07574903964996338,
        -0.06250327825546265,
        -0.05360640957951546,
        0.1045820564031601,
        -0.056593846529722214,
        0.01380365900695324,
        0.07486355304718018,
        0.008178581483662128,
        0.08814327418804169,
        0.006545286159962416,
        -0.10590281337499619,
        -0.06484004110097885,
        -0.01556861400604248,
        -0.024923767894506454,
        -0.044911060482263565,
        0.005521856248378754,
        -0.06615342944860458,
        -0.05129905417561531,
        -0.02505139634013176,
        -0.05230879411101341,
        -0.008040711283683777,
        0.012385770678520203,
        -0.005688541103154421,
        0.02516384981572628,
        -0.038072265684604645,
        0.0440245047211647,
        -0.022396724671125412,
        0.02075449749827385,
        -0.08134111016988754,
        -0.0057590072974562645,
        0.018032021820545197,
        0.012744124978780746,
        0.004021627828478813,
        -0.06087927520275116,
        -0.07760751247406006,
        -0.038290541619062424,
        -0.0003178608894813806,
        0.06778348982334137,
        0.019382264465093613,
        0.058568473905324936,
        0.10111009329557419,
        0.032269563525915146,
        -0.02539774589240551,
        0.060477666556835175,
        0.13116170465946198,
        0.021698758006095886,
        0.06598672270774841,
        0.004903340712189674,
        0.04877009987831116,
        0.0035162772983312607,
        0.08575695008039474,
        0.04778631776571274,
        0.023205256089568138,
        0.011351771652698517,
        0.06796150654554367,
        -0.041635025292634964,
        -0.07814587652683258,
        -0.03896647319197655,
        -0.018270665779709816,
        -0.021013187244534492,
        -0.1374562531709671,
        0.017110705375671387,
        0.046710312366485596,
        0.023000499233603477,
        0.014987046830356121,
        -0.09702686965465546,
        0.058517180383205414,
        0.04008670151233673,
        -0.028792284429073334,
        0.11800491064786911,
        0.0006448630592785776,
        -0.09993810951709747,
        0.06258945912122726,
        -0.08684983849525452,
        -0.0008208958897739649,
        0.06615281850099564,
        0.045591603964567184,
        -0.06409183144569397,
        0.10971009731292725,
        -0.06015660613775253,
        -0.0012783934362232685,
        -0.11151965707540512,
        0.09154026955366135,
        -0.02680448815226555,
        0.06909353286027908,
        0.08508001267910004,
        0.021245136857032776,
        -0.06095259264111519,
        -0.01523362472653389,
        -0.07195261120796204,
        0.020387127995491028,
        0.011741530150175095,
        -0.025139542296528816,
        0.0423516184091568,
        -0.011097881011664867,
        -0.03387744352221489,
        0.06258124113082886,
        0.08081357181072235,
        -0.054928332567214966,
        0.05698337033390999,
        -0.03178638219833374,
        0.016164785251021385,
        0.03322519361972809,
        0.07394031435251236,
        0.05538221076130867,
        0.03406744822859764,
        -0.005414786282926798,
        -0.007265683263540268,
        0.0070228190161287785,
        0.03348497301340103,
        -0.00010723654850153252,
        -0.002286517061293125,
        -0.1141427755355835,
        0.051923565566539764,
        0.03393123671412468,
        -0.0242933239787817,
        0.023515019565820694,
        0.12117455899715424,
        -0.011826673522591591,
        0.01186809130012989,
        0.016951637342572212,
        -0.047748714685440063,
        -0.05933248996734619,
        0.03596553951501846,
        0.06630299985408783,
        -0.1130739152431488
      ],
      [
        0.05917387455701828,
        0.051411062479019165,
        0.031178297474980354,
        -0.10146709531545639,
        0.014814617112278938,
        -0.05553703382611275,
        -0.06316354870796204,
        -0.048350024968385696,
        -0.08761955052614212,
        0.026304351165890694,
        -0.02931889332830906,
        -0.06334793567657471,
        -0.016487983986735344,
        0.04913268983364105,
        -0.0005027999286539853,
        -0.02589728683233261,
        0.06499674171209335,
        -0.056926216930150986,
        -0.10661985725164413,
        0.0371827557682991,
        -0.11269913613796234,
        -0.07973680645227432,
        0.07426787912845612,
        0.05727151781320572,
        0.08138318359851837,
        -0.057079389691352844,
        -0.09898916631937027,
        0.08068060874938965,
        -0.09340140968561172,
        -0.04715387895703316,
        0.019964376464486122,
        -0.05161004140973091,
        0.052403829991817474,
        0.0690898597240448,
        -0.0006815596716478467,
        0.009986016899347305,
        0.09907153248786926,
        -0.014614440500736237,
        -0.021684877574443817,
        0.011777996085584164,
        -0.012946643866598606,
        0.07406775653362274,
        0.02732672169804573,
        0.10986483842134476,
        -0.052935678511857986,
        -0.08421363681554794,
        -0.03336924687027931,
        0.07489887624979019,
        -0.07143707573413849,
        0.025040747597813606,
        0.06149359047412872,
        -0.00511079840362072,
        0.03601939231157303,
        -0.022242827340960503,
        0.05314391478896141,
        -0.013261252082884312,
        -0.055975452065467834,
        -0.09450792521238327,
        -0.08807455003261566,
        0.07964533567428589,
        -0.04174911975860596,
        -0.04178065061569214,
        -0.10687635838985443,
        -0.09689690917730331,
        -0.0975235179066658,
        0.042116548866033554,
        -0.03216433525085449,
        -0.11369598656892776,
        0.023752771317958832,
        -0.06255710124969482,
        -0.10311546176671982,
        -0.012965080328285694,
        -0.026494110003113747,
        -0.0953458622097969,
        -0.033723022788763046,
        -0.08164437115192413,
        0.013739450834691525,
        0.006272843573242426,
        -0.0968528613448143,
        0.038300592452287674,
        -0.06305482983589172,
        0.07681214064359665,
        -0.09164145588874817,
        -0.0923687219619751,
        0.004555197432637215,
        -0.022945376113057137,
        0.04309474304318428,
        -0.018630607053637505,
        -0.021484967321157455,
        0.09845250099897385,
        0.03115386702120304,
        0.06275173276662827,
        -0.08647918701171875,
        0.06714767962694168,
        0.029412006959319115,
        -0.005767219699919224,
        -0.013077513314783573,
        0.004469351377338171,
        -0.08517863601446152,
        0.0645047053694725,
        -0.014496758580207825,
        -0.02573656104505062,
        0.07234280556440353,
        -0.029113629832863808,
        -0.032984476536512375,
        0.07275106012821198,
        -0.05612020939588547,
        -0.0630684494972229,
        -0.11241146177053452,
        -0.013267597183585167,
        0.0809592679142952,
        -0.04048451781272888,
        0.03527887165546417,
        -0.07342220842838287,
        0.0028891596011817455,
        0.10217544436454773,
        0.08955977857112885,
        -0.028332745656371117,
        -0.044414881616830826,
        0.019171811640262604,
        -0.0273349117487669,
        0.007909667678177357,
        0.056813471019268036,
        -0.006474209018051624,
        0.013904313556849957,
        -0.09696590155363083,
        0.06923236697912216,
        -0.021511506289243698
      ],
      [
        0.04832212254405022,
        0.06201016157865524,
        -0.09802117198705673,
        -0.0752311646938324,
        0.07532204687595367,
        -0.010490952990949154,
        0.042497873306274414,
        -0.08453820645809174,
        0.043783463537693024,
        -0.09852594882249832,
        0.0204427782446146,
        0.08755896985530853,
        -0.06833804398775101,
        0.03877606615424156,
        0.042044661939144135,
        0.018319733440876007,
        -0.05851669982075691,
        0.06626327335834503,
        -0.06690268963575363,
        -0.08161807805299759,
        0.03446165472269058,
        -0.001935578417032957,
        0.11068166792392731,
        0.063874252140522,
        -0.018640216439962387,
        0.04289260506629944,
        -0.015010231174528599,
        -0.030906327068805695,
        -0.08065348863601685,
        0.0903516411781311,
        0.021350592374801636,
        -0.12679101526737213,
        0.044861022382974625,
        -0.023730909451842308,
        0.008431012742221355,
        -0.03852825239300728,
        -0.02150292880833149,
        -0.014606661163270473,
        -0.002955989446491003,
        -0.06133998557925224,
        -0.0601264089345932,
        -0.01644315756857395,
        0.0659845769405365,
        -0.029424892738461494,
        0.07580646872520447,
        -0.010128329508006573,
        0.1134585589170456,
        -0.04274769499897957,
        0.03384612500667572,
        0.01670444756746292,
        -0.05945422872900963,
        -0.036413613706827164,
        0.05432754382491112,
        -0.03931697458028793,
        -0.12049860507249832,
        0.04989677667617798,
        0.06480159610509872,
        0.0033157565630972385,
        -0.12786850333213806,
        -0.0016536329640075564,
        0.003576552728191018,
        0.054480429738759995,
        -0.0937824472784996,
        -0.040169984102249146,
        -0.04065437614917755,
        0.0414930060505867,
        -0.07935471832752228,
        0.002013242105022073,
        0.06056033819913864,
        0.12497544288635254,
        0.022096406668424606,
        -0.006662776693701744,
        -0.037131354212760925,
        -0.06537298113107681,
        0.029787659645080566,
        0.006400982849299908,
        -0.0948876142501831,
        -0.0689392164349556,
        -0.013730613514780998,
        -0.08407499641180038,
        0.015550856478512287,
        -0.009120427072048187,
        -0.03773603215813637,
        -0.10576808452606201,
        0.0683072879910469,
        0.06820861995220184,
        0.018313787877559662,
        0.016581421718001366,
        0.05237128958106041,
        0.07415458559989929,
        -0.007565837819129229,
        0.02327055111527443,
        -0.04630769416689873,
        -0.05257295444607735,
        -0.08610458672046661,
        -0.010117760859429836,
        0.10463222116231918,
        0.07851390540599823,
        -0.01919957436621189,
        0.058747462928295135,
        0.08051829040050507,
        0.04940984770655632,
        0.0516788549721241,
        0.009917919524013996,
        0.08922040462493896,
        0.018334072083234787,
        0.10851095616817474,
        0.06292162090539932,
        -0.06868913024663925,
        -0.01872170716524124,
        0.00020036744535900652,
        -0.08894594013690948,
        0.06626442074775696,
        -0.04247994348406792,
        -0.09884227067232132,
        0.07963494956493378,
        0.12183001637458801,
        0.0401836521923542,
        0.06571316719055176,
        0.0592401847243309,
        0.0018071577651426196,
        -0.0198154728859663,
        -0.011655055917799473,
        -0.12057193368673325,
        0.06107189878821373,
        -0.08860283344984055,
        -0.031214598566293716,
        0.02210995741188526
      ],
      [
        0.04809286445379257,
        0.017915407195687294,
        -0.03829531744122505,
        0.06849060207605362,
        0.046607404947280884,
        0.06345320492982864,
        0.031295064836740494,
        -0.006862438749521971,
        0.04838443547487259,
        -0.11764216423034668,
        0.05449613183736801,
        0.020735228434205055,
        0.07389819622039795,
        -0.044236261397600174,
        -0.033256251364946365,
        0.06323659420013428,
        -0.016230056062340736,
        0.007581132464110851,
        -0.12950627505779266,
        -0.031018100678920746,
        0.006807390134781599,
        0.11051109433174133,
        0.11818963289260864,
        -0.05895061045885086,
        -0.07647854089736938,
        0.03152918443083763,
        0.00011333089787513018,
        0.030168907716870308,
        -0.05505375564098358,
        0.04487626254558563,
        -0.07656675577163696,
        -0.06829526275396347,
        -0.03471631184220314,
        -0.08312834799289703,
        -0.09965972602367401,
        -0.05355796962976456,
        -0.07562131434679031,
        -0.020428815856575966,
        -0.01766038127243519,
        -0.008590840734541416,
        0.07094454765319824,
        -0.009670284576714039,
        0.06593040376901627,
        -0.03212946280837059,
        0.014800436794757843,
        -0.07366447895765305,
        0.07814515382051468,
        -0.05565253645181656,
        -0.08610236644744873,
        -0.07448374480009079,
        0.03572909161448479,
        0.036778952926397324,
        0.10343638062477112,
        -0.010285794734954834,
        -0.0644528716802597,
        -0.01300850696861744,
        -0.058116987347602844,
        0.016237536445260048,
        0.02038150280714035,
        -0.0643758699297905,
        0.06982333958148956,
        -0.05793304368853569,
        -0.011928796768188477,
        -0.08489096909761429,
        -0.07565482705831528,
        0.01238015666604042,
        0.0182841494679451,
        -0.022890983149409294,
        0.026618264615535736,
        0.12634164094924927,
        -0.07954863458871841,
        0.055312998592853546,
        0.018595440313220024,
        -0.11246992647647858,
        0.03523087501525879,
        -0.04461623355746269,
        0.001459925901144743,
        -0.050977230072021484,
        -0.028737276792526245,
        -0.08573544770479202,
        0.05205227807164192,
        0.06524595618247986,
        0.021069170907139778,
        -0.07644876837730408,
        0.07857333868741989,
        0.071833536028862,
        -0.023782992735505104,
        0.009148088283836842,
        0.06291354447603226,
        -0.07990381121635437,
        0.12047325074672699,
        0.05346056446433067,
        0.05049454793334007,
        0.010145225562155247,
        -0.0941687747836113,
        0.06388864666223526,
        0.03492485731840134,
        -0.022415073588490486,
        0.05549805983901024,
        0.08677075803279877,
        0.019999217242002487,
        -0.04649214819073677,
        0.02765590138733387,
        -0.022800596430897713,
        0.0038602177519351244,
        -0.02645430713891983,
        0.0872252881526947,
        0.06076156720519066,
        -0.08607406169176102,
        -0.019332485273480415,
        0.06186456233263016,
        -0.10124433785676956,
        0.04157187417149544,
        -0.04448246955871582,
        -0.015959661453962326,
        -0.05999487265944481,
        0.09827510267496109,
        0.05589006468653679,
        -0.07673201709985733,
        0.08474012464284897,
        -0.014551376923918724,
        0.11754189431667328,
        -0.05354554206132889,
        -0.07906103879213333,
        0.012093322351574898,
        -0.12250646203756332,
        -0.01036577858030796,
        -0.09591491520404816
      ],
      [
        -0.024046175181865692,
        0.005493479780852795,
        -0.06234126165509224,
        0.03870588168501854,
        0.05331091582775116,
        -0.04113529250025749,
        -0.023587603121995926,
        0.07041051983833313,
        0.05788461118936539,
        -0.13028891384601593,
        0.06869082152843475,
        -0.08871368318796158,
        0.03618069365620613,
        0.03670033439993858,
        -0.008770152926445007,
        -0.08252966403961182,
        -0.11299625039100647,
        0.1395786851644516,
        -0.11596234142780304,
        -0.07580413669347763,
        -0.11623718589544296,
        0.02002251334488392,
        0.076786570250988,
        -0.07525714486837387,
        0.05122863128781319,
        0.03315355256199837,
        -0.04439520463347435,
        -0.07917766273021698,
        0.05125772953033447,
        0.06326286494731903,
        -0.031048910692334175,
        -0.013559711165726185,
        0.02944152243435383,
        -0.06370687484741211,
        -0.1292593628168106,
        -0.12269177287817001,
        -0.08179756999015808,
        -0.0672420933842659,
        -0.02920345775783062,
        -0.023531494662165642,
        -0.058172039687633514,
        0.09140889346599579,
        0.007969288155436516,
        0.08455175161361694,
        -0.0848206877708435,
        -0.021870912984013557,
        -0.003861350007355213,
        0.10097693651914597,
        -0.05685608461499214,
        -0.05451982095837593,
        0.03537973389029503,
        -0.00021783841657452285,
        0.09577608108520508,
        -0.04154947027564049,
        -0.09378435462713242,
        0.0367656946182251,
        0.05068335682153702,
        -0.009322414174675941,
        0.0018426099559292197,
        0.004961433820426464,
        0.04024592787027359,
        -0.07851995527744293,
        -0.07273340225219727,
        0.022021999582648277,
        -0.1142149493098259,
        -0.019929364323616028,
        -0.06361451745033264,
        0.002885931171476841,
        0.12713555991649628,
        0.11046987771987915,
        -0.021217796951532364,
        -0.014631273224949837,
