{
  "policy_type": "mappo_timeout_policy",
  "algorithm": "llm_mappo_ctde_gae",
  "episodes": 5000,
  "nodes": 25,
  "seed": 7,
  "hidden_dim": 128,
  "features": [
    "bias",
    "rtt_norm",
    "loss_rate",
    "log_gap_norm",
    "recent_split"
  ],
  "global_features": [
    "node_count_norm",
    "alive_fraction",
    "mean_rtt_norm",
    "mean_loss",
    "mean_log_gap_norm",
    "recent_split",
    "round_index_norm",
    "recent_split_fraction",
    "best_node_quality_norm"
  ],
  "arms": {
    "very_short": [
      150.0,
      230.0
    ],
    "short": [
      280.0,
      420.0
    ],
    "medium": [
      520.0,
      760.0
    ],
    "long": [
      900.0,
      1300.0
    ],
    "very_long": [
      1450.0,
      2100.0
    ]
  },
  "actor_critic": {
    "actor.0.weight": [
      [
        0.04311458766460419,
        -0.29347994923591614,
        0.11612299084663391,
        0.09990870952606201,
        -0.21929039061069489
      ],
      [
        -0.05471254512667656,
        -0.28393834829330444,
        0.09241598099470139,
        -0.1599835306406021,
        0.3317088484764099
      ],
      [
        0.33995601534843445,
        -0.04426216334104538,
        -0.2848958969116211,
        -0.3260345458984375,
        -0.07423790544271469
      ],
      [
        -0.1272727996110916,
        0.19134078919887543,
        -0.38830235600471497,
        0.4289613664150238,
        -0.39239948987960815
      ],
      [
        0.34837576746940613,
        -0.02296867035329342,
        0.2879175543785095,
        0.21344810724258423,
        0.05257387086749077
      ],
      [
        0.08520793914794922,
        0.44661828875541687,
        0.2255934625864029,
        0.30761590600013733,
        -0.30732688307762146
      ],
      [
        0.29394423961639404,
        0.2269190549850464,
        0.1911124587059021,
        0.09664043039083481,
        0.27398163080215454
      ],
      [
        0.4216318130493164,
        -0.10693471133708954,
        -0.2573075592517853,
        -0.13582037389278412,
        -0.24621638655662537
      ],
      [
        0.23962952196598053,
        -0.27885568141937256,
        -0.3008256256580353,
        0.3411444425582886,
        0.41691896319389343
      ],
      [
        0.06950362771749496,
        -0.13979856669902802,
        -0.12441710382699966,
        0.16814038157463074,
        -0.47023195028305054
      ],
      [
        -0.37035420536994934,
        0.3384517729282379,
        0.42194584012031555,
        -0.00837131030857563,
        -0.38281092047691345
      ],
      [
        0.016060467809438705,
        -0.27664443850517273,
        -0.07359196245670319,
        0.1707683652639389,
        0.15389104187488556
      ],
      [
        -0.04906678944826126,
        -0.02140863426029682,
        0.047771938145160675,
        -0.403373658657074,
        -0.19271697103977203
      ],
      [
        0.02999812923371792,
        -0.31851282715797424,
        -0.26339957118034363,
        0.12270459532737732,
        0.21743887662887573
      ],
      [
        0.02495795488357544,
        -0.2542462944984436,
        0.16050593554973602,
        -0.3015572726726532,
        -0.1534491926431656
      ],
      [
        0.41583776473999023,
        0.09810210019350052,
        0.04924730211496353,
        0.16384737193584442,
        -0.11016219109296799
      ],
      [
        0.4032696783542633,
        -0.4412955343723297,
        -0.20402109622955322,
        -0.12914879620075226,
        -0.22642193734645844
      ],
      [
        -0.12829691171646118,
        0.3383818566799164,
        0.30953583121299744,
        0.07756133377552032,
        0.40717172622680664
      ],
      [
        -0.29666560888290405,
        -0.3652711510658264,
        0.09955430030822754,
        -0.09078289568424225,
        -0.4554344713687897
      ],
      [
        -0.3087516129016876,
        -0.3276585340499878,
        0.28622472286224365,
        0.16710443794727325,
        0.3078296184539795
      ],
      [
        -0.30845019221305847,
        -0.5243969559669495,
        -0.3872874081134796,
        0.001310254679992795,
        -0.1435801088809967
      ],
      [
        -0.29824793338775635,
        0.32828569412231445,
        -0.1409197598695755,
        -0.2376970797777176,
        0.19043074548244476
      ],
      [
        -0.13394692540168762,
        0.30515167117118835,
        0.12731774151325226,
        0.05913268029689789,
        0.09108688682317734
      ],
      [
        -0.32247278094291687,
        -0.3150988519191742,
        -0.29046663641929626,
        -0.29931697249412537,
        0.03792653605341911
      ],
      [
        0.09346538782119751,
        -0.2294807881116867,
        0.24476857483386993,
        -0.29657405614852905,
        0.09072671085596085
      ],
      [
        -0.11127153038978577,
        -0.4741709232330322,
        -0.3830695152282715,
        0.14217913150787354,
        0.12701763212680817
      ],
      [
        -0.2615642845630646,
        -0.1825200766324997,
        -0.4655521810054779,
        0.20697128772735596,
        0.357622355222702
      ],
      [
        0.16077546775341034,
        -0.32362374663352966,
        0.18691445887088776,
        0.30959364771842957,
        -0.10130224376916885
      ],
      [
        -0.0704665556550026,
        0.10512536019086838,
        0.004803844261914492,
        -0.18828719854354858,
        -0.4497727155685425
      ],
      [
        -0.3027486205101013,
        0.04501086845993996,
        -0.004418565891683102,
        0.402775377035141,
        0.026184650138020515
      ],
      [
        -0.1041969358921051,
        -0.5429086685180664,
        -0.5213451385498047,
        0.11669134348630905,
        0.33685916662216187
      ],
      [
        -0.007159678265452385,
        -0.5044538974761963,
        0.050115860998630524,
        0.294786661863327,
        -0.36125415563583374
      ],
      [
        -0.1098562628030777,
        0.07993160933256149,
        -0.2096380740404129,
        -0.38930070400238037,
        0.21115124225616455
      ],
      [
        -0.3510591983795166,
        -0.07292840629816055,
        -0.19575339555740356,
        0.3690418601036072,
        0.09744181483983994
      ],
      [
        0.21670283377170563,
        -0.357811838388443,
        0.3191426694393158,
        -0.009247023612260818,
        -0.2652498483657837
      ],
      [
        -0.018268264830112457,
        -0.4091172218322754,
        -0.11712656170129776,
        0.18490910530090332,
        -0.25460559129714966
      ],
      [
        0.3760031759738922,
        0.18150067329406738,
        -0.028536003082990646,
        0.15604643523693085,
        -0.06684529781341553
      ],
      [
        -0.08042655140161514,
        -0.3309137225151062,
        0.2184634506702423,
        0.237008199095726,
        0.15246698260307312
      ],
      [
        0.24224364757537842,
        0.5264760255813599,
        0.5070603489875793,
        -0.38827642798423767,
        0.16036410629749298
      ],
      [
        -0.03965393826365471,
        0.1527177393436432,
        -0.08508111536502838,
        0.10113296657800674,
        -0.41261085867881775
      ],
      [
        0.17767946422100067,
        0.4403105676174164,
        -0.06530223041772842,
        -0.34638845920562744,
        -0.3887649476528168
      ],
      [
        -0.10590608417987823,
        -0.0014490752946585417,
        0.057143211364746094,
        0.04860282689332962,
        0.34261637926101685
      ],
      [
        -0.08245357125997543,
        0.2245061695575714,
        -0.13647712767124176,
        0.49513477087020874,
        0.22642284631729126
      ],
      [
        -0.07347773760557175,
        0.39814168214797974,
        0.2667282223701477,
        0.13369302451610565,
        -0.07286456227302551
      ],
      [
        0.06768456846475601,
        -0.02713896706700325,
        -0.32388734817504883,
        -0.033105164766311646,
        0.056988272815942764
      ],
      [
        -0.24889498949050903,
        0.049016110599040985,
        -0.1831769049167633,
        -0.3662685751914978,
        -0.3107769191265106
      ],
      [
        -0.36777713894844055,
        0.20465359091758728,
        0.3788995146751404,
        0.46538224816322327,
        0.5045807957649231
      ],
      [
        0.17351914942264557,
        0.29986971616744995,
        0.008787421509623528,
        0.42746657133102417,
        -0.12494634836912155
      ],
      [
        -0.10472290962934494,
        -0.21835444867610931,
        -0.37629035115242004,
        -0.3713209331035614,
        -0.14356262981891632
      ],
      [
        0.3898579478263855,
        -0.3009416460990906,
        -0.4877430200576782,
        -0.1642148494720459,
        0.354856014251709
      ],
      [
        0.10955184698104858,
        -0.013731371611356735,
        -0.11247558146715164,
        0.3832802176475525,
        -0.40894120931625366
      ],
      [
        0.24371971189975739,
        0.18055300414562225,
        0.34345942735671997,
        -0.2112269550561905,
        -0.11229889839887619
      ],
      [
        -0.20133478939533234,
        0.5140565037727356,
        0.026928184553980827,
        -0.37024039030075073,
        0.2708500325679779
      ],
      [
        0.05728134512901306,
        0.06814061850309372,
        -0.28822407126426697,
        -0.40754660964012146,
        0.42634809017181396
      ],
      [
        -0.32681962847709656,
        -0.1751122921705246,
        -0.17717710137367249,
        0.21069814264774323,
        -0.43182697892189026
      ],
      [
        -0.23317492008209229,
        -0.33139893412590027,
        -0.32213982939720154,
        0.2189895510673523,
        0.21546775102615356
      ],
      [
        0.1702137291431427,
        0.44159719347953796,
        -0.21676218509674072,
        0.04306471720337868,
        -0.32914721965789795
      ],
      [
        0.030126644298434258,
        -0.42508357763290405,
        -0.47820526361465454,
        0.24132491648197174,
        -0.20914871990680695
      ],
      [
        -0.01309475302696228,
        -0.2362939864397049,
        -0.4640474021434784,
        -0.10063678026199341,
        -0.005350560415536165
      ],
      [
        0.33731111884117126,
        -0.23714324831962585,
        0.3771974444389343,
        -0.23642653226852417,
        0.2616029679775238
      ],
      [
        0.3866409659385681,
        0.07415809482336044,
        -0.12306322157382965,
        0.33221787214279175,
        -0.1314128339290619
      ],
      [
        -0.17005813121795654,
        -0.23553572595119476,
        -0.44909414649009705,
        -0.1014024093747139,
        -0.4089428186416626
      ],
      [
        0.30501240491867065,
        -0.5431307554244995,
        -0.448355495929718,
        0.018579604104161263,
        0.21482740342617035
      ],
      [
        0.43780139088630676,
        -0.47011977434158325,
        0.25574228167533875,
        0.2479521781206131,
        -0.3614944815635681
      ],
      [
        0.2065085917711258,
        -0.21483063697814941,
        0.0349140502512455,
        -0.44425898790359497,
        -0.3070940673351288
      ],
      [
        -0.2770392894744873,
        -0.1631358414888382,
        -0.0958796814084053,
        -0.06576518714427948,
        -0.30730339884757996
      ],
      [
        0.1958390772342682,
        0.27724650502204895,
        -0.3385918438434601,
        -0.38205215334892273,
        -0.06332030147314072
      ],
      [
        0.13008548319339752,
        -0.43538594245910645,
        -0.14038555324077606,
        -0.03685460984706879,
        -0.4028347432613373
      ],
      [
        0.40871959924697876,
        0.42943161725997925,
        0.45141464471817017,
        -0.11389737576246262,
        -0.25169554352760315
      ],
      [
        0.03496640548110008,
        0.3097411096096039,
        0.26984748244285583,
        -0.2395542412996292,
        0.3734361231327057
      ],
      [
        -0.18800559639930725,
        -0.1699298620223999,
        -0.22146767377853394,
        0.16192062199115753,
        -0.4671226441860199
      ],
      [
        -0.30466851592063904,
        -0.01752159744501114,
        0.34774884581565857,
        -0.078126922249794,
        0.3035320043563843
      ],
      [
        0.40773722529411316,
        -0.048832934349775314,
        -0.3707749545574188,
        -0.04904665797948837,
        0.1530272215604782
      ],
      [
        -0.06210240721702576,
        -0.5273241400718689,
        0.17079399526119232,
        -0.24790868163108826,
        -0.3693807125091553
      ],
      [
        0.20202767848968506,
        0.1715351790189743,
        0.3944314420223236,
        -0.04507569223642349,
        0.3186817169189453
      ],
      [
        -0.09838637709617615,
        -0.3335115909576416,
        0.35357752442359924,
        0.3937528729438782,
        0.28589972853660583
      ],
      [
        -0.10528899729251862,
        -0.2870354950428009,
        -0.017066804692149162,
        0.15777866542339325,
        0.0240172166377306
      ],
      [
        0.1865270882844925,
        0.06165054813027382,
        0.340595543384552,
        0.2747194170951843,
        0.30043062567710876
      ],
      [
        -0.015820717439055443,
        -0.46634340286254883,
        -0.3840782344341278,
        -0.2726568877696991,
        0.32409533858299255
      ],
      [
        -0.03820991516113281,
        -0.056408416479825974,
        -0.16953042149543762,
        -0.03989839926362038,
        0.34164196252822876
      ],
      [
        -0.016235092654824257,
        0.25418820977211,
        0.3047468364238739,
        -0.37637555599212646,
        0.17262378334999084
      ],
      [
        0.4528539180755615,
        -0.19756250083446503,
        0.10402095317840576,
        0.001722213695757091,
        0.2661665081977844
      ],
      [
        0.10482814908027649,
        -0.4363759458065033,
        -0.4384619891643524,
        0.30617210268974304,
        -0.24047894775867462
      ],
      [
        -0.37266409397125244,
        -0.48921072483062744,
        -0.483437180519104,
        0.05522086098790169,
        0.00928801391273737
      ],
      [
        -0.2651459574699402,
        -0.03609283268451691,
        0.13826118409633636,
        0.21380853652954102,
        0.22843532264232635
      ],
      [
        -0.260864794254303,
        0.5144662857055664,
        0.5153312683105469,
        -0.25647613406181335,
        0.4582260847091675
      ],
      [
        -0.33762407302856445,
        -0.3651631772518158,
        0.014588017016649246,
        0.07447220385074615,
        0.3922436237335205
      ],
      [
        -0.009718548506498337,
        0.4094623625278473,
        -0.03708738088607788,
        -0.2713864743709564,
        0.026584146544337273
      ],
      [
        0.25851204991340637,
        -0.26771196722984314,
        -0.47598767280578613,
        -0.31922486424446106,
        0.03045228309929371
      ],
      [
        0.40546759963035583,
        0.0411522351205349,
        -0.34015390276908875,
        -0.20855771005153656,
        0.21395611763000488
      ],
      [
        -0.14600549638271332,
        0.040077220648527145,
        0.43853482604026794,
        0.2141410857439041,
        0.34166237711906433
      ],
      [
        0.3868664801120758,
        -0.11799642443656921,
        0.09689769148826599,
        -0.31520408391952515,
        0.484915554523468
      ],
      [
        -0.29809045791625977,
        0.44834885001182556,
        0.4326053559780121,
        0.14652633666992188,
        -0.3991866111755371
      ],
      [
        -0.008104680106043816,
        -0.2004871666431427,
        0.11963222920894623,
        0.22313030064105988,
        0.23123817145824432
      ],
      [
        0.1577238291501999,
        -0.437175452709198,
        -0.47407975792884827,
        0.06350771337747574,
        -0.1297246813774109
      ],
      [
        0.1827107071876526,
        0.522462010383606,
        0.22732318937778473,
        -0.20885559916496277,
        -0.08709826320409775
      ],
      [
        0.2585621774196625,
        0.1345686912536621,
        0.40166863799095154,
        -0.3637864291667938,
        -0.021292081102728844
      ],
      [
        -0.23929686844348907,
        0.440294086933136,
        0.30035272240638733,
        -0.00708692567422986,
        -0.3526233434677124
      ],
      [
        -0.074927419424057,
        0.4330964684486389,
        0.062262799590826035,
        0.044587474316358566,
        -0.37810972332954407
      ],
      [
        0.32892468571662903,
        0.41942694783210754,
        -0.30531615018844604,
        -0.2770269215106964,
        0.05112041160464287
      ],
      [
        -0.21934321522712708,
        -0.42194563150405884,
        0.0789492279291153,
        -0.15451548993587494,
        0.15354563295841217
      ],
      [
        0.14157404005527496,
        0.4765223264694214,
        0.3495732843875885,
        -0.37304991483688354,
        -0.3300022482872009
      ],
      [
        0.35746070742607117,
        -0.3640950620174408,
        0.2904529571533203,
        -0.27439630031585693,
        0.3883577287197113
      ],
      [
        0.2710908055305481,
        -0.3924974799156189,
        -0.4581243693828583,
        -0.24654649198055267,
        -0.26332879066467285
      ],
      [
        -0.25672635436058044,
        0.36776983737945557,
        0.16440223157405853,
        0.00925868097692728,
        -0.036939334124326706
      ],
      [
        0.16827452182769775,
        0.11586170643568039,
        0.018973948433995247,
        0.4299861490726471,
        0.35322850942611694
      ],
      [
        0.023623667657375336,
        0.40520304441452026,
        0.0045713684521615505,
        -0.2719138264656067,
        0.3102591335773468
      ],
      [
        0.25173717737197876,
        0.11232069879770279,
        -0.33898109197616577,
        0.32801806926727295,
        0.0287599116563797
      ],
      [
        -0.2213389128446579,
        -0.4946361780166626,
        -0.3364177346229553,
        0.34480562806129456,
        0.16124390065670013
      ],
      [
        -0.20860180258750916,
        0.46169787645339966,
        0.47951510548591614,
        0.2796820104122162,
        0.017270676791667938
      ],
      [
        0.40886521339416504,
        -0.12410341203212738,
        -0.2105695903301239,
        0.19479994475841522,
        -0.20159167051315308
      ],
      [
        0.34865567088127136,
        -0.32035452127456665,
        0.07717623561620712,
        -0.3842371702194214,
        -0.35642123222351074
      ],
      [
        5.586557381320745e-05,
        0.39957770705223083,
        -0.29237690567970276,
        -0.0705970749258995,
        0.21610389649868011
      ],
      [
        -0.06275276839733124,
        -0.47057610750198364,
        -0.07980646193027496,
        -0.19060422480106354,
        0.06546933948993683
      ],
      [
        0.17745047807693481,
        -0.22641457617282867,
        -0.3250686526298523,
        0.1926286518573761,
        -0.42344313859939575
      ],
      [
        0.20409907400608063,
        0.23360422253608704,
        0.23601825535297394,
        -0.2854967713356018,
        0.22738958895206451
      ],
      [
        -0.26840806007385254,
        0.2916763126850128,
        -0.11246073246002197,
        0.16321338713169098,
        0.05673455074429512
      ],
      [
        -0.2935841679573059,
        -0.4837608337402344,
        -0.17909926176071167,
        0.2256544828414917,
        -0.15089933574199677
      ],
      [
        -0.08660820126533508,
        -0.35469695925712585,
        -0.4060772955417633,
        -0.08646711707115173,
        -0.15037654340267181
      ],
      [
        0.1551639288663864,
        0.531682014465332,
        -0.2062402367591858,
        -0.07011575996875763,
        0.22097159922122955
      ],
      [
        -0.2915123999118805,
        -0.06464915722608566,
        -0.2431250512599945,
        0.2476538121700287,
        -0.030986960977315903
      ],
      [
        0.03368275985121727,
        0.3456748425960541,
        -0.2332441359758377,
        -0.1871693730354309,
        0.38255399465560913
      ],
      [
        0.18043209612369537,
        -0.06448522210121155,
        0.4189361035823822,
        0.38249504566192627,
        -0.23400940001010895
      ],
      [
        -0.13488568365573883,
        0.21934907138347626,
        -0.2504523694515228,
        -0.4201550781726837,
        -0.24814528226852417
      ],
      [
        -0.410054087638855,
        0.37087130546569824,
        0.20511318743228912,
        -0.31468307971954346,
        0.018795518204569817
      ],
      [
        0.43428027629852295,
        -0.3738648593425751,
        -0.39945727586746216,
        0.12746448814868927,
        -0.37781551480293274
      ],
      [
        -0.4252082407474518,
        0.21990995109081268,
        -0.09273360669612885,
        0.25284263491630554,
        -0.12759695947170258
      ],
      [
        0.42660826444625854,
        -0.28514936566352844,
        0.2672651410102844,
        -0.3210280239582062,
        -0.2163301408290863
      ]
    ],
    "actor.0.bias": [
      0.3573199510574341,
      0.21055710315704346,
      -0.3037720322608948,
      -0.045956093817949295,
      0.2699318826198578,
      -0.34450119733810425,
      -0.0033722524531185627,
      0.2848151922225952,
      -0.31696799397468567,
      0.1881878525018692,
      -0.4372495412826538,
      -0.41439807415008545,
      0.013211438432335854,
      -0.39164894819259644,
      -0.1874874234199524,
      0.25859349966049194,
      -0.06457893550395966,
      -0.316729873418808,
      0.3840705156326294,
      -0.43625202775001526,
      0.11582951992750168,
      -0.3090744912624359,
      -0.2624676823616028,
      0.04985427111387253,
      0.44461309909820557,
      -0.10229799151420593,
      -0.4292801022529602,
      0.1109514981508255,
      -0.1751784384250641,
      -0.2879418730735779,
      0.18764106929302216,
      0.17624789476394653,
      -0.21341879665851593,
      0.04513934627175331,
      0.0741535872220993,
      0.044026345014572144,
      -0.07109509408473969,
      -0.23494085669517517,
      0.22466649115085602,
      0.3365635275840759,
      0.33494478464126587,
      0.3512927293777466,
      -0.022991692647337914,
      0.024389097467064857,
      -0.16640272736549377,
      -0.09005676954984665,
      0.10180686414241791,
      0.033064067363739014,
      -0.30379289388656616,
      -0.2915687561035156,
      0.20893821120262146,
      0.33145904541015625,
      0.40117815136909485,
      0.2442752867937088,
      0.267311155796051,
      0.21024246513843536,
      0.2687980830669403,
      -0.08367685973644257,
      0.0916864201426506,
      0.1605045050382614,
      0.0904330387711525,
      -0.017181169241666794,
      -0.22290296852588654,
      -0.3081207275390625,
      -0.23750659823417664,
      0.04982277378439903,
      0.3869319260120392,
      -0.15721571445465088,
      -0.37440967559814453,
      -0.4094153940677643,
      0.19847866892814636,
      0.16588985919952393,
      -0.24092255532741547,
      -0.14036968350410461,
      0.32045498490333557,
      -0.3707742691040039,
      0.2821657657623291,
      0.013243084773421288,
      -0.19254334270954132,
      0.41644036769866943,
      -0.3102465867996216,
      0.40925493836402893,
      0.36774420738220215,
      0.17408792674541473,
      0.285793662071228,
      0.08839020133018494,
      0.4032350182533264,
      0.08778756111860275,
      -0.4202801585197449,
      -0.20966705679893494,
      0.06001679599285126,
      0.299702912569046,
      -0.1278717815876007,
      0.16866058111190796,
      0.18484918773174286,
      0.012334514409303665,
      -0.3855072259902954,
      0.40728065371513367,
      -0.23785056173801422,
      0.045422475785017014,
      -0.1374252885580063,
      0.07801102846860886,
      0.3013227880001068,
      0.11244522780179977,
      -0.1971753090620041,
      0.08127089589834213,
      -0.3738619089126587,
      0.3796115815639496,
      0.254041850566864,
      0.3091554343700409,
      0.10285520553588867,
      -0.4231055974960327,
      -0.3404889404773712,
      -0.3889717757701874,
      0.2546314597129822,
      0.4192143380641937,
      0.28953489661216736,
      -0.16462941467761993,
      -0.24304522573947906,
      -0.2638036906719208,
      0.43091487884521484,
      -0.4329952895641327,
      -0.4345831871032715,
      0.17587216198444366,
      0.04175939783453941,
      -0.22461430728435516,
      -0.25793343782424927,
      -0.42394131422042847
    ],
    "actor.2.weight": [
      [
        0.06288985162973404,
        -0.022842295467853546,
        0.03075416013598442,
        0.04419350624084473,
        -0.06769068539142609,
        0.0482327900826931,
        -0.040607236325740814,
        0.07019710540771484,
        -0.013830565847456455,
        0.11129754781723022,
        -0.06201787665486336,
        -0.017652632668614388,
        -0.025116538628935814,
        0.06075966730713844,
        -0.06918354332447052,
        0.061942312866449356,
        0.06891892850399017,
        -0.10712213069200516,
        0.033896252512931824,
        -0.015017939731478691,
        -0.001096684718504548,
        -0.061599161475896835,
        -0.058118611574172974,
        0.022897014394402504,
        0.05269860103726387,
        0.0343688540160656,
        0.059935010969638824,
        0.022540872916579247,
        0.07369886338710785,
        0.022726431488990784,
        -0.010887009091675282,
        0.1348566710948944,
        0.007235309574753046,
        0.056748442351818085,
        -0.034114666283130646,
        0.044716671109199524,
        -0.0846189633011818,
        -0.016763705760240555,
        -0.042738307267427444,
        -0.04081301391124725,
        -0.05362500995397568,
        0.06276840716600418,
        -0.03415999189019203,
        -0.035709064453840256,
        0.0149893369525671,
        0.03010922111570835,
        -0.05633215606212616,
        -0.09581085294485092,
        -0.0016935750609263778,
        0.09778200834989548,
        0.016908276826143265,
        0.016268374398350716,
        0.03210410103201866,
        0.050745878368616104,
        0.01286308839917183,
        0.09738816320896149,
        -0.03161362558603287,
        0.03396642208099365,
        0.15938244760036469,
        -0.04356200620532036,
        0.09293941408395767,
        -0.02069559320807457,
        0.018148524686694145,
        0.13715076446533203,
        0.10125434398651123,
        -0.04976179078221321,
        0.0443081334233284,
        0.049504540860652924,
        -0.10033223032951355,
        -0.08167026191949844,
        0.04644995555281639,
        -0.12493769824504852,
        0.0017175038810819387,
        0.045907966792583466,
        0.061499420553445816,
        0.05631177872419357,
        0.006922437343746424,
        0.02825089730322361,
        0.033931709825992584,
        -0.0015274123288691044,
        -0.10913786292076111,
        0.03195703402161598,
        0.12632690370082855,
        -0.05065406858921051,
        -0.02528211660683155,
        -0.016238097101449966,
        0.022656675428152084,
        0.034966085106134415,
        0.008876469917595387,
        -0.04601430892944336,
        -0.13411973416805267,
        -0.048369523137807846,
        -0.0453331284224987,
        0.061443671584129333,
        0.07444216310977936,
        -0.013338032178580761,
        0.03550112247467041,
        0.01065685786306858,
        -0.06289595365524292,
        -0.036444906145334244,
        0.05793226882815361,
        -0.04591331630945206,
        0.039187561720609665,
        0.09925805777311325,
        -0.02137846313416958,
        -0.07257438451051712,
        -0.10674542933702469,
        -0.07780106365680695,
        0.0768178179860115,
        -0.11928457021713257,
        -0.03445994108915329,
        0.11671481281518936,
        -0.05028585344552994,
        0.04898923635482788,
        -0.006384686101227999,
        -0.02299814112484455,
        -0.08785873651504517,
        0.04295296594500542,
        -0.0425696037709713,
        -0.11243436485528946,
        0.04915807023644447,
        -0.03460889309644699,
        -0.04603392630815506,
        0.0216482263058424,
        -0.047489769756793976,
        -0.0058234077878296375,
        0.07195253670215607,
        -0.022120516747236252
      ],
      [
        0.005331841763108969,
        0.00024013051006477326,
        -0.09253714978694916,
        -0.011353854089975357,
        0.083336740732193,
        0.1351839154958725,
        0.005214065779000521,
        -0.039864279329776764,
        -0.07979870587587357,
        0.0476587675511837,
        -0.03422839567065239,
        0.020641783252358437,
        0.0016236769733950496,
        0.05125167593359947,
        -0.0282790157943964,
        0.0487462654709816,
        -0.11418094485998154,
        0.003875034162774682,
        -0.11590082943439484,
        -0.0883181095123291,
        -0.11998841911554337,
        0.05936460196971893,
        0.07176629453897476,
        -0.04916027933359146,
        -0.08971933275461197,
        0.024898836389183998,
        0.08106127381324768,
        0.05847872421145439,
        -0.03134859725832939,
        -0.07296324521303177,
        -0.022855015471577644,
        -0.0387672521173954,
        0.06735517829656601,
        0.016090495511889458,
        0.02187255769968033,
        -0.10973361879587173,
        -0.05893098935484886,
        0.00033562720636837184,
        0.09622570872306824,
        -0.047786906361579895,
        0.05706239491701126,
        -0.029367148876190186,
        0.028619008138775826,
        0.05663613975048065,
        0.0720410868525505,
        0.06995680928230286,
        0.1298317015171051,
        0.11306734383106232,
        -0.020852822810411453,
        -0.04926469549536705,
        0.02384019084274769,
        -0.03013036400079727,
        0.09281162172555923,
        -0.011482997797429562,
        -0.07371383905410767,
        -0.0032601282000541687,
        0.09779813140630722,
        0.01362505555152893,
        -0.09205015003681183,
        -0.06370962411165237,
        0.08454763889312744,
        0.002998397685587406,
        -0.009876586496829987,
        -0.10807178169488907,
        -0.005131427198648453,
        -0.01565892994403839,
        0.06558012217283249,
        -0.041734084486961365,
        0.019779281690716743,
        0.0791502594947815,
        0.026053396984934807,
        -0.042433563619852066,
        0.07176195830106735,
        0.035653214901685715,
        0.08505360037088394,
        0.01459924690425396,
        -0.08114808052778244,
        -0.00793583132326603,
        -0.047528862953186035,
        -0.06217026337981224,
        0.065223827958107,
        0.038035087287425995,
        -0.05855255946516991,
        0.03936166316270828,
        0.042942892760038376,
        0.1719229817390442,
        0.004117073491215706,
        0.027407703921198845,
        -0.10936295241117477,
        -0.06536059826612473,
        0.15122072398662567,
        -0.057210929691791534,
        0.05087144300341606,
        0.04106508195400238,
        -0.09457813948392868,
        0.08652643114328384,
        -0.01808423362672329,
        0.05259868875145912,
        0.08690354973077774,
        -0.05850588157773018,
        -0.05184159427881241,
        -0.015428547747433186,
        -0.028608525171875954,
        0.026113387197256088,
        0.1059960350394249,
        0.06296680867671967,
        0.0024046036414802074,
        -0.014588326215744019,
        -0.06087171658873558,
        0.13785552978515625,
        -0.08352264761924744,
        -0.0707782432436943,
        -0.03674597665667534,
        0.013565827161073685,
        -0.0358048751950264,
        -0.03129342570900917,
        -0.019921347498893738,
        -0.04842168092727661,
        -0.10159307718276978,
        0.11529494822025299,
        -0.09742891788482666,
        -0.020295562222599983,
        0.09448060393333435,
        -0.07229769229888916,
        -0.03844856470823288,
        -0.15124528110027313,
        -0.04715465009212494,
        -0.00034961424535140395
      ],
      [
        -0.05155790597200394,
        -0.08361004292964935,
        -0.0034491210244596004,
        0.07566433399915695,
        0.045742638409137726,
        0.03943954408168793,
        0.03138323128223419,
        0.02702808752655983,
        0.06670846045017242,
        0.0028762242291122675,
        -0.061848729848861694,
        -0.07602543383836746,
        -0.07474013417959213,
        -0.04931020364165306,
        0.059508759528398514,
        -0.08574134856462479,
        -0.07537160813808441,
        0.11130653321743011,
        -0.017648614943027496,
        -0.046629976481199265,
        -0.028064481914043427,
        -0.058506738394498825,
        -0.030794905498623848,
        -0.09157013148069382,
        -0.06861568987369537,
        0.061993204057216644,
        -0.015912508592009544,
        -0.07645470649003983,
        -0.04615968093276024,
        -0.06970786303281784,
        -0.10221050679683685,
        -0.060202013701200485,
        -0.05217183753848076,
        0.008268599398434162,
        -0.010995552875101566,
        0.01688118651509285,
        -0.042166344821453094,
        -0.02706083469092846,
        0.10202999413013458,
        -0.011339952237904072,
        -0.07226298749446869,
        -0.020136361941695213,
        0.10299336910247803,
        0.05099308118224144,
        0.022807564586400986,
        -0.07614056766033173,
        0.10838931053876877,
        -0.020573075860738754,
        -0.04561377316713333,
        -0.04528563842177391,
        0.06690739095211029,
        0.07262767106294632,
        0.09974134713411331,
        -0.007677533198148012,
        0.03562965244054794,
        -0.036392539739608765,
        0.06764447689056396,
        -0.06478006392717361,
        -0.12764006853103638,
        -0.06381914764642715,
        -0.003556889947503805,
        -0.06116877496242523,
        0.004573500715196133,
        -0.10756899416446686,
        0.01230363454669714,
        -0.06072623282670975,
        0.051272958517074585,
        -0.03640807420015335,
        -0.012310572899878025,
        0.05683194100856781,
        -0.11574763804674149,
        0.03247160464525223,
        -0.05471204221248627,
        -0.10465898364782333,
        0.08846702426671982,
        0.050439998507499695,
        -0.015645461156964302,
        0.06819690018892288,
        -0.09492353349924088,
        -0.045050397515296936,
        -0.009414956904947758,
        -0.056284260004758835,
        -0.054101914167404175,
        0.039428070187568665,
        -0.037609491497278214,
        0.07666924595832825,
        0.014972763136029243,
        -0.014454308897256851,
        0.01192183792591095,
        -0.02297758124768734,
        0.09727148711681366,
        0.0802387222647667,
        0.04567589983344078,
        -0.05883697792887688,
        -0.11346182227134705,
        0.09339436888694763,
        0.0031178242061287165,
        0.1073201522231102,
        -0.047879233956336975,
        -0.036845605820417404,
        0.07411407679319382,
        0.02249409444630146,
        -0.04876624792814255,
        -0.04616117849946022,
        0.011958448216319084,
        -0.06609304249286652,
        0.0748354122042656,
        0.04924507066607475,
        -0.0502224899828434,
        -0.03653176501393318,
        -0.03499458357691765,
        0.001040968461893499,
        0.008988077752292156,
        0.05840480700135231,
        -0.05487734079360962,
        -0.01345315296202898,
        0.09392812848091125,
        -0.004115367773920298,
        0.0337107852101326,
        0.004477009642869234,
        0.046503856778144836,
        0.00045104979653842747,
        0.000189160491572693,
        0.03553414344787598,
        0.05183986946940422,
        -0.10764375329017639,
        0.05623841658234596,
        -0.05358952283859253
      ],
      [
        0.061161547899246216,
        0.0019260735716670752,
        0.07265251874923706,
        -0.03231462463736534,
        0.045206811279058456,
        0.023544611409306526,
        -0.001291546388529241,
        0.08182777464389801,
        0.06654370576143265,
        -0.036136090755462646,
        -0.05797509849071503,
        0.008771178312599659,
        -0.04898865520954132,
        0.05406497046351433,
        0.10860972851514816,
        -0.06052695959806442,
        0.03295138105750084,
        -0.1122610867023468,
        0.08815957605838776,
        0.010007452219724655,
        0.10144306719303131,
        -0.0452154316008091,
        -0.10245006531476974,
        0.10788113623857498,
        0.08971083164215088,
        -0.02485712431371212,
        -0.024997124448418617,
        0.0041647483594715595,
        -0.055047377943992615,
        -0.0816493034362793,
        0.1400747150182724,
        0.13213764131069183,
        0.045291777700185776,
        -0.0671151652932167,
        0.017620088532567024,
        0.11511688679456711,
        0.029480114579200745,
        -0.004683393053710461,
        -0.021808531135320663,
        0.029404500499367714,
        0.0630107969045639,
        0.07043542712926865,
        -0.0031593472231179476,
        -0.006010999903082848,
        -0.023366054520010948,
        0.09360173344612122,
        -0.07172860950231552,
        -0.05304437503218651,
        0.09500456601381302,
        0.055772531777620316,
        0.01901298388838768,
        -0.017280293628573418,
        -0.09647136926651001,
        -0.07317353785037994,
        0.11249182373285294,
        0.141744464635849,
        -0.024560054764151573,
        -0.00900113396346569,
        0.1854335069656372,
        0.019272740930318832,
        0.041159793734550476,
        -0.04299325495958328,
        0.12071099132299423,
        0.08156246691942215,
        0.12512987852096558,
        0.08898169547319412,
        0.04427085816860199,
        0.07614784687757492,
        -0.028815537691116333,
        -0.012372222729027271,
        0.12525129318237305,
        0.015301159583032131,
        0.0022698717657476664,
        0.060594592243433,
        -0.047039132565259933,
        0.07916735857725143,
        -0.0020764977671205997,
        0.05811827629804611,
        0.10620004683732986,
        -0.07054730504751205,
        -0.11068979650735855,
        -0.0034875290002673864,
        0.07692142575979233,
        0.10914831608533859,
        -0.09299317002296448,
        -0.09554506093263626,
        0.07647771388292313,
        -0.07265514880418777,
        -0.03520951047539711,
        0.02375504933297634,
        -0.029310300946235657,
        -0.012971584685146809,
        0.016716454178094864,
        0.020042791962623596,
        0.12955120205879211,
        -0.013285522349178791,
        -0.01235903799533844,
        -0.05566614121198654,
        -0.0710606649518013,
        0.018938425928354263,
        0.10604195296764374,
        0.0007280541467480361,
        -0.07382912188768387,
        0.11272069066762924,
        0.06441417336463928,
        -0.02152363769710064,
        -0.10257434844970703,
        -0.031160254031419754,
        0.13263815641403198,
        -0.004887229762971401,
        -0.004380796104669571,
        0.05879955738782883,
        -0.03825581073760986,
        -0.05987342819571495,
        0.08447981625795364,
        -0.022617807611823082,
        -0.13310585916042328,
        0.041734419763088226,
        0.073931485414505,
        -0.15587307512760162,
        0.011308088898658752,
        -0.10292365401983261,
        0.025334885343909264,
        0.0043745082803070545,
        0.019032232463359833,
        0.06627380102872849,
        0.08010818064212799,
        -0.02216392196714878
      ],
      [
        0.004641945939511061,
        -0.017942920327186584,
        0.012101713567972183,
        0.05828997492790222,
        0.046968601644039154,
        0.01553112268447876,
        0.02036052569746971,
        -0.04092951864004135,
        0.025447703897953033,
        -0.049248892813920975,
        0.0635983943939209,
        0.001230894005857408,
        0.007138455286622047,
        0.052813854068517685,
        0.013693325221538544,
        -0.06580078601837158,
        0.0677027553319931,
        0.021462541073560715,
        0.12329617142677307,
        -0.07753648608922958,
        0.11802490055561066,
        0.02068237215280533,
        -0.11683379113674164,
        0.017095521092414856,
        -0.048276521265506744,
        0.046593014150857925,
        -0.07360367476940155,
        0.011108854785561562,
        0.05805861949920654,
        -0.01757795736193657,
        0.10126108676195145,
        0.03290782496333122,
        0.06444931030273438,
        0.07666946202516556,
        0.04049038141965866,
        0.0650286003947258,
        0.06801105290651321,
        -0.07246768474578857,
        0.01907847449183464,
        -0.07224521785974503,
        -0.05129281431436539,
        -0.0903685986995697,
        -0.05798754468560219,
        -0.008653257042169571,
        -0.00020701692847069353,
        0.04096592590212822,
        -0.07242191582918167,
        -0.10633952915668488,
        -0.05983662232756615,
        0.08158384263515472,
        0.06848669052124023,
        0.05628085508942604,
        -0.06670503318309784,
        0.01958552561700344,
        0.1080242320895195,
        -0.008815838024020195,
        -0.10234741121530533,
        -0.040066055953502655,
        0.14509253203868866,
        -0.06608399748802185,
        -0.07841642200946808,
        0.0583169125020504,
        0.13696448504924774,
        0.11412368714809418,
        -0.0324971079826355,
        0.09876018017530441,
        0.05792345106601715,
        0.023334043100476265,
        -0.12549151480197906,
        -0.09445574879646301,
        -0.009374983608722687,
        -0.10151902586221695,
        0.05944989249110222,
        0.09698255360126495,
        0.02150571346282959,
        0.0489322766661644,
        0.0009652277221903205,
        0.030800793319940567,
        0.11426248401403427,
        0.052842557430267334,
        0.036802321672439575,
        -0.03385324776172638,
        0.07773071527481079,
        0.0052216192707419395,
        -0.02270681783556938,
        0.01181674562394619,
        0.07361195236444473,
        -0.03991604968905449,
        0.04368264600634575,
        0.01779344119131565,
        -0.1097123920917511,
        0.06919527053833008,
        0.033435434103012085,
        -0.03028477542102337,
        -0.019512159749865532,
        -0.05392305180430412,
        -0.08567485213279724,
        0.01725158840417862,
        -0.07290207594633102,
        0.04794647917151451,
        0.04020733758807182,
        -0.06419222056865692,
        -0.031352389603853226,
        0.07502875477075577,
        -0.09907656162977219,
        -0.025431126356124878,
        -0.13100039958953857,
        -0.07941573113203049,
        0.018250735476613045,
        -0.005131442099809647,
        -0.058214493095874786,
        0.12651656568050385,
        -0.1253042221069336,
        -0.05883542448282242,
        0.0638275071978569,
        -0.004995259456336498,
        0.005058144684880972,
        -0.0015659076161682606,
        0.06112602725625038,
        -0.008057537488639355,
        -0.041409678757190704,
        -0.08747445791959763,
        0.06970071792602539,
        0.05167839676141739,
        -0.037818849086761475,
        0.13335740566253662,
        -0.07386224716901779,
        0.1323777735233307
      ],
      [
        -0.05724244937300682,
        -0.01724977046251297,
        -0.08679763227701187,
        -0.04616285115480423,
        -0.03740272670984268,
        0.060952696949243546,
        0.017638960853219032,
        0.004768960177898407,
        -0.11255329102277756,
        -0.07622725516557693,
        -0.01050108578056097,
        0.013484741561114788,
        -0.054550595581531525,
        0.061428140848875046,
        -0.05962175875902176,
        0.07537111639976501,
        -0.047083865851163864,
        0.0842614620923996,
        -0.12611496448516846,
        0.04104020074009895,
        -0.08043477684259415,
        0.029289143159985542,
        0.09719455987215042,
        -0.031859442591667175,
        -0.026332076638936996,
        -0.0255778506398201,
        -0.05327414721250534,
        -0.10582808405160904,
        0.007702735718339682,
        0.02171533927321434,
        -0.013289020396769047,
        -0.10312344878911972,
        -0.008376332931220531,
        0.01850532926619053,
        -0.023233382031321526,
        -0.08610671013593674,
        0.0457892008125782,
        0.07897616177797318,
        -0.01595710776746273,
        -0.03692484274506569,
        0.0026012128219008446,
        0.0831151008605957,
        0.1052640974521637,
        0.012633975595235825,
        0.05580060929059982,
        0.07690007984638214,
        0.13253802061080933,
        0.057173456996679306,
        -0.09312229603528976,
        -0.08022445440292358,
        -0.015491532161831856,
        -0.04944987595081329,
        -0.02658376656472683,
        -0.01570454053580761,
        0.03981727734208107,
        -0.03121793270111084,
        0.01608291082084179,
        -0.02549806237220764,
        -0.18501663208007812,
        0.03161919489502907,
        0.015069924294948578,
        -0.08111309260129929,
        -0.16633635759353638,
        -0.15743522346019745,
        -0.028681671246886253,
        0.013949588872492313,
        0.011022090911865234,
        -0.08569082617759705,
        0.09896170347929001,
        -0.008842596784234047,
        -0.01485341414809227,
        -0.026471104472875595,
        -0.07170543819665909,
        -0.0981568843126297,
        0.028498655185103416,
        -0.046865690499544144,
        -0.01613711565732956,
        0.059465136379003525,
        -0.03782430291175842,
        0.036354511976242065,
        0.09491539746522903,
        0.020734120160341263,
        -0.11850474774837494,
        -0.05607070401310921,
        -0.030279500409960747,
        0.14832867681980133,
        -0.11366764456033707,
        0.06463351845741272,
        0.0007717706612311304,
        0.0422963947057724,
        0.14661571383476257,
        -0.031683627516031265,
        -0.01369731966406107,
        -0.11005589365959167,
        -0.09440537542104721,
        0.08847951143980026,
        0.041334159672260284,
        -0.03778458014130592,
        0.00048422967665828764,
        -0.03930126130580902,
        -0.06481432914733887,
        0.03191012144088745,
        -0.03136840835213661,
        -0.11124866455793381,
        0.022759879007935524,
        -0.037217721343040466,
        0.04928620159626007,
        0.03143853321671486,
        -0.08195154368877411,
        0.03217456489801407,
        0.0013518589548766613,
        0.010137050412595272,
        0.1229061409831047,
        -0.051559753715991974,
        -0.10697873681783676,
        0.020883433520793915,
        0.09748631715774536,
        -0.004042061511427164,
        0.06614158302545547,
        0.14757734537124634,
        -0.023530250415205956,
        0.0911666750907898,
        0.07645856589078903,
        -0.028069116175174713,
        -0.01856953464448452,
        -0.09843234717845917,
        -0.0100661376491189,
        -0.13147702813148499
      ],
      [
        -0.05522321164608002,
        0.09252334386110306,
        -0.042456042021512985,
        -0.07445525377988815,
        0.07062281668186188,
        -0.02796819992363453,
        0.03220795467495918,
        -0.016581404954195023,
        0.031221183016896248,
        0.05679475888609886,
        -0.07902935147285461,
        -0.025666872039437294,
        -0.0213208869099617,
        0.06418588012456894,
        0.055273305624723434,
        0.07293866574764252,
        -0.021181566640734673,
        -0.006695302203297615,
        -0.030436575412750244,
        -0.07342665642499924,
        -0.07411786168813705,
        -0.029738495126366615,
        -0.02626543492078781,
        0.01991548389196396,
        -0.06485853344202042,
        -0.048769429326057434,
        0.06104549765586853,
        0.03130221739411354,
        -0.08978774398565292,
        0.02969665639102459,
        -0.01847999170422554,
        -0.058144934475421906,
        -0.05161040648818016,
        -0.05806472897529602,
        -0.039678432047367096,
        0.005786656402051449,
        0.05354901775717735,
        0.03787277638912201,
        0.09948420524597168,
        0.07469317317008972,
        -0.03908013552427292,
        0.09591170400381088,
        -0.013881338760256767,
        0.046165164560079575,
        -0.04871918261051178,
        0.055123526602983475,
        -0.000546939903870225,
        0.0387004129588604,
        0.06310389935970306,
        0.013371958397328854,
        0.039928678423166275,
        0.035693299025297165,
        -0.020687628537416458,
        0.01966596022248268,
        0.04961513727903366,
        0.027778036892414093,
        0.0726470798254013,
        0.035079941153526306,
        0.05390297994017601,
        -0.02055196464061737,
        -0.007532776333391666,
        0.037334952503442764,
        0.031820863485336304,
        0.030860690400004387,
        0.04381563514471054,
        0.019625522196292877,
        0.04682257026433945,
        -0.054021645337343216,
        0.024854285642504692,
        -0.007895140908658504,
        0.028252489864826202,
        0.0370720773935318,
        -0.030600659549236298,
        0.03986360505223274,
        0.0034384261816740036,
        0.027105996385216713,
        -0.01455371268093586,
        -0.056713301688432693,
        0.03196215257048607,
        0.06387727707624435,
        0.055248212069272995,
        0.0690937489271164,
        0.05566613748669624,
        0.03846332058310509,
        0.058727964758872986,
        -0.03125648573040962,
        0.04969239607453346,
        -0.06390487402677536,
        -0.06206721439957619,
        0.10079740732908249,
        0.05152130126953125,
        0.05105479061603546,
        -0.037213608622550964,
        -0.05661929026246071,
        -0.007532730232924223,
        -0.02554764784872532,
        -0.05364556610584259,
        0.01860133372247219,
        -0.08871492743492126,
        -0.0372675359249115,
        -0.028525983914732933,
        -0.07430039346218109,
        0.0032402488868683577,
        0.008063944056630135,
        -0.02382332645356655,
        -0.013421130366623402,
        -0.033976487815380096,
        0.08356141299009323,
        0.057044126093387604,
        0.02867063879966736,
        -0.04927727207541466,
        -0.07641535997390747,
        0.029735106974840164,
        -0.011556053534150124,
        0.002928287722170353,
        -0.01490937639027834,
        -0.05279740318655968,
        -0.06057307869195938,
        0.03838098794221878,
        0.07081668823957443,
        0.06790570169687271,
        -0.06321018189191818,
        -0.01778244785964489,
        -0.08713062107563019,
        -0.0730707049369812,
        -0.07028135657310486,
        0.01192351896315813,
        -0.10496268421411514
      ],
      [
        0.0758814588189125,
        0.05300689488649368,
        -0.003049304476007819,
        0.035653676837682724,
        0.03474930301308632,
        0.09559505432844162,
        0.004358557518571615,
        0.08859226107597351,
        0.01090207975357771,
        -0.00253842631354928,
        0.06735039502382278,
        0.017569730058312416,
        0.04637368023395538,
        0.0020174465607851744,
        -0.04607873409986496,
        0.08615183085203171,
        0.0309937484562397,
        -0.028275420889258385,
        0.03954248130321503,
        -0.0528719499707222,
        0.025249050930142403,
        -0.09438738971948624,
        0.044610440731048584,
        0.050905436277389526,
        -0.051554493606090546,
        0.027872715145349503,
        -0.0006717624492011964,
        -0.018032066524028778,
        0.09185439348220825,
        -0.0029563105199486017,
        -0.08198332041501999,
        -0.06471292674541473,
        -0.006731356028467417,
        -0.05050644651055336,
        -0.06553760170936584,
        -0.05798265337944031,
        0.07277003675699234,
        -0.055073823779821396,
        -0.054343875497579575,
        -0.030405176803469658,
        0.014983373694121838,
        -0.026219762861728668,
        -0.08595939725637436,
        -0.03682894632220268,
        -0.07209903746843338,
        0.02032475359737873,
        -0.021897658705711365,
        0.08712790161371231,
        0.03146727755665779,
        -0.011770268902182579,
        0.09326065331697464,
        0.023359768092632294,
        -0.04440106824040413,
        0.06760800629854202,
        -0.02842341922223568,
        -0.0778583213686943,
        0.07837221771478653,
        0.08062689751386642,
        0.03298604488372803,
        -0.02264977991580963,
        0.09037385135889053,
        0.04940832406282425,
        -0.00938938558101654,
        0.027681153267621994,
        0.04970376566052437,
        -0.039120014756917953,
        -0.025716478005051613,
        0.056311510503292084,
        0.0296463742852211,
        -0.023519406095147133,
        0.010889995843172073,
        -0.02204282209277153,
        0.08116450160741806,
        0.07708700001239777,
        -0.08293730765581131,
        -0.0776146650314331,
        -0.06886272877454758,
        -0.006601786240935326,
        0.0074290321208536625,
        -0.05209578946232796,
        0.026638951152563095,
        -0.08525267243385315,
        0.07239896059036255,
        -0.008486703038215637,
        0.00969859678298235,
        0.04648888483643532,
        -0.020099131390452385,
        -0.04053395986557007,
        -0.033256907016038895,
        0.07301701605319977,
        -0.043759141117334366,
        -0.005365604069083929,
        -0.06564459949731827,
        -0.06466230005025864,
        0.0031707840971648693,
        0.030211718752980232,
        -0.05814868584275246,
        0.020571429282426834,
        0.09247099608182907,
        0.08480488508939743,
        -0.004538815468549728,
        0.09952828288078308,
        0.08291131258010864,
        0.05406559631228447,
        0.06890193372964859,
        0.013403782621026039,
        -0.050554584711790085,
        0.07557392865419388,
        0.012784027494490147,
        0.02571391500532627,
        0.006223623175173998,
        -0.005284447222948074,
        -0.08772729337215424,
        -0.04949326068162918,
        -0.043221767991781235,
        -0.013581998646259308,
        0.053245916962623596,
        -0.046820417046546936,
        0.004563627764582634,
        -0.04316037520766258,
        -0.02381524071097374,
        0.011233004741370678,
        0.039287980645895004,
        0.09952851384878159,
        -0.02274124138057232,
        0.08982329070568085,
        -0.0652414858341217,
        0.018100831657648087
      ],
      [
        0.035192497074604034,
        0.10370215773582458,
        0.10373663157224655,
        -0.046300068497657776,
        0.044520121067762375,
        -0.036436792463064194,
        -0.083017498254776,
        -0.03988496586680412,
        -0.05716824531555176,
        0.11915750056505203,
        0.06325506418943405,
        -0.06196131557226181,
        0.062274269759655,
        0.09205050021409988,
        0.009175905957818031,
        0.061530329287052155,
        0.13701635599136353,
        -0.0036982146557420492,
        0.016089044511318207,
        0.07291927188634872,
        0.05002117156982422,
        0.022986827418208122,
        -0.11093785613775253,
        0.048488765954971313,
        0.06055660918354988,
        -0.03861348703503609,
        -0.06318394094705582,
        0.002232707105576992,
        0.04341880977153778,
        -0.03914351761341095,
        0.04533926770091057,
        -0.01752711459994316,
        -0.0341334268450737,
        -0.03001234121620655,
        -0.03673947975039482,
        0.08463079482316971,
        0.0020793091971427202,
        -0.07357882708311081,
        0.027465002611279488,
        0.06613266468048096,
        -0.05893842503428459,
        -0.04115383327007294,
        -0.11418964713811874,
        -0.09360140562057495,
        0.021688327193260193,
        0.06591331958770752,
        0.006471066735684872,
        -0.080528125166893,
        0.09281257539987564,
        0.04542352631688118,
        -0.056917719542980194,
        0.04706732556223869,
        0.04363542050123215,
        -0.017142128199338913,
        -0.05393479764461517,
        0.09384877234697342,
        -0.051883816719055176,
        -0.029344527050852776,
        0.058159299194812775,
        0.0015719167422503233,
        0.016551489010453224,
        0.054918546229600906,
        0.0941036269068718,
        0.05228639766573906,
        -0.01596665382385254,
        -0.014370165765285492,
        0.053324636071920395,
        0.06116276979446411,
        0.01735949143767357,
        -0.052462026476860046,
        0.04392849653959274,
        -0.12560155987739563,
        -0.010975501500070095,
        -0.02306649461388588,
        -0.09241823107004166,
        0.06499077379703522,
        0.09128423035144806,
        0.06285567581653595,
        0.08852667361497879,
        0.05859878659248352,
        -0.08916123956441879,
        0.07653611153364182,
        -0.02972177043557167,
        0.047883741557598114,
        -0.08568107336759567,
        -0.009563859552145004,
        0.007208697032183409,
        0.03982103243470192,
        0.04423677176237106,
        0.06044243648648262,
        -0.07282575964927673,
        -0.06969331949949265,
        -0.1122170239686966,
        -0.07606612145900726,
        0.020395096391439438,
        0.054637715220451355,
        -0.004422949161380529,
        -0.00787213072180748,
        0.039835505187511444,
        -0.07969479262828827,
        0.024156935513019562,
        0.03350554406642914,
        -0.07790447026491165,
        -0.017599979415535927,
        0.06009207293391228,
        -0.030554274097085,
        -0.13563044369220734,
        0.07522249966859818,
        0.049706339836120605,
        0.007378421723842621,
        0.02182002365589142,
        0.07096223533153534,
        0.01656992733478546,
        0.04515352100133896,
        -0.036607254296541214,
        0.044758059084415436,
        -0.11594562232494354,
        0.0562504306435585,
        -0.05826796963810921,
        -0.08860616385936737,
        0.016930436715483665,
        -0.021952008828520775,
        0.04777034372091293,
        -0.05417820066213608,
        -0.10598305612802505,
        0.1289924830198288,
        -0.06850409507751465,
        -0.020689774304628372
      ],
      [
        -0.009997710585594177,
        0.005692646838724613,
        -0.037606243044137955,
        -0.02458689920604229,
        0.03417063504457474,
        0.039880264550447464,
        0.02995138056576252,
        0.03670978918671608,
        0.02236398309469223,
        -0.0460764542222023,
        -0.024670081213116646,
        -0.019003182649612427,
        0.030958596616983414,
        0.04630885645747185,
        0.07628285884857178,
        -0.038596201688051224,
        0.034995630383491516,
        -0.005806055385619402,
        -0.025189941748976707,
        0.052698709070682526,
        0.07035108655691147,
        0.0018732961034402251,
        -0.07240556925535202,
        0.0690130814909935,
        0.0800175666809082,
        -0.039723414927721024,
        -0.05411514639854431,
        0.09266165643930435,
        -0.09217144548892975,
        -0.015318792313337326,
        0.03513828292489052,
        0.012127509340643883,
        -0.06967528909444809,
        -0.045726556330919266,
        -0.03614964708685875,
        0.024271786212921143,
        0.061217036098241806,
        -0.0549226775765419,
        0.08232742547988892,
        0.03709870204329491,
        -0.01697319932281971,
        0.06995127350091934,
        -0.053396858274936676,
        -0.07197406142950058,
        -0.08188638836145401,
        -0.037458229809999466,
        -0.05090317130088806,
        0.031847864389419556,
        -0.08288747817277908,
        0.1341206133365631,
        0.0010955514153465629,
        0.024295035749673843,
        -0.02179338037967682,
        -0.014067543670535088,
        -0.06424545496702194,
        0.012503602541983128,
        0.061890728771686554,
        0.03054540790617466,
        0.08688990771770477,
        -0.0521429069340229,
        0.04929180070757866,
        -0.027042092755436897,
        -0.02103021740913391,
        -0.015095554292201996,
        -0.059474918991327286,
        -0.02507014013826847,
        0.0883634090423584,
        -0.031973257660865784,
        -0.047066811472177505,
        0.052826158702373505,
        -0.03382927179336548,
        0.03881046548485756,
        0.08158235251903534,
        0.04855944216251373,
        0.05074113607406616,
        0.057068437337875366,
        0.02414468489587307,
        -0.0674113929271698,
        -0.04396680369973183,
        0.0136486841365695,
        -0.023113850504159927,
        0.029508382081985474,
        0.05273038521409035,
        -0.00940174050629139,
        0.052405908703804016,
        -0.11668650805950165,
        0.04493299871683121,
        -0.07992979139089584,
        0.03977762907743454,
        0.07558981329202652,
        -0.045409344136714935,
        -0.00548127293586731,
        0.012673847377300262,
        -0.021593580022454262,
        0.07081267982721329,
        -0.06317079812288284,
        -0.020960601046681404,
        -0.01077353861182928,
        -0.10477033257484436,
        -0.004748604726046324,
        -0.00962615292519331,
        -0.0036488217301666737,
        0.0976804718375206,
        0.012143434956669807,
        0.03418328985571861,
        -0.020595766603946686,
        -0.06449863314628601,
        -0.0019202857511118054,
        -0.028501365333795547,
        -0.048808272927999496,
        -0.013224977068603039,
        0.0102138202637434,
        -0.06626944988965988,
        -0.04878166317939758,
        -0.05325065180659294,
        -0.045887891203165054,
        -0.09221257269382477,
        -0.06457974016666412,
        -0.027186566963791847,
        -0.04902563616633415,
        0.06695045530796051,
        -0.015227976255118847,
        -0.061710793524980545,
        -0.07507186383008957,
        -0.051267512142658234,
        0.037886716425418854,
        -0.08203625679016113,
        -0.020867714658379555
      ],
      [
        -0.018450215458869934,
        0.03890857845544815,
        -0.04744996875524521,
        -0.06971019506454468,
        -0.07196779549121857,
        -0.01081974059343338,
        0.0658058375120163,
        0.04022585600614548,
        -0.018578914925456047,
        -0.07871922105550766,
        -0.019657056778669357,
        -0.051064006984233856,
        0.08960051089525223,
        -0.07392922788858414,
        0.006542446091771126,
        0.03213382512331009,
        -0.12984253466129303,
        0.0720258429646492,
        -0.03974757343530655,
        0.028505077585577965,
        0.05912358686327934,
        -0.020700447261333466,
        -0.050737012177705765,
        -0.06247200071811676,
        -0.09327639639377594,
        0.01057384442538023,
        0.02636338397860527,
        -0.07424067705869675,
        -0.01593078300356865,
        0.059659600257873535,
        -0.06335094571113586,
        -0.023080550134181976,
        -0.025287628173828125,
        0.012168456800282001,
        -0.01280994899570942,
        -0.0870080217719078,
        0.06647956371307373,
        -0.028773855417966843,
        0.03512529283761978,
        -0.07304619997739792,
        0.022333085536956787,
        0.058146245777606964,
        -0.030395636335015297,
        0.150690957903862,
        0.003577857045456767,
        0.09245919436216354,
        0.10038414597511292,
        0.059239711612463,
        -0.007200835272669792,
        -0.03787965700030327,
        0.015920117497444153,
        -0.06248019263148308,
        0.062252119183540344,
        0.07108427584171295,
        -0.05115462467074394,
        -0.09417368471622467,
        0.07610608637332916,
        0.04357251152396202,
        -0.072300024330616,
        -0.07641378790140152,
        -0.01135720033198595,
        -0.01752445660531521,
        -0.005030570551753044,
        -0.17121897637844086,
        -0.090364970266819,
        -0.014948992058634758,
        -0.01723990961909294,
        -0.03839394077658653,
        0.12388277053833008,
        0.1054670587182045,
        0.043648626655340195,
        -0.0654224082827568,
        0.0597650483250618,
        -0.08751404285430908,
        -0.02588675357401371,
        0.054438915103673935,
        -0.07759487628936768,
        -0.033678602427244186,
        -0.014077371917665005,
        0.07371453195810318,
        0.027897024527192116,
        -0.09681761264801025,
        -0.06075407564640045,
        -0.09538962692022324,
        -0.009279072284698486,
        0.15846891701221466,
        0.014358453452587128,
        0.04420802742242813,
        -0.07626572996377945,
        -0.06151728704571724,
        0.09785279631614685,
        0.02736652083694935,
        -0.009664432145655155,
        -0.003261946840211749,
        -0.09051723033189774,
        -0.04429015889763832,
        0.1359420120716095,
        0.06004883721470833,
        0.010701470077037811,
        0.055287860333919525,
        -0.0675099715590477,
        0.06249833479523659,
        0.016760751605033875,
        -0.0736672654747963,
        -0.01644298993051052,
        0.006897418759763241,
        0.09895963966846466,
        -0.0019618805963546038,
        -0.11975863575935364,
        -0.02087309956550598,
        -0.02547357976436615,
        0.009014444425702095,
        0.0884862095117569,
        0.062131740152835846,
        0.04301751032471657,
        -0.008745077066123486,
        -0.011895066127181053,
        -0.07385740429162979,
        -0.011855393648147583,
        0.1639300137758255,
        0.010071266442537308,
        0.05864759162068367,
        0.027884721755981445,
        -0.06314858049154282,
        0.014750810340046883,
        -0.13100062310695648,
        -0.05950911343097687,
        0.01923125796020031
      ],
      [
        0.08959955722093582,
        0.026468610391020775,
        0.0010609147138893604,
        0.02537752129137516,
        -0.0579407699406147,
        -0.12236230075359344,
        0.009360420517623425,
        0.039327263832092285,
        0.03597792237997055,
        0.1303732991218567,
        0.052406493574380875,
        -0.02634315751492977,
        0.07314760237932205,
        -0.07423050701618195,
        0.07294109463691711,
        -0.07429532706737518,
        0.04022090137004852,
        0.0066481782123446465,
        0.05237657576799393,
        -0.07109005004167557,
        0.05553428456187248,
        0.0425678975880146,
        -0.004769544117152691,
        0.0669625997543335,
        -0.020630478858947754,
        0.045832861214876175,
        -0.06217549368739128,
        0.033231597393751144,
        0.0015627279644832015,
        -0.07000605762004852,
        0.06294745951890945,
        0.03493453562259674,
        -0.05102550983428955,
        -0.08831965178251266,
        0.08039384335279465,
        0.10983473062515259,
        0.08781582862138748,
        0.07709519565105438,
        -0.08516771346330643,
        0.07639230787754059,
        0.08103808015584946,
        0.04131205379962921,
        -0.014443588443100452,
        0.001112495083361864,
        0.05539545789361,
        0.010995142161846161,
        -0.12524105608463287,
        -0.0006820973940193653,
        -0.0676313266158104,
        0.1265023648738861,
        0.10651516914367676,
        -0.02876923233270645,
        0.06624042987823486,
        -0.016422701999545097,
        -0.040480852127075195,
        0.07265590131282806,
        0.07275481522083282,
        0.11481437087059021,
        0.12645961344242096,
        0.0670824870467186,
        0.05594367906451225,
        0.06426731497049332,
        -0.01620728336274624,
        0.0395481176674366,
        0.05053370073437691,
        0.08235301822423935,
        -0.005084279924631119,
        0.08430110663175583,
        -0.11481416970491409,
        -0.09278405457735062,
        0.06835165619850159,
        -0.014267545193433762,
        0.021244078874588013,
        0.0326436385512352,
        0.047729749232530594,
        -0.021337389945983887,
        0.10265535116195679,
        0.07515562325716019,
        0.001167029608041048,
        -0.06581757217645645,
        -0.02127995155751705,
        0.0500342957675457,
        0.08767757564783096,
        -0.05691619962453842,
        -0.029407856985926628,
        -0.07073617726564407,
        0.06426458805799484,
        -0.03739221394062042,
        0.09105432778596878,
        -0.023294877260923386,
        -0.004677924327552319,
        -0.07629426568746567,
        0.054918888956308365,
        0.023291008546948433,
        0.02193017303943634,
        0.0404982827603817,
        -0.06327183544635773,
        -0.06399302929639816,
        -0.06680218130350113,
        0.07979363948106766,
        0.08804082870483398,
        0.010421114042401314,
        0.0014589943457394838,
        0.007226813584566116,
        -0.057091210037469864,
        -0.09518954902887344,
        -0.14029040932655334,
        0.010474180802702904,
        0.11045233905315399,
        -0.025265032425522804,
        -0.05433795601129532,
        0.005437277257442474,
        0.006476298440247774,
        0.025499895215034485,
        0.051836926490068436,
        -0.08094768226146698,
        -0.06726931780576706,
        0.08199609071016312,
        -0.020225638523697853,
        -0.11088328808546066,
        -0.04813603684306145,
        0.010809089988470078,
        0.021815037354826927,
        0.0011704377830028534,
        0.02927103266119957,
        0.13055314123630524,
        0.03448396548628807,
        0.10006681829690933
      ],
      [
        -0.022258618846535683,
        -0.038378722965717316,
        -0.026528039947152138,
        0.026528537273406982,
        -0.08874919265508652,
        -0.0307433120906353,
        -0.07928052544593811,
        0.014309315010905266,
        0.059189703315496445,
        -0.06206780672073364,
        0.04349783807992935,
        0.031190818175673485,
        0.08843925595283508,
        0.0899851843714714,
        0.07661262899637222,
        0.04088336601853371,
        0.01337969396263361,
        0.08253046125173569,
        -0.05428675562143326,
        0.08442089706659317,
        0.09530625492334366,
        0.053770482540130615,
        -0.017545605078339577,
        0.004411947447806597,
        0.030351316556334496,
        0.02721978724002838,
        0.08243343234062195,
        0.019636856392025948,
        0.03077666088938713,
        -0.006092627998441458,
        -0.04105393961071968,
        -0.020755037665367126,
        -0.05644240975379944,
        -0.05802015960216522,
        -0.058884959667921066,
        0.01445883046835661,
        0.037689294666051865,
        0.036620527505874634,
        0.019279586151242256,
        -0.08690870553255081,
        0.06042620539665222,
        0.05879703536629677,
        0.05154673382639885,
        -0.08044616878032684,
        0.022326340898871422,
        0.034737713634967804,
        -0.041562993079423904,
        0.010859694331884384,
        0.005202694796025753,
        -0.056198492646217346,
        -0.038912221789360046,
        0.06796017289161682,
        0.013389135710895061,
        0.023313483223319054,
        0.040061675012111664,
        0.061056457459926605,
        0.00974160898476839,
        -0.025721795856952667,
        0.06769541651010513,
        -0.04215806722640991,
        -0.07971123605966568,
        -0.04310131445527077,
        0.03167453035712242,
        -0.0433807298541069,
        -0.05923407897353172,
        0.10202892124652863,
        -0.013247949071228504,
        0.031631819903850555,
        -0.10965543985366821,
        0.022331399843096733,
        0.09493615478277206,
        0.09070298820734024,
        -0.08930668234825134,
        -0.0015667469706386328,
        0.049296166747808456,
        0.09558533877134323,
        0.0820607915520668,
        -0.1031535193324089,
        -0.04507479816675186,
        -0.06299091875553131,
        0.050762079656124115,
        -0.09046487510204315,
        0.008445731364190578,
        0.0809677317738533,
        0.001963098533451557,
        -0.060808368027210236,
        0.05892122536897659,
        -0.018254593014717102,
        0.07613889127969742,
        -0.07141250371932983,
        0.03475756570696831,
        -0.008126774802803993,
        -0.06332371383905411,
        0.010410388931632042,
        -0.05555015057325363,
        0.049102507531642914,
        0.025063591077923775,
        -0.09704913944005966,
        0.007498244754970074,
        -0.032435279339551926,
        -0.011658553034067154,
        -0.1094789132475853,
        -0.07268509268760681,
        -0.07269029319286346,
        0.02755770832300186,
        -0.01620514690876007,
        0.012743804603815079,
        -0.10558857768774033,
        -0.015387943014502525,
        -0.08790643513202667,
        -0.005026098806411028,
        -0.050003957003355026,
        0.0642344206571579,
        -0.0333392471075058,
        0.011810500174760818,
        0.060224469751119614,
        -0.06782787293195724,
        0.09927040338516235,
        -0.053599219769239426,
        -0.039350803941488266,
        -0.0956890732049942,
        -0.001604584394954145,
        0.10144387185573578,
        0.0512579046189785,
        0.016746055334806442,
        0.0022403746843338013,
        0.06314124912023544,
        -0.03441635146737099
      ],
      [
        0.045364413410425186,
        -0.065205879509449,
        -0.03776291012763977,
        0.09381714463233948,
        -0.08529826253652573,
        -0.053793080151081085,
        -0.010212259367108345,
        -0.02157837525010109,
        0.02810254693031311,
        -0.05526966601610184,
        -0.01775830052793026,
        0.10738818347454071,
        0.08723290264606476,
        -0.04423154890537262,
        0.028237802907824516,
        -0.08937343955039978,
        0.07261501997709274,
        0.0033176576253026724,
        -0.00067709299037233,
        0.0989384725689888,
        0.08000098168849945,
        -0.001287579769268632,
        -0.022816888988018036,
        0.037065066397190094,
        -0.07214348763227463,
        0.029578957706689835,
        -0.0072846198454499245,
        -0.07632314413785934,
        0.0678584948182106,
        -0.035613056272268295,
        0.0013466035015881062,
        -0.01945371925830841,
        0.03614908456802368,
        0.06461986154317856,
        0.03536422550678253,
        0.020193379372358322,
        -0.009697084315121174,
        -0.04887117072939873,
        -0.10662348568439484,
        -0.045572876930236816,
        -0.0888916403055191,
        -0.04242163151502609,
        0.055847760289907455,
        -0.11487181484699249,
        -0.03901149705052376,
        0.07145091146230698,
        -0.05273936316370964,
        0.0068616922944784164,
        0.011268061585724354,
        -0.042794596403837204,
        0.011692268773913383,
        -0.04438934847712517,
        -0.08183688670396805,
        0.04762692004442215,
        0.02075817622244358,
        0.05588224530220032,
        -0.023604147136211395,
        -0.02306210994720459,
        0.05636555328965187,
        0.01566646620631218,
        -0.02798342891037464,
        0.035692717880010605,
        0.07181534916162491,
        0.09961163252592087,
        0.03835247457027435,
        0.014255876652896404,
        -0.07461977750062943,
        0.006772870197892189,
        -0.07185819000005722,
        -0.03825940191745758,
        -0.028609158471226692,
        0.007428573444485664,
        -0.0691787376999855,
        0.040979623794555664,
        0.001898611313663423,
        0.09001539647579193,
        0.004603649023920298,
        0.03682192414999008,
        -0.02702172100543976,
        -0.043470799922943115,
        -0.027890028432011604,
        -0.04876980930566788,
        -0.07208527624607086,
        -0.045846085995435715,
        -0.08259055763483047,
        0.027067380025982857,
        -0.016747819259762764,
        0.008860025554895401,
        0.057519834488630295,
        -0.004258766304701567,
        -0.0018748913425952196,
        -0.03368373587727547,
        -0.026558397337794304,
        -0.003588599618524313,
        -0.07073532789945602,
        0.015939677134156227,
        -0.0036566592752933502,
        -0.08931726962327957,
        0.08643195778131485,
        -0.09233865141868591,
        -0.007603443693369627,
        -0.010936823673546314,
        0.04008271545171738,
        -0.002171735977753997,
        -0.0009399427799507976,
        0.039960574358701706,
        0.07207503169775009,
        -0.025001173838973045,
        -0.015629421919584274,
        -0.1008036732673645,
        0.016296179965138435,
        -0.02530483528971672,
        0.032051246613264084,
        0.0258713960647583,
        0.027192963287234306,
        -0.08550594747066498,
        -0.1160302683711052,
        -0.013630745001137257,
        -0.010251282714307308,
        0.03434141352772713,
        -0.018911613151431084,
        -0.011997892521321774,
        -0.03679811209440231,
        -0.03567751497030258,
        0.03177953511476517,
        -0.013906767591834068,
        0.08558125048875809,
        -0.015413660556077957
      ],
      [
        -0.10579576343297958,
        -0.005643892101943493,
        0.026611922308802605,
        0.11982762068510056,
        -0.09439060837030411,
        0.06862913817167282,
        0.009467649273574352,
        -0.034248895943164825,
        -0.044007956981658936,
        0.02320600114762783,
        0.0338018499314785,
        0.013518893159925938,
        0.046109605580568314,
        0.06400737911462784,
        0.007951894775032997,
        0.02298225462436676,
        -0.06001737341284752,
        0.04121248796582222,
        0.04237274080514908,
        0.04565407335758209,
        -0.03992500156164169,
        -0.0629611685872078,
        0.011345677077770233,
        0.07843635231256485,
        0.04041566327214241,
        0.00953927356749773,
        0.038261447101831436,
        -0.07048828899860382,
        -0.01758090779185295,
        0.019798653200268745,
        0.006145719438791275,
        0.041415680199861526,
        0.06337486952543259,
        -0.07497218996286392,
        0.028440158814191818,
        -0.012587515637278557,
        -0.054588738828897476,
        -0.07902062684297562,
        0.019383706152439117,
        -0.07113351672887802,
        0.006611299235373735,
        0.06491036713123322,
        -0.03582398593425751,
        0.07764456421136856,
        -0.05883711576461792,
        -0.009408407844603062,
        0.082825668156147,
        0.03917785733938217,
        0.03490849584341049,
        -0.11562296748161316,
        0.07281315326690674,
        -0.06493038684129715,
        0.0589141882956028,
        -0.08995897322893143,
        -0.053571734577417374,
        0.02049560844898224,
        0.054793573915958405,
        -0.07428072392940521,
        -0.025965258479118347,
        -0.010246285237371922,
        0.019207607954740524,
        0.03116493672132492,
        -0.04252201318740845,
        0.0019497863249853253,
        -0.06338052451610565,
        0.06028085574507713,
        -0.034426379948854446,
        -0.05797154828906059,
        0.0665113627910614,
        0.09586276113986969,
        0.08237357437610626,
        0.06813985854387283,
        -0.10377693921327591,
        -0.011380382813513279,
        0.03836474195122719,
        -0.01766478456556797,
        0.03832864761352539,
        -0.04185642674565315,
        0.06294915080070496,
        -0.009283735416829586,
        0.017481304705142975,
        -0.02980177290737629,
        -0.007277418859302998,
        0.07296569645404816,
        -0.022373108193278313,
        -0.019910981878638268,
        7.277325494214892e-06,
        0.00977324042469263,
        -0.0873742401599884,
        0.061938755214214325,
        -0.05598396807909012,
        0.04375766962766647,
        -0.03504377231001854,
        -0.028226234018802643,
        0.019174201413989067,
        -0.005271737463772297,
        -0.04844224080443382,
        -0.06315191090106964,
        0.06944041699171066,
        -0.004300326574593782,
        0.07537891715765,
        0.028963536024093628,
        0.018413256853818893,
        -0.03257853537797928,
        -0.0031024860218167305,
        -0.08922838419675827,
        -0.022144122049212456,
        -0.08093775808811188,
        -0.09109126031398773,
        -0.016100823879241943,
        -0.047981731593608856,
        0.018512524664402008,
        -0.05764683708548546,
        0.05303572863340378,
        0.0183020681142807,
        0.004783721175044775,
        0.015730565413832664,
        -0.044903162866830826,
        -0.07495586574077606,
        0.04747099429368973,
        -0.004027286544442177,
        0.02639748901128769,
        0.03309903293848038,
        -0.044849127531051636,
        0.08962076902389526,
        -0.10562901943922043,
        0.08650465309619904,
        -0.07906472682952881
      ],
      [
        -0.09688928723335266,
        -0.027255091816186905,
        -0.09260040521621704,
        -0.05467815697193146,
        -0.053613048046827316,
        0.1243632361292839,
        -0.06062793359160423,
        0.017510123550891876,
        0.05927135422825813,
        0.011630423367023468,
        0.08767890930175781,
        0.0083731384947896,
        -0.10405297577381134,
        -0.06203680858016014,
        -0.011294598691165447,
        -0.025244390591979027,
        -0.06067593768239021,
        0.0015463002491742373,
        -0.07665038108825684,
        -0.05231308937072754,
        -0.02004825882613659,
        -0.056436650454998016,
        -0.007915004156529903,
        0.016937971115112305,
        -0.006105773616582155,
        0.031078653410077095,
        -0.038634251803159714,
        0.0448753647506237,
        -0.019784454256296158,
        0.020499318838119507,
        -0.09798029810190201,
        -0.024187300354242325,
        0.013032350689172745,
        0.01500210165977478,
        0.008723345585167408,
        -0.06402333825826645,
        -0.07733799517154694,
        -0.035337384790182114,
        -0.005054742097854614,
        0.08083838224411011,
        0.018833935260772705,
        0.05406681075692177,
        0.12140084058046341,
        0.03881433233618736,
        -0.02563590370118618,
        0.06258992105722427,
        0.1456819474697113,
        0.018239783123135567,
        0.0693269670009613,
        -0.028111174702644348,
        0.07120916247367859,
        0.002459266921505332,
        0.07987748831510544,
        0.04360305890440941,
        0.025498004630208015,
        0.007408219389617443,
        0.06818798184394836,
        -0.0396084189414978,
        -0.0980297327041626,
        -0.04042987525463104,
        -0.016275055706501007,
        -0.01623663865029812,
        -0.14566576480865479,
        0.0022707502357661724,
        0.04501748085021973,
        0.027577750384807587,
        0.014433584176003933,
        -0.09742746502161026,
        0.05276074260473251,
        0.04212261363863945,
        -0.0314691960811615,
        0.11390124261379242,
        -0.0025204839184880257,
        -0.09538176655769348,
        0.05943077430129051,
        -0.08789166063070297,
        -0.011833380907773972,
        0.06238836050033569,
        0.04947493225336075,
        -0.06583017110824585,
        0.10960289090871811,
        -0.05977442115545273,
        -0.005427605006843805,
        -0.10603256523609161,
        0.08895973116159439,
        -0.013901096768677235,
        0.04202643781900406,
        0.0793885812163353,
        0.02479838952422142,
        -0.06363517791032791,
        0.0015132914995774627,
        -0.0731024444103241,
        0.028841283172369003,
        0.0074750808998942375,
        -0.04544472321867943,
        0.03609419986605644,
        -0.005016637966036797,
        -0.036750372499227524,
        0.07173272967338562,
        0.07642797380685806,
        -0.052368514239788055,
        0.05248839035630226,
        -0.03220043331384659,
        0.00877280905842781,
        0.0339452363550663,
        0.07044975459575653,
        0.05287441611289978,
        0.03474440425634384,
        -0.0030392706394195557,
        -0.01100908499211073,
        0.010381202213466167,
        0.035015009343624115,
        -0.005581706762313843,
        0.0011649078223854303,
        -0.1086258664727211,
        0.049359001219272614,
        0.033090587705373764,
        -0.01965782418847084,
        0.028335407376289368,
        0.1340121030807495,
        -0.005643812008202076,
        0.004247646778821945,
        0.019756080582737923,
        -0.02579204924404621,
        -0.0570857897400856,
        0.01298697479069233,
        0.06446383148431778,
        -0.11707005649805069
      ],
      [
        0.05778810754418373,
        0.04357593506574631,
        0.017170673236250877,
        -0.09330418705940247,
        0.011613201349973679,
        -0.04722921922802925,
        -0.0673302486538887,
        -0.05119913071393967,
        -0.07564408332109451,
        0.022829391062259674,
        -0.0260259211063385,
        -0.058955855667591095,
        -0.019849814474582672,
        0.05385275185108185,
        0.002592663047835231,
        -0.029249992221593857,
        0.05618970841169357,
        -0.05246599391102791,
        -0.11220564693212509,
        0.040702350437641144,
        -0.107087142765522,
        -0.07774776965379715,
        0.07671907544136047,
        0.061088841408491135,
        0.07714236527681351,
        -0.05072827637195587,
        -0.09533631056547165,
        0.07942021638154984,
        -0.09020308405160904,
        -0.043085839599370956,
        0.03087618015706539,
        -0.06350521743297577,
        0.05304476246237755,
        0.07423102110624313,
        -0.004454344976693392,
        0.014624622650444508,
        0.09604299813508987,
        -0.009704978205263615,
        -0.026887312531471252,
        0.008543589152395725,
        -0.017299693077802658,
        0.06977289170026779,
        0.032934240996837616,
        0.09816277027130127,
        -0.04918858781456947,
        -0.08145753294229507,
        -0.027931952849030495,
        0.0722111389040947,
        -0.06799449026584625,
        0.021062271669507027,
        0.06006932631134987,
        -0.00909559428691864,
        0.029264306649565697,
        -0.02781454101204872,
        0.05799323320388794,
        0.00080869096564129,
        -0.05934745445847511,
        -0.08808919787406921,
        -0.08521068841218948,
        0.07555774599313736,
        -0.04406092315912247,
        -0.037120137363672256,
        -0.09028440713882446,
        -0.10616178810596466,
        -0.09733481705188751,
        0.04658842831850052,
        -0.03622329607605934,
        -0.1093292087316513,
        0.008329257369041443,
        -0.058539170771837234,
        -0.1025918647646904,
        -0.013118308037519455,
        -0.030673451721668243,
        -0.09103643149137497,
        -0.03790063410997391,
        -0.07679730653762817,
        0.010731314308941364,
        0.00292863673530519,
        -0.09183723479509354,
        0.03441465273499489,
        -0.061588484793901443,
        0.07338151335716248,
        -0.09332472831010818,
        -0.08640965074300766,
        0.006077260244637728,
        -0.017905915156006813,
        0.0431760773062706,
        -0.027486730366945267,
        -0.01835513301193714,
        0.09338515251874924,
        0.039080191403627396,
        0.05851804465055466,
        -0.08141661435365677,
        0.06476988643407822,
        0.023396741598844528,
        -0.01224901806563139,
        -0.014280853793025017,
        -0.0034563641529530287,
        -0.08020205050706863,
        0.05943920090794563,
        -0.010970751754939556,
        -0.03426538035273552,
        0.06838508695363998,
        -0.035534705966711044,
        -0.02997881919145584,
        0.06997460126876831,
        -0.053920064121484756,
        -0.06589943170547485,
        -0.09033782035112381,
        -0.0188994612544775,
        0.07880672067403793,
        -0.03797253221273422,
        0.037726376205682755,
        -0.06949274986982346,
        0.0010069089476019144,
        0.09770794957876205,
        0.08404334634542465,
        -0.023340724408626556,
        -0.039979781955480576,
        0.020181642845273018,
        -0.02680099941790104,
        0.008670161478221416,
        0.06259699910879135,
        -0.01674109324812889,
        0.015703415498137474,
        -0.11586910486221313,
        0.07251353561878204,
        -0.020354365929961205
      ],
      [
        0.05485451593995094,
        0.057229183614254,
        -0.10388985276222229,
        -0.0693822056055069,
        0.07534582912921906,
        -0.003978725988417864,
        0.038976654410362244,
        -0.08346949517726898,
        0.028048859909176826,
        -0.09502796828746796,
        0.02021891623735428,
        0.08902761340141296,
        -0.06521973758935928,
        0.04006880521774292,
        0.04502452537417412,
        0.01624629832804203,
        -0.06032553315162659,
        0.059105284512043,
        -0.07206638157367706,
        -0.0812569335103035,
        0.03977029770612717,
        -0.003303432371467352,
        0.10982689261436462,
        0.06792806088924408,
        -0.018992213532328606,
        0.04788641259074211,
        -0.01470621582120657,
        -0.030453765764832497,
        -0.07800649851560593,
        0.09097810089588165,
        0.009321769699454308,
        -0.14178842306137085,
        0.04213174805045128,
        -0.020831333473324776,
        0.016103306785225868,
        -0.03683534264564514,
        -0.02204851806163788,
        -0.012243233621120453,
        -0.006525710690766573,
        -0.04714684933423996,
        -0.06026766821742058,
        -0.020932992920279503,
        0.07256556302309036,
        -0.02634749747812748,
        0.07338118553161621,
        -0.007920827716588974,
        0.11622542887926102,
        -0.042980026453733444,
        0.0359627902507782,
        1.91020080819726e-06,
        -0.04585420340299606,
        -0.03860989212989807,
        0.047246575355529785,
        -0.043379660695791245,
        -0.11432107537984848,
        0.03217704966664314,
        0.06587380915880203,
        0.009053787216544151,
        -0.148779958486557,
        -0.0034292698837816715,
        0.0033484904561191797,
        0.06053970009088516,
        -0.10745862871408463,
        -0.05156194791197777,
        -0.038804326206445694,
        0.046099357306957245,
        -0.0814719945192337,
        0.005907033570110798,
        0.06989359110593796,
        0.12207939475774765,
        0.025573240593075752,
        -0.010007452219724655,
        -0.04008818790316582,
        -0.05993535369634628,
        0.027237780392169952,
        0.0055158077739179134,
        -0.10050854086875916,
        -0.0727587416768074,
        -0.016849132254719734,
        -0.08591873943805695,
        0.013208522461354733,
        -0.009159927256405354,
        -0.03721550852060318,
        -0.1013089269399643,
        0.06235726550221443,
        0.07834701240062714,
        0.004056993871927261,
        0.009741801768541336,
        0.05521717295050621,
        0.07164140790700912,
        -0.0022140133660286665,
        0.022043971344828606,
        -0.04452017322182655,
        -0.05663025379180908,
        -0.09084784984588623,
        -0.01652493327856064,
        0.11089987307786942,
        0.08695320039987564,
        -0.015928730368614197,
        0.056038085371255875,
        0.0827150046825409,
        0.05007580667734146,
        0.05120842903852463,
        0.01391129195690155,
        0.09107774496078491,
        0.015071703121066093,
        0.10366136580705643,
        0.06339135020971298,
        -0.0665636733174324,
        -0.023170094937086105,
        0.0007448238902725279,
        -0.08520067483186722,
        0.057256877422332764,
        -0.03892231732606888,
        -0.09113317728042603,
        0.07771610468626022,
        0.11944819241762161,
        0.043523795902729034,
        0.06932294368743896,
        0.07119777798652649,
        0.004353748634457588,
        -0.031170792877674103,
        -0.009394947439432144,
        -0.10275620222091675,
        0.06368563324213028,
        -0.105145163834095,
        -0.032473739236593246,
        0.022330205887556076
      ],
      [
        0.04053556174039841,
        -0.0024936420377343893,
        -0.052551381289958954,
        0.07661550492048264,
        0.04843345656991005,
        0.09201548248529434,
        0.028365349397063255,
        -0.007946477271616459,
        0.05059131234884262,
        -0.1111159548163414,
        0.05371906980872154,
        0.023357724770903587,
        0.07511108368635178,
        -0.04062995687127113,
        -0.029208119958639145,
        0.06418322026729584,
        -0.02909230813384056,
        0.012673835270106792,
        -0.14389730989933014,
        -0.031044885516166687,
        0.015573709271848202,
        0.11297498643398285,
        0.12994606792926788,
        -0.05526043847203255,
        -0.07733824104070663,
        0.040536850690841675,
        0.0009798635728657246,
        0.023692740127444267,
        -0.055466219782829285,
        0.045228105038404465,
        -0.07865384966135025,
        -0.08914978057146072,
        -0.038917336612939835,
        -0.07983801513910294,
        -0.10773790627717972,
        -0.05270488187670708,
        -0.07367789000272751,
        -0.016796527430415154,
        -0.02256806567311287,
        -0.008496155962347984,
        0.06895782798528671,
        -0.01188189908862114,
        0.07761719077825546,
        -0.02695241943001747,
        0.01926310360431671,
        -0.07505746185779572,
        0.08445469290018082,
        -0.05797714367508888,
        -0.08499069511890411,
        -0.10829746723175049,
        0.03617626801133156,
        0.035915300250053406,
        0.0933331847190857,
        -0.012390132062137127,
        -0.05669998377561569,
        -0.0026985665317624807,
        -0.058979764580726624,
        0.023280596360564232,
        0.00028547452529892325,
        -0.06421668082475662,
        0.07284882664680481,
        -0.04989175498485565,
        -0.015567280352115631,
        -0.10326880216598511,
        -0.0732056051492691,
        0.01615467108786106,
        0.01754535548388958,
        -0.01781437173485756,
        0.012532311491668224,
        0.12754303216934204,
        -0.07999349385499954,
        0.04705248773097992,
        0.017336072400212288,
        -0.10442543774843216,
        0.03468497842550278,
        -0.04152800887823105,
        -0.010363880544900894,
        -0.05360471457242966,
        -0.02264811471104622,
        -0.08462424576282501,
        0.06143411621451378,
        0.06702453643083572,
        0.007038854993879795,
        -0.06782852858304977,
        0.07360751926898956,
        0.08808378130197525,
        -0.04852110892534256,
        -0.0037708384916186333,
        0.06713801622390747,
        -0.0803580954670906,
        0.13414624333381653,
        0.05385959520936012,
        0.06234300881624222,
        0.008012603037059307,
        -0.11861256510019302,
        0.053506527096033096,
        0.04125615581870079,
        -0.03208078071475029,
        0.06860297173261642,
        0.08254633098840714,
        0.021601149812340736,
        -0.05529863014817238,
        0.027539188042283058,
        -0.03618839383125305,
        0.008731558918952942,
        -0.02774457447230816,
        0.09991471469402313,
        0.06405026465654373,
        -0.07723578810691833,
        -0.027939967811107635,
        0.06232999265193939,
        -0.09501569718122482,
        0.05276455357670784,
        -0.04291960224509239,
        -0.022926485165953636,
        -0.060914114117622375,
        0.09219155460596085,
        0.06006554514169693,
        -0.07224562019109726,
        0.09864618629217148,
        -0.012662513181567192,
        0.12364532053470612,
        -0.05073382332921028,
        -0.0684887021780014,
        0.01571374200284481,
        -0.14578762650489807,
        -0.011187409050762653,
        -0.09508049488067627
      ],
      [
        -0.02464836649596691,
        -0.013021565973758698,
        -0.08944415301084518,
        0.048378556966781616,
        0.05259818956255913,
        -0.00583998765796423,
        -0.026729721575975418,
        0.06958642601966858,
        0.03666982427239418,
        -0.12320710718631744,
        0.07051675766706467,
        -0.08655693382024765,
        0.03824363648891449,
        0.0387580581009388,
        -0.006751229986548424,
        -0.08385487645864487,
        -0.12702758610248566,
        0.13735929131507874,
        -0.14693206548690796,
        -0.0750400573015213,
        -0.1158597469329834,
        0.021921521052718163,
        0.08422864228487015,
        -0.0734623521566391,
        0.0487184077501297,
        0.03440747410058975,
        -0.04302361607551575,
        -0.08483998477458954,
        0.05225500091910362,
        0.06488630175590515,
        -0.06652267277240753,
        -0.046284329146146774,
        0.02790837734937668,
        -0.06031271815299988,
        -0.12709645926952362,
        -0.14080840349197388,
        -0.08068498969078064,
        -0.06444165855646133,
        -0.032988570630550385,
        -0.013062494806945324,
        -0.059309929609298706,
        0.08650811016559601,
        0.0354372039437294,
        0.11113623529672623,
        -0.08416561037302017,
        -0.02053493820130825,
        0.00962953269481659,
        0.10124511271715164,
        -0.05460186302661896,
        -0.11340232938528061,
        0.05035313591361046,
        -0.0020331840496510267,
        0.09213568270206451,
        -0.04636920988559723,
        -0.0961989089846611,
        0.018889175727963448,
        0.050577886402606964,
        -0.016486067324876785,
        -0.03648202493786812,
        0.002314681652933359,
        0.04080239310860634,
        -0.07543583959341049,
        -0.1036764457821846,
        -0.010242527350783348,
        -0.12564650177955627,
        -0.01587088033556938,
        -0.06522800028324127,
        -0.01049447525292635,
        0.13890273869037628,
        0.10985644906759262,
