{
  "policy_type": "mappo_timeout_policy",
  "algorithm": "llm_mappo_ctde_gae",
  "episodes": 5000,
  "nodes": 75,
  "seed": 7,
  "hidden_dim": 128,
  "features": [
    "bias",
    "rtt_norm",
    "loss_rate",
    "log_gap_norm",
    "recent_split"
  ],
  "global_features": [
    "node_count_norm",
    "alive_fraction",
    "mean_rtt_norm",
    "mean_loss",
    "mean_log_gap_norm",
    "recent_split",
    "round_index_norm",
    "recent_split_fraction",
    "best_node_quality_norm"
  ],
  "arms": {
    "very_short": [
      150.0,
      230.0
    ],
    "short": [
      280.0,
      420.0
    ],
    "medium": [
      520.0,
      760.0
    ],
    "long": [
      900.0,
      1300.0
    ],
    "very_long": [
      1450.0,
      2100.0
    ]
  },
  "actor_critic": {
    "actor.0.weight": [
      [
        0.04475024342536926,
        -0.32508862018585205,
        0.08256036043167114,
        0.05656170845031738,
        -0.2494145929813385
      ],
      [
        -0.05773511156439781,
        -0.24629423022270203,
        0.13057050108909607,
        -0.1580502688884735,
        0.34710443019866943
      ],
      [
        0.3453451097011566,
        -0.02922869846224785,
        -0.27111178636550903,
        -0.3497508764266968,
        -0.09003488719463348
      ],
      [
        -0.13197246193885803,
        0.15343350172042847,
        -0.4269453287124634,
        0.4283926784992218,
        -0.4030945301055908
      ],
      [
        0.34405696392059326,
        -0.021939076483249664,
        0.2880517840385437,
        0.21491873264312744,
        0.051438238471746445
      ],
      [
        0.08652569353580475,
        0.4244897663593292,
        0.20448468625545502,
        0.3256679177284241,
        -0.30955860018730164
      ],
      [
        0.2937731146812439,
        0.2221916764974594,
        0.18752935528755188,
        0.11449065804481506,
        0.27154630422592163
      ],
      [
        0.42129966616630554,
        -0.13792212307453156,
        -0.2918440103530884,
        -0.1842648833990097,
        -0.26747357845306396
      ],
      [
        0.21672166883945465,
        -0.16308321058750153,
        -0.17701615393161774,
        0.4222157895565033,
        0.45468515157699585
      ],
      [
        0.05716667324304581,
        -0.16496536135673523,
        -0.1500980257987976,
        0.14271913468837738,
        -0.4886144697666168
      ],
      [
        -0.37215089797973633,
        0.3307913541793823,
        0.4149475693702698,
        -0.005356432404369116,
        -0.38727107644081116
      ],
      [
        0.018626654520630836,
        -0.2730075716972351,
        -0.06957906484603882,
        0.1695849597454071,
        0.15489932894706726
      ],
      [
        -0.04206037148833275,
        -0.03295231610536575,
        0.03504013270139694,
        -0.431316614151001,
        -0.20947399735450745
      ],
      [
        0.023464925587177277,
        -0.3115774095058441,
        -0.25742441415786743,
        0.10962007939815521,
        0.21916431188583374
      ],
      [
        0.02223556488752365,
        -0.2562585175037384,
        0.15777675807476044,
        -0.30631744861602783,
        -0.16116344928741455
      ],
      [
        0.4169917404651642,
        0.10864833742380142,
        0.059826117008924484,
        0.14846201241016388,
        -0.11336379498243332
      ],
      [
        0.39468997716903687,
        -0.4537876546382904,
        -0.21731489896774292,
        -0.16193252801895142,
        -0.254337877035141
      ],
      [
        -0.1184997484087944,
        0.36522313952445984,
        0.3376738429069519,
        0.10944781452417374,
        0.45333239436149597
      ],
      [
        -0.2956897020339966,
        -0.3562713861465454,
        0.10784149914979935,
        -0.09985706955194473,
        -0.4680600166320801
      ],
      [
        -0.31325268745422363,
        -0.31432729959487915,
        0.3009463846683502,
        0.18868963420391083,
        0.31366485357284546
      ],
      [
        -0.3062853217124939,
        -0.5149100422859192,
        -0.37767574191093445,
        -0.00949769839644432,
        -0.14848539233207703
      ],
      [
        -0.30109405517578125,
        0.3458259105682373,
        -0.11993178725242615,
        -0.2025674283504486,
        0.20252825319766998
      ],
      [
        -0.1345585435628891,
        0.3340795338153839,
        0.1591573804616928,
        0.0833519846200943,
        0.11294827610254288
      ],
      [
        -0.3234870433807373,
        -0.3117491900920868,
        -0.2879739999771118,
        -0.31543663144111633,
        0.03402714431285858
      ],
      [
        0.09577719867229462,
        -0.2104455977678299,
        0.26324641704559326,
        -0.31503990292549133,
        0.10142278671264648
      ],
      [
        -0.11570985615253448,
        -0.4693481922149658,
        -0.3786376118659973,
        0.11665867269039154,
        0.1283244788646698
      ],
      [
        -0.2682422995567322,
        -0.18126364052295685,
        -0.4639822840690613,
        0.2209583967924118,
        0.35771194100379944
      ],
      [
        0.1639227271080017,
        -0.33426183462142944,
        0.17387601733207703,
        0.2896978557109833,
        -0.12659786641597748
      ],
      [
        -0.06698243319988251,
        0.08921510726213455,
        -0.01102803647518158,
        -0.203220397233963,
        -0.45778125524520874
      ],
      [
        -0.30081573128700256,
        0.06015719100832939,
        0.015250969678163528,
        0.42218533158302307,
        0.041286297142505646
      ],
      [
        -0.09766494482755661,
        -0.5249737501144409,
        -0.5046424269676208,
        0.10131154954433441,
        0.339359849691391
      ],
      [
        -0.004945382010191679,
        -0.49310192465782166,
        0.06136992946267128,
        0.2797604501247406,
        -0.3619336783885956
      ],
      [
        -0.11355780810117722,
        0.10851941257715225,
        -0.1800149828195572,
        -0.338232159614563,
        0.23021483421325684
      ],
      [
        -0.352920800447464,
        -0.05735551193356514,
        -0.17967909574508667,
        0.404753714799881,
        0.10399316996335983
      ],
      [
        0.21504899859428406,
        -0.38615381717681885,
        0.29233503341674805,
        -0.035980891436338425,
        -0.3112873435020447
      ],
      [
        -0.016031725332140923,
        -0.40027597546577454,
        -0.10911962389945984,
        0.17789210379123688,
        -0.2620745003223419
      ],
      [
        0.3727428913116455,
        0.16846507787704468,
        -0.0445670410990715,
        0.16453072428703308,
        -0.07021255046129227
      ],
      [
        -0.07928810268640518,
        -0.34510332345962524,
        0.2037937045097351,
        0.2310105860233307,
        0.14836476743221283
      ],
      [
        0.2468395233154297,
        0.5215944647789001,
        0.5014412999153137,
        -0.3883407711982727,
        0.15886683762073517
      ],
      [
        -0.03254067525267601,
        0.07133278995752335,
        -0.171320378780365,
        0.04913744330406189,
        -0.46754756569862366
      ],
      [
        0.17752781510353088,
        0.4119049310684204,
        -0.0960041880607605,
        -0.35154759883880615,
        -0.39838191866874695
      ],
      [
        -0.10659896582365036,
        0.05159289389848709,
        0.11308133602142334,
        0.09993758797645569,
        0.36021676659584045
      ],
      [
        -0.08440625667572021,
        0.21774472296237946,
        -0.14247870445251465,
        0.5126941204071045,
        0.23058584332466125
      ],
      [
        -0.07318821549415588,
        0.38843652606010437,
        0.25800594687461853,
        0.1547265350818634,
        -0.0689380094408989
      ],
      [
        0.061978552490472794,
        0.004814920946955681,
        -0.29301562905311584,
        0.001770349801518023,
        0.06054980680346489
      ],
      [
        -0.24372053146362305,
        0.03240472078323364,
        -0.20044298470020294,
        -0.4048662483692169,
        -0.3109269142150879
      ],
      [
        -0.361532062292099,
        0.19350484013557434,
        0.3680829107761383,
        0.48275768756866455,
        0.509334921836853
      ],
      [
        0.17059053480625153,
        0.2966025173664093,
        0.005830167792737484,
        0.4390985667705536,
        -0.1250230222940445
      ],
      [
        -0.09992451965808868,
        -0.2072487771511078,
        -0.3639802634716034,
        -0.39942413568496704,
        -0.13727690279483795
      ],
      [
        0.3853190839290619,
        -0.24305717647075653,
        -0.43222513794898987,
        -0.15827111899852753,
        0.4180581867694855
      ],
      [
        0.1211550161242485,
        -0.09621904790401459,
        -0.19906538724899292,
        0.3048692047595978,
        -0.4677160680294037
      ],
      [
        0.2431747019290924,
        0.17837680876255035,
        0.34074071049690247,
        -0.21107809245586395,
        -0.11183702200651169
      ],
      [
        -0.20319409668445587,
        0.5132808685302734,
        0.026608781889081,
        -0.36344268918037415,
        0.27671417593955994
      ],
      [
        0.060934796929359436,
        0.07021751254796982,
        -0.2832881212234497,
        -0.4274864196777344,
        0.42692551016807556
      ],
      [
        -0.3282078802585602,
        -0.17311440408229828,
        -0.17483142018318176,
        0.18333695828914642,
        -0.43393656611442566
      ],
      [
        -0.23539969325065613,
        -0.26200029253959656,
        -0.2535208761692047,
        0.22249159216880798,
        0.28388532996177673
      ],
      [
        0.1747911125421524,
        0.4280685484409332,
        -0.22945114970207214,
        0.053036559373140335,
        -0.3306015729904175
      ],
      [
        0.03289695829153061,
        -0.4335453510284424,
        -0.48718056082725525,
        0.21765339374542236,
        -0.2233830988407135
      ],
      [
        -0.0056479391641914845,
        -0.21423768997192383,
        -0.4426080882549286,
        -0.13037316501140594,
        -0.001192192081362009
      ],
      [
        0.3354744017124176,
        -0.230474054813385,
        0.3851953148841858,
        -0.2371191531419754,
        0.26217547059059143
      ],
      [
        0.3760145902633667,
        0.051544178277254105,
        -0.14802801609039307,
        0.3135344386100769,
        -0.14852789044380188
      ],
      [
        -0.16934716701507568,
        -0.24146397411823273,
        -0.4548044800758362,
        -0.10823523998260498,
        -0.42230382561683655
      ],
      [
        0.31605198979377747,
        -0.5152068734169006,
        -0.4233478605747223,
        0.004594190511852503,
        0.2233777791261673
      ],
      [
        0.44194474816322327,
        -0.45462581515312195,
        0.2711007595062256,
        0.22720278799533844,
        -0.36440473794937134
      ],
      [
        0.20825184881687164,
        -0.2075207233428955,
        0.04193466529250145,
        -0.461672306060791,
        -0.3192720115184784
      ],
      [
        -0.27487456798553467,
        -0.16425205767154694,
        -0.09714066237211227,
        -0.07820075005292892,
        -0.3110285699367523
      ],
      [
        0.20420081913471222,
        0.2686861753463745,
        -0.3472602367401123,
        -0.397940993309021,
        -0.0626608356833458
      ],
      [
        0.1347358673810959,
        -0.43170231580734253,
        -0.13668261468410492,
        -0.04630269482731819,
        -0.4063759446144104
      ],
      [
        0.39210978150367737,
        0.4040270149707794,
        0.4280586540699005,
        -0.10940399020910263,
        -0.27438056468963623
      ],
      [
        0.04233359172940254,
        0.3414190411567688,
        0.30400052666664124,
        -0.2232622504234314,
        0.4106326997280121
      ],
      [
        -0.18729710578918457,
        -0.16090969741344452,
        -0.21293014287948608,
        0.1429717242717743,
        -0.4781418740749359
      ],
      [
        -0.31064796447753906,
        0.014020836912095547,
        0.3823651671409607,
        -0.046786755323410034,
        0.3317424952983856
      ],
      [
        0.4108427166938782,
        -0.049762193113565445,
        -0.3729071319103241,
        -0.07198929041624069,
        0.14737161993980408
      ],
      [
        -0.0636095479130745,
        -0.5184875130653381,
        0.17885452508926392,
        -0.26987048983573914,
        -0.37687933444976807
      ],
      [
        0.20588435232639313,
        0.17364062368869781,
        0.39773398637771606,
        -0.0379783920943737,
        0.3250581622123718
      ],
      [
        -0.10137664526700974,
        -0.32541805505752563,
        0.3616181015968323,
        0.40515002608299255,
        0.28315505385398865
      ],
      [
        -0.1129336953163147,
        -0.27205076813697815,
        -0.003124295035377145,
        0.14177446067333221,
        0.010128862224519253
      ],
      [
        0.18154048919677734,
        0.0616564117372036,
        0.3402939438819885,
        0.2873275876045227,
        0.30204617977142334
      ],
      [
        -0.015239531174302101,
        -0.45925265550613403,
        -0.37682533264160156,
        -0.3039502799510956,
        0.3258379101753235
      ],
      [
        -0.0270550400018692,
        -0.04702384024858475,
        -0.16014228761196136,
        -0.043480902910232544,
        0.34114792943000793
      ],
      [
        -0.020372424274683,
        0.26658788323402405,
        0.32085713744163513,
        -0.36009708046913147,
        0.1991865485906601
      ],
      [
        0.4545135796070099,
        -0.1983652561903,
        0.1003226488828659,
        -0.0066519128158688545,
        0.2623165249824524
      ],
      [
        0.10036587715148926,
        -0.42592936754226685,
        -0.4276106655597687,
        0.28761979937553406,
        -0.25340190529823303
      ],
      [
        -0.3655189275741577,
        -0.47656047344207764,
        -0.46961694955825806,
        0.02729175053536892,
        -0.0039054404478520155
      ],
      [
        -0.2683006227016449,
        -0.021325217559933662,
        0.1542673110961914,
        0.2348620891571045,
        0.24106933176517487
      ],
      [
        -0.2622019648551941,
        0.5039659738540649,
        0.5044174790382385,
        -0.246251180768013,
        0.4707714915275574
      ],
      [
        -0.3525400459766388,
        -0.30277737975120544,
        0.07701076567173004,
        0.06302157789468765,
        0.4395461678504944
      ],
      [
        -0.009433071129024029,
        0.3936862349510193,
        -0.05312585458159447,
        -0.2449885755777359,
        0.022217586636543274
      ],
      [
        0.25878873467445374,
        -0.2547380030155182,
        -0.4636478126049042,
        -0.34998080134391785,
        0.024523736909031868
      ],
      [
        0.4022560715675354,
        0.07202067971229553,
        -0.3103991448879242,
        -0.15429477393627167,
        0.23465901613235474
      ],
      [
        -0.147336944937706,
        0.025555575266480446,
        0.42290613055229187,
        0.2425704449415207,
        0.34222176671028137
      ],
      [
        0.3891611695289612,
        -0.10475940257310867,
        0.11011147499084473,
        -0.3320961594581604,
        0.48758193850517273
      ],
      [
        -0.2984243929386139,
        0.4383890628814697,
        0.4247265160083771,
        0.15750639140605927,
        -0.4092489182949066
      ],
      [
        -0.02298140898346901,
        -0.1319417655467987,
        0.19089572131633759,
        0.2813107371330261,
        0.2608363628387451
      ],
      [
        0.14712215960025787,
        -0.4413197934627533,
        -0.4783099293708801,
        0.04553027078509331,
        -0.1687132865190506
      ],
      [
        0.17891038954257965,
        0.5199358463287354,
        0.2254159301519394,
        -0.1996796429157257,
        -0.07715670764446259
      ],
      [
        0.2607196867465973,
        0.1250949203968048,
        0.3925198018550873,
        -0.3351467251777649,
        -0.008024340495467186
      ],
      [
        -0.24883432686328888,
        0.3817712664604187,
        0.24554775655269623,
        -0.003383522853255272,
        -0.4206545948982239
      ],
      [
        -0.06810519099235535,
        0.4179037809371948,
        0.05051489174365997,
        0.055407874286174774,
        -0.3946685492992401
      ],
      [
        0.3295159637928009,
        0.42458033561706543,
        -0.2979298532009125,
        -0.28057071566581726,
        0.05222948268055916
      ],
      [
        -0.21851882338523865,
        -0.41036105155944824,
        0.08852887898683548,
        -0.1739434003829956,
        0.15945030748844147
      ],
      [
        0.14305196702480316,
        0.46736177802085876,
        0.34005028009414673,
        -0.34178245067596436,
        -0.334454745054245
      ],
      [
        0.3611561954021454,
        -0.35127681493759155,
        0.30331915616989136,
        -0.2895953357219696,
        0.3942725360393524
      ],
      [
        0.2525879442691803,
        -0.4016406834125519,
        -0.4670860767364502,
        -0.27308040857315063,
        -0.27467837929725647
      ],
      [
        -0.2600606083869934,
        0.37058940529823303,
        0.16962653398513794,
        0.024738430976867676,
        -0.028589101508259773
      ],
      [
        0.17205795645713806,
        0.11784829944372177,
        0.02216842584311962,
        0.45781823992729187,
        0.3585120737552643
      ],
      [
        0.030105454847216606,
        0.39521148800849915,
        -0.005646637640893459,
        -0.26096221804618835,
        0.3218422830104828
      ],
      [
        0.2440490573644638,
        0.1190122440457344,
        -0.3335786461830139,
        0.3476971685886383,
        0.038386039435863495
      ],
      [
        -0.21889108419418335,
        -0.4842081665992737,
        -0.3270357549190521,
        0.3419168293476105,
        0.15207991003990173
      ],
      [
        -0.21241042017936707,
        0.4560479521751404,
        0.47440198063850403,
        0.28634876012802124,
        0.01960001327097416
      ],
      [
        0.41173213720321655,
        -0.13545724749565125,
        -0.22207523882389069,
        0.15172985196113586,
        -0.2170264571905136
      ],
      [
        0.34689974784851074,
        -0.3196149468421936,
        0.07716213911771774,
        -0.38236862421035767,
        -0.3617143929004669
      ],
      [
        -0.0010463244980201125,
        0.4262584149837494,
        -0.26115596294403076,
        -0.042418405413627625,
        0.25928789377212524
      ],
      [
        -0.06681226938962936,
        -0.4672127366065979,
        -0.07730516791343689,
        -0.20776362717151642,
        0.06502910703420639
      ],
      [
        0.1768801361322403,
        -0.2204575538635254,
        -0.318789541721344,
        0.18019133806228638,
        -0.43669992685317993
      ],
      [
        0.21027371287345886,
        0.2411712259054184,
        0.24258317053318024,
        -0.2863636016845703,
        0.228459894657135
      ],
      [
        -0.2726258337497711,
        0.28711822628974915,
        -0.11637557297945023,
        0.1732398271560669,
        0.06147921085357666
      ],
      [
        -0.2947450280189514,
        -0.48468220233917236,
        -0.18028748035430908,
        0.2240472435951233,
        -0.15248647332191467
      ],
      [
        -0.08513066172599792,
        -0.35551315546035767,
        -0.4063563048839569,
        -0.09628258645534515,
        -0.16625837981700897
      ],
      [
        0.1531348079442978,
        0.5220838189125061,
        -0.215148463845253,
        -0.06310546398162842,
        0.22598055005073547
      ],
      [
        -0.28496405482292175,
        -0.09806948900222778,
        -0.27904069423675537,
        0.2030133455991745,
        -0.052558690309524536
      ],
      [
        0.040611423552036285,
        0.3584243655204773,
        -0.22046732902526855,
        -0.1533413976430893,
        0.4075605571269989
      ],
      [
        0.1782480925321579,
        -0.07913289219141006,
        0.4053264260292053,
        0.39800330996513367,
        -0.23985442519187927
      ],
      [
        -0.12404956668615341,
        0.11026676744222641,
        -0.3683907091617584,
        -0.5109559297561646,
        -0.28345319628715515
      ],
      [
        -0.40793997049331665,
        0.3677346110343933,
        0.20233464241027832,
        -0.27722659707069397,
        0.03337401524186134
      ],
      [
        0.4385276734828949,
        -0.35427841544151306,
        -0.3796687424182892,
        0.10228293389081955,
        -0.38969793915748596
      ],
      [
        -0.42683926224708557,
        0.23321743309497833,
        -0.07497662305831909,
        0.2599542737007141,
        -0.11955112218856812
      ],
      [
        0.4288683235645294,
        -0.2793508470058441,
        0.27239856123924255,
        -0.3316570520401001,
        -0.2279098480939865
      ]
    ],
    "actor.0.bias": [
      0.3589557111263275,
      0.20753487944602966,
      -0.298382967710495,
      -0.050655897706747055,
      0.2656130790710449,
      -0.34318357706069946,
      -0.0035430488642305136,
      0.28448304533958435,
      -0.3398762047290802,
      0.1758510172367096,
      -0.4390462338924408,
      -0.4118320047855377,
      0.02021784335374832,
      -0.39818277955055237,
      -0.19020986557006836,
      0.2597474753856659,
      -0.07315874844789505,
      -0.3069326877593994,
      0.38504642248153687,
      -0.44075310230255127,
      0.11799456179141998,
      -0.3119206130504608,
      -0.26307910680770874,
      0.04883966222405434,
      0.4469245672225952,
      -0.10673645883798599,
      -0.4359581172466278,
      0.11409850418567657,
      -0.17169436812400818,
      -0.28600895404815674,
      0.19417312741279602,
      0.17846214771270752,
      -0.21712033450603485,
      0.043277569115161896,
      0.07249967753887177,
      0.04626290500164032,
      -0.07435539364814758,
      -0.23380227386951447,
      0.2292623072862625,
      0.34367650747299194,
      0.33479318022727966,
      0.35060012340545654,
      -0.024944329634308815,
      0.024678749963641167,
      -0.17210863530635834,
      -0.08488229662179947,
      0.10805153101682663,
      0.03013523295521736,
      -0.29899436235427856,
      -0.2961076498031616,
      0.22054128348827362,
      0.33091405034065247,
      0.399318665266037,
      0.2479284107685089,
      0.2659228444099426,
      0.2080177366733551,
      0.27337560057640076,
      -0.08090653270483017,
      0.09913329780101776,
      0.15866811573505402,
      0.07980681955814362,
      -0.01647019200026989,
      -0.2118636667728424,
      -0.3039773404598236,
      -0.2357632964849472,
      0.05198760703206062,
      0.3952934741973877,
      -0.15256540477275848,
      -0.3910194933414459,
      -0.4020480811595917,
      0.19918714463710785,
      0.1599104255437851,
      -0.2378169745206833,
      -0.14187690615653992,
      0.3243115246295929,
      -0.37376436591148376,
      0.27452126145362854,
      0.008256375789642334,
      -0.19196206331253052,
      0.42759525775909424,
      -0.3143840730190277,
      0.4109146296977997,
      0.3632824122905731,
      0.18123309314250946,
      0.28263893723487854,
      0.08705296367406845,
      0.3883190453052521,
      0.08807314187288284,
      -0.420003205537796,
      -0.21287910640239716,
      0.05868523567914963,
      0.3019976019859314,
      -0.1282057762145996,
      0.15378372371196747,
      0.17424751818180084,
      0.008534257300198078,
      -0.3833496868610382,
      0.3977431058883667,
      -0.23102843761444092,
      0.04601390287280083,
      -0.13660086691379547,
      0.0794888362288475,
      0.30501827597618103,
      0.09394261240959167,
      -0.2005096971988678,
      0.08505447953939438,
      -0.36738014221191406,
      0.37192344665527344,
      0.256489634513855,
      0.3053470253944397,
      0.10572230815887451,
      -0.42486149072647095,
      -0.34159138798713684,
      -0.3930318057537079,
      0.2540612816810608,
      0.42538905143737793,
      0.28531715273857117,
      -0.16578996181488037,
      -0.2415674924850464,
      -0.26583248376846313,
      0.4374632239341736,
      -0.42606663703918457,
      -0.4367671012878418,
      0.1867082417011261,
      0.04387364163994789,
      -0.22036658227443695,
      -0.25956448912620544,
      -0.4216812551021576
    ],
    "actor.2.weight": [
      [
        0.06300648301839828,
        -0.03762351721525192,
        0.04769467934966087,
        0.051574502140283585,
        -0.0692577064037323,
        0.0602973997592926,
        -0.04129479080438614,
        0.07110341638326645,
        -0.043145596981048584,
        0.11560475081205368,
        -0.05823870375752449,
        -0.02060173824429512,
        -0.010112502612173557,
        0.058977387845516205,
        -0.06850854307413101,
        0.06093529611825943,
        0.0673794373869896,
        -0.11178763210773468,
        0.030236944556236267,
        -0.017176926136016846,
        -0.0019405983621254563,
        -0.05784277245402336,
        -0.05311068147420883,
        0.021523844450712204,
        0.050216611474752426,
        0.031226815655827522,
        0.05773623287677765,
        0.016230199486017227,
        0.08057277649641037,
        0.023265410214662552,
        -0.025777265429496765,
        0.12355677783489227,
        0.006186741404235363,
        0.055082760751247406,
        -0.02801734209060669,
        0.04422226920723915,
        -0.0839720144867897,
        -0.017726294696331024,
        -0.04191852733492851,
        -0.023227596655488014,
        -0.051783181726932526,
        0.05782958120107651,
        -0.03385038673877716,
        -0.028552353382110596,
        0.011442825198173523,
        0.033255815505981445,
        -0.053832005709409714,
        -0.09408964216709137,
        -0.0015817518578842282,
        0.0647338330745697,
        0.028661051765084267,
        0.016164584085345268,
        0.03178529813885689,
        0.0479726679623127,
        0.015528889372944832,
        0.06762085855007172,
        -0.030272936448454857,
        0.03496397286653519,
        0.15499578416347504,
        -0.04614562541246414,
        0.09230072051286697,
        -0.018773427233099937,
        0.008628708310425282,
        0.12897087633609772,
        0.10390850901603699,
        -0.04752671346068382,
        0.044112466275691986,
        0.050193510949611664,
        -0.08505750447511673,
        -0.08206016570329666,
        0.04862374812364578,
        -0.13100041449069977,
        -0.002201874041929841,
        0.04616009443998337,
        0.060538019984960556,
        0.05567299947142601,
        -0.002802112605422735,
        0.02524561434984207,
        0.0281271543353796,
        -0.004544118884950876,
        -0.10585930943489075,
        0.02978319674730301,
        0.12083083391189575,
        -0.05161258578300476,
        -0.039089713245630264,
        -0.00984114408493042,
        -0.010102744214236736,
        0.037247177213430405,
        0.006724962033331394,
        -0.05192969739437103,
        -0.13189934194087982,
        -0.05067134648561478,
        -0.03640498220920563,
        0.04738335311412811,
        0.07185820490121841,
        -0.011828027665615082,
        0.045747220516204834,
        0.030578412115573883,
        -0.052520494908094406,
        -0.036127008497714996,
        0.05636071041226387,
        -0.041183650493621826,
        0.03584907948970795,
        0.10328030586242676,
        -0.016296451911330223,
        -0.0749652236700058,
        -0.10661783069372177,
        -0.07969261705875397,
        0.06697194278240204,
        -0.1175200417637825,
        -0.03427199274301529,
        0.11735851317644119,
        -0.053812358528375626,
        0.04789121076464653,
        -0.0018435941310599446,
        -0.023553408682346344,
        -0.08686965703964233,
        0.042522549629211426,
        -0.042519986629486084,
        -0.10628591477870941,
        0.04669162258505821,
        -0.04222359135746956,
        -0.04307366535067558,
        0.056350383907556534,
        -0.040575817227363586,
        -0.019421499222517014,
        0.07421670109033585,
        -0.02215777337551117
      ],
      [
        -0.010472857393324375,
        0.008658179081976414,
        -0.10611707717180252,
        -0.014046458527445793,
        0.08036132901906967,
        0.12634849548339844,
        0.0057623255997896194,
        -0.04739527031779289,
        -0.05238748714327812,
        0.014801171608269215,
        -0.030615173280239105,
        0.024132875725626945,
        -0.015426525846123695,
        0.05485476925969124,
        -0.030149171128869057,
        0.04561356082558632,
        -0.12948788702487946,
        0.027330046519637108,
        -0.11291291564702988,
        -0.08321171998977661,
        -0.12306281924247742,
        0.06683606654405594,
        0.08088859915733337,
        -0.04956610128283501,
        -0.09297413378953934,
        0.024786099791526794,
        0.0859312042593956,
        0.04779288172721863,
        -0.033147454261779785,
        -0.06793005764484406,
        -0.023150840774178505,
        -0.035962626338005066,
        0.07572153955698013,
        0.020507775247097015,
        -0.002024684101343155,
        -0.10943271964788437,
        -0.06196179240942001,
        0.0025919387117028236,
        0.09550279378890991,
        -0.06849011778831482,
        0.05206829681992531,
        -0.02578812651336193,
        0.035524990409612656,
        0.06121338903903961,
        0.08215312659740448,
        0.06979985535144806,
        0.14815372228622437,
        0.11322805285453796,
        -0.020555146038532257,
        -0.03829577565193176,
        -0.0016208584420382977,
        -0.033593595027923584,
        0.09509836882352829,
        -0.012917431071400642,
        -0.07513680309057236,
        0.008674228563904762,
        0.09276701509952545,
        0.010175514966249466,
        -0.09299260377883911,
        -0.06605113297700882,
        0.07973410189151764,
        -0.000797172193415463,
        -0.012992940843105316,
        -0.10529796034097672,
        -0.01087133027613163,
        -0.017419986426830292,
        0.06138492375612259,
        -0.044390417635440826,
        0.02556384727358818,
        0.10345777124166489,
        0.025586014613509178,
        -0.0070389737375080585,
        0.06985925883054733,
        0.0327739454805851,
        0.0840674415230751,
        0.02093578316271305,
        -0.08300153911113739,
        -0.004925186280161142,
        -0.047231074422597885,
        -0.06383977830410004,
        0.08043992519378662,
        0.034698281437158585,
        -0.06801330298185349,
        0.03589745610952377,
        0.06409209966659546,
        0.16796720027923584,
        0.02450588159263134,
        0.02826867066323757,
        -0.11161203682422638,
        -0.06386849284172058,
        0.163825124502182,
        -0.059789467602968216,
        0.04954471439123154,
        0.051551248878240585,
        -0.10855290293693542,
        0.08858032524585724,
        -0.017350414767861366,
        0.04708177223801613,
        0.08456771820783615,
        -0.05975591018795967,
        -0.049843817949295044,
        -0.018198540434241295,
        -0.03183366730809212,
        0.008104240521788597,
        0.11130103468894958,
        0.06448457390069962,
        0.019701994955539703,
        -0.01713523641228676,
        -0.06381295621395111,
        0.14328636229038239,
        -0.0905589684844017,
        -0.07453892379999161,
        -0.017077714204788208,
        0.014963881112635136,
        -0.05246372148394585,
        -0.033315736800432205,
        -0.012881098315119743,
        -0.04794241487979889,
        -0.1028837040066719,
        0.11378718167543411,
        -0.11300681531429291,
        9.860807040240616e-05,
        0.09686470776796341,
        -0.12395596504211426,
        -0.03359450772404671,
        -0.1494147777557373,
        -0.04246846213936806,
        -0.004888156428933144
      ],
      [
        -0.05892190709710121,
        -0.07186101377010345,
        -0.01619209162890911,
        0.06914412975311279,
        0.04581092670559883,
        0.03142493963241577,
        0.03301433473825455,
        0.02510993368923664,
        0.10054036974906921,
        0.0010598116787150502,
        -0.06309805065393448,
        -0.0745406299829483,
        -0.08673834055662155,
        -0.04703792929649353,
        0.057398721575737,
        -0.08623823523521423,
        -0.07853859663009644,
        0.12139878422021866,
        -0.01533870305866003,
        -0.04491607844829559,
        -0.029994048178195953,
        -0.05715150386095047,
        -0.02871505543589592,
        -0.09134387224912643,
        -0.06814560294151306,
        0.06284646689891815,
        -0.01413741335272789,
        -0.07778540998697281,
        -0.0515994168817997,
        -0.06850730627775192,
        -0.0884549468755722,
        -0.04940526932477951,
        -0.04768025875091553,
        0.010574322193861008,
        -0.02296290546655655,
        0.01553986594080925,
        -0.043405547738075256,
        -0.02610516920685768,
        0.10229004919528961,
        -0.037154801189899445,
        -0.07522683590650558,
        -0.01549612358212471,
        0.09583748877048492,
        0.047658056020736694,
        0.03025745041668415,
        -0.0785878598690033,
        0.10074568539857864,
        -0.022016894072294235,
        -0.046148985624313354,
        -0.015264423564076424,
        0.04794539511203766,
        0.07167535275220871,
        0.10225466638803482,
        -0.005179329309612513,
        0.03197425976395607,
        -0.005824443884193897,
        0.06498357653617859,
        -0.06851064413785934,
        -0.12468882650136948,
        -0.06267312914133072,
        -0.005025315098464489,
        -0.06462325900793076,
        0.014105468057096004,
        -0.10064899921417236,
        0.00832348596304655,
        -0.06370612978935242,
        0.050311848521232605,
        -0.03893721103668213,
        -0.025641988962888718,
        0.059103090316057205,
        -0.11867611110210419,
        0.0368606299161911,
        -0.052456602454185486,
        -0.10708557069301605,
        0.08942922949790955,
        0.0534539669752121,
        -0.011193939484655857,
        0.07173492759466171,
        -0.08889542520046234,
        -0.04314940422773361,
        -0.004478339105844498,
        -0.055880557745695114,
        -0.05659451708197594,
        0.03755578771233559,
        -0.026993921026587486,
        0.07193620502948761,
        0.043937746435403824,
        -0.013311885297298431,
        0.011754346080124378,
        -0.018107881769537926,
        0.09138883650302887,
        0.081324502825737,
        0.04040425643324852,
        -0.04786743223667145,
        -0.11848229169845581,
        0.09437809139490128,
        -0.0021346011199057102,
        0.08473259955644608,
        -0.05478433519601822,
        -0.03662288561463356,
        0.07537522166967392,
        0.017007946968078613,
        -0.047455135732889175,
        -0.057600706815719604,
        0.010615028440952301,
        -0.06330634653568268,
        0.08289922773838043,
        0.049659498035907745,
        -0.04393644630908966,
        -0.03453956916928291,
        -0.03646670654416084,
        -0.0017858914798125625,
        0.021932639181613922,
        0.0590679831802845,
        -0.06873079389333725,
        -0.01317372266203165,
        0.09652941673994064,
        -0.004572570789605379,
        0.03231172636151314,
        -5.3484625823330134e-05,
        0.041944362223148346,
        0.017647838220000267,
        -0.002102220430970192,
        0.001059634960256517,
        0.049927808344364166,
        -0.09306058287620544,
        0.056249018758535385,
        -0.055109862238168716
      ],
      [
        0.07456177473068237,
        -0.009384408593177795,
        0.08484701067209244,
        -0.026617152616381645,
        0.04608621448278427,
        0.02950320951640606,
        -0.002797233173623681,
        0.08634358644485474,
        0.020716093480587006,
        -0.024801548570394516,
        -0.05848711356520653,
        0.0065732127986848354,
        -0.03278955817222595,
        0.05135296657681465,
        0.11110500246286392,
        -0.059156570583581924,
        0.0443839505314827,
        -0.1327737271785736,
        0.07998109608888626,
        0.006880429573357105,
        0.10338030755519867,
        -0.048558641225099564,
        -0.10764914751052856,
        0.10818566381931305,
        0.09100376814603806,
        -0.025058919563889503,
        -0.028127647936344147,
        0.009998325258493423,
        -0.049673210829496384,
        -0.08476413786411285,
        0.1250077784061432,
        0.1157602071762085,
        0.03892739117145538,
        -0.07082918286323547,
        0.03962067514657974,
        0.1120377704501152,
        0.031086325645446777,
        -0.005822804290801287,
        -0.021801313385367393,
        0.059950146824121475,
        0.0669221431016922,
        0.06549647450447083,
        0.006031636148691177,
        0.000591660151258111,
        -0.03241036459803581,
        0.0959305390715599,
        -0.06608752906322479,
        -0.052523013204336166,
        0.0955980122089386,
        0.02592984214425087,
        0.047327905893325806,
        -0.015368049032986164,
        -0.09849587082862854,
        -0.07423225790262222,
        0.11428644508123398,
        0.111927829682827,
        -0.02113504707813263,
        -0.006879726424813271,
        0.17445161938667297,
        0.01954931765794754,
        0.04374627023935318,
        -0.039826273918151855,
        0.10666563361883163,
        0.06826526671648026,
        0.12749530375003815,
        0.09176462143659592,
        0.046531014144420624,
        0.07546830922365189,
        -0.01733199693262577,
        -0.027014033868908882,
        0.12482292950153351,
        0.0050659687258303165,
        0.0016631201142445207,
        0.06281906366348267,
        -0.04754338413476944,
        0.0748782753944397,
        -0.004569379612803459,
        0.05448621138930321,
        0.10251738876104355,
        -0.07145912945270538,
        -0.12110698223114014,
        -0.0025451749097555876,
        0.08454540371894836,
        0.11162658780813217,
        -0.10758297145366669,
        -0.08485649526119232,
        0.03976006433367729,
        -0.0738336369395256,
        -0.03396373987197876,
        0.019611001014709473,
        -0.020063040778040886,
        -0.012704169377684593,
        0.019807934761047363,
        0.007132073864340782,
        0.1392780989408493,
        -0.01508700754493475,
        -0.0062698377296328545,
        -0.035772986710071564,
        -0.06610652059316635,
        0.019056525081396103,
        0.10496463626623154,
        0.0030413721688091755,
        -0.0733347162604332,
        0.13090549409389496,
        0.0629449263215065,
        -0.024535181000828743,
        -0.11677015572786331,
        -0.030774889513850212,
        0.12255433201789856,
        -0.0068094865418970585,
        -0.0006155128357931972,
        0.060444045811891556,
        -0.05821530148386955,
        -0.06053726375102997,
        0.10432715713977814,
        -0.022139808163046837,
        -0.1346036195755005,
        0.04198596999049187,
        0.07554551959037781,
        -0.14542296528816223,
        0.02034807950258255,
        -0.12665267288684845,
        0.025847477838397026,
        0.057765744626522064,
        0.018416648730635643,
        0.047695014625787735,
        0.07809460908174515,
        -0.02401082217693329
      ],
      [
        0.023050574585795403,
        -0.025954926386475563,
        0.01499340869486332,
        0.06001623719930649,
        0.050615791231393814,
        0.01880454458296299,
        0.020213350653648376,
        -0.02907634526491165,
        -0.014748089015483856,
        -0.02355790324509144,
        0.05965212732553482,
        -0.0046995230950415134,
        0.029769865795969963,
        0.04513468220829964,
        0.015730880200862885,
        -0.06164601817727089,
        0.07955605536699295,
        -0.001932446495629847,
        0.11663651466369629,
        -0.0852973535656929,
        0.1195688247680664,
        0.00968178641051054,
        -0.12986674904823303,
        0.01657482050359249,
        -0.043317969888448715,
        0.04520232602953911,
        -0.0826048031449318,
        0.02192416973412037,
        0.061791498214006424,
        -0.02441478706896305,
        0.08973164111375809,
        0.020680461078882217,
        0.05259630084037781,
        0.06985467672348022,
        0.06471563875675201,
        0.06274749338626862,
        0.07189546525478363,
        -0.07631561905145645,
        0.020910831168293953,
        -0.04439949616789818,
        -0.04205435886979103,
        -0.09387824684381485,
        -0.059396058320999146,
        -0.004295754712074995,
        -0.015351519919931889,
        0.0416698157787323,
        -0.08002441376447678,
        -0.10385598987340927,
        -0.06055295094847679,
        0.06011924892663956,
        0.0992707684636116,
        0.061194874346256256,
        -0.06777480244636536,
        0.02210192009806633,
        0.10976584255695343,
        -0.026581469923257828,
        -0.09338929504156113,
        -0.03825017064809799,
        0.1413247138261795,
        -0.06271343678236008,
        -0.07291800528764725,
        0.061401981860399246,
        0.12841717898845673,
        0.10401123762130737,
        -0.028785012662410736,
        0.10040830075740814,
        0.0636797621846199,
        0.02363385260105133,
        -0.12356909364461899,
        -0.11293420940637589,
        -0.008836102671921253,
        -0.12175454944372177,
        0.06205866485834122,
        0.0991600975394249,
        0.023152589797973633,
        0.03765295445919037,
        0.00021934646065346897,
        0.027465812861919403,
        0.10918177664279938,
        0.05487827584147453,
        0.02298198640346527,
        -0.029765566810965538,
        0.08921179175376892,
        0.0070196338929235935,
        -0.04601607471704483,
        0.020249953493475914,
        0.03875141590833664,
        -0.03962506726384163,
        0.04467300325632095,
        0.017264816910028458,
        -0.10118795186281204,
        0.07271482050418854,
        0.0337301641702652,
        -0.04327182099223137,
        -0.00870366021990776,
        -0.0546531081199646,
        -0.07941573858261108,
        0.02823052927851677,
        -0.07028308510780334,
        0.05030784383416176,
        0.03751850128173828,
        -0.05725710466504097,
        -0.02732817456126213,
        0.09335944056510925,
        -0.10518141090869904,
        -0.027814852073788643,
        -0.14709174633026123,
        -0.07635224610567093,
        0.012764576822519302,
        -0.00720955291762948,
        -0.04769044369459152,
        0.1291877031326294,
        -0.1462980955839157,
        -0.06113212928175926,
        0.08442088216543198,
        -0.0018786004511639476,
        0.0027924824971705675,
        -0.0030900267884135246,
        0.06167769804596901,
        -0.0002056595403701067,
        -0.026035236194729805,
        -0.11162456125020981,
        0.06584431976079941,
        0.11853396147489548,
        -0.041939131915569305,
        0.1198088675737381,
        -0.07970985770225525,
        0.13206228613853455
      ],
      [
        -0.06956880539655685,
        -0.015869786962866783,
        -0.11513465642929077,
        -0.04190830886363983,
        -0.040361955761909485,
        0.06382446736097336,
        0.018091032281517982,
        -0.00493383826687932,
        -0.07965061068534851,
        -0.09956663101911545,
        -0.006626037415117025,
        0.01998475380241871,
        -0.1022765263915062,
        0.06835384666919708,
        -0.06304897367954254,
        0.07157687097787857,
        -0.058278314769268036,
        0.1030011922121048,
        -0.1077050194144249,
        0.04827513173222542,
        -0.07966481149196625,
        0.03632918372750282,
        0.10841305553913116,
        -0.03108193352818489,
        -0.032336778938770294,
        -0.02047044411301613,
        -0.04612286761403084,
        -0.10831339657306671,
        0.0005039586685597897,
        0.03011438436806202,
        -0.01192924939095974,
        -0.08703887462615967,
        -0.001976495375856757,
        0.02877623774111271,
        -0.04163350164890289,
        -0.07782890647649765,
        0.04205865412950516,
        0.08494727313518524,
        -0.0211773831397295,
        -0.056167952716350555,
        -0.00599766056984663,
        0.08896148949861526,
        0.128135547041893,
        0.00651422468945384,
        0.06782270967960358,
        0.0731312707066536,
        0.15266874432563782,
        0.05707982927560806,
        -0.09326089918613434,
        -0.08028720319271088,
        -0.03284972906112671,
        -0.055255066603422165,
        -0.030320869758725166,
        -0.022470220923423767,
        0.03960117697715759,
        -0.014987146481871605,
        0.009105932898819447,
        -0.02098655141890049,
        -0.17811989784240723,
        0.02728216163814068,
        0.010921843349933624,
        -0.08369693905115128,
        -0.16562075912952423,
        -0.1415526270866394,
        -0.035242509096860886,
        0.012090496718883514,
        0.0037554465234279633,
        -0.08088532090187073,
        0.09998616576194763,
        0.005105072632431984,
        -0.012455913238227367,
        0.0006573576829396188,
        -0.07539227604866028,
        -0.10019636899232864,
        0.026699943467974663,
        -0.036212000995874405,
        -0.010046212933957577,
        0.06624492257833481,
        -0.03389587625861168,
        0.0347323901951313,
        0.09969678521156311,
        0.016815152019262314,
        -0.12378222495317459,
        -0.05498281866312027,
        0.02067556232213974,
        0.1296767145395279,
        -0.10512509942054749,
        0.05636582523584366,
        0.0004015719168819487,
        0.03999178856611252,
        0.16508466005325317,
        -0.036698803305625916,
        -0.010502695105969906,
        -0.08714085072278976,
        -0.1000824049115181,
        0.08469036966562271,
        0.02825474739074707,
        -0.046377502381801605,
        0.0008852111641317606,
        -0.04449194669723511,
        -0.06137494742870331,
        0.0228358656167984,
        -0.036382466554641724,
        -0.12815116345882416,
        0.02891514264047146,
        -0.03126366063952446,
        0.055814363062381744,
        0.02930116467177868,
        -0.07521575689315796,
        0.0319187268614769,
        -0.005566124338656664,
        0.006922928150743246,
        0.1362304389476776,
        -0.04871286079287529,
        -0.1181071549654007,
        0.016800392419099808,
        0.09830525517463684,
        -0.0003002840094268322,
        0.06621884554624557,
        0.13038237392902374,
        -0.02948717586696148,
        0.1054309755563736,
        0.08609643578529358,
        -0.09706679731607437,
        -0.01735164225101471,
        -0.08565724641084671,
        -0.003336346708238125,
        -0.13106659054756165
      ],
      [
        -0.04550174996256828,
        0.10232163965702057,
        -0.009933018125593662,
        -0.08845260739326477,
        0.07936246693134308,
        -0.0391688346862793,
        0.03944440558552742,
        -0.005102377850562334,
        0.028706731274724007,
        0.046460092067718506,
        -0.08947873115539551,
        -0.03565175086259842,
        -0.013414709828794003,
        0.055621132254600525,
        0.05194687470793724,
        0.08180271089076996,
        -0.007896581664681435,
        -0.015107503160834312,
        -0.02279473841190338,
        -0.08357786387205124,
        -0.08067255467176437,
        -0.039527155458927155,
        -0.040225110948085785,
        0.015285015106201172,
        -0.051964811980724335,
        -0.05613025650382042,
        0.05125349387526512,
        0.03515341877937317,
        -0.09402745217084885,
        0.016905779018998146,
        -0.004072526935487986,
        -0.0661269798874855,
        -0.055089496076107025,
        -0.07083676755428314,
        -0.03319451957941055,
        -0.004225368611514568,
        0.060881756246089935,
        0.027501948177814484,
        0.11016825586557388,
        0.0763779953122139,
        -0.02956908568739891,
        0.10173682123422623,
        -0.03312402963638306,
        0.036543916910886765,
        -0.05618784949183464,
        0.05064499005675316,
        -0.007724728900939226,
        0.0393231101334095,
        0.05716489627957344,
        0.03490084037184715,
        0.038507554680109024,
        0.046131983399391174,
        -0.008356313221156597,
        0.033390022814273834,
        0.04266919940710068,
        0.029989268630743027,
        0.07993591576814651,
        0.025950394570827484,
        0.07633088529109955,
        -0.00943924579769373,
        -0.0006165034719742835,
        0.03233601897954941,
        0.047852955758571625,
        0.024454912170767784,
        0.0500093474984169,
        0.012923602014780045,
        0.05880846083164215,
        -0.05666457861661911,
        0.016207680106163025,
        -0.008930426090955734,
        0.026635397225618362,
        0.044293321669101715,
        -0.021534450352191925,
        0.035345301032066345,
        0.01261010579764843,
        0.015166779048740864,
        -0.008078676648437977,
        -0.054003775119781494,
        0.03231332078576088,
        0.07303499430418015,
        0.05060071870684624,
        0.07923626154661179,
        0.06403667479753494,
        0.03197113797068596,
        0.05366424471139908,
        -0.02473420463502407,
        0.06503456830978394,
        -0.050751399248838425,
        -0.06363583356142044,
        0.11296366155147552,
        0.050418585538864136,
        0.0625530555844307,
        -0.04769773781299591,
        -0.054169610142707825,
        0.0017835528124123812,
        -0.017421258613467216,
        -0.05251073092222214,
        0.01568027213215828,
        -0.09849701821804047,
        -0.026228666305541992,
        -0.034954484552145004,
        -0.06612491607666016,
        0.01509779505431652,
        0.02497420832514763,
        -0.03544675186276436,
        -0.011056763119995594,
        -0.036439698189496994,
        0.09182722121477127,
        0.053146492689847946,
        0.029379941523075104,
        -0.04042239114642143,
        -0.07476689666509628,
        0.020514896139502525,
        -0.01878787763416767,
        0.008097348734736443,
        -0.00413932092487812,
        -0.053807519376277924,
        -0.07047860324382782,
        0.0311434343457222,
        0.07719632983207703,
        0.07007457315921783,
        -0.06707882136106491,
        -0.03487704321742058,
        -0.07729995250701904,
        -0.07983487099409103,
        -0.07127336412668228,
        -0.00044752826215699315,
        -0.09791335463523865
      ],
      [
        0.08742892742156982,
        0.06011592224240303,
        0.04467947036027908,
        0.037206560373306274,
        0.030357196927070618,
        0.07472679764032364,
        -0.005578361451625824,
        0.09060969948768616,
        0.006740707904100418,
        0.01690753549337387,
        0.06523845344781876,
        0.02296259254217148,
        0.0690143033862114,
        0.007999968715012074,
        -0.032638534903526306,
        0.0810980275273323,
        0.06662780046463013,
        -0.051247138530015945,
        0.07712867856025696,
        -0.0499008446931839,
        0.042779792100191116,
        -0.0980541929602623,
        0.03395070508122444,
        0.06451301276683807,
        -0.050406645983457565,
        0.04131709039211273,
        0.0020565656013786793,
        -0.008595946244895458,
        0.09720966219902039,
        -0.002811332931742072,
        -0.05222025513648987,
        -0.021533962339162827,
        -0.007139894179999828,
        -0.046805623918771744,
        -0.04180663824081421,
        -0.021766766905784607,
        0.06535598635673523,
        -0.04879539832472801,
        -0.06332302838563919,
        -0.02234204113483429,
        0.011657889001071453,
        -0.035556115210056305,
        -0.12808960676193237,
        -0.07205531746149063,
        -0.07080686837434769,
        0.02853034995496273,
        -0.04954148828983307,
        0.07567300647497177,
        0.04055938497185707,
        0.0027376352809369564,
        0.10433651506900787,
        0.017921078950166702,
        -0.059483349323272705,
        0.06280996650457382,
        -0.0094682015478611,
        -0.07451767474412918,
        0.0742875412106514,
        0.10552789270877838,
        0.09566415101289749,
        -0.023080330342054367,
        0.08661644905805588,
        0.06709276139736176,
        0.027754979208111763,
        0.06923630088567734,
        0.07857132703065872,
        -0.02639303170144558,
        -0.03007904812693596,
        0.08731221407651901,
        0.015980079770088196,
        -0.046059124171733856,
        0.03602002561092377,
        -0.03702963516116142,
        0.08112738281488419,
        0.0946897491812706,
        -0.089178167283535,
        -0.0769660472869873,
        -0.051085684448480606,
        -0.020490512251853943,
        0.014534693211317062,
        -0.05588758736848831,
        0.014586072415113449,
        -0.08624377846717834,
        0.08744707703590393,
        0.010099743492901325,
        -0.007199076469987631,
        -0.0001281162549275905,
        -0.014009551145136356,
        -0.05684645101428032,
        -0.01638025790452957,
        0.06844254583120346,
        -0.07079742103815079,
        -0.006520906928926706,
        -0.07635382562875748,
        -0.07107707858085632,
        0.03520367294549942,
        0.014996655285358429,
        -0.0654463991522789,
        0.019142000004649162,
        0.08246935904026031,
        0.07774549722671509,
        0.004891089629381895,
        0.0962979719042778,
        0.08470026403665543,
        0.0880824625492096,
        0.061920542269945145,
        0.0012372079072520137,
        -0.07341935485601425,
        0.07062571495771408,
        0.03615729883313179,
        -8.2238475442864e-05,
        0.007951558567583561,
        0.018812742084264755,
        -0.10913477092981339,
        -0.03890027850866318,
        -0.027957327663898468,
        -0.01848277822136879,
        0.02162914164364338,
        -0.03806933015584946,
        0.016038700938224792,
        -0.09726063162088394,
        -0.018563970923423767,
        -0.006437980569899082,
        0.039492495357990265,
        0.1155363917350769,
        -0.03134537115693092,
        0.12727521359920502,
        -0.06662443280220032,
        0.05375654250383377
      ],
      [
        0.03450610488653183,
        0.08605266362428665,
        0.11157307773828506,
        -0.03937689587473869,
        0.044885121285915375,
        -0.019495589658617973,
        -0.08046422898769379,
        -0.037498559802770615,
        -0.09286604076623917,
        0.12204713374376297,
        0.06704657524824142,
        -0.06851858645677567,
        0.07427152991294861,
        0.08373995870351791,
        0.0060238223522901535,
        0.0641443207859993,
        0.1305873692035675,
        -0.005454997532069683,
        0.010902807116508484,
        0.06809494644403458,
        0.04399900883436203,
        0.02508014626801014,
        -0.10618427395820618,
        0.042567797005176544,
        0.05890623480081558,
        -0.049779508262872696,
        -0.06826145946979523,
        -0.0058741397224366665,
        0.04978439584374428,
        -0.04141942039132118,
        0.01831776462495327,
        -0.029217960312962532,
        -0.037603940814733505,
        -0.03669842332601547,
        -0.03384273499250412,
        0.07989875227212906,
        0.00832997728139162,
        -0.08043530583381653,
        0.03198729082942009,
        0.08556942641735077,
        -0.051171764731407166,
        -0.04401040077209473,
        -0.1082836240530014,
        -0.08345449715852737,
        0.014224919490516186,
        0.06729738414287567,
        0.012495557777583599,
        -0.07316657155752182,
        0.08969108760356903,
        0.004173572640866041,
        -0.044471532106399536,
        0.0520130954682827,
        0.047905806452035904,
        -0.01865600049495697,
        -0.05449044704437256,
        0.055690426379442215,
        -0.0464932918548584,
        -0.033454928547143936,
        0.06003575772047043,
        -0.0002888953313231468,
        0.020543044432997704,
        0.05289716646075249,
        0.07761681079864502,
        0.043525177985429764,
        -0.017211690545082092,
        -0.015196943655610085,
        0.05772203952074051,
        0.05745617672801018,
        0.04159146919846535,
        -0.04964186251163483,
        0.043681759387254715,
        -0.13074253499507904,
        -0.015226846560835838,
        -0.0270579531788826,
        -0.09083365648984909,
        0.06104861944913864,
        0.07677359879016876,
        0.06287231296300888,
        0.07707853615283966,
        0.056522246450185776,
        -0.08354752510786057,
        0.07551772147417068,
        -0.037441711872816086,
        0.04128970205783844,
        -0.09750048816204071,
        -0.0019331490620970726,
        -0.03283635154366493,
        0.04813198000192642,
        0.036601435393095016,
        0.05548097565770149,
        -0.06753043085336685,
        -0.07091046124696732,
        -0.09986577928066254,
        -0.0901336520910263,
        0.012780467979609966,
        0.061966776847839355,
        0.011130983941257,
        0.015740664675831795,
        0.05385388433933258,
        -0.07608329504728317,
        0.017548467963933945,
        0.04392929747700691,
        -0.08112061023712158,
        -0.018139313906431198,
        0.06444139778614044,
        -0.03042849525809288,
        -0.13207924365997314,
        0.07528593391180038,
        0.03366917371749878,
        0.015487500466406345,
        0.023196088150143623,
        0.06762509047985077,
        0.016360683366656303,
        0.04024739935994148,
        -0.033130768686532974,
        0.04666033759713173,
        -0.10826307535171509,
        0.05225624516606331,
        -0.06217149272561073,
        -0.08085962384939194,
        0.013481845147907734,
        -0.027948349714279175,
        0.0498369075357914,
        -0.01695556379854679,
        -0.09909459948539734,
        0.11473836749792099,
        -0.06715960055589676,
        -0.025128066539764404
      ],
      [
        -0.014379078522324562,
        0.009659999050199986,
        -0.03830469399690628,
        -0.028792530298233032,
        0.0305778905749321,
        0.03516050800681114,
        0.027239356189966202,
        0.03263666108250618,
        0.021893734112381935,
        -0.04888753220438957,
        -0.02449207939207554,
        -0.01467022206634283,
        0.028234237805008888,
        0.05050016939640045,
        0.07891064137220383,
        -0.04282484948635101,
        0.03323816880583763,
        -0.0013709379127249122,
        -0.030885856598615646,
        0.05689627677202225,
        0.07480916380882263,
        0.005874041002243757,
        -0.07047513872385025,
        0.07336851209402084,
        0.07692237943410873,
        -0.035935740917921066,
        -0.049493055790662766,
        0.0905623733997345,
        -0.09658686816692352,
        -0.011937195435166359,
        0.03126376494765282,
        0.004213269799947739,
        -0.06451155990362167,
        -0.04152935743331909,
        -0.04117592051625252,
        0.027814842760562897,
        0.05711326375603676,
        -0.05055460333824158,
        0.07877771556377411,
        0.03364420682191849,
        -0.02136177197098732,
        0.07059624046087265,
        -0.04517534002661705,
        -0.06723632663488388,
        -0.07867347449064255,
        -0.03760066628456116,
        -0.04363001137971878,
        0.027205701917409897,
        -0.07907309383153915,
        0.12844957411289215,
        -0.002571365563198924,
        0.020131712779402733,
        -0.02489163912832737,
        -0.01272629201412201,
        -0.06867142766714096,
        0.014530460350215435,
        0.05761856958270073,
        0.036117713898420334,
        0.08765649795532227,
        -0.05399303883314133,
        0.044957779347896576,
        -0.024278467521071434,
        -0.02261347323656082,
        -0.02267586998641491,
        -0.06019110232591629,
        -0.02452469989657402,
        0.0847630426287651,
        -0.028192613273859024,
        -0.05498334765434265,
        0.05707011744379997,
        -0.038154929876327515,
        0.038159530609846115,
        0.08532500267028809,
        0.05174051970243454,
        0.047654394060373306,
        0.06118139997124672,
        0.028815530240535736,
        -0.06684558838605881,
        -0.03971794620156288,
        0.014376199804246426,
        -0.020915847271680832,
        0.0269630029797554,
        0.04962035268545151,
        -0.004631752148270607,
        0.05497714504599571,
        -0.11508352309465408,
        0.031570468097925186,
        -0.08277445286512375,
        0.04464193060994148,
        0.07816901057958603,
        -0.04079154133796692,
        -0.0071695102378726006,
        0.007594756316393614,
        -0.019060902297496796,
        0.07275225967168808,
        -0.06731687486171722,
        -0.025680534541606903,
        -0.01535546500235796,
        -0.11098535358905792,
        -0.00835430808365345,
        -0.005353337619453669,
        -0.007654527202248573,
        0.09727232903242111,
        0.011047199368476868,
        0.03474131226539612,
        -0.01984613575041294,
        -0.05863291025161743,
        -0.005303595215082169,
        -0.027439655736088753,
        -0.05566834658384323,
        -0.017617540434002876,
        0.010883652605116367,
        -0.06186381354928017,
        -0.04478824511170387,
        -0.059072095900774,
        -0.04916442185640335,
        -0.09812033176422119,
        -0.06098935380578041,
        -0.02325122058391571,
        -0.048229340463876724,
        0.06834328174591064,
        -0.00950717180967331,
        -0.06263455003499985,
        -0.07054699212312698,
        -0.0509764663875103,
        0.02639196440577507,
        -0.07973281294107437,
        -0.02315349318087101
      ],
      [
        -0.03388552367687225,
        0.042525146156549454,
        -0.08374551683664322,
        -0.0670895054936409,
        -0.07652056962251663,
        -0.0037627266719937325,
        0.06470028311014175,
        0.028494922444224358,
        0.012121177278459072,
        -0.10207444429397583,
        -0.012814832851290703,
        -0.042322490364313126,
        0.03731583431363106,
        -0.06491075456142426,
        0.0019627432338893414,
        0.026486646384000778,
        -0.1487012654542923,
        0.09287336468696594,
        -0.034381043165922165,
        0.03770550340414047,
        0.05956084653735161,
        -0.011153174564242363,
        -0.03629366680979729,
        -0.06100296229124069,
        -0.10300242900848389,
        0.016735492274165154,
        0.03582625463604927,
        -0.08100948482751846,
        -0.022214921191334724,
        0.07145191729068756,
        -0.05902034789323807,
        -0.007214317098259926,
        -0.01635756343603134,
        0.02546807937324047,
        -0.03403850644826889,
        -0.0905807837843895,
        0.061144255101680756,
        -0.019380314275622368,
        0.02835809253156185,
        -0.09268369525671005,
        0.011531309224665165,
        0.061816636472940445,
        0.0011576402466744184,
        0.15130703151226044,
        0.017053131014108658,
        0.08914674818515778,
        0.1243424117565155,
        0.05759825557470322,
        -0.00668213190510869,
        -0.026634152978658676,
        -0.0024165543727576733,
        -0.07116442918777466,
        0.059644248336553574,
        0.06492703408002853,
        -0.0583438016474247,
        -0.07393907010555267,
        0.06705066561698914,
        0.041812729090452194,
        -0.07311008870601654,
        -0.08342009037733078,
        -0.01746079884469509,
        -0.02173967845737934,
        -0.004640380851924419,
        -0.16054505109786987,
        -0.11226793378591537,
        -0.016242288053035736,
        -0.027689632028341293,
        -0.046542197465896606,
        0.12133871763944626,
        0.12289205193519592,
        0.032279808074235916,
        -0.04052498936653137,
        0.05561931058764458,
        -0.0912277027964592,
        -0.0304099153727293,
        0.06780248135328293,
        -0.07712733000516891,
        -0.02729644998908043,
        -0.007965154014527798,
        0.06951194256544113,
        0.036542847752571106,
        -0.1034642904996872,
        -0.07090290635824203,
        -0.09374045580625534,
        0.041025806218385696,
        0.14625750482082367,
        0.04142335429787636,
        0.03596877679228783,
        -0.07681383937597275,
        -0.06380841135978699,
        0.11674170941114426,
        0.01997561939060688,
        -0.0035762335173785686,
        0.017946138978004456,
        -0.10503794252872467,
        -0.04987885802984238,
        0.12538334727287292,
        0.048386286944150925,
        0.012042000889778137,
        0.04771152138710022,
        -0.06257779151201248,
        0.05101225525140762,
        0.008592969737946987,
        -0.09666302055120468,
        -0.006802620366215706,
        0.013795522972941399,
        0.11133024096488953,
        -0.005569199100136757,
        -0.11110180616378784,
        -0.016874447464942932,
        -0.03466315567493439,
        -0.0027696420438587666,
        0.1058671623468399,
        0.06605717539787292,
        0.028555210679769516,
        -0.01583058387041092,
        -0.0034797312691807747,
        -0.06813527643680573,
        -0.01025095023214817,
        0.15848101675510406,
        0.0017898534424602985,
        0.07606416940689087,
        0.03726596757769585,
        -0.11966293305158615,
        0.02003926783800125,
        -0.12176971882581711,
        -0.04953661933541298,
        -0.00123589055147022
      ],
      [
        0.08713871985673904,
        0.0098731005564332,
        0.018990708515048027,
        0.03355531021952629,
        -0.06054127588868141,
        -0.10766015946865082,
        0.009609028697013855,
        0.038944393396377563,
        0.008626955561339855,
        0.14071322977542877,
        0.055409401655197144,
        -0.02569548226892948,
        0.08772114664316177,
        -0.0747438445687294,
        0.07238126546144485,
        -0.0764470025897026,
        0.039128612726926804,
        0.0008091228664852679,
        0.050220560282468796,
        -0.0719955638051033,
        0.05417056381702423,
        0.04527582600712776,
        0.00043956501758657396,
        0.06683947145938873,
        -0.02439882420003414,
        0.044443272054195404,
        -0.0631672739982605,
        0.02773936279118061,
        0.007651241961866617,
        -0.06788523495197296,
        0.05713757500052452,
        0.025866668671369553,
        -0.053372692316770554,
        -0.0882098600268364,
        0.08724001795053482,
        0.10965023189783096,
        0.0872703418135643,
        0.07774123549461365,
        -0.08503355830907822,
        0.08987350016832352,
        0.08348353207111359,
        0.03715614229440689,
        -0.022747032344341278,
        0.0007401169277727604,
        0.05160610005259514,
        0.012949075549840927,
        -0.12915916740894318,
        0.00011488942982396111,
        -0.06786669045686722,
        0.09478466957807541,
        0.11943592131137848,
        -0.030174411833286285,
        0.06649000942707062,
        -0.018663637340068817,
        -0.03800135850906372,
        0.05170932412147522,
        0.075352743268013,
        0.11534455418586731,
        0.13182958960533142,
        0.06521883606910706,
        0.054228007793426514,
        0.06561461091041565,
        -0.0159474965184927,
        0.032635193318128586,
        0.05329412221908569,
        0.0837116613984108,
        -0.0066289277747273445,
        0.085536889731884,
        -0.10881508141756058,
        -0.09649395197629929,
        0.07040190696716309,
        -0.02561616338789463,
        0.017827223986387253,
        0.03209582716226578,
        0.04768451303243637,
        -0.022961784154176712,
        0.09429634362459183,
        0.07302685081958771,
        -0.003385950345546007,
        -0.06802479177713394,
        -0.017857395112514496,
        0.047329097986221313,
        0.08113597333431244,
        -0.05629665032029152,
        -0.04501434415578842,
        -0.06578607112169266,
        0.028946498408913612,
        -0.036889076232910156,
        0.09034710377454758,
        -0.02870825119316578,
        -0.008268415927886963,
        -0.07784482091665268,
        0.06433688849210739,
        0.009983801282942295,
        0.018031924962997437,
        0.040301527827978134,
        -0.056849103420972824,
        -0.053650300949811935,
        -0.056106120347976685,
        0.07894999533891678,
        0.08766511082649231,
        0.014623521827161312,
        -0.0012098102597519755,
        0.009582354687154293,
        -0.05215011164546013,
        -0.09637437015771866,
        -0.14133989810943604,
        0.007705414667725563,
        0.10890600085258484,
        -0.02464025840163231,
        -0.055295493453741074,
        0.005765405483543873,
        0.004591064993292093,
        0.025620223954319954,
        0.05386972054839134,
        -0.08187487721443176,
        -0.06646966189146042,
        0.08196499943733215,
        -0.02098911441862583,
        -0.1068587526679039,
        -0.048513367772102356,
        0.004939109552651644,
        0.024256179109215736,
        0.04001135379076004,
        0.03560565784573555,
        0.1203724592924118,
        0.038075078278779984,
        0.10142701864242554
      ],
      [
        -0.008050245232880116,
        -0.043296799063682556,
        -0.031014449894428253,
        0.030477358028292656,
        -0.09034169465303421,
        -0.025603659451007843,
        -0.08157995343208313,
        0.014395664446055889,
        0.034679897129535675,
        -0.039193328469991684,
        0.04553323984146118,
        0.032898928970098495,
        0.0886913612484932,
        0.0913371816277504,
        0.07866489887237549,
        0.03926176205277443,
        0.035981811583042145,
        0.0603959746658802,
        -0.05952410027384758,
        0.08576657623052597,
        0.09756752848625183,
        0.05226457491517067,
        -0.02035776525735855,
        0.006038697902113199,
        0.028268778696656227,
        0.02953423745930195,
        0.08343040198087692,
        0.025635316967964172,
        0.03340829908847809,
        -0.004148172214627266,
        -0.06612834334373474,
        -0.03354367986321449,
        -0.059489112347364426,
        -0.05583150312304497,
        -0.03542359918355942,
        0.013415304943919182,
        0.035950668156147,
        0.039288900792598724,
        0.016630766913294792,
        -0.0661357194185257,
        0.05916475132107735,
        0.05582281947135925,
        0.04498176649212837,
        -0.05989629030227661,
        0.01632886379957199,
        0.03666725382208824,
        -0.05463070422410965,
        0.011127843521535397,
        0.007064404431730509,
        -0.07792238891124725,
        -0.016666783019900322,
        0.06600593030452728,
        0.01045147329568863,
        0.019820986315608025,
        0.04172955080866814,
        0.03539937362074852,
        0.009490071795880795,
        -0.02292054519057274,
        0.04179276153445244,
        -0.044592682272195816,
        -0.08024074882268906,
        -0.0412902757525444,
        0.0038710851222276688,
        -0.05170265957713127,
        -0.06005411595106125,
        0.1042652353644371,
        -0.015620886348187923,
        0.030459076166152954,
        -0.08661209046840668,
        0.0005847174907103181,
        0.09549803286790848,
        0.07411190122365952,
        -0.0921582579612732,
        0.0003830367641057819,
        0.046888526529073715,
        0.09625540673732758,
        0.08356108516454697,
        -0.1045641154050827,
        -0.055965203791856766,
        -0.06573918461799622,
        0.03842796012759209,
        -0.0924285426735878,
        0.016187570989131927,
        0.08382444828748703,
        0.0006890854565426707,
        -0.05369667336344719,
        0.04129631817340851,
        -0.02209777571260929,
        0.07762429118156433,
        -0.07598676532506943,
        0.039064131677150726,
        -0.010667845606803894,
        -0.06023404747247696,
        0.007796597201377153,
        -0.03795567527413368,
        0.045972514897584915,
        0.02495538257062435,
        -0.0773748978972435,
        0.011016884818673134,
        -0.03541305661201477,
        -0.009549910202622414,
        -0.10274262726306915,
        -0.07497100532054901,
        -0.04853862151503563,
        0.0279768668115139,
        -0.018109142780303955,
        -0.008767275139689445,
        -0.1074000895023346,
        -0.03395052254199982,
        -0.08860474824905396,
        -0.004355780780315399,
        -0.04989204555749893,
        0.042438529431819916,
        -0.03128780424594879,
        0.03153829649090767,
        0.05774242430925369,
        -0.0674520879983902,
        0.10184296220541,
        -0.051169708371162415,
        -0.031030165031552315,
        -0.09034199267625809,
        -0.02385603077709675,
        0.10508142411708832,
        0.07388503849506378,
        0.015586813911795616,
        -0.01084994524717331,
        0.06495451927185059,
        -0.03823947161436081
      ],
      [
        0.05584696680307388,
        -0.06712956726551056,
        -0.03345270827412605,
        0.09510602802038193,
        -0.08634663373231888,
        -0.054329439997673035,
        -0.013343414291739464,
        -0.020262787118554115,
        0.022785276174545288,
        -0.02197318710386753,
        -0.019662845879793167,
        0.11160847544670105,
        0.08608771115541458,
        -0.0386565625667572,
        0.03192660212516785,
        -0.09119098633527756,
        0.1078096255660057,
        -0.030613115057349205,
        -0.0064559029415249825,
        0.10104719549417496,
        0.08655544370412827,
        -0.005101553164422512,
        -0.03210677579045296,
        0.042779870331287384,
        -0.07204628735780716,
        0.03830990567803383,
        -0.004723770543932915,
        -0.06550859659910202,
        0.06685169041156769,
        -0.03508752956986427,
        0.0070853205397725105,
        -0.017716987058520317,
        0.03536372259259224,
        0.06789220124483109,
        0.0698833093047142,
        0.021914131939411163,
        -0.013374374248087406,
        -0.04354756325483322,
        -0.11130329221487045,
        -0.03793532773852348,
        -0.09318171441555023,
        -0.04408663883805275,
        0.03638517111539841,
        -0.125806987285614,
        -0.03640418499708176,
        0.07209757715463638,
        -0.0801732987165451,
        5.1886687288060784e-05,
        0.014591237530112267,
        -0.05418878048658371,
        0.03271884098649025,
        -0.04717053845524788,
        -0.08719183504581451,
        0.04672669619321823,
        0.021434692665934563,
        0.05999261513352394,
        -0.027953263372182846,
        -0.016982324421405792,
        0.06259012222290039,
        0.01584523357450962,
        -0.028821002691984177,
        0.03882131725549698,
        0.07922326028347015,
        0.09761642664670944,
        0.03846299275755882,
        0.016495762392878532,
        -0.07682690769433975,
        0.008217182010412216,
        -0.08188575506210327,
        -0.07355175167322159,
        -0.03009113483130932,
        -0.0198964886367321,
        -0.06763993948698044,
        0.04498277232050896,
        -0.0005873013287782669,
        0.09307502210140228,
        0.015636617317795753,
        0.03535468131303787,
        -0.017617493867874146,
        -0.04361579939723015,
        -0.04267039895057678,
        -0.048815399408340454,
        -0.057802602648735046,
        -0.0375349335372448,
        -0.08279454708099365,
        0.032681554555892944,
        -0.02450208179652691,
        -0.0007713236263953149,
        0.06492619961500168,
        -0.005372093059122562,
        -0.016731806099414825,
        -0.03405937924981117,
        -0.031061777845025063,
        -0.003109934739768505,
        -0.04330829903483391,
        0.007009521126747131,
        -0.01187483873218298,
        -0.09484504908323288,
        0.0835278108716011,
        -0.09665720164775848,
        -0.0026362373027950525,
        -0.020815817639231682,
        0.04137735441327095,
        0.033590562641620636,
        -0.006357080768793821,
        0.03859465569257736,
        0.03993051499128342,
        -0.02621045522391796,
        -0.002111598150804639,
        -0.10924206674098969,
        0.018393373116850853,
        -0.023541877046227455,
        0.003278807271271944,
        0.030546370893716812,
        0.043454620987176895,
        -0.08806044608354568,
        -0.12383127212524414,
        -0.009244393557310104,
        -0.005495370831340551,
        0.03754696995019913,
        -0.009703239426016808,
        -0.03648440167307854,
        -0.03614911809563637,
        -0.015120776370167732,
        0.023616211488842964,
        -0.005491463001817465,
        0.08454795181751251,
        -0.01634477823972702
      ],
      [
        -0.11877940595149994,
        -0.014889553189277649,
        -0.022575220093131065,
        0.12083745747804642,
        -0.09046825021505356,
        0.08740337938070297,
        0.0246763676404953,
        -0.03883138298988342,
        -0.030464457347989082,
        -0.005635628942400217,
        0.03928297013044357,
        0.007230289280414581,
        0.005461398977786303,
        0.05614009499549866,
        -0.012778766453266144,
        0.02731364779174328,
        -0.09512588381767273,
        0.06557775288820267,
        -0.006961962673813105,
        0.043366264551877975,
        -0.06481479853391647,
        -0.05636288598179817,
        0.029621055349707603,
        0.06087697669863701,
        0.03744075447320938,
        -0.006795794237405062,
        0.03528653457760811,
        -0.08418522775173187,
        -0.022275790572166443,
        0.021707629784941673,
        -0.017356179654598236,
        0.012391667813062668,
        0.06182480603456497,
        -0.07686188817024231,
        0.005109879653900862,
        -0.05122685059905052,
        -0.04581692814826965,
        -0.08617005497217178,
        0.031718891113996506,
        -0.07849743217229843,
        0.010607516393065453,
        0.07685863971710205,
        0.016581475734710693,
        0.10462021827697754,
        -0.06297658383846283,
        -0.01849615015089512,
        0.12573634088039398,
        0.057518597692251205,
        0.021145902574062347,
        -0.13025838136672974,
        0.0630434900522232,
        -0.06013321131467819,
        0.07959159463644028,
        -0.08881440758705139,
        -0.08216060698032379,
        0.014264716766774654,
        0.06111399456858635,
        -0.10617365688085556,
        -0.04754647985100746,
        -0.011015394702553749,
        0.02283911406993866,
        0.006029593758285046,
        -0.06958802789449692,
        -0.03321041539311409,
        -0.10800240933895111,
        0.04429742693901062,
        -0.03227252513170242,
        -0.09822268038988113,
        0.08997951447963715,
        0.11878754943609238,
        0.03797003626823425,
        0.09795332700014114,
        -0.10907704383134842,
        -0.036946240812540054,
        0.04725324735045433,
        -0.017612233757972717,
        0.015426618047058582,
        -0.022564589977264404,
        0.0467003658413887,
        -0.00818354170769453,
        0.03341793641448021,
        -0.02975090779364109,
        -0.02658931352198124,
        0.049889836460351944,
        0.015460892580449581,
        0.013263202272355556,
        -0.004803408402949572,
        0.028741508722305298,
        -0.11108148097991943,
        0.0630040168762207,
        -0.0029457833152264357,
        0.043693412095308304,
        -0.01825721748173237,
        -0.019730545580387115,
        -0.014555549249053001,
        0.013151608407497406,
        -0.03353040665388107,
        -0.05228346586227417,
        0.08490687608718872,
        0.005012284964323044,
        0.06351211667060852,
        0.03764663636684418,
        0.013498025946319103,
        -0.06838034093379974,
        0.01063576526939869,
        -0.07308537513017654,
        -0.0016353880055248737,
        -0.07663983851671219,
        -0.11299783736467361,
        0.014805246144533157,
        -0.05177827179431915,
        -0.016549168154597282,
        -0.036323826760053635,
        0.040676556527614594,
        0.005524408537894487,
        0.011055589653551579,
        0.05234546586871147,
        -0.057152848690748215,
        -0.09235222637653351,
        0.07932507991790771,
        -0.016075337305665016,
        0.04145047813653946,
        0.03636494278907776,
        -0.08728058636188507,
        0.10547762364149094,
        -0.13673128187656403,
        0.09063264727592468,
        -0.12584930658340454
      ],
      [
        -0.10647294670343399,
        -0.011953073553740978,
        -0.10392940789461136,
        -0.06259966641664505,
        -0.05461793765425682,
        0.11131580173969269,
        -0.05982964113354683,
        0.013290739618241787,
        0.08852046728134155,
        -0.0012074979022145271,
        0.08711111545562744,
        0.011489520780742168,
        -0.11834486573934555,
        -0.058086078613996506,
        -0.01254190318286419,
        -0.026923149824142456,
        -0.058660686016082764,
        0.014299938455224037,
        -0.07454641163349152,
        -0.0487653911113739,
        -0.02104548178613186,
        -0.05095016956329346,
        -0.0038005218375474215,
        0.017927711829543114,
        -0.005951684899628162,
        0.03301915526390076,
        -0.03502053767442703,
        0.039518874138593674,
        -0.025064906105399132,
        0.022525344043970108,
        -0.09809329360723495,
        -0.014736944809556007,
        0.01995784044265747,
        0.018134135752916336,
        -0.0067331185564398766,
        -0.06398947536945343,
        -0.07987888902425766,
        -0.03291652351617813,
        -0.005701301619410515,
        0.05858369544148445,
        0.014147254638373852,
        0.058339234441518784,
        0.12175168842077255,
        0.042129188776016235,
        -0.014714638702571392,
        0.06077198684215546,
        0.14416171610355377,
        0.015808355063199997,
        0.06955508887767792,
        -0.0006681795348413289,
        0.043107639998197556,
        0.0002527582983020693,
        0.08106473088264465,
        0.04561830684542656,
        0.023226777091622353,
        0.027012556791305542,
        0.06322890520095825,
        -0.04139702767133713,
        -0.1026039645075798,
        -0.03955565020442009,
        -0.019382158294320107,
        -0.018983343616127968,
        -0.148728609085083,
        0.009082233533263206,
        0.04068649932742119,
        0.025367142632603645,
        0.012192905880510807,
        -0.09951513260602951,
        0.05032269284129143,
        0.04870016872882843,
        -0.03258679807186127,
        0.1270625740289688,
        -6.920209125382826e-05,
        -0.09700804948806763,
        0.05962081253528595,
        -0.08278325200080872,
        -0.007789308205246925,
        0.06550373136997223,
        0.05483991652727127,
        -0.06441403180360794,
        0.11805547773838043,
        -0.06021285429596901,
        -0.009322701953351498,
        -0.10683608800172806,
        0.101777583360672,
        -0.018713101744651794,
        0.07442427426576614,
        0.07837606221437454,
        0.02514425292611122,
        -0.05914623662829399,
        -0.0009335657814517617,
        -0.07252898812294006,
        0.021708408370614052,
        0.01966562494635582,
        -0.04823685809969902,
        0.03568011894822121,
        -0.007429806515574455,
        -0.05063821002840996,
        0.0628814548254013,
        0.07556725293397903,
        -0.049833547323942184,
        0.04725618660449982,
        -0.03119148500263691,
        0.0017205991316586733,
        0.033501189202070236,
        0.0726100355386734,
        0.06573400646448135,
        0.034028857946395874,
        -0.0027802246622741222,
        -0.009001498110592365,
        0.006546379532665014,
        0.03231537342071533,
        0.008589695207774639,
        0.002858857624232769,
        -0.12248986959457397,
        0.04881316050887108,
        0.036192040890455246,
        -0.01923571340739727,
        0.027781160548329353,
        0.13051959872245789,
        -0.016009023413062096,
        0.02266206219792366,
        0.01783505082130432,
        -0.06731177121400833,
        -0.058020707219839096,
        0.02473825216293335,
        0.06532306969165802,
        -0.12022759020328522
      ],
      [
        0.05244045332074165,
        0.05540326237678528,
        0.022066790610551834,
        -0.10343141108751297,
        0.013074666261672974,
        -0.05729437619447708,
        -0.06328168511390686,
        -0.05176052078604698,
        -0.07006101310253143,
        -0.0013784467009827495,
        -0.02783687226474285,
        -0.06114719808101654,
        -0.02073216624557972,
        0.05192197114229202,
        -0.0005224529886618257,
        -0.02801726944744587,
        0.040483277291059494,
        -0.035469915717840195,
        -0.11192798614501953,
        0.03981762379407883,
        -0.11283888667821884,
        -0.0758511945605278,
        0.07891301810741425,
        0.05885893478989601,
        0.07987845689058304,
        -0.055269479751586914,
        -0.09616440534591675,
        0.07342362403869629,
        -0.09465702623128891,
        -0.04505668208003044,
        0.02387746050953865,
        -0.05980819836258888,
        0.05781304091215134,
        0.07133392244577408,
        -0.023220660164952278,
        0.007285651750862598,
        0.09739454835653305,
        -0.012811601161956787,
        -0.02225283347070217,
        -0.0037404263857752085,
        -0.01602029800415039,
        0.07487613707780838,
        0.04063042253255844,
        0.10254087299108505,
        -0.0479755699634552,
        -0.08382544666528702,
        -0.015351667068898678,
        0.07167728245258331,
        -0.07039128988981247,
        0.04212307557463646,
        0.041902896016836166,
        -0.007018436677753925,
        0.036579251289367676,
        -0.02206626534461975,
        0.05060768499970436,
        7.871830166550353e-05,
        -0.05910841003060341,
        -0.0961296334862709,
        -0.08642343431711197,
        0.07858939468860626,
        -0.04466365650296211,
        -0.04267635941505432,
        -0.09939832240343094,
        -0.10488426685333252,
        -0.10004736483097076,
        0.04168044775724411,
        -0.03388078510761261,
        -0.11568833887577057,
        0.013762992806732655,
        -0.03558070957660675,
        -0.10795682668685913,
        0.006579005625098944,
        -0.026769427582621574,
        -0.09565585851669312,
        -0.03445310518145561,
        -0.07860294729471207,
        0.007814842276275158,
        0.0069975596852600574,
        -0.09092918038368225,
        0.03789900988340378,
        -0.053229205310344696,
        0.0752982422709465,
        -0.09914086014032364,
        -0.09222964942455292,
        0.010047844611108303,
        -0.0172557570040226,
        0.05748096480965614,
        -0.01888715662062168,
        -0.02048240602016449,
        0.0998251736164093,
        0.046125076711177826,
        0.061820488423109055,
        -0.0858626589179039,
        0.07021146267652512,
        0.011414339765906334,
        -0.0064155831933021545,
        -0.007142860442399979,
        -0.00784381851553917,
        -0.08654611557722092,
        0.06358025223016739,
        -0.012568394653499126,
        -0.029507184401154518,
        0.07121773064136505,
        -0.04750645533204079,
        -0.0298624224960804,
        0.07277471572160721,
        -0.03627115860581398,
        -0.06446182727813721,
        -0.10620874911546707,
        -0.014163938350975513,
        0.07693642377853394,
        -0.041697025299072266,
        0.050834499299526215,
        -0.07187613099813461,
        -0.010948898270726204,
        0.10111354291439056,
        0.08951164782047272,
        -0.027615033090114594,
        -0.044166069477796555,
        0.022940194234251976,
        -0.034310657531023026,
        0.024782760068774223,
        0.05672551691532135,
        -0.026545416563749313,
        0.018326740711927414,
        -0.10936326533555984,
        0.07070209830999374,
        -0.02301347441971302
      ],
      [
        0.05125517398118973,
        0.06155676022171974,
        -0.13603590428829193,
        -0.07445473968982697,
        0.07866005599498749,
        -0.0006261981325224042,
        0.045261066406965256,
        -0.08273383975028992,
        0.048933833837509155,
        -0.1107393428683281,
        0.01877378486096859,
        0.08518189191818237,
        -0.08853517472743988,
        0.03597552701830864,
        0.03711865842342377,
        0.019574759528040886,
        -0.0739067792892456,
        0.07382193207740784,
        -0.08614525943994522,
        -0.08385228365659714,
        0.0305788591504097,
        -0.00465820450335741,
        0.11154841631650925,
        0.0591227225959301,
        -0.017407862469553947,
        0.041232332587242126,
        -0.017748719081282616,
        -0.029888303950428963,
        -0.08449877053499222,
        0.0914200022816658,
        0.003491704585030675,
        -0.14732667803764343,
        0.041020866483449936,
        -0.022423308342695236,
        0.0006299473461695015,
        -0.05092917010188103,
        -0.01825026236474514,
        -0.016440223902463913,
        -0.0013646390289068222,
        -0.05948717147111893,
        -0.057612787932157516,
        -0.01307146530598402,
        0.09467653930187225,
        -0.01093315239995718,
        0.07131174951791763,
        -0.013449362479150295,
        0.13187779486179352,
        -0.03589402511715889,
        0.03047892637550831,
        0.011538201943039894,
        -0.058909572660923004,
        -0.035411491990089417,
        0.056004222482442856,
        -0.03997236117720604,
        -0.12586481869220734,
        0.045528631657361984,
        0.06956794857978821,
        -0.004048831295222044,
        -0.16354002058506012,
        -0.0010439427569508553,
        0.0060224453918635845,
        0.05035759508609772,
        -0.11824557930231094,
        -0.05990606173872948,
        -0.054776422679424286,
        0.03853202238678932,
        -0.07907338440418243,
        -0.008512556552886963,
        0.07321993261575699,
        0.13445641100406647,
        0.011176182888448238,
        0.004987322725355625,
        -0.03855564072728157,
        -0.06932694464921951,
        0.031825531274080276,
        0.003194318851456046,
        -0.10282063484191895,
        -0.06398867070674896,
        -0.02380630560219288,
        -0.0828939825296402,
        0.01564033515751362,
        -0.006819767411798239,
        -0.039205607026815414,
        -0.11049962043762207,
        0.08369303494691849,
        0.08886256814002991,
        0.02308424562215805,
        0.019426574930548668,
        0.04493369907140732,
        0.07697110623121262,
        0.014265850186347961,
        0.024498887360095978,
        -0.04353002831339836,
        -0.04371947422623634,
        -0.10082095861434937,
        -0.005988298915326595,
        0.10968725383281708,
        0.08171062916517258,
        -0.015833083540201187,
        0.060526128858327866,
        0.07811659574508667,
        0.05511894077062607,
        0.05260538309812546,
        -0.0029402649961411953,
        0.09142380952835083,
        0.02235141396522522,
        0.11320844292640686,
        0.0670984610915184,
        -0.0762893334031105,
        -0.011912858113646507,
        0.0020728784147650003,
        -0.09730970114469528,
        0.06808104366064072,
        -0.04620391130447388,
        -0.09900908172130585,
        0.0813700407743454,
        0.13232150673866272,
        0.03830501064658165,
        0.06238706409931183,
        0.08170253038406372,
        0.0031524570658802986,
        -0.01939951442182064,
        -0.01147408876568079,
        -0.14056487381458282,
        0.06384052336215973,
        -0.1094871535897255,
        -0.03125489130616188,
        0.006842592265456915
      ],
      [
        0.04305532947182655,
        0.015570116229355335,
        -0.06401555240154266,
        0.06632550805807114,
        0.047127190977334976,
        0.07349376380443573,
        0.02703310362994671,
        -0.008879330940544605,
        0.0627971738576889,
        -0.1274707168340683,
        0.05287637934088707,
        0.023888126015663147,
        0.0632433220744133,
        -0.03880196809768677,
        -0.027183575555682182,
        0.06283527612686157,
        -0.029398828744888306,
        0.015900474041700363,
        -0.1444789469242096,
        -0.030223162844777107,
        0.016354229301214218,
        0.11254782974720001,
        0.12335926294326782,
        -0.05184696987271309,
        -0.07516516000032425,
        0.04241777956485748,
        0.0013935205060988665,
        0.0235458891838789,
        -0.05868085101246834,
        0.044528618454933167,
        -0.08445693552494049,
        -0.08244466036558151,
        -0.03180048614740372,
        -0.08003076910972595,
        -0.11127735674381256,
        -0.05439598485827446,
        -0.0768006220459938,
        -0.016649046912789345,
        -0.023380596190690994,
        -0.015096976421773434,
        0.06764893233776093,
        -0.009378920309245586,
        0.08777952939271927,
        -0.02575460821390152,
        0.023586805909872055,
        -0.0742756724357605,
        0.09127672016620636,
        -0.06287430971860886,
        -0.08245959132909775,
        -0.09788858145475388,
        0.02792580984532833,
        0.0354316271841526,
        0.09381553530693054,
        -0.010642820037901402,
        -0.05993322655558586,
        0.004119290038943291,
        -0.06149790808558464,
        0.021655462682247162,
        -0.004386147018522024,
        -0.06323212385177612,
        0.07002326101064682,
        -0.05126357823610306,
        -0.02546200528740883,
        -0.09824468195438385,
        -0.077969029545784,
        0.015852313488721848,
        0.017543800175189972,
        -0.021712306886911392,
        0.017786938697099686,
        0.134830504655838,
        -0.08252967894077301,
        0.06496337801218033,
        0.018585948273539543,
        -0.10378631949424744,
        0.03337873890995979,
        -0.04040733352303505,
        -0.008647581562399864,
        -0.05277574062347412,
        -0.018856562674045563,
        -0.08451107889413834,
        0.06130288541316986,
        0.06664687395095825,
        0.012505387887358665,
        -0.06696512550115585,
        0.09083759784698486,
        0.08488897979259491,
        -0.026745179668068886,
        -0.0036834815982729197,
        0.07058234512805939,
        -0.07644188404083252,
        0.14099590480327606,
        0.05470457300543785,
        0.05357149988412857,
        0.017062846571207047,
        -0.11601602286100388,
        0.053370386362075806,
        0.043375011533498764,
        -0.03711964562535286,
        0.0594915971159935,
        0.08216536045074463,
        0.024829402565956116,
        -0.05610252916812897,
        0.0294449795037508,
        -0.03622296825051308,
        0.006919016595929861,
        -0.028646502643823624,
        0.10051392018795013,
        0.06200084090232849,
        -0.08139786869287491,
        -0.027909696102142334,
        0.059477921575307846,
        -0.09626253694295883,
        0.052320268005132675,
        -0.03954756259918213,
        -0.022235561162233353,
        -0.06144920364022255,
        0.09389419108629227,
        0.061063580214977264,
        -0.0707729384303093,
        0.09797311574220657,
        -0.021457558497786522,
        0.12500710785388947,
        -0.0550873801112175,
        -0.09100008010864258,
        0.017226530238986015,
        -0.13852353394031525,
        -0.01245968323200941,
        -0.1009974256157875
      ],
      [
        -0.023881182074546814,
        0.0011992340441793203,
        -0.0977572500705719,
        0.03859147056937218,
        0.051910724490880966,
        -0.024782974272966385,
        -0.027465274557471275,
        0.06925563514232635,
        0.064558245241642,
        -0.14031770825386047,
        0.06803305447101593,
        -0.0831494852900505,
        0.01565304957330227,
        0.044060543179512024,
        -0.005703701637685299,
        -0.08505158126354218,
        -0.12905916571617126,
        0.14326995611190796,
        -0.13794711232185364,
        -0.07280057668685913,
        -0.11215243488550186,
        0.019666194915771484,
        0.07971739768981934,
        -0.06855911016464233,
        0.050394851714372635,
        0.042608849704265594,
        -0.04091314226388931,
        -0.08046042919158936,
        0.04608675837516785,
        0.06579624116420746,
        -0.0569022074341774,
        -0.03228673338890076,
        0.03167283907532692,
        -0.05663614347577095,
        -0.1331578940153122,
        -0.13238359987735748,
        -0.08459943532943726,
        -0.06099707633256912,
        -0.036845676600933075,
        -0.025142647325992584,
        -0.06397493183612823,
        0.0915784016251564,
        0.038678932934999466,
        0.10183598101139069,
        -0.0768117681145668,
        -0.02294357679784298,
        0.014042345806956291,
        0.09549957513809204,
        -0.05232904478907585,
        -0.09165652841329575,
        0.03985404968261719,
        -0.0042209140956401825,
        0.08938760310411453,
        -0.0438104011118412,
        -0.09366816282272339,
        0.04116980358958244,
        0.045846469700336456,
        -0.011540334671735764,
        -0.0307276900857687,
        0.0038246316835284233,
        0.03893545642495155,
        -0.07569617033004761,
        -0.09759934991598129,
        0.0035761073231697083,
        -0.12733334302902222,
        -0.016814008355140686,
        -0.06718920171260834,
        -0.005410040728747845,
        0.13232019543647766,
        0.11817929148674011,
        -0.03108528070151806,
