{
  "policy_type": "mappo_timeout_policy",
  "algorithm": "llm_mappo_ctde_gae",
  "episodes": 10000,
  "nodes": 25,
  "seed": 7,
  "hidden_dim": 128,
  "features": [
    "bias",
    "rtt_norm",
    "loss_rate",
    "log_gap_norm",
    "recent_split"
  ],
  "global_features": [
    "node_count_norm",
    "alive_fraction",
    "mean_rtt_norm",
    "mean_loss",
    "mean_log_gap_norm",
    "recent_split",
    "round_index_norm",
    "recent_split_fraction",
    "best_node_quality_norm"
  ],
  "arms": {
    "very_short": [
      150.0,
      230.0
    ],
    "short": [
      280.0,
      420.0
    ],
    "medium": [
      520.0,
      760.0
    ],
    "long": [
      900.0,
      1300.0
    ],
    "very_long": [
      1450.0,
      2100.0
    ]
  },
  "actor_critic": {
    "actor.0.weight": [
      [
        0.043943777680397034,
        -0.2981348931789398,
        0.1056700125336647,
        0.0691981092095375,
        -0.23166640102863312
      ],
      [
        -0.04865289852023125,
        -0.3111770451068878,
        0.05660036578774452,
        -0.2105104774236679,
        0.3361496925354004
      ],
      [
        0.3357274532318115,
        -0.03833379969000816,
        -0.2886039614677429,
        -0.3662053942680359,
        -0.06438910961151123
      ],
      [
        -0.12608669698238373,
        0.23737089335918427,
        -0.33336731791496277,
        0.49457570910453796,
        -0.41918855905532837
      ],
      [
        0.3398963212966919,
        -0.01001015119254589,
        0.3030364215373993,
        0.22160117328166962,
        0.014046110212802887
      ],
      [
        0.07623157650232315,
        0.46654799580574036,
        0.25554585456848145,
        0.34609347581863403,
        -0.31163105368614197
      ],
      [
        0.2870941162109375,
        0.23291996121406555,
        0.20593398809432983,
        0.08250205963850021,
        0.30045560002326965
      ],
      [
        0.41989704966545105,
        -0.11728031933307648,
        -0.27274736762046814,
        -0.18406446278095245,
        -0.28284066915512085
      ],
      [
        0.2481537163257599,
        -0.31047964096069336,
        -0.3417840003967285,
        0.303505539894104,
        0.4408140182495117
      ],
      [
        0.0730593129992485,
        -0.1486700177192688,
        -0.1396033614873886,
        0.1690870225429535,
        -0.5243035554885864
      ],
      [
        -0.36602655053138733,
        0.36424878239631653,
        0.4521836042404175,
        0.0388159342110157,
        -0.40716761350631714
      ],
      [
        0.024102840572595596,
        -0.2867072522640228,
        -0.08817187696695328,
        0.15614058077335358,
        0.17304782569408417
      ],
      [
        -0.04231225326657295,
        -0.027361882850527763,
        0.033577416092157364,
        -0.4262758791446686,
        -0.18880580365657806
      ],
      [
        0.03839084133505821,
        -0.3351391851902008,
        -0.2867767810821533,
        0.1317441463470459,
        0.19161154329776764
      ],
      [
        0.03469512611627579,
        -0.26804599165916443,
        0.13837209343910217,
        -0.3157906234264374,
        -0.15882277488708496
      ],
      [
        0.4074779152870178,
        0.08663369715213776,
        0.0362045019865036,
        0.16914492845535278,
        -0.17986707389354706
      ],
      [
        0.40862926840782166,
        -0.46495264768600464,
        -0.23497919738292694,
        -0.15215495228767395,
        -0.25749605894088745
      ],
      [
        -0.1316106915473938,
        0.359356552362442,
        0.3387119174003601,
        0.11332147568464279,
        0.4455927610397339
      ],
      [
        -0.28508007526397705,
        -0.3852519094944,
        0.0704197883605957,
        -0.11116981506347656,
        -0.4865710437297821
      ],
      [
        -0.2981565296649933,
        -0.3382469415664673,
        0.27270492911338806,
        0.18271727859973907,
        0.3088066875934601
      ],
      [
        -0.29751119017601013,
        -0.5399817228317261,
        -0.41276440024375916,
        0.003119103843346238,
        -0.16136285662651062
      ],
      [
        -0.2997170686721802,
        0.3329668641090393,
        -0.13110601902008057,
        -0.19406995177268982,
        0.23992039263248444
      ],
      [
        -0.13534925878047943,
        0.31480517983436584,
        0.14454759657382965,
        0.09386415034532547,
        0.1425812542438507
      ],
      [
        -0.31303974986076355,
        -0.3324471414089203,
        -0.31511393189430237,
        -0.30198997259140015,
        0.013527161441743374
      ],
      [
        0.09094519913196564,
        -0.2439822405576706,
        0.22411386668682098,
        -0.3425832688808441,
        0.06961166858673096
      ],
      [
        -0.10185874253511429,
        -0.4948504567146301,
        -0.4126088619232178,
        0.1525743156671524,
        0.10072461515665054
      ],
      [
        -0.2507948875427246,
        -0.18529538810253143,
        -0.471141517162323,
        0.18536268174648285,
        0.39769020676612854
      ],
      [
        0.16376517713069916,
        -0.33260810375213623,
        0.17038196325302124,
        0.2713344395160675,
        -0.14653752744197845
      ],
      [
        -0.060611214488744736,
        0.11500715464353561,
        0.013814124278724194,
        -0.15631666779518127,
        -0.4828847646713257
      ],
      [
        -0.2988153100013733,
        0.03242415189743042,
        -0.013540206477046013,
        0.4336449205875397,
        0.0820554792881012
      ],
      [
        -0.08856364339590073,
        -0.5684104561805725,
        -0.5556028485298157,
        0.08577253669500351,
        0.34651514887809753
      ],
      [
        -0.0006951887626200914,
        -0.5244975090026855,
        0.022177521139383316,
        0.28261205554008484,
        -0.39864736795425415
      ],
      [
        -0.11241716146469116,
        0.09989519417285919,
        -0.18473686277866364,
        -0.3959967792034149,
        0.28229448199272156
      ],
      [
        -0.34169137477874756,
        -0.03137105703353882,
        -0.14781472086906433,
        0.4030800759792328,
        0.1490241438150406
      ],
      [
        0.22059711813926697,
        -0.38157832622528076,
        0.28575316071510315,
        -0.025266801938414574,
        -0.30671387910842896
      ],
      [
        -0.012551120482385159,
        -0.426798939704895,
        -0.1429172307252884,
        0.17465424537658691,
        -0.28287509083747864
      ],
      [
        0.36483415961265564,
        0.20818516612052917,
        0.005041836760938168,
        0.14110173285007477,
        -0.11067873239517212
      ],
      [
        -0.06546222418546677,
        -0.35794273018836975,
        0.18541665375232697,
        0.2011321783065796,
        0.2026941180229187
      ],
      [
        0.23332765698432922,
        0.5305783748626709,
        0.5176879167556763,
        -0.3994860053062439,
        0.1742374449968338
      ],
      [
        -0.05459943413734436,
        0.204974964261055,
        -0.027645844966173172,
        0.13084648549556732,
        -0.47395774722099304
      ],
      [
        0.1598302125930786,
        0.46433335542678833,
        -0.03282759338617325,
        -0.30178123712539673,
        -0.4406474828720093
      ],
      [
        -0.11452112346887589,
        -0.04338104650378227,
        0.010235498659312725,
        -0.005546866916120052,
        0.3740096390247345
      ],
      [
        -0.09048061072826385,
        0.24408340454101562,
        -0.1072457879781723,
        0.5019648671150208,
        0.2623623013496399
      ],
      [
        -0.08196704089641571,
        0.4234764277935028,
        0.3008175194263458,
        0.1427515298128128,
        -0.049747269600629807
      ],
      [
        0.0754384994506836,
        -0.035856977105140686,
        -0.33891916275024414,
        -0.027138667181134224,
        0.05282576382160187
      ],
      [
        -0.24753022193908691,
        0.07125125080347061,
        -0.15928523242473602,
        -0.3111336827278137,
        -0.3054797053337097
      ],
      [
        -0.37621021270751953,
        0.2175833135843277,
        0.40050551295280457,
        0.4777340292930603,
        0.5439354181289673
      ],
      [
        0.16452516615390778,
        0.31840643286705017,
        0.034167785197496414,
        0.4385829269886017,
        -0.12496970593929291
      ],
      [
        -0.09499580413103104,
        -0.236174538731575,
        -0.40170910954475403,
        -0.35715794563293457,
        -0.1561143845319748
      ],
      [
        0.3979983627796173,
        -0.32688501477241516,
        -0.523650050163269,
        -0.19930343329906464,
        0.3469068109989166
      ],
      [
        0.10768286883831024,
        -0.026766082271933556,
        -0.1288638561964035,
        0.3624621331691742,
        -0.46766045689582825
      ],
      [
        0.23364906013011932,
        0.19045668840408325,
        0.3566151559352875,
        -0.21229137480258942,
        -0.1295451819896698
      ],
      [
        -0.20834580063819885,
        0.5287737846374512,
        0.04882144182920456,
        -0.36538609862327576,
        0.2959442734718323
      ],
      [
        0.051700711250305176,
        0.00668629864230752,
        -0.35843798518180847,
        -0.46118488907814026,
        0.4667065739631653
      ],
      [
        -0.3167760372161865,
        -0.19033339619636536,
        -0.2003127783536911,
        0.22233998775482178,
        -0.4829096496105194
      ],
      [
        -0.22630253434181213,
        -0.3531809151172638,
        -0.35387593507766724,
        0.21330760419368744,
        0.20300164818763733
      ],
      [
        0.15463286638259888,
        0.4596237242221832,
        -0.18936030566692352,
        0.06917829811573029,
        -0.3641364574432373
      ],
      [
        0.047881826758384705,
        -0.4567374289035797,
        -0.5201746821403503,
        0.24584412574768066,
        -0.25607308745384216
      ],
      [
        -0.005183739122003317,
        -0.26170361042022705,
        -0.4982619881629944,
        -0.11286064982414246,
        -0.015577945858240128
      ],
      [
        0.34285733103752136,
        -0.27208638191223145,
        0.33356520533561707,
        -0.23823104798793793,
        0.21702678501605988
      ],
      [
        0.37479260563850403,
        0.10677175968885422,
        -0.08719878643751144,
        0.34687158465385437,
        -0.19589664041996002
      ],
      [
        -0.1596541702747345,
        -0.2542847692966461,
        -0.4762656092643738,
        -0.11278790980577469,
        -0.4292870759963989
      ],
      [
        0.31605684757232666,
        -0.5669724345207214,
        -0.4811016023159027,
        -0.008339800871908665,
        0.20743919909000397
      ],
      [
        0.45000147819519043,
        -0.49044069647789,
        0.22724884748458862,
        0.2332810014486313,
        -0.38963115215301514
      ],
      [
        0.2119031399488449,
        -0.23018310964107513,
        0.009965775534510612,
        -0.4584536850452423,
        -0.341800332069397
      ],
      [
        -0.2675551772117615,
        -0.1767360419034958,
        -0.11554557830095291,
        -0.06879278272390366,
        -0.33170560002326965
      ],
      [
        0.18262408673763275,
        0.28814324736595154,
        -0.32407480478286743,
        -0.38014429807662964,
        -0.10237845778465271
      ],
      [
        0.13933798670768738,
        -0.4547252357006073,
        -0.16827471554279327,
        -0.050033267587423325,
        -0.4261283278465271
      ],
      [
        0.3988078236579895,
        0.4500862658023834,
        0.4809160828590393,
        -0.09729180485010147,
        -0.24924395978450775
      ],
      [
        0.0299817081540823,
        0.31630152463912964,
        0.28325241804122925,
        -0.2279845029115677,
        0.4260869026184082
      ],
      [
        -0.1811557561159134,
        -0.18646466732025146,
        -0.24777473509311676,
        0.16100703179836273,
        -0.5180657505989075
      ],
      [
        -0.3080141842365265,
        -0.04911080747842789,
        0.31910768151283264,
        -0.09869151562452316,
        0.36410096287727356
      ],
      [
        0.4191858470439911,
        -0.0905296728014946,
        -0.42119982838630676,
        -0.06931925565004349,
        0.10870304703712463
      ],
      [
        -0.0507686473429203,
        -0.5440913438796997,
        0.1453506350517273,
        -0.2592245638370514,
        -0.3812496066093445
      ],
      [
        0.1947135329246521,
        0.17929601669311523,
        0.4077359139919281,
        -0.05109657719731331,
        0.3373226523399353
      ],
      [
        -0.08699455857276917,
        -0.33801817893981934,
        0.345535546541214,
        0.4075809419155121,
        0.27982303500175476
      ],
      [
        -0.10019022226333618,
        -0.2945467531681061,
        -0.03402487561106682,
        0.12046297639608383,
        0.011348836123943329
      ],
      [
        0.17724356055259705,
        0.0811268538236618,
        0.3664863109588623,
        0.2792300581932068,
        0.3049614429473877
      ],
      [
        -0.0030960412696003914,
        -0.4923880100250244,
        -0.41824156045913696,
        -0.28391480445861816,
        0.3212105929851532
      ],
      [
        -0.03823232650756836,
        -0.09595625102519989,
        -0.21562987565994263,
        -0.08139035105705261,
        0.3719768524169922
      ],
      [
        -0.01909799315035343,
        0.2583296597003937,
        0.31609660387039185,
        -0.3397377133369446,
        0.21421973407268524
      ],
      [
        0.4487464129924774,
        -0.1949862837791443,
        0.10502747446298599,
        -0.04212058708071709,
        0.2604546844959259
      ],
      [
        0.10948821157217026,
        -0.4640370309352875,
        -0.47399047017097473,
        0.26607269048690796,
        -0.27427712082862854
      ],
      [
        -0.36014029383659363,
        -0.520578920841217,
        -0.5242764353752136,
        0.0501883439719677,
        -0.0037327564787119627
      ],
      [
        -0.27070072293281555,
        -0.0613030269742012,
        0.1161673441529274,
        0.18005196750164032,
        0.27817481756210327
      ],
      [
        -0.2681697905063629,
        0.5363791584968567,
        0.5464520454406738,
        -0.24790355563163757,
        0.498683363199234
      ],
      [
        -0.33673447370529175,
        -0.3903437852859497,
        -0.02023748867213726,
        0.0347970612347126,
        0.38810238242149353
      ],
      [
        -0.02363884076476097,
        0.43047642707824707,
        -0.0074117486365139484,
        -0.2677777111530304,
        0.03784217685461044
      ],
      [
        0.26633575558662415,
        -0.2919113039970398,
        -0.5107510685920715,
        -0.32227006554603577,
        0.018268344923853874
      ],
      [
        0.4055582284927368,
        0.024452099576592445,
        -0.3605382740497589,
        -0.2408783733844757,
        0.20100627839565277
      ],
      [
        -0.15290436148643494,
        0.06116599217057228,
        0.46954473853111267,
        0.20790575444698334,
        0.38634946942329407
      ],
      [
        0.3785247206687927,
        -0.1521630436182022,
        0.05935239791870117,
        -0.37733447551727295,
        0.4905095100402832
      ],
      [
        -0.30313578248023987,
        0.47843629121780396,
        0.4724906086921692,
        0.1841142177581787,
        -0.3935026228427887
      ],
      [
        -0.0029495866037905216,
        -0.24682703614234924,
        0.06503353267908096,
        0.19278408586978912,
        0.1748974770307541
      ],
      [
        0.16436564922332764,
        -0.4610876142978668,
        -0.5073779225349426,
        0.03597478196024895,
        -0.14424382150173187
      ],
      [
        0.1668749898672104,
        0.5456632375717163,
        0.2596322000026703,
        -0.1862798035144806,
        -0.08558077365159988
      ],
      [
        0.25210192799568176,
        0.15859761834144592,
        0.43448445200920105,
        -0.3297836482524872,
        0.005068389233201742
      ],
      [
        -0.24851585924625397,
        0.46291419863700867,
        0.3328487277030945,
        0.000776307366322726,
        -0.36261600255966187
      ],
      [
        -0.07836827635765076,
        0.44729703664779663,
        0.08502039313316345,
        0.08431461453437805,
        -0.36943334341049194
      ],
      [
        0.3127305805683136,
        0.41665172576904297,
        -0.3023589849472046,
        -0.26966792345046997,
        0.05294671654701233
      ],
      [
        -0.19971433281898499,
        -0.4549679160118103,
        0.03539056330919266,
        -0.1895521581172943,
        0.18577641248703003
      ],
      [
        0.13071319460868835,
        0.5057977437973022,
        0.3881247043609619,
        -0.3652650713920593,
        -0.341605007648468
      ],
      [
        0.3571551442146301,
        -0.39146342873573303,
        0.2576550245285034,
        -0.3276402950286865,
        0.39941665530204773
      ],
      [
        0.27560955286026,
        -0.42478612065315247,
        -0.4975075423717499,
        -0.26613935828208923,
        -0.30097174644470215
      ],
      [
        -0.26118695735931396,
        0.3782914876937866,
        0.18281815946102142,
        0.043024346232414246,
        -0.020514903590083122
      ],
      [
        0.16212406754493713,
        0.13061918318271637,
        0.04096435755491257,
        0.4348823130130768,
        0.3858232796192169
      ],
      [
        0.019794484600424767,
        0.4275330603122711,
        0.03444089740514755,
        -0.25493982434272766,
        0.35666072368621826
      ],
      [
        0.24549464881420135,
        0.1370912492275238,
        -0.31401655077934265,
        0.3402038812637329,
        -0.04761619120836258
      ],
      [
        -0.21411584317684174,
        -0.5157589316368103,
        -0.365871787071228,
        0.33456680178642273,
        0.1447005271911621
      ],
      [
        -0.21769551932811737,
        0.4794953763484955,
        0.5058502554893494,
        0.2968357503414154,
        0.029144249856472015
      ],
      [
        0.4121515452861786,
        -0.15766505897045135,
        -0.2516498863697052,
        0.1884082853794098,
        -0.269707590341568
      ],
      [
        0.35624730587005615,
        -0.3285943567752838,
        0.060833755880594254,
        -0.39056137204170227,
        -0.38497936725616455
      ],
      [
        -0.003570258617401123,
        0.40450364351272583,
        -0.2805599868297577,
        -0.03327351063489914,
        0.26062560081481934
      ],
      [
        -0.05234258621931076,
        -0.4840104281902313,
        -0.10086148977279663,
        -0.17814630270004272,
        0.05095352977514267
      ],
      [
        0.18048545718193054,
        -0.25649601221084595,
        -0.3618141710758209,
        0.17243461310863495,
        -0.47530797123908997
      ],
      [
        0.1978275179862976,
        0.22585652768611908,
        0.23064129054546356,
        -0.3193661868572235,
        0.24927181005477905
      ],
      [
        -0.27556878328323364,
        0.31227028369903564,
        -0.08404207974672318,
        0.17922724783420563,
        0.07579745352268219
      ],
      [
        -0.28524404764175415,
        -0.4899451434612274,
        -0.19173653423786163,
        0.2375503033399582,
        -0.17078587412834167
      ],
      [
        -0.07531285285949707,
        -0.37667316198349,
        -0.43655624985694885,
        -0.08935796469449997,
        -0.1566096544265747
      ],
      [
        0.1483410894870758,
        0.5526084899902344,
        -0.17699065804481506,
        -0.06299258768558502,
        0.25558820366859436
      ],
      [
        -0.2878130078315735,
        -0.07643045485019684,
        -0.26133912801742554,
        0.21900911629199982,
        -0.06258823722600937
      ],
      [
        0.03153611719608307,
        0.38302913308143616,
        -0.1879522204399109,
        -0.16305726766586304,
        0.4398157596588135
      ],
      [
        0.17928870022296906,
        -0.04595853388309479,
        0.44198158383369446,
        0.43007129430770874,
        -0.24697665870189667
      ],
      [
        -0.14737652242183685,
        0.27289044857025146,
        -0.1870960295200348,
        -0.36545220017433167,
        -0.2854456305503845
      ],
      [
        -0.4145894944667816,
        0.3935839831829071,
        0.235769122838974,
        -0.2744753658771515,
        0.05550631135702133
      ],
      [
        0.44980892539024353,
        -0.3946792185306549,
        -0.4281071722507477,
        0.10710228979587555,
        -0.39447420835494995
      ],
      [
        -0.4177245497703552,
        0.23825737833976746,
        -0.07000226527452469,
        0.301026850938797,
        -0.09848914295434952
      ],
      [
        0.437924861907959,
        -0.3078853189945221,
        0.23512455821037292,
        -0.3405694365501404,
        -0.23751190304756165
      ]
    ],
    "actor.0.bias": [
      0.35814905166625977,
      0.2166168987751007,
      -0.3080005645751953,
      -0.04477031156420708,
      0.26145243644714355,
      -0.3534777760505676,
      -0.010221891105175018,
      0.28308042883872986,
      -0.3084443211555481,
      0.191743403673172,
      -0.4329218864440918,
      -0.40635567903518677,
      0.01996598206460476,
      -0.38325634598731995,
      -0.17775017023086548,
      0.25023365020751953,
      -0.0592193640768528,
      -0.3200438618659973,
      0.3956560492515564,
      -0.4256569445133209,
      0.12676864862442017,
      -0.31054362654685974,
      -0.26387009024620056,
      0.059287458658218384,
      0.4420926868915558,
      -0.09288531541824341,
      -0.41851070523262024,
      0.11394115537405014,
      -0.16532322764396667,
      -0.28400856256484985,
      0.20327427983283997,
      0.18271207809448242,
      -0.2159799337387085,
      0.054507236927747726,
      0.07804781943559647,
      0.04974348843097687,
      -0.08226418495178223,
      -0.21997623145580292,
      0.215750589966774,
      0.3216177225112915,
      0.31709566712379456,
      0.3426777422428131,
      -0.031018748879432678,
      0.01589985191822052,
      -0.15864866971969604,
      -0.08869203925132751,
      0.09337335079908371,
      0.024069862440228462,
      -0.29406577348709106,
      -0.2834284007549286,
      0.2070690393447876,
      0.32138895988464355,
      0.3941671550273895,
      0.23869402706623077,
      0.27735471725463867,
      0.21711474657058716,
      0.2532176971435547,
      -0.06592169404029846,
      0.09959743171930313,
      0.16605085134506226,
      0.07858458161354065,
      -0.0067771985195577145,
      -0.21185846626758575,
      -0.29592061042785645,
      -0.23211215436458588,
      0.05930677056312561,
      0.37371698021888733,
      -0.14796316623687744,
      -0.3843214511871338,
      -0.4144000709056854,
      0.20532849431037903,
      0.16254402697086334,
      -0.2294735461473465,
      -0.1290358155965805,
      0.3131408393383026,
      -0.35938194394111633,
      0.28726479411125183,
      0.003959561698138714,
      -0.17981867492198944,
      0.41641780734062195,
      -0.31310969591140747,
      0.4051474332809448,
      0.37240463495254517,
      0.1866118460893631,
      0.2802389860153198,
      0.08108548074960709,
      0.4041246175765991,
      0.07386744767427444,
      -0.41245606541633606,
      -0.20957669615745544,
      0.05311771109700203,
      0.29136115312576294,
      -0.1329169124364853,
      0.17381559312343597,
      0.1914910078048706,
      -0.0035011349245905876,
      -0.3919674754142761,
      0.3980620205402374,
      -0.24129146337509155,
      0.029228996485471725,
      -0.11779636144638062,
      0.06715011596679688,
      0.30101722478866577,
      0.1169639527797699,
      -0.20163552463054657,
      0.07512054592370987,
      -0.37769079208374023,
      0.37336888909339905,
      0.2612650394439697,
      0.30006200075149536,
      0.10614178329706192,
      -0.41551393270492554,
      -0.34411534667015076,
      -0.37856197357177734,
      0.2576659023761749,
      0.41294214129447937,
      0.28237417340278625,
      -0.15628845989704132,
      -0.2317497432231903,
      -0.2706262171268463,
      0.43461424112319946,
      -0.43514204025268555,
      -0.4357273578643799,
      0.16338132321834564,
      0.03722439333796501,
      -0.2090855985879898,
      -0.2504498064517975,
      -0.412624716758728
    ],
    "actor.2.weight": [
      [
        0.07083435356616974,
        -0.0301930233836174,
        0.02959921956062317,
        0.053176045417785645,
        -0.058418601751327515,
        0.0509021170437336,
        -0.03595782443881035,
        0.08130855858325958,
        -0.03588158264756203,
        0.13684451580047607,
        -0.06911640614271164,
        -0.027709895744919777,
        -0.02158631943166256,
        0.05253545194864273,
        -0.07384084910154343,
        0.07270680367946625,
        0.07942698895931244,
        -0.11931802332401276,
        0.07880798727273941,
        -0.025775793939828873,
        -0.003392812330275774,
        -0.07014993578195572,
        -0.06564459204673767,
        0.013490771874785423,
        0.06064378842711449,
        0.026481252163648605,
        0.048636533319950104,
        0.030787203460931778,
        0.07454754412174225,
        0.01412265095859766,
        -0.027463579550385475,
        0.172095388174057,
        -0.006276244763284922,
        0.046850308775901794,
        -0.02155977115035057,
        0.06420860439538956,
        -0.07386799901723862,
        -0.026406217366456985,
        -0.037106238305568695,
        -0.02519134432077408,
        -0.04402004927396774,
        0.06405870616436005,
        -0.06971798092126846,
        -0.031640030443668365,
        0.008183705620467663,
        0.02368597872555256,
        -0.08520617336034775,
        -0.08489948511123657,
        -0.009785985574126244,
        0.0754612386226654,
        0.03220764175057411,
        0.025547761470079422,
        0.03085862658917904,
        0.05004725232720375,
        0.033114783465862274,
        0.08280197530984879,
        -0.021615317091345787,
        0.04579814895987511,
        0.16620095074176788,
        -0.03704307973384857,
        0.1044999286532402,
        -0.017865264788269997,
        0.00289811915718019,
        0.17860345542430878,
        0.11110328882932663,
        -0.050941258668899536,
        0.05283975973725319,
        0.06495481729507446,
        -0.08475595712661743,
        -0.09548544883728027,
        0.08117904514074326,
        -0.1513185054063797,
        0.00969382468611002,
        0.045514192432165146,
        0.06763606518507004,
        0.048049189150333405,
        0.013584781438112259,
        0.029891567304730415,
        0.02181088551878929,
        0.0032713671680539846,
        -0.11693661659955978,
        0.04017820581793785,
        0.13503766059875488,
        -0.05514524132013321,
        -0.046123649924993515,
        -0.05395372956991196,
        -0.0031928541138768196,
        0.03346534073352814,
        -0.00021527822536882013,
        -0.04493425786495209,
        -0.1824759989976883,
        -0.042435284703969955,
        -0.04727746546268463,
        0.06762273609638214,
        0.07802248746156693,
        -0.008495118468999863,
        0.02304716221988201,
        0.024941960349678993,
        -0.06356527656316757,
        -0.03009103424847126,
        0.047820501029491425,
        -0.03698784112930298,
        0.045078713446855545,
        0.10972541570663452,
        -0.029234308749437332,
        -0.0689103752374649,
        -0.11948955804109573,
        -0.06781210005283356,
        0.06979125738143921,
        -0.11417637765407562,
        -0.02151176892220974,
        0.12226609885692596,
        -0.058197032660245895,
        0.03949263319373131,
        0.007283098995685577,
        -0.015914693474769592,
        -0.08639982342720032,
        0.036638300865888596,
        -0.04782630503177643,
        -0.1417572796344757,
        0.056673284620046616,
        -0.04867388308048248,
        -0.04755638912320137,
        0.03652693331241608,
        -0.057779766619205475,
        0.027889790013432503,
        0.06367788463830948,
        -0.0023719181772321463
      ],
      [
        -0.0026294193230569363,
        -0.03963397815823555,
        -0.11678338050842285,
        0.02118760533630848,
        0.07995368540287018,
        0.16899581253528595,
        0.004197147209197283,
        -0.0455646812915802,
        -0.0942317470908165,
        0.04125186800956726,
        -0.022558456286787987,
        0.019444871693849564,
        0.008694430813193321,
        0.04751128703355789,
        -0.033497463911771774,
        0.0466565378010273,
        -0.13521000742912292,
        0.015533993020653725,
        -0.15543754398822784,
        -0.08690695464611053,
        -0.12988322973251343,
        0.06661976128816605,
        0.08630341291427612,
        -0.05632728338241577,
        -0.09877332299947739,
        0.01585339568555355,
        0.08128304034471512,
        0.04589756578207016,
        -0.014855318702757359,
        -0.06742718815803528,
        -0.06665590405464172,
        -0.07242351025342941,
        0.06664416939020157,
        0.018855251371860504,
        0.010347305797040462,
        -0.1294359564781189,
        -0.05596629157662392,
        -0.0026909634470939636,
        0.0970284566283226,
        -0.041552137583494186,
        0.05958854407072067,
        -0.03923474997282028,
        0.051248278468847275,
        0.09649033844470978,
        0.0675894096493721,
        0.07655296474695206,
        0.14098571240901947,
        0.12347858399152756,
        -0.02225036919116974,
        -0.1013939157128334,
        0.02363082952797413,
        -0.03138492628931999,
        0.09607576578855515,
        -0.026215685531497,
        -0.06977273523807526,
        -0.02184164710342884,
        0.10194052755832672,
        -0.003711175173521042,
        -0.14310277998447418,
        -0.07418320327997208,
        0.08450419455766678,
        -0.001672962331213057,
        -0.05133594945073128,
        -0.1427156925201416,
        -0.02172713167965412,
        -0.013662922196090221,
        0.06251443177461624,
        -0.05983956903219223,
        0.04284479096531868,
        0.09180012345314026,
        0.017737112939357758,
        -0.04643524810671806,
        0.04908483102917671,
        0.027455221861600876,
        0.08239337801933289,
        0.015250522643327713,
        -0.10542185604572296,
        -0.008644292131066322,
        -0.06240776553750038,
        -0.07397528737783432,
        0.07672068476676941,
        0.031036294996738434,
        -0.07419152557849884,
        0.027990855276584625,
        0.0058029042556881905,
        0.20940527319908142,
        -0.039257194846868515,
        0.03866477310657501,
        -0.12168873101472855,
        -0.0793374553322792,
        0.17167991399765015,
        -0.06659810245037079,
        0.07617590576410294,
        0.009757027961313725,
        -0.11692048609256744,
        0.09796929359436035,
        0.0144002391025424,
        0.06575824320316315,
        0.11753536015748978,
        -0.058887455612421036,
        -0.05818619951605797,
        -0.006924722343683243,
        -0.04072020575404167,
        0.006678192410618067,
        0.12113019078969955,
        0.06126517057418823,
        0.017445838078856468,
        -0.01753232628107071,
        -0.08589722961187363,
        0.15711575746536255,
        -0.08954174071550369,
        -0.08304090052843094,
        -0.025546634569764137,
        0.01045666728168726,
        -0.04453321173787117,
        -0.0349731370806694,
        0.001941924449056387,
        -0.04893698915839195,
        -0.10580964386463165,
        0.15482813119888306,
        -0.10692179948091507,
        -0.010682210326194763,
        0.10894565284252167,
        -0.05727172642946243,
        -0.020384103059768677,
        -0.1745472550392151,
        -0.03754648566246033,
        -0.0344497486948967
      ],
      [
        -0.06289134174585342,
        -0.08561281859874725,
        -0.011365724727511406,
        0.07181090861558914,
        0.03742421045899391,
        0.04725811257958412,
        0.029279371723532677,
        0.016168873757123947,
        0.0811091810464859,
        -0.011758562177419662,
        -0.05354417860507965,
        -0.06838998198509216,
        -0.07861185073852539,
        -0.041832294315099716,
        0.06062447279691696,
        -0.09513334184885025,
        -0.08936311304569244,
        0.12231634557247162,
        -0.059955473989248276,
        -0.037400007247924805,
        -0.03070828504860401,
        -0.04700851812958717,
        -0.018950995057821274,
        -0.08628536760807037,
        -0.07694641500711441,
        0.06489749252796173,
        -0.0064424131996929646,
        -0.08952920883893967,
        -0.044813964515924454,
        -0.06165904179215431,
        -0.09495570510625839,
        -0.09519802778959274,
        -0.03756721690297127,
        0.016228176653385162,
        -0.022862929850816727,
        -0.0054396288469433784,
        -0.050366275012493134,
        -0.020364057272672653,
        0.09936308115720749,
        -0.026200078427791595,
        -0.08133875578641891,
        -0.021483270451426506,
        0.13580265641212463,
        0.05569872260093689,
        0.029656173661351204,
        -0.07025963068008423,
        0.12956182658672333,
        -0.029639773070812225,
        -0.0402618870139122,
        -0.039041925221681595,
        0.05397534370422363,
        0.06512685865163803,
        0.10440817475318909,
        -0.00814910139888525,
        0.015551124699413776,
        -0.029914306476712227,
        0.058224599808454514,
        -0.08029716461896896,
        -0.14615458250045776,
        -0.07081431150436401,
        -0.013748970814049244,
        -0.06702227145433426,
        0.006328001152724028,
        -0.1474294364452362,
        -0.0024918930139392614,
        -0.06150851398706436,
        0.044126782566308975,
        -0.05515304207801819,
        -0.017801325768232346,
        0.06661690026521683,
        -0.1488925963640213,
        0.051420051604509354,
        -0.06532998383045197,
        -0.1084650456905365,
        0.08402159810066223,
        0.05915340781211853,
        -0.028698623180389404,
        0.06871207803487778,
        -0.08600585907697678,
        -0.05061902105808258,
        0.003208243753761053,
        -0.06439702212810516,
        -0.0678730458021164,
        0.038630250841379166,
        -0.02184304967522621,
        0.11297150701284409,
        0.02640707790851593,
        -0.008376013487577438,
        0.015558887273073196,
        -0.025533070787787437,
        0.14021505415439606,
        0.07410239428281784,
        0.05340278893709183,
        -0.06943592429161072,
        -0.12440494447946548,
        0.0934598445892334,
        0.023288339376449585,
        0.09655943512916565,
        -0.0398271307349205,
        -0.040771882981061935,
        0.08054979145526886,
        0.01616450771689415,
        -0.055795226246118546,
        -0.061867162585258484,
        0.022178884595632553,
        -0.06782488524913788,
        0.091429203748703,
        0.040316738188266754,
        -0.05445617809891701,
        -0.03477197140455246,
        -0.04779304191470146,
        -0.00889099482446909,
        0.021222269162535667,
        0.06466622650623322,
        -0.07097483426332474,
        -0.019052699208259583,
        0.09955623000860214,
        -0.0006193168228492141,
        0.03549211099743843,
        0.03473282232880592,
        0.03467537462711334,
        0.016882406547665596,
        0.0029457914642989635,
        0.027431607246398926,
        0.06563775986433029,
        -0.13774505257606506,
        0.06493820995092392,
        -0.07843402028083801
      ],
      [
        0.06788696348667145,
        0.018910393118858337,
        0.09265352785587311,
        -0.041244685649871826,
        0.04936739429831505,
        0.00458598043769598,
        -0.0018783935811370611,
        0.08801159262657166,
        0.06849302351474762,
        -0.03451203554868698,
        -0.06502987444400787,
        0.007067527621984482,
        -0.04838110879063606,
        0.053437743335962296,
        0.11202958971261978,
        -0.056239042431116104,
        0.04622771218419075,
        -0.12136095762252808,
        0.13125206530094147,
        0.006211388390511274,
        0.11046797037124634,
        -0.052011918276548386,
        -0.11158808320760727,
        0.10967950522899628,
        0.09603551775217056,
        -0.019793575629591942,
        -0.028353586792945862,
        0.013422617688775063,
        -0.0607922300696373,
        -0.08616138994693756,
        0.16145843267440796,
        0.16109555959701538,
        0.03858455270528793,
        -0.07075299322605133,
        0.027029868215322495,
        0.14154371619224548,
        0.031037509441375732,
        -0.004564186092466116,
        -0.023310163989663124,
        0.03273617848753929,
        0.0646057203412056,
        0.07371682673692703,
        -0.02475600875914097,
        -0.028460461646318436,
        -0.02382207289338112,
        0.08891370892524719,
        -0.07668710500001907,
        -0.053293753415346146,
        0.0943451002240181,
        0.08101563900709152,
        0.025307707488536835,
        -0.014633610844612122,
        -0.10444887727499008,
        -0.06889111548662186,
        0.1290334165096283,
        0.14996609091758728,
        -0.02303357794880867,
        0.012441592290997505,
        0.21618007123470306,
        0.025519946590065956,
        0.045068033039569855,
        -0.03445959463715553,
        0.14440412819385529,
        0.11623813211917877,
        0.14374563097953796,
        0.091162770986557,
        0.04727044701576233,
        0.09946581721305847,
        -0.038288723677396774,
        -0.02032640390098095,
        0.1567838191986084,
        0.01687813736498356,
        0.016509585082530975,
        0.06921542435884476,
        -0.045574404299259186,
        0.07629527896642685,
        0.011808405630290508,
        0.055906992405653,
        0.10947325825691223,
        -0.0642116442322731,
        -0.11923040449619293,
        0.001877855509519577,
        0.08782647550106049,
        0.11784476041793823,
        -0.08933281153440475,
        -0.1306139975786209,
        0.09689968079328537,
        -0.08548105508089066,
        -0.02998202294111252,
        0.028780901804566383,
        -0.06075165793299675,
        -0.007738141342997551,
        0.0042249830439686775,
        0.03820478171110153,
        0.1416180282831192,
        -0.021601151674985886,
        -0.03316608816385269,
        -0.05752569064497948,
        -0.08681289106607437,
        0.018893398344516754,
        0.10732662677764893,
        -0.002621298423036933,
        -0.06724948436021805,
        0.126789852976799,
        0.05554617568850517,
        -0.02162075787782669,
        -0.11470306664705276,
        -0.02686549723148346,
        0.14866423606872559,
        -0.0168890580534935,
        0.0030525836627930403,
        0.07251907885074615,
        -0.046539224684238434,
        -0.06017187237739563,
        0.09417184442281723,
        -0.020060041919350624,
        -0.1484028697013855,
        0.04241145774722099,
        0.07723075896501541,
        -0.18900059163570404,
        0.019251838326454163,
        -0.11325980722904205,
        0.020320042967796326,
        -0.011448998004198074,
        0.00705031817778945,
        0.08506695926189423,
        0.07355904579162598,
        0.009849898517131805
      ],
      [
        0.011905809864401817,
        0.013717807829380035,
        0.04041837155818939,
        0.030176881700754166,
        0.05223853886127472,
        -0.014292835257947445,
        0.021031910553574562,
        -0.03273659199476242,
        0.0288550928235054,
        -0.04744214192032814,
        0.0526481457054615,
        -0.0015765433199703693,
        0.012281212024390697,
        0.0519261509180069,
        0.019334284588694572,
        -0.06100771576166153,
        0.07971283048391342,
        0.012936142273247242,
        0.1623297482728958,
        -0.08269151300191879,
        0.1280696839094162,
        0.0129831712692976,
        -0.12812767922878265,
        0.0213359072804451,
        -0.0377068892121315,
        0.052308496087789536,
        -0.07790795713663101,
        0.018981143832206726,
        0.04648319259285927,
        -0.025572801008820534,
        0.13045018911361694,
        0.0561949722468853,
        0.06112219765782356,
        0.07023496180772781,
        0.04855797812342644,
        0.09070490300655365,
        0.06855850666761398,
        -0.07319914549589157,
        0.01979084126651287,
        -0.07223942130804062,
        -0.04908187314867973,
        -0.08263560384511948,
        -0.08066298812627792,
        -0.03798513486981392,
        -0.0004516169719863683,
        0.035164255648851395,
        -0.08189798146486282,
        -0.11148472875356674,
        -0.05993189290165901,
        0.11979727447032928,
        0.07062042504549026,
        0.060723550617694855,
        -0.07200728356838226,
        0.0333159901201725,
        0.11423972249031067,
        0.0013179582310840487,
        -0.10170086473226547,
        -0.019991708919405937,
        0.18172481656074524,
        -0.05497167631983757,
        -0.07543116062879562,
        0.06637383252382278,
        0.1644608974456787,
        0.14269541203975677,
        -0.009805773384869099,
        0.09879504144191742,
        0.06378552317619324,
        0.04754960536956787,
        -0.14016257226467133,
        -0.09857550263404846,
        0.010556681081652641,
        -0.08986732363700867,
        0.08060322701931,
        0.10698381066322327,
        0.025084955617785454,
        0.043724752962589264,
        0.016414545476436615,
        0.028773151338100433,
        0.1221412941813469,
        0.06402076780796051,
        0.03013204224407673,
        -0.02574678137898445,
        0.08872302621603012,
        0.014945019036531448,
        -0.004127705469727516,
        -0.020381556823849678,
        0.10020900517702103,
        -0.050693634897470474,
        0.052661336958408356,
        0.030979344621300697,
        -0.12121766060590744,
        0.07918007671833038,
        0.013813627883791924,
        -0.007919827476143837,
        -0.007216389756649733,
        -0.06287416815757751,
        -0.10227266699075699,
        0.011835278011858463,
        -0.09699425846338272,
        0.050199005752801895,
        0.04301987588405609,
        -0.06704844534397125,
        -0.019512994214892387,
        0.08941589295864105,
        -0.11160542070865631,
        -0.025854915380477905,
        -0.13994231820106506,
        -0.07463379949331284,
        0.03724610432982445,
        -0.02216486819088459,
        -0.05054118111729622,
        0.14352548122406006,
        -0.13287453353405,
        -0.05858752876520157,
        0.07221154868602753,
        0.00039733474841341376,
        -0.015901723876595497,
        -0.002551466692239046,
        0.0645260289311409,
        -0.041481588035821915,
        -0.03573531284928322,
        -0.09628806263208389,
        0.055469416081905365,
        0.047354623675346375,
        -0.050752487033605576,
        0.14632077515125275,
        -0.08431193232536316,
        0.16981865465641022
      ],
      [
        -0.061067502945661545,
        -0.03710181266069412,
        -0.11872924864292145,
        -0.026859484612941742,
        -0.041535135358572006,
        0.08294513821601868,
        0.012388065457344055,
        -0.0013956058537587523,
        -0.10597450286149979,
        -0.08093652874231339,
        -0.005424925126135349,
        0.019685441628098488,
        -0.06655454635620117,
        0.06768569350242615,
        -0.05863006412982941,
        0.07049847394227982,
        -0.06044229120016098,
        0.09251204133033752,
        -0.1548742651939392,
        0.04705585539340973,
        -0.07833937555551529,
        0.033101167529821396,
        0.10350816696882248,
        -0.028303908184170723,
        -0.0334627740085125,
        -0.0204309169203043,
        -0.04742751270532608,
        -0.10683558136224747,
        0.009816538542509079,
        0.02835499309003353,
        -0.03854454308748245,
        -0.1330265998840332,
        -0.005052073858678341,
        0.028610678389668465,
        -0.03045438788831234,
        -0.09149020910263062,
        0.042041923850774765,
        0.08451590687036514,
        -0.023649156093597412,
        -0.04052378237247467,
        -0.0040214778855443,
        0.07796070724725723,
        0.14175476133823395,
        0.03197360038757324,
        0.059068407863378525,
        0.08019652217626572,
        0.1493322253227234,
        0.05518799647688866,
        -0.08906691521406174,
        -0.11253301799297333,
        -0.01765032485127449,
        -0.055472198873758316,
        -0.033358994871377945,
        -0.027525154873728752,
        0.04470408335328102,
        -0.029746688902378082,
        0.011253620497882366,
        -0.026322025805711746,
        -0.2220897525548935,
        0.023915128782391548,
        0.012342588044703007,
        -0.07971834391355515,
        -0.18983837962150574,
        -0.19158723950386047,
        -0.03355950862169266,
        0.017401937395334244,
        0.004435681737959385,
        -0.08820375800132751,
        0.10213698446750641,
        -0.005423033144325018,
        -0.01659541390836239,
        -0.029126988723874092,
        -0.08528739959001541,
        -0.09767097234725952,
        0.023242823779582977,
        -0.039380479604005814,
        -0.01896204985678196,
        0.059506241232156754,
        -0.03529048711061478,
        0.029900092631578445,
        0.09595202654600143,
        0.015628691762685776,
        -0.12452111393213272,
        -0.05370326340198517,
        -0.027086377143859863,
        0.18711541593074799,
        -0.13174745440483093,
        0.06109744682908058,
        0.0027245266828686,
        0.03315373882651329,
        0.17530012130737305,
        -0.03920750319957733,
        -0.002949470654129982,
        -0.1196119636297226,
        -0.10341395437717438,
        0.08565057814121246,
        0.04852937161922455,
        -0.04211926832795143,
        0.014063680544495583,
        -0.046806707978248596,
        -0.061448849737644196,
        0.024400116875767708,
        -0.03781823441386223,
        -0.126271590590477,
        0.028291426599025726,
        -0.03814661502838135,
        0.05568729713559151,
        0.02768232487142086,
        -0.08744525909423828,
        0.03410889580845833,
        -0.0036922297440469265,
        0.007941775023937225,
        0.12741899490356445,
        -0.04630623757839203,
        -0.11376471072435379,
        0.014145265333354473,
        0.10261314362287521,
        0.0032482012175023556,
        0.0695137232542038,
        0.1798849254846573,
        -0.02182289958000183,
        0.09847571700811386,
        0.08873237669467926,
        -0.03567194938659668,
        -0.014256391674280167,
        -0.11209843307733536,
        -0.003468671115115285,
        -0.14767634868621826
      ],
      [
        -0.056846488267183304,
        0.12574312090873718,
        0.000597606529481709,
        -0.09871134907007217,
        0.06634341925382614,
        -0.06302851438522339,
        0.02665369212627411,
        -0.018630383536219597,
        0.046368442475795746,
        0.04689035192131996,
        -0.08141615986824036,
        -0.019826197996735573,
        -0.01722230389714241,
        0.0717378705739975,
        0.06573576480150223,
        0.0677446722984314,
        -0.005880583543330431,
        -0.009174029342830181,
        -0.01288494560867548,
        -0.06899186223745346,
        -0.06369759142398834,
        -0.02744433470070362,
        -0.03022604063153267,
        0.031071212142705917,
        -0.06320188194513321,
        -0.038339752703905106,
        0.06640298664569855,
        0.028105221688747406,
        -0.09547816216945648,
        0.030471796169877052,
        0.023313097655773163,
        -0.0498078353703022,
        -0.04152441397309303,
        -0.055116090923547745,
        -0.03916678950190544,
        0.015941862016916275,
        0.0452641062438488,
        0.044645313173532486,
        0.09499042481184006,
        0.06223181635141373,
        -0.045932356268167496,
        0.09672676771879196,
        -0.0467306524515152,
        0.009717194363474846,
        -0.03964337334036827,
        0.05892086774110794,
        -0.011634458787739277,
        0.02389470301568508,
        0.07088477909564972,
        0.0708891749382019,
        0.02865476720035076,
        0.031415246427059174,
        -0.024200700223445892,
        0.028112733736634254,
        0.044216088950634,
        0.04404257982969284,
        0.06376273930072784,
        0.044321559369564056,
        0.1073879674077034,
        -0.018562639132142067,
        -0.014718342572450638,
        0.04478346183896065,
        0.07188796252012253,
        0.03491322696208954,
        0.0569579191505909,
        0.024017009884119034,
        0.04424475505948067,
        -0.041278328746557236,
        0.003683808958157897,
        -0.006102526094764471,
        0.02319403365254402,
        0.052161820232868195,
        -0.021576885133981705,
        0.05011918395757675,
        -0.0003867735213134438,
        0.031015545129776,
        -0.0009124991483986378,
        -0.06339835375547409,
        0.048657406121492386,
        0.06614403426647186,
        0.0580279640853405,
        0.06791883707046509,
        0.05896548181772232,
        0.04976283013820648,
        0.07747695595026016,
        -0.044205717742443085,
        0.09116215258836746,
        -0.07149992883205414,
        -0.047217242419719696,
        0.10801319777965546,
        0.047014638781547546,
        0.05258231237530708,
        -0.0547206811606884,
        -0.04383295774459839,
        0.0072166211903095245,
        -0.036196473985910416,
        -0.06355886161327362,
        0.0028873092960566282,
        -0.11110826581716537,
        -0.04126933962106705,
        -0.018496135249733925,
        -0.08369665592908859,
        0.006850234232842922,
        0.02267218567430973,
        -0.028354587033391,
        -0.02027129754424095,
        -0.034395910799503326,
        0.07856044173240662,
        0.07754729688167572,
        0.010672169737517834,
        -0.05323810130357742,
        -0.06427042186260223,
        0.02854953147470951,
        -0.0035860524512827396,
        -0.000691354158334434,
        -0.01748686656355858,
        -0.07254282385110855,
        -0.05562301352620125,
        0.046311575919389725,
        0.04951471462845802,
        0.060815148055553436,
        -0.05948944017291069,
        -0.027096951380372047,
        -0.09831055998802185,
        -0.07608060538768768,
        -0.049683839082717896,
        0.010698439553380013,
        -0.08521062135696411
      ],
      [
        0.09205122292041779,
        0.04209568724036217,
        0.01823238842189312,
        0.057835862040519714,
        0.03707057982683182,
        0.09068100154399872,
        -0.004050465766340494,
        0.09683544188737869,
        -0.008263195864856243,
        0.04049384221434593,
        0.0626232922077179,
        0.017087938264012337,
        0.06589332222938538,
        0.0020969377364963293,
        -0.036378663033246994,
        0.08969530463218689,
        0.06495137512683868,
        -0.05494698882102966,
        0.12952300906181335,
        -0.056614816188812256,
        0.03974192962050438,
        -0.1057337149977684,
        0.02900310978293419,
        0.055932264775037766,
        -0.04684119299054146,
        0.036348696798086166,
        -0.005284436047077179,
        0.002403011079877615,
        0.1025129035115242,
        -0.00716953631490469,
        -0.07125626504421234,
        0.020841211080551147,
        -0.020032940432429314,
        -0.05243541672825813,
        -0.037275075912475586,
        -0.007202539127320051,
        0.07394781708717346,
        -0.055541884154081345,
        -0.06038641557097435,
        -0.014117548242211342,
        0.019203899428248405,
        -0.036632999777793884,
        -0.14619044959545135,
        -0.06660547107458115,
        -0.07116333395242691,
        0.02307491935789585,
        -0.0748051181435585,
        0.08668748289346695,
        0.03430359065532684,
        -0.021034926176071167,
        0.11573953181505203,
        0.023911213502287865,
        -0.06227333843708038,
        0.056031953543424606,
        0.015028998255729675,
        -0.0785042941570282,
        0.08249009400606155,
        0.11426784098148346,
        0.08838490396738052,
        -0.021765565499663353,
        0.09611570835113525,
        0.06910871714353561,
        0.010625764727592468,
        0.11937148123979568,
        0.0834265723824501,
        -0.026550572365522385,
        -0.025292329490184784,
        0.09833779186010361,
        0.02982376329600811,
        -0.055213894695043564,
        0.0749613344669342,
        -0.06534510850906372,
        0.08321382850408554,
        0.09364815056324005,
        -0.08624931424856186,
        -0.08128421008586884,
        -0.043912582099437714,
        -0.01921246200799942,
        0.0069130114279687405,
        -0.05487612262368202,
        0.004333514254540205,
        -0.08171279728412628,
        0.09684886038303375,
        0.004581515211611986,
        -0.03193072974681854,
        -0.04404723271727562,
        -0.037236470729112625,
        -0.05992063134908676,
        -0.02507947012782097,
        0.0658489391207695,
        -0.1221219152212143,
        -0.005805466324090958,
        -0.07147396355867386,
        -0.06537742912769318,
        0.03371352329850197,
        0.019442176446318626,
        -0.08479625731706619,
        0.023685632273554802,
        0.08995342999696732,
        0.08119089901447296,
        -0.0038762681651860476,
        0.09827133268117905,
        0.08495640754699707,
        0.08572013676166534,
        0.05790173262357712,
        0.004388350527733564,
        -0.08477722853422165,
        0.07890626043081284,
        0.029055258259177208,
        0.009047675877809525,
        0.017905451357364655,
        0.0221481304615736,
        -0.1115901917219162,
        -0.04655056074261665,
        -0.01745786890387535,
        -0.015020444057881832,
        0.02815982885658741,
        -0.041881952434778214,
        0.011821149848401546,
        -0.12417596578598022,
        -0.009115730412304401,
        -0.015170121565461159,
        0.04583875834941864,
        0.11726425588130951,
        -0.04038308933377266,
        0.16151271760463715,
        -0.07013990730047226,
        0.06463072448968887
      ],
      [
        0.04427908733487129,
        0.09592269361019135,
        0.1021207943558693,
        -0.03720695525407791,
        0.05353930965065956,
        -0.03436458483338356,
        -0.07936237752437592,
        -0.028234217315912247,
        -0.07861100137233734,
        0.14330318570137024,
        0.05636858567595482,
        -0.07260254770517349,
        0.06872792541980743,
        0.08078459650278091,
        0.005907227750867605,
        0.07223991304636002,
        0.1474713385105133,
        -0.014993255026638508,
        0.06056131422519684,
        0.06170441582798958,
        0.04822370037436485,
        0.012910762801766396,
        -0.12030324339866638,
        0.03934311121702194,
        0.06833357363939285,
        -0.04721531644463539,
        -0.07506948709487915,
        0.010957361198961735,
        0.04562216252088547,
        -0.047752171754837036,
        0.02463783137500286,
        0.01978793926537037,
        -0.04840773344039917,
        -0.04020930826663971,
        -0.024806536734104156,
        0.10404589027166367,
        0.012793424539268017,
        -0.08374705910682678,
        0.03304464370012283,
        0.08272790908813477,
        -0.04618682712316513,
        -0.04108501970767975,
        -0.14763300120830536,
        -0.09037750214338303,
        0.013427834957838058,
        0.06061283126473427,
        -0.02041679434478283,
        -0.0690949335694313,
        0.08543897420167923,
        0.021746236830949783,
        -0.0418795570731163,
        0.056539107114076614,
        0.0421595573425293,
        -0.018263066187500954,
        -0.0330914743244648,
        0.07932417094707489,
        -0.04090050980448723,
        -0.017796767875552177,
        0.06870399415493011,
        0.007679800968617201,
        0.028237368911504745,
        0.05921829864382744,
        0.08268643170595169,
        0.09358277916908264,
        -0.0021048022899776697,
        -0.014310767874121666,
        0.06201959028840065,
        0.0777171403169632,
        0.032630376517772675,
        -0.06442676484584808,
        0.07897854596376419,
        -0.15071655809879303,
        -0.003843409474939108,
        -0.02207573503255844,
        -0.08683773875236511,
        0.055599112063646317,
        0.09756287932395935,
        0.06270808726549149,
        0.07486683130264282,
        0.06274034827947617,
        -0.09784849733114243,
        0.08445668965578079,
        -0.020060639828443527,
        0.043316550552845,
        -0.1095774695277214,
        -0.04686262458562851,
        -0.022181492298841476,
        0.03957277163863182,
        0.03555762395262718,
        0.061018262058496475,
        -0.1199493408203125,
        -0.06414284557104111,
        -0.11410012096166611,
        -0.07127596437931061,
        0.02474786899983883,
        0.06022243574261665,
        -0.015914179384708405,
        0.008005766198039055,
        0.03945307061076164,
        -0.07342974841594696,
        0.013903412967920303,
        0.04434191808104515,
        -0.07230591028928757,
        -0.006152656394988298,
        0.05216545984148979,
        -0.02861219085752964,
        -0.1492258757352829,
        0.08491326868534088,
        0.042510196566581726,
        0.011749288998544216,
        0.03523402288556099,
        0.07930798828601837,
        0.0076639410108327866,
        0.03574655205011368,
        -0.021674737334251404,
        0.05154552310705185,
        -0.1158667728304863,
        0.05017736181616783,
        -0.06290892511606216,
        -0.11774234473705292,
        0.024944882839918137,
        -0.037009336054325104,
        0.04653185233473778,
        -0.03715062886476517,
        -0.11646194756031036,
        0.16348476707935333,
        -0.07666627317667007,
        0.0022647937294095755
      ],
      [
        -0.019589681178331375,
        0.01020839810371399,
        -0.03954605385661125,
        -0.04218088462948799,
        0.03470345959067345,
        0.043333664536476135,
        0.03786001726984978,
        0.034531690180301666,
        0.013928013853728771,
        -0.062287587672472,
        -0.023965315893292427,
        -0.02308085188269615,
        0.03233479708433151,
        0.0414566732943058,
        0.06975247710943222,
        -0.03846011310815811,
        0.014975394122302532,
        0.008231044746935368,
        -0.07647810876369476,
        0.05147430673241615,
        0.05653912574052811,
        0.007870994508266449,
        -0.06414279341697693,
        0.06369873881340027,
        0.08099178224802017,
        -0.050973840057849884,
        -0.055263254791498184,
        0.07696940004825592,
        -0.09634620696306229,
        -0.01730462908744812,
        0.010471450164914131,
        -0.05296282097697258,
        -0.06296949088573456,
        -0.050114404410123825,
        -0.05210154876112938,
        -0.012391786091029644,
        0.06281101703643799,
        -0.059971295297145844,
        0.09179368615150452,
        0.03285295143723488,
        -0.013707981444895267,
        0.0764136016368866,
        -0.0410270132124424,
        -0.04461147263646126,
        -0.08526840060949326,
        -0.03896326571702957,
        -0.03319201245903969,
        0.034014977514743805,
        -0.0870918557047844,
        0.12715783715248108,
        -0.00916281994432211,
        0.02750704251229763,
        -0.004572615027427673,
        -0.0035545348655432463,
        -0.09563351422548294,
        -0.003796128323301673,
        0.0638754740357399,
        0.003791758557781577,
        0.04713592678308487,
        -0.04939207807183266,
        0.047269463539123535,
        -0.04035371169447899,
        -0.049905840307474136,
        -0.0799228698015213,
        -0.07301295548677444,
        -0.03447450324892998,
        0.09205355495214462,
        -0.05684182420372963,
        -0.03287603706121445,
        0.07194069772958755,
        -0.08150127530097961,
        0.05320239067077637,
        0.08219032734632492,
        0.036489296704530716,
        0.05615253746509552,
        0.05390114709734917,
        0.0038655672688037157,
        -0.060313303023576736,
        -0.04933203384280205,
        0.01684408448636532,
        -0.0067970044910907745,
        0.03024190478026867,
        0.03720538690686226,
        -0.022168533876538277,
        0.06941667944192886,
        -0.053705863654613495,
        0.027669331058859825,
        -0.05923815071582794,
        0.032697565853595734,
        0.08309907466173172,
        -0.019308052957057953,
        -0.0019378751749172807,
        0.016254473477602005,
        -0.026288265362381935,
        0.049003638327121735,
        -0.05071138218045235,
        0.007874562405049801,
        -0.004204138182103634,
        -0.1014079600572586,
        0.002889565657824278,
        -0.013531645759940147,
        0.006281941197812557,
        0.09926535189151764,
        -0.003731504548341036,
        0.04022994264960289,
        -0.01595417410135269,
        -0.043077532202005386,
        -0.0020795546006411314,
        -0.05593143776059151,
        -0.035962071269750595,
        -0.018317312002182007,
        -0.00396613497287035,
        -0.051256213337183,
        -0.05365221947431564,
        -0.06621747463941574,
        -0.04070597514510155,
        -0.07543186098337173,
        -0.07267030328512192,
        -0.03540428727865219,
        0.00658269552513957,
        0.05290305241942406,
        -0.0013829607050865889,
        -0.07028228044509888,
        -0.06266460567712784,
        -0.038356173783540726,
        -0.009841038845479488,
        -0.08274108171463013,
        -0.03886805847287178
      ],
      [
        -0.03054557554423809,
        0.024412669241428375,
        -0.06918047368526459,
        -0.060651812702417374,
        -0.0757085457444191,
        0.008413390256464481,
        0.06597674638032913,
        0.031701140105724335,
        -0.01411304622888565,
        -0.10055230557918549,
        -0.011612086556851864,
        -0.0476817861199379,
        0.07251773029565811,
        -0.07145603001117706,
        5.808151763631031e-05,
        0.027404198423027992,
        -0.15422393381595612,
        0.09111430495977402,
        -0.07853560149669647,
        0.03389865905046463,
        0.05385035648941994,
        -0.011445526033639908,
        -0.037448082119226456,
        -0.06476014107465744,
        -0.1022106185555458,
        0.008448008447885513,
        0.03163096681237221,
        -0.08790641278028488,
        -0.015064400620758533,
        0.06733580678701401,
        -0.08916911482810974,
        -0.05295904725790024,
        -0.01673915795981884,
        0.020619483664631844,
        -0.032215896993875504,
        -0.10483478754758835,
        0.06439345329999924,
        -0.025363417342305183,
        0.03290104866027832,
        -0.0805632546544075,
        0.017763476818799973,
        0.05616877228021622,
        0.012402711436152458,
        0.17793941497802734,
        0.004109753295779228,
        0.09378025680780411,
        0.12864868342876434,
        0.06083248183131218,
        -0.007771848700940609,
        -0.0713777020573616,
        0.0038451561704277992,
        -0.06722483038902283,
        0.06399787217378616,
        0.06559018045663834,
        -0.06399226188659668,
        -0.09996900707483292,
        0.07282311469316483,
        0.03067665360867977,
        -0.11352699995040894,
        -0.0838167816400528,
        -0.015745745971798897,
        -0.024745464324951172,
        -0.031436897814273834,
        -0.20536461472511292,
        -0.11265391111373901,
        -0.017174385488033295,
        -0.02318994328379631,
        -0.055431682616472244,
        0.13282157480716705,
        0.12394631654024124,
        0.016155308112502098,
        -0.04995697736740112,
        0.04591967537999153,
        -0.09507950395345688,
        -0.02841419354081154,
        0.061232224106788635,
        -0.09155553579330444,
        -0.028815843164920807,
        -0.017023412510752678,
        0.06755226105451584,
        0.042176369577646255,
        -0.10304147750139236,
        -0.0779823586344719,
        -0.10027529299259186,
        0.006748340558260679,
        0.18724925816059113,
        7.61944247642532e-05,
        0.04988846927881241,
        -0.08230631053447723,
        -0.06645045429468155,
        0.14688286185264587,
        0.02072848379611969,
        0.003746326547116041,
        -0.015969468280673027,
        -0.11051370203495026,
        -0.040756791830062866,
        0.15724486112594604,
        0.06091778352856636,
        0.024137355387210846,
        0.05211399123072624,
        -0.06791243702173233,
        0.06090056151151657,
        0.008786506950855255,
        -0.09823139756917953,
        -0.004978281911462545,
        0.01144788134843111,
        0.12042579799890518,
        -0.005825638305395842,
        -0.13047096133232117,
        -0.009331515058875084,
        -0.035054050385951996,
        -0.006364335771650076,
        0.10456854104995728,
        0.06275543570518494,
        0.025400852784514427,
        -0.013409804552793503,
        0.005748381372541189,
        -0.07167116552591324,
        -0.013929935172200203,
        0.19140863418579102,
        -0.0009091211832128465,
        0.07736089825630188,
        0.03551790118217468,
        -0.0679902583360672,
        0.028495999053120613,
        -0.15600518882274628,
        -0.05088194087147713,
        -0.018359189853072166
      ],
      [
        0.09590920060873032,
        0.014493727125227451,
        -0.0054610418155789375,
        0.03335932642221451,
        -0.05053871124982834,
        -0.11318264156579971,
        0.017364297062158585,
        0.04743873327970505,
        0.007069007493555546,
        0.15123191475868225,
        0.04658340662717819,
        -0.03649510443210602,
        0.07439319789409637,
        -0.08570851385593414,
        0.06427231431007385,
        -0.06560094654560089,
        0.051915910094976425,
        -0.005924276541918516,
        0.08714210242033005,
        -0.08038724213838577,
        0.04625118523836136,
        0.03577321395277977,
        -0.008862791582942009,
        0.056454382836818695,
        -0.015270097181200981,
        0.03390248119831085,
        -0.07228004932403564,
        0.03740984573960304,
        0.0017049108864739537,
        -0.07643914222717285,
        0.03045649453997612,
        0.06223607808351517,
        -0.06346344947814941,
        -0.09729624539613724,
        0.09270165860652924,
        0.1145869717001915,
        0.09767758846282959,
        0.06685546040534973,
        -0.07715997099876404,
        0.0956277921795845,
        0.09299439191818237,
        0.044213857501745224,
        -0.04350131005048752,
        0.024254245683550835,
        0.044412754476070404,
        0.004029989708214998,
        -0.1478145718574524,
        0.0134312454611063,
        -0.07721465080976486,
        0.08692575246095657,
        0.12403400987386703,
        -0.020408084616065025,
        0.07227809727191925,
        -0.01538852509111166,
        -0.029534703120589256,
        0.04673244431614876,
        0.08517301082611084,
        0.11441214382648468,
        0.11184818297624588,
        0.07350313663482666,
        0.06513096392154694,
        0.06080334261059761,
        -0.04637078940868378,
        0.07001384347677231,
        0.05213368311524391,
        0.07718879729509354,
        0.0023859951179474592,
        0.08792375028133392,
        -0.08737845718860626,
        -0.10633568465709686,
        0.09286588430404663,
        -0.035521555691957474,
        0.027121827006340027,
        0.02598061040043831,
        0.055885497480630875,
        -0.031969182193279266,
        0.10333944857120514,
        0.0805463194847107,
        -0.01779359020292759,
        -0.06095535308122635,
        -0.02542491815984249,
        0.05656203255057335,
        0.09159933030605316,
        -0.06620310246944427,
        -0.051418691873550415,
        -0.09590495377779007,
        0.022632114589214325,
        -0.030176179483532906,
        0.0793311670422554,
        -0.021379578858613968,
        -0.04356198385357857,
        -0.0700540766119957,
        0.056556835770606995,
        0.026538295671343803,
        0.01953667774796486,
        0.050236549228429794,
        -0.0685453936457634,
        -0.04084114357829094,
        -0.06361537426710129,
        0.08719030022621155,
        0.0775182694196701,
        0.027393430471420288,
        0.006712711416184902,
        0.01624983549118042,
        -0.05948411673307419,
        -0.0888507291674614,
        -0.1498902291059494,
        0.018463892862200737,
        0.0853707566857338,
        -0.013372593559324741,
        -0.04534425586462021,
        0.003286061342805624,
        0.00041902478551492095,
        0.015761150047183037,
        0.06403268873691559,
        -0.07346941530704498,
        -0.05595928058028221,
        0.07360133528709412,
        -0.029481222853064537,
        -0.12446550279855728,
        -0.04346545785665512,
        -0.0017555502709001303,
        0.01920059137046337,
        0.02401663362979889,
        0.025946499779820442,
        0.15806527435779572,
        0.028972290456295013,
        0.10923486948013306
      ],
      [
        -0.009748062118887901,
        -0.020151611417531967,
        -0.008811340667307377,
        0.02252754010260105,
        -0.08497798442840576,
        -0.052408814430236816,
        -0.08262228220701218,
        0.021063335239887238,
        0.07345331460237503,
        -0.04646184295415878,
        0.03619135171175003,
        0.03155362233519554,
        0.08338981866836548,
        0.09194962680339813,
        0.08124291896820068,
        0.044450487941503525,
        0.03473946079611778,
        0.06707178801298141,
        -0.011674209497869015,
        0.0816841721534729,
        0.10775355249643326,
        0.04391826316714287,
        -0.031140048056840897,
        0.00824915524572134,
        0.035905953496694565,
        0.036669470369815826,
        0.08017078787088394,
        0.03771000728011131,
        0.02552039735019207,
        -0.009509471245110035,
        0.004892571829259396,
        0.004202947486191988,
        -0.0644390657544136,
        -0.058692608028650284,
        -0.04215910658240318,
        0.04852985963225365,
        0.0383005365729332,
        0.039044179022312164,
        0.01434973906725645,
        -0.08306781202554703,
        0.05966375395655632,
        0.05992794409394264,
        0.03090006113052368,
        -0.11598800122737885,
        0.0229480043053627,
        0.030968748033046722,
        -0.055544547736644745,
        0.009215908125042915,
        0.006285869516432285,
        -0.0026642668526619673,
        -0.028024284169077873,
        0.06901297718286514,
        0.0011026094434782863,
        0.02390018291771412,
        0.05998256430029869,
        0.0823158398270607,
        0.009605149738490582,
        -0.0005870127934031188,
        0.11161600798368454,
        -0.037723176181316376,
        -0.07521887868642807,
        -0.032941900193691254,
        0.07140369713306427,
        -0.008347186259925365,
        -0.04137725755572319,
        0.10624342411756516,
        -0.01204095408320427,
        0.058138106018304825,
        -0.12906666100025177,
        0.0048436629585921764,
        0.12887054681777954,
        0.08206138759851456,
        -0.07897981256246567,
        0.009038742631673813,
        0.048726651817560196,
        0.09464594721794128,
        0.10626832395792007,
        -0.106266088783741,
        -0.03852935880422592,
        -0.05833404138684273,
        0.03319673240184784,
        -0.08565711975097656,
        0.026019705459475517,
        0.09311028569936752,
        0.0066153667867183685,
        -0.09957163780927658,
        0.11486094444990158,
        -0.036826152354478836,
        0.08371490985155106,
        -0.06955009698867798,
        0.015136932954192162,
        -0.0045013525523245335,
        -0.07836741954088211,
        0.027692940086126328,
        -0.033539846539497375,
        0.03730345144867897,
        -0.007064663339406252,
        -0.10418970137834549,
        -0.010263800621032715,
        -0.03549239784479141,
        -0.008734965696930885,
        -0.11821426451206207,
        -0.06668365001678467,
        -0.053100910037755966,
        0.015323754400014877,
        -0.01721923239529133,
        -0.007611581590026617,
        -0.10160452872514725,
        0.015422644093632698,
        -0.10306639224290848,
        0.003578244475647807,
        -0.03554911911487579,
        0.047585468739271164,
        -0.03128980100154877,
        0.025869715958833694,
        0.060490529984235764,
        -0.0876484215259552,
        0.10299301147460938,
        -0.04800226539373398,
        -0.08153244107961655,
        -0.07830662280321121,
        -0.01697700470685959,
        0.09923303872346878,
        0.028544597327709198,
        -0.00042883248534053564,
        0.012314902618527412,
        0.05721575766801834,
        -0.002385007683187723
      ],
      [
        0.04868879169225693,
        -0.0390176847577095,
        -0.018945157527923584,
        0.07663153856992722,
        -0.08532284200191498,
        -0.0782037004828453,
        -0.012170807458460331,
        -0.020607411861419678,
        0.04975167661905289,
        -0.057307399809360504,
        -0.022849036380648613,
        0.11137492209672928,
        0.08234522491693497,
        -0.038059934973716736,
        0.033167608082294464,
        -0.09052948653697968,
        0.08630158007144928,
        -0.0023695658892393112,
        0.007534887176007032,
        0.1009754091501236,
        0.08902629464864731,
        -0.0036732463631778955,
        -0.030312322080135345,
        0.04453708231449127,
        -0.06862874329090118,
        0.03977268189191818,
        -0.004365203436464071,
        -0.06932360678911209,
        0.05865113437175751,
        -0.036625850945711136,
        0.042173221707344055,
        -0.005770120304077864,
        0.03939174860715866,
        0.06619028002023697,
        0.04107847064733505,
        0.02986217848956585,
        -0.014319214038550854,
        -0.04353433847427368,
        -0.11055944114923477,
        -0.05481155961751938,
        -0.09449879080057144,
        -0.03814041614532471,
        0.04464871808886528,
        -0.1462974101305008,
        -0.03290964663028717,
        0.0692058578133583,
        -0.056387968361377716,
        -0.0031886121723800898,
        0.014651238918304443,
        0.009877890348434448,
        0.007387776859104633,
        -0.04640404134988785,
        -0.08676818758249283,
        0.0541142039000988,
        0.017864789813756943,
        0.0781664326786995,
        -0.02994968183338642,
        -0.012080199085175991,
        0.09399832040071487,
        0.019899658858776093,
        -0.0302109532058239,
        0.03941154107451439,
        0.1080840677022934,
        0.10961313545703888,
        0.04674068093299866,
        0.014738240279257298,
        -0.07555922120809555,
        0.015485810115933418,
        -0.0948343351483345,
        -0.04399298503994942,
        -0.03136969730257988,
        0.01515229418873787,
        -0.057836923748254776,
        0.04746349900960922,
        0.0011229284573346376,
        0.0932367667555809,
        0.02094697766005993,
        0.03617696836590767,
        -0.012209872715175152,
        -0.03823411837220192,
        -0.03436015546321869,
        -0.04657231643795967,
        -0.063508041203022,
        -0.03513972461223602,
        -0.05747155100107193,
        0.017085010185837746,
        0.03374569118022919,
        -0.0018984299385920167,
        0.06856108456850052,
        0.0020321691408753395,
        -0.004401161801069975,
        -0.030121585354208946,
        -0.04223056882619858,
        0.014025280252099037,
        -0.05608372017741203,
        0.005129811819642782,
        -0.023719709366559982,
        -0.10442960262298584,
        0.06640199571847916,
        -0.0952475443482399,
        -0.0004483511729631573,
        -0.022685324773192406,
        0.0455360934138298,
        0.010299760848283768,
        -0.008608823642134666,
        0.039550237357616425,
        0.06348291784524918,
        -0.025376170873641968,
        0.00845564715564251,
        -0.11540073901414871,
        0.0173433069139719,
        -0.018683841452002525,
        0.025215458124876022,
        0.03107229806482792,
        0.029132861644029617,
        -0.08591420948505402,
        -0.13165535032749176,
        -0.010153241455554962,
        -0.005000393837690353,
        0.01889425329864025,
        -0.014183386228978634,
        -0.014815368689596653,
        -0.04333489388227463,
        -0.05864330008625984,
        0.022002320736646652,
        -0.0059654926881194115,
        0.08189912140369415,
        0.0013857732992619276
      ],
      [
        -0.08915341645479202,
        -0.0015204123919829726,
        0.03342520073056221,
        0.1285315901041031,
        -0.09107309579849243,
        0.05361614376306534,
        0.002817622385919094,
        -0.025932198390364647,
        -0.033779870718717575,
        0.041302528232336044,
        0.028301194310188293,
        0.01340711209923029,
        0.051926061511039734,
        0.06581918150186539,
        0.015113207511603832,
        0.026950765401124954,
        -0.028713829815387726,
        0.018374139443039894,
        0.1048598363995552,
        0.04202340170741081,
        -0.02552906610071659,
        -0.07490117102861404,
        -0.004751003347337246,
        0.08268869668245316,
        0.04481071978807449,
        0.020421568304300308,
        0.03455565869808197,
        -0.050081491470336914,
        -0.016463100910186768,
        0.0161020178347826,
        0.026293188333511353,
        0.12035495787858963,
        0.05325576290488243,
        -0.07562579214572906,
        0.05303629860281944,
        0.03076709434390068,
        -0.05330157279968262,
        -0.07820004224777222,
        0.012716861441731453,
        -0.06564406305551529,
        0.007410783786326647,
        0.06048886477947235,
        -0.055978670716285706,
        0.04627576097846031,
        -0.05928516760468483,
        -0.009240727871656418,
        0.06273548305034637,
        0.0374586246907711,
        0.03756077215075493,
        -0.1068013459444046,
        0.08708034455776215,
        -0.06352918595075607,
        0.042296748608350754,
        -0.09516816586256027,
        -0.025671884417533875,
        0.04134717583656311,
        0.05645289272069931,
        -0.0444432757794857,
        0.02273453027009964,
        -0.008267736062407494,
        0.025131583213806152,
        0.045388784259557724,
        -0.01375618390738964,
        0.08134444057941437,
        -0.040701303631067276,
        0.06846380233764648,
        -0.03286213427782059,
        -0.024070482701063156,
        0.0459894984960556,
        0.0682990774512291,
        0.12543030083179474,
        0.05346578732132912,
        -0.09994573146104813,
        0.0021182841155678034,
        0.03595699369907379,
        -0.019398190081119537,
        0.0621117539703846,
        -0.049283552914857864,
        0.06990677863359451,
        -0.008802838623523712,
        -0.0045928023755550385,
        -0.026214925572276115,
        0.01570090651512146,
        0.0857786312699318,
        -0.039349645376205444,
        -0.1032448410987854,
        0.007118487264961004,
        -0.010006820783019066,
        -0.07987219095230103,
        0.0605977401137352,
        -0.0867442786693573,
        0.04474042356014252,
        -0.04599323123693466,
        -0.023895448073744774,
        0.05011532083153725,
        -0.0168622937053442,
        -0.07249686866998672,
        -0.07145654410123825,
        0.05968940630555153,
        -0.008293481543660164,
        0.07663802057504654,
        0.019677288830280304,
        0.022043650969862938,
        -0.0052081928588449955,
        -0.015455497428774834,
        -0.09387828409671783,
        -0.05144860967993736,
        -0.07713118195533752,
        -0.061430707573890686,
        -0.03261316940188408,
        -0.03733733668923378,
        0.03857124596834183,
        -0.08087777346372604,
        0.055558428168296814,
        0.038205403834581375,
        0.0033696398604661226,
        -0.00655618030577898,
        -0.039471931755542755,
        -0.06812560558319092,
        -0.026263387873768806,
        0.01253941934555769,
        0.0056500681675970554,
        0.0352536179125309,
        -0.052864920347929,
        0.07167565822601318,
        -0.048899468034505844,
        0.08166288584470749,
        -0.04738328605890274
      ],
      [
        -0.10091821849346161,
        -0.03803936019539833,
        -0.1024821475148201,
        -0.045720238238573074,
        -0.05753431096673012,
        0.1359700858592987,
        -0.06318841129541397,
        0.012782781384885311,
        0.0654182955622673,
        0.009091677144169807,
        0.09314336627721786,
        0.01234299223870039,
        -0.10667643696069717,
        -0.05834846943616867,
        -0.01094051357358694,
        -0.029233494773507118,
        -0.06479394435882568,
        0.003998382482677698,
        -0.09748531132936478,
        -0.048112887889146805,
        -0.020293526351451874,
        -0.05237029865384102,
        -0.0030010768678039312,
        0.018657270818948746,
        -0.011238878592848778,
        0.033558398485183716,
        -0.034515850245952606,
        0.04156240075826645,
        -0.014863777905702591,
        0.024953335523605347,
        -0.09005200862884521,
        -0.03810042515397072,
        0.017016444355249405,
        0.01971282996237278,
        0.005165843293070793,
        -0.06993906944990158,
        -0.07996223121881485,
        -0.032009586691856384,
        -0.007963554933667183,
        0.07463148981332779,
        0.014829368330538273,
        0.05052240937948227,
        0.14016678929328918,
        0.04030981659889221,
        -0.021796535700559616,
        0.06636423617601395,
        0.15190242230892181,
        0.016024252399802208,
        0.07182562351226807,
        -0.0237419493496418,
        0.0638694018125534,
        -0.0014407456619665027,
        0.07879802584648132,
        0.038091279566287994,
        0.022563712671399117,
        0.017838241532444954,
        0.06445837020874023,
        -0.04420583322644234,
        -0.10506977885961533,
        -0.046103112399578094,
        -0.019481591880321503,
        -0.017556607723236084,
        -0.1421026736497879,
        -0.013977170921862125,
        0.036146458238363266,
        0.029255205765366554,
        0.010181175544857979,
        -0.10453060269355774,
        0.04551997035741806,
        0.04179314896464348,
        -0.041192248463630676,
        0.11234114319086075,
        -0.01251017116010189,
        -0.09660353511571884,
        0.056071020662784576,
        -0.08312437683343887,
        -0.01767316833138466,
        0.061599791049957275,
        0.052604950964450836,
        -0.07128774374723434,
        0.11325618624687195,
        -0.06444679945707321,
        -0.010645918548107147,
        -0.10582514107227325,
        0.08999528735876083,
        0.0017289724200963974,
        0.05158841237425804,
        0.07803875207901001,
        0.025307446718215942,
        -0.06932801753282547,
        0.01760687865316868,
        -0.07821144908666611,
        0.037688519805669785,
        -0.0025293249636888504,
        -0.051749832928180695,
        0.035114120692014694,
        0.003751199459657073,
        -0.043621230870485306,
        0.08248555660247803,
        0.0730714499950409,
        -0.05036412179470062,
        0.04755059629678726,
        -0.03783056512475014,
        0.000806284137070179,
        0.039069343358278275,
        0.06886527687311172,
        0.06128743290901184,
        0.030895240604877472,
        0.003603729186579585,
        -0.009240938350558281,
        0.005437523126602173,
        0.03012036345899105,
        -3.698938962770626e-05,
        0.003996304702013731,
        -0.11582670360803604,
        0.04534125328063965,
        0.035890400409698486,
        -0.016713330522179604,
        0.02965112403035164,
        0.14599452912807465,
        -0.007738953921943903,
        0.01202957984060049,
        0.02572784200310707,
        -0.028026117011904716,
        -0.05076364427804947,
        -0.0009935303824022412,
        0.06994403898715973,
        -0.1331501454114914
      ],
      [
        0.045963965356349945,
        0.04563208296895027,
        0.03384577855467796,
        -0.09777331352233887,
        0.0032745201606303453,
        -0.04844752699136734,
        -0.0725032389163971,
        -0.06137038394808769,
        -0.07274371385574341,
        0.012308690696954727,
        -0.020168911665678024,
        -0.04973965510725975,
        -0.012516467832028866,
        0.06315955519676208,
        0.008698666468262672,
        -0.038549210876226425,
        0.04815894365310669,
        -0.043427858501672745,
        -0.13394734263420105,
        0.05032997950911522,
        -0.1024744063615799,
        -0.06699985265731812,
        0.08651503920555115,
        0.06987028568983078,
        0.07055385410785675,
        -0.04306904226541519,
        -0.0853559821844101,
        0.06691428273916245,
        -0.08743694424629211,
        -0.03556627780199051,
        0.03504011034965515,
        -0.0833578109741211,
        0.06672079861164093,
        0.08245811611413956,
        -0.01530446670949459,
        0.009271800518035889,
        0.08653770387172699,
        -0.0009838329860940576,
        -0.032440219074487686,
        -0.0030421006958931684,
        -0.026928575709462166,
        0.06669454276561737,
        0.03782975301146507,
        0.09167556464672089,
        -0.03934243693947792,
        -0.07529100030660629,
        -0.024864280596375465,
        0.06040247902274132,
        -0.060523997992277145,
        0.030498210340738297,
        0.04696432873606682,
        -0.017569389194250107,
        0.02716141939163208,
        -0.028981510549783707,
        0.050878413021564484,
        0.002600944135338068,
        -0.06985264271497726,
        -0.08956234157085419,
        -0.0809955894947052,
        0.07000918686389923,
        -0.05442291125655174,
        -0.03512827306985855,
        -0.08620397746562958,
        -0.13106569647789001,
        -0.09634073078632355,
        0.050010498613119125,
        -0.04407072067260742,
        -0.11252424120903015,
        0.0036515065003186464,
        -0.046898480504751205,
        -0.11787529289722443,
        -0.0039103394374251366,
        -0.03631601855158806,
        -0.0873473659157753,
        -0.04389112442731857,
        -0.06767206639051437,
        0.003005722537636757,
        -0.0012592333368957043,
        -0.08115154504776001,
        0.029851583763957024,
        -0.04829408600926399,
        0.06625780463218689,
        -0.10496239364147186,
        -0.08034811168909073,
        0.011351792141795158,
        0.0017136640381067991,
        0.049212999641895294,
        -0.03143743425607681,
        -0.00918593630194664,
        0.09148639440536499,
        0.054089829325675964,
        0.05321798846125603,
        -0.07937722653150558,
        0.056800346821546555,
        0.015218639746308327,
        -0.01876131258904934,
        0.002820925787091255,
        -0.012083501555025578,
        -0.07735645771026611,
        0.05304207652807236,
        -0.0019450167892500758,
        -0.04118626192212105,
        0.06336206942796707,
        -0.04375571385025978,
        -0.02290499396622181,
        0.06472218781709671,
        -0.038649119436740875,
        -0.07454536110162735,
        -0.09143824875354767,
        -0.02613852173089981,
        0.06746257096529007,
        -0.036106254905462265,
        0.049754079431295395,
        -0.061182934790849686,
        -0.012512020766735077,
        0.0912553146481514,
        0.07790536433458328,
        -0.017298435792326927,
        -0.034069906920194626,
        0.0321284756064415,
        -0.03939302638173103,
        0.02251812070608139,
        0.064803846180439,
        -0.014092621393501759,
        0.025044050067663193,
        -0.12544144690036774,
        0.07955318689346313,
        -0.02393622323870659
      ],
      [
        0.04293202608823776,
        0.07105902582406998,
        -0.11041352152824402,
        -0.08581661432981491,
        0.06801140308380127,
        -0.010575062595307827,
        0.03888830915093422,
        -0.09265248477458954,
        0.05493376404047012,
        -0.1319124400615692,
        0.025596054270863533,
        0.09566235542297363,
        -0.07889191806316376,
        0.04739736020565033,
        0.04468810558319092,
        0.009168621152639389,
        -0.08179768174886703,
        0.08172508329153061,
        -0.1354711949825287,
        -0.07351937144994736,
        0.037568628787994385,
        0.0063790674321353436,
        0.11931836605072021,
        0.07200431823730469,
        -0.025321753695607185,
        0.051203612238168716,
        -0.00601557781919837,
        -0.04202320799231529,
        -0.08480416238307953,
        0.09738311171531677,
        0.02819618210196495,
        -0.19722682237625122,
        0.05681008845567703,
        -0.014046342112123966,
        -0.006241466850042343,
        -0.06587477028369904,
        -0.028728431090712547,
        -0.005690231453627348,
        -0.008969425223767757,
        -0.06668635457754135,
        -0.07000379264354706,
        -0.016680561006069183,
        0.11925262212753296,
        -0.029467768967151642,
        0.08024346083402634,
        -0.005636893212795258,
        0.15703484416007996,
        -0.051880430430173874,
        0.04062872380018234,
        0.02874968759715557,
        -0.06768480688333511,
        -0.0440831333398819,
        0.053392764180898666,
        -0.03769225999712944,
        -0.14445632696151733,
        0.045748673379421234,
        0.05577012896537781,
        -0.009045437909662724,
        -0.15720078349113464,
        -0.007245582062751055,
        -0.0051621319726109505,
        0.051278259605169296,
        -0.09299897402524948,
        -0.11073843389749527,
        -0.059469349682331085,
        0.041920825839042664,
        -0.08624854683876038,
        -0.019004695117473602,
        0.05633588880300522,
        0.1484372317790985,
        -0.022652074694633484,
        0.0255495123565197,
        -0.043953925371170044,
        -0.06526728719472885,
        0.024388303980231285,
        0.01415563840419054,
        -0.10878398269414902,
        -0.06845733523368835,
        -0.004783660173416138,
        -0.0869569480419159,
        0.025604115799069405,
        -0.015399963594973087,
        -0.05071619525551796,
        -0.10010842978954315,
        0.0984308272600174,
        0.13393016159534454,
        0.037473950535058975,
        0.015621563419699669,
        0.05845789611339569,
        0.07486271858215332,
        0.0627363845705986,
        0.018912311643362045,
        -0.04454325884580612,
        -0.05701742693781853,
        -0.09926462173461914,
        -0.01689341478049755,
        0.12407758086919785,
        0.07172221690416336,
        -0.018953554332256317,
        0.05236697569489479,
        0.08900218456983566,
        0.040135789662599564,
        0.04758232459425926,
        -0.004830898251384497,
        0.09692258387804031,
        0.016784245148301125,
        0.1257019191980362,
        0.055180106312036514,
        -0.06075919419527054,
        -0.023838037624955177,
        -0.0107578681781888,
        -0.09958955645561218,
        0.07217836380004883,
        -0.03427908569574356,
        -0.11216124147176743,
        0.0734264999628067,
        0.12441172450780869,
        0.046608299016952515,
        0.07081320881843567,
        0.11475016921758652,
        -0.0050690025091171265,
        -0.009482874535024166,
        -0.011677656322717667,
        -0.12496331334114075,
        0.0732584148645401,
        -0.1546500325202942,
        -0.025723503902554512,
        -0.008708887733519077
      ],
      [
        0.042017169296741486,
        -0.004316866863518953,
        -0.0491301529109478,
        0.08165542036294937,
        0.045062024146318436,
        0.09283988177776337,
        0.02358982525765896,
        -0.009068620391190052,
        0.056135233491659164,
        -0.10933886468410492,
        0.05623137205839157,
        0.027353135868906975,
        0.07586926221847534,
        -0.035939596593379974,
        -0.025630546733736992,
        0.060712821781635284,
        -0.03315993398427963,
        0.012750350870192051,
        -0.15379495918750763,
        -0.02774299681186676,
        0.02133256569504738,
        0.11245769262313843,
        0.12781576812267303,
        -0.04985857382416725,
        -0.07940353453159332,
        0.047097720205783844,
        0.004236550536006689,
        0.023672662675380707,
        -0.052972711622714996,
        0.04746364429593086,
        -0.06725318729877472,
        -0.0900287926197052,
        -0.03509782254695892,
        -0.07625937461853027,
        -0.1072087436914444,
        -0.04475490376353264,
        -0.0774931088089943,
        -0.013040008954703808,
        -0.02733222022652626,
        -0.008884129114449024,
        0.06504099071025848,
        -0.015052050352096558,
        0.08911078423261642,
        -0.03778870403766632,
        0.02161443792283535,
        -0.07215382158756256,
        0.08639324456453323,
        -0.06414084136486053,
        -0.08056605607271194,
        -0.09299933165311813,
        0.03602765128016472,
        0.03242973983287811,
        0.0871102586388588,
        -0.016817893832921982,
        -0.05060649290680885,
        0.00784047320485115,
        -0.06314200162887573,
        0.02872159518301487,
        0.006817791145294905,
        -0.06758210062980652,
        0.06971126794815063,
        -0.046633023768663406,
        -0.002343283500522375,
        -0.10531768947839737,
        -0.07215751707553864,
        0.01978839561343193,
        0.01434572134166956,
        -0.014526201412081718,
        0.00245093647390604,
        0.12651225924491882,
        -0.07365164160728455,
        0.041960328817367554,
        0.01233229972422123,
        -0.10056990385055542,
        0.030344655737280846,
        -0.039037495851516724,
        -0.011412065476179123,
        -0.056175876408815384,
        -0.015957102179527283,
        -0.08817911148071289,
        0.059986889362335205,
        0.06392846256494522,
        0.007947936654090881,
        -0.06147211417555809,
        0.07085425406694412,
        0.08993905782699585,
        -0.026068158447742462,
        -0.011197676882147789,
        0.07321716099977493,
        -0.08370930701494217,
        0.13840679824352264,
        0.05072838068008423,
        0.06387516111135483,
        0.003285460639744997,
        -0.11908943951129913,
        0.04815859720110893,
        0.04212678223848343,
        -0.037698302417993546,
        0.07138844579458237,
        0.07825232297182083,
        0.025882933288812637,
        -0.06180517002940178,
        0.025158388540148735,
        -0.03987572342157364,
        0.008257812820374966,
        -0.03048073686659336,
        0.1001267209649086,
        0.06021663174033165,
        -0.06138993054628372,
        -0.03362070396542549,
        0.05998473986983299,
        -0.09248750656843185,
        0.051406268030405045,
        -0.03746405616402626,
        -0.02298024483025074,
        -0.06477773934602737,
        0.08588041365146637,
        0.06469549238681793,
        -0.06759937107563019,
        0.09614603966474533,
        -0.014588388614356518,
        0.12364686280488968,
        -0.04873409867286682,
        -0.07125039398670197,
        0.0176300760358572,
        -0.1503555029630661,
        -0.008739937096834183,
        -0.10091321915388107
      ],
      [
        -0.02687077969312668,
        -0.02961738593876362,
        -0.09725161641836166,
        0.06122875213623047,
        0.04776155948638916,
        0.004025693982839584,
        -0.030067741870880127,
        0.06410627067089081,
        0.047648318111896515,
        -0.12220224738121033,
        0.07582823187112808,
        -0.07977078855037689,
        0.03777092322707176,
        0.04594544693827629,
        -0.0057924301363527775,
        -0.08915653824806213,
        -0.1372511386871338,
        0.14131179451942444,
        -0.16920903325080872,
        -0.06889672577381134,
        -0.11224258691072464,
        0.025450551882386208,
        0.0897592082619667,
        -0.06972575932741165,
        0.0432610847055912,
        0.041319143027067184,
        -0.03697618097066879,
        -0.08574006706476212,
        0.055254723876714706,
        0.07038957625627518,
        -0.06091157719492912,
        -0.05760115757584572,
        0.03158410266041756,
        -0.05468948930501938,
        -0.13061660528182983,
        -0.1407851278781891,
        -0.0856676697731018,
        -0.05898033827543259,
        -0.038101375102996826,
        -0.015940524637699127,
        -0.06611048430204391,
        0.08410979807376862,
        0.0544675774872303,
        0.10962583869695663,
        -0.07870113104581833,
        -0.0186972226947546,
        0.015269636176526546,
        0.09509678184986115,
        -0.05167483538389206,
        -0.10990366339683533,
        0.049809396266937256,
        -0.007893881760537624,
        0.08730649203062057,
        -0.051584094762802124,
        -0.09142454713582993,
        0.03268181532621384,
        0.04435693472623825,
        -0.01679675467312336,
        -0.04627778008580208,
        -0.0014715740690007806,
        0.036778178066015244,
        -0.07564729452133179,
        -0.09875976294279099,
        -0.022630898281931877,
        -0.12984910607337952,
        -0.014286987483501434,
        -0.07108891755342484,
        -0.012396002188324928,
        0.12840907275676727,
        0.11127323657274246,
        -0.03783130273222923,
        -0.03126126900315285,
        -0.03759750351309776,
