{
  "policy_type": "mappo_timeout_policy",
  "algorithm": "llm_mappo_ctde_gae",
  "episodes": 5000,
  "nodes": 50,
  "seed": 7,
  "hidden_dim": 128,
  "features": [
    "bias",
    "rtt_norm",
    "loss_rate",
    "log_gap_norm",
    "recent_split"
  ],
  "global_features": [
    "node_count_norm",
    "alive_fraction",
    "mean_rtt_norm",
    "mean_loss",
    "mean_log_gap_norm",
    "recent_split",
    "round_index_norm",
    "recent_split_fraction",
    "best_node_quality_norm"
  ],
  "arms": {
    "very_short": [
      150.0,
      230.0
    ],
    "short": [
      280.0,
      420.0
    ],
    "medium": [
      520.0,
      760.0
    ],
    "long": [
      900.0,
      1300.0
    ],
    "very_long": [
      1450.0,
      2100.0
    ]
  },
  "actor_critic": {
    "actor.0.weight": [
      [
        0.04698941856622696,
        -0.2938486933708191,
        0.1132228821516037,
        0.09779538214206696,
        -0.2359817922115326
      ],
      [
        -0.05435648560523987,
        -0.25769102573394775,
        0.11826636642217636,
        -0.14424920082092285,
        0.3337416350841522
      ],
      [
        0.3447677791118622,
        -0.02403281256556511,
        -0.26764875650405884,
        -0.33609145879745483,
        -0.09472177177667618
      ],
      [
        -0.13547304272651672,
        0.16110007464885712,
        -0.4197984039783478,
        0.41828158497810364,
        -0.39595821499824524
      ],
      [
        0.3393958806991577,
        -0.027011331170797348,
        0.2841694951057434,
        0.2272091954946518,
        0.060292456299066544
      ],
      [
        0.07751920819282532,
        0.41832420229911804,
        0.20052354037761688,
        0.3169376254081726,
        -0.2813401222229004
      ],
      [
        0.2951582372188568,
        0.22318872809410095,
        0.18900509178638458,
        0.10759995132684708,
        0.2801850736141205
      ],
      [
        0.42248550057411194,
        -0.11783213168382645,
        -0.2709833085536957,
        -0.14895464479923248,
        -0.25869476795196533
      ],
      [
        0.21779365837574005,
        -0.1689729243516922,
        -0.18305043876171112,
        0.41658270359039307,
        0.442707896232605
      ],
      [
        0.060282573103904724,
        -0.16638384759426117,
        -0.152132049202919,
        0.14997459948062897,
        -0.5012187361717224
      ],
      [
        -0.38199925422668457,
        0.3250425159931183,
        0.4089367985725403,
        -0.011750595644116402,
        -0.37734130024909973
      ],
      [
        0.022663982585072517,
        -0.27352964878082275,
        -0.07151737064123154,
        0.15126435458660126,
        0.14271706342697144
      ],
      [
        -0.04389605671167374,
        -0.0411941222846508,
        0.02544548176229,
        -0.4340936243534088,
        -0.22388887405395508
      ],
      [
        0.025942223146557808,
        -0.3190170228481293,
        -0.2649226188659668,
        0.10978946089744568,
        0.22380977869033813
      ],
      [
        0.02965208888053894,
        -0.25561466813087463,
        0.15624813735485077,
        -0.3206551671028137,
        -0.17021968960762024
      ],
      [
        0.4070943593978882,
        0.06917303800582886,
        0.019030358642339706,
        0.16531746089458466,
        -0.10020481795072556
      ],
      [
        0.40044742822647095,
        -0.450845867395401,
        -0.2148340940475464,
        -0.14601896703243256,
        -0.26940011978149414
      ],
      [
        -0.12439025193452835,
        0.3598301410675049,
        0.33338168263435364,
        0.09617730975151062,
        0.4459315836429596
      ],
      [
        -0.2909679710865021,
        -0.3559392988681793,
        0.10529695451259613,
        -0.10412200540304184,
        -0.4738624691963196
      ],
      [
        -0.30971473455429077,
        -0.3194115161895752,
        0.2945203483104706,
        0.16389279067516327,
        0.31042271852493286
      ],
      [
        -0.3098759651184082,
        -0.5135286450386047,
        -0.3780079185962677,
        -0.003067971672862768,
        -0.15283915400505066
      ],
      [
        -0.29691609740257263,
        0.3394228219985962,
        -0.12710043787956238,
        -0.22705687582492828,
        0.19652773439884186
      ],
      [
        -0.13566915690898895,
        0.31250110268592834,
        0.13817279040813446,
        0.04933362454175949,
        0.1019601821899414
      ],
      [
        -0.3229317367076874,
        -0.31491291522979736,
        -0.2918104827404022,
        -0.31773483753204346,
        0.03612099587917328
      ],
      [
        0.09467829763889313,
        -0.22767940163612366,
        0.24408338963985443,
        -0.30485770106315613,
        0.07860254496335983
      ],
      [
        -0.11266421526670456,
        -0.4677063524723053,
        -0.3780265748500824,
        0.13063804805278778,
        0.12938009202480316
      ],
      [
        -0.260955274105072,
        -0.17279085516929626,
        -0.4563291072845459,
        0.1872013360261917,
        0.3392074406147003
      ],
      [
        0.16240304708480835,
        -0.3179801404476166,
        0.1899365335702896,
        0.3089955151081085,
        -0.1156541258096695
      ],
      [
        -0.06642657518386841,
        0.08693504333496094,
        -0.014232633635401726,
        -0.214122012257576,
        -0.4595728814601898
      ],
      [
        -0.3017843961715698,
        0.05286629870533943,
        0.007337142247706652,
        0.4084317684173584,
        0.024870261549949646
      ],
      [
        -0.09220154583454132,
        -0.5281022191047668,
        -0.5099402070045471,
        0.10168379545211792,
        0.3187501132488251
      ],
      [
        -0.0032240187283605337,
        -0.49877995252609253,
        0.05398846045136452,
        0.2774215340614319,
        -0.37539196014404297
      ],
      [
        -0.10995461791753769,
        0.09755399823188782,
        -0.1899244338274002,
        -0.37436726689338684,
        0.21192757785320282
      ],
      [
        -0.35614272952079773,
        -0.05404232442378998,
        -0.17459242045879364,
        0.39523592591285706,
        0.10419503599405289
      ],
      [
        0.21796122193336487,
        -0.3824622929096222,
        0.2918258011341095,
        -0.0195603109896183,
        -0.3062558174133301
      ],
      [
        -0.01867680810391903,
        -0.4081660807132721,
        -0.11817002296447754,
        0.16598951816558838,
        -0.26663312315940857
      ],
      [
        0.37411919236183167,
        0.1626739501953125,
        -0.04917845129966736,
        0.13853149116039276,
        -0.07235691696405411
      ],
      [
        -0.07445093989372253,
        -0.32616937160491943,
        0.2208058387041092,
        0.21057823300361633,
        0.13684780895709991
      ],
      [
        0.24239669740200043,
        0.523589551448822,
        0.5057505369186401,
        -0.38288405537605286,
        0.16313070058822632
      ],
      [
        -0.025710834190249443,
        0.07942363619804382,
        -0.16493047773838043,
        0.05191561579704285,
        -0.46450918912887573
      ],
      [
        0.18142196536064148,
        0.40155521035194397,
        -0.1086701825261116,
        -0.35428622364997864,
        -0.38411054015159607
      ],
      [
        -0.10671592503786087,
        0.03390321508049965,
        0.09574034810066223,
        0.09532405436038971,
        0.35181838274002075
      ],
      [
        -0.08570881932973862,
        0.21746252477169037,
        -0.14157789945602417,
        0.5093434453010559,
        0.23314255475997925
      ],
      [
        -0.07444775104522705,
        0.38887760043144226,
        0.25962406396865845,
        0.1571175903081894,
        -0.06462619453668594
      ],
      [
        0.059243351221084595,
        -0.03464265540242195,
        -0.33254551887512207,
        -0.0460079200565815,
        0.05927816405892372
      ],
      [
        -0.24830785393714905,
        0.035321734845638275,
        -0.19721196591854095,
        -0.3822636902332306,
        -0.3067009150981903
      ],
      [
        -0.36385756731033325,
        0.20254391431808472,
        0.37914714217185974,
        0.48581036925315857,
        0.5232028365135193
      ],
      [
        0.16849394142627716,
        0.2973434031009674,
        0.007851900532841682,
        0.4427463412284851,
        -0.11777956038713455
      ],
      [
        -0.10567420721054077,
        -0.22162587940692902,
        -0.37815991044044495,
        -0.37871599197387695,
        -0.14087803661823273
      ],
      [
        0.3983774185180664,
        -0.252752423286438,
        -0.4432637691497803,
        -0.16604536771774292,
        0.36559516191482544
      ],
      [
        0.11803339421749115,
        -0.0770132765173912,
        -0.18128669261932373,
        0.34585919976234436,
        -0.4427068829536438
      ],
      [
        0.23938670754432678,
        0.18042287230491638,
        0.3439987301826477,
        -0.1940280944108963,
        -0.10341114550828934
      ],
      [
        -0.20519870519638062,
        0.5157885551452637,
        0.030480723828077316,
        -0.35304734110832214,
        0.27997925877571106
      ],
      [
        0.06034696847200394,
        0.06953220814466476,
        -0.2865254282951355,
        -0.4082255959510803,
        0.43175333738327026
      ],
      [
        -0.3261405825614929,
        -0.17384091019630432,
        -0.17699581384658813,
        0.1880488395690918,
        -0.43807896971702576
      ],
      [
        -0.21659943461418152,
        -0.298998087644577,
        -0.29350677132606506,
        0.22141075134277344,
        0.216265007853508
      ],
      [
        0.16716396808624268,
        0.4279533922672272,
        -0.22685104608535767,
        0.06124993786215782,
        -0.31728893518447876
      ],
      [
        0.025372788310050964,
        -0.4340628981590271,
        -0.48928529024124146,
        0.24147795140743256,
        -0.21687710285186768
      ],
      [
        -0.009122609160840511,
        -0.22089864313602448,
        -0.4500077962875366,
        -0.11618819832801819,
        -0.015572881326079369
      ],
      [
        0.3408670127391815,
        -0.23531845211982727,
        0.3772120475769043,
        -0.231308713555336,
        0.2682333290576935
      ],
      [
        0.37550386786460876,
        0.03765081241726875,
        -0.16135258972644806,
        0.3293330669403076,
        -0.12631723284721375
      ],
      [
        -0.16175149381160736,
        -0.23865194618701935,
        -0.45462343096733093,
        -0.12097126990556717,
        -0.42600688338279724
      ],
      [
        0.32092413306236267,
        -0.5289878845214844,
        -0.43759068846702576,
        0.00302847265265882,
        0.2053961604833603
      ],
      [
        0.4407142698764801,
        -0.46728381514549255,
        0.25697728991508484,
        0.22776775062084198,
        -0.37631955742836
      ],
      [
        0.20900356769561768,
        -0.2062033712863922,
        0.04188905656337738,
        -0.45878392457962036,
        -0.31839311122894287
      ],
      [
        -0.2734956741333008,
        -0.16839350759983063,
        -0.10254763811826706,
        -0.08688158541917801,
        -0.3163410723209381
      ],
      [
        0.20010484755039215,
        0.2785722315311432,
        -0.3364824056625366,
        -0.3665330410003662,
        -0.053935613483190536
      ],
      [
        0.13713647425174713,
        -0.4356221854686737,
        -0.14274708926677704,
        -0.05231322720646858,
        -0.4231034219264984
      ],
      [
        0.40007299184799194,
        0.4225383996963501,
        0.44730454683303833,
        -0.09730637818574905,
        -0.2318958193063736
      ],
      [
        0.03917887806892395,
        0.33644288778305054,
        0.2990899980068207,
        -0.22919400036334991,
        0.40793299674987793
      ],
      [
        -0.18445485830307007,
        -0.16116608679294586,
        -0.21483232080936432,
        0.14041641354560852,
        -0.47523486614227295
      ],
      [
        -0.30721235275268555,
        0.012967410497367382,
        0.3809754252433777,
        -0.051007166504859924,
        0.32791072130203247
      ],
      [
        0.4086577296257019,
        -0.04835570603609085,
        -0.3721528649330139,
        -0.055493056774139404,
        0.15447305142879486
      ],
      [
        -0.05861431360244751,
        -0.5320112109184265,
        0.1640215665102005,
        -0.2725728154182434,
        -0.3895086348056793
      ],
      [
        0.20735107362270355,
        0.18336878716945648,
        0.4073702096939087,
        -0.023625414818525314,
        0.32611632347106934
      ],
      [
        -0.10087992995977402,
        -0.3323349952697754,
        0.3544284403324127,
        0.38865822553634644,
        0.28699809312820435
      ],
      [
        -0.1025102287530899,
        -0.2552245557308197,
        0.01227232813835144,
        0.14935946464538574,
        0.008122129365801811
      ],
      [
        0.17788003385066986,
        0.06206008419394493,
        0.34239616990089417,
        0.29098784923553467,
        0.31447863578796387
      ],
      [
        -0.012488225474953651,
        -0.4562131464481354,
        -0.37542927265167236,
        -0.2959683835506439,
        0.31748947501182556
      ],
      [
        -0.024783940985798836,
        -0.02392745576798916,
        -0.13624097406864166,
        -0.028259282931685448,
        0.3399082124233246
      ],
      [
        -0.018659615889191628,
        0.25279027223587036,
        0.3058101534843445,
        -0.3715011477470398,
        0.18999817967414856
      ],
      [
        0.45474085211753845,
        -0.19821590185165405,
        0.1023409441113472,
        -0.00024309923173859715,
        0.26059287786483765
      ],
      [
        0.10720006376504898,
        -0.4239251911640167,
        -0.42756474018096924,
        0.29676297307014465,
        -0.25984787940979004
      ],
      [
        -0.36589935421943665,
        -0.48072612285614014,
        -0.47477787733078003,
        0.04678935557603836,
        0.0009631903958506882
      ],
      [
        -0.2679683268070221,
        -0.015265527181327343,
        0.1613689661026001,
        0.24552926421165466,
        0.24659031629562378
      ],
      [
        -0.2667696475982666,
        0.5036243796348572,
        0.5066179037094116,
        -0.24858996272087097,
        0.4741782248020172
      ],
      [
        -0.34802955389022827,
        -0.3128206431865692,
        0.06534420698881149,
        0.08542429655790329,
        0.4165862500667572
      ],
      [
        -0.009098929353058338,
        0.40249380469322205,
        -0.04242602363228798,
        -0.25219130516052246,
        0.02830079011619091
      ],
      [
        0.2590407729148865,
        -0.2541741728782654,
        -0.4641270339488983,
        -0.3335137367248535,
        0.02629541978240013
      ],
      [
        0.41601619124412537,
        0.04569060355424881,
        -0.33752888441085815,
        -0.20289833843708038,
        0.21854868531227112
      ],
      [
        -0.14573056995868683,
        0.03723892197012901,
        0.43655771017074585,
        0.2271445393562317,
        0.3505352735519409
      ],
      [
        0.38591086864471436,
        -0.12352592498064041,
        0.0911896601319313,
        -0.3359347879886627,
        0.4807409346103668
      ],
      [
        -0.309788316488266,
        0.42997369170188904,
        0.4171058237552643,
        0.11564645916223526,
        -0.39673009514808655
      ],
      [
        -0.028668126091361046,
        -0.20196817815303802,
        0.11935951560735703,
        0.24603107571601868,
        0.24901558458805084
      ],
      [
        0.16641828417778015,
        -0.426728755235672,
        -0.46689486503601074,
        0.04998129606246948,
        -0.15636929869651794
      ],
      [
        0.17427568137645721,
        0.5185344815254211,
        0.22674225270748138,
        -0.1925748884677887,
        -0.06923083961009979
      ],
      [
        0.25996190309524536,
        0.11263314634561539,
        0.38193461298942566,
        -0.3527165651321411,
        -0.008532626554369926
      ],
      [
        -0.2334291785955429,
        0.43428269028663635,
        0.29725655913352966,
        0.01167815737426281,
        -0.3495883643627167
      ],
      [
        -0.07908365875482559,
        0.4137107729911804,
        0.046567220240831375,
        0.05269791930913925,
        -0.3644217550754547
      ],
      [
        0.3274621069431305,
        0.41801100969314575,
        -0.3038846552371979,
        -0.26278156042099,
        0.05855276435613632
      ],
      [
        -0.2167794108390808,
        -0.3990720212459564,
        0.09871414303779602,
        -0.17309589684009552,
        0.14788340032100677
      ],
      [
        0.14525704085826874,
        0.470581978559494,
        0.34438997507095337,
        -0.3636309504508972,
        -0.32771429419517517
      ],
      [
        0.36303260922431946,
        -0.3538431227207184,
        0.3001445233821869,
        -0.2714605927467346,
        0.38785505294799805
      ],
      [
        0.2549663782119751,
        -0.409767210483551,
        -0.47645777463912964,
        -0.2685958445072174,
        -0.2863732874393463
      ],
      [
        -0.26966720819473267,
        0.3395961821079254,
        0.13928645849227905,
        0.002184841316193342,
        -0.024719955399632454
      ],
      [
        0.17583239078521729,
        0.12804250419139862,
        0.032354529947042465,
        0.45735883712768555,
        0.35518205165863037
      ],
      [
        0.029261399060487747,
        0.40270912647247314,
        0.003023742465302348,
        -0.2544582784175873,
        0.3258734345436096
      ],
      [
        0.2370242178440094,
        0.08036862313747406,
        -0.37379318475723267,
        0.3214801847934723,
        0.02795920893549919
      ],
      [
        -0.22206132113933563,
        -0.4895460605621338,
        -0.33350878953933716,
        0.329387366771698,
        0.14963071048259735
      ],
      [
        -0.21406623721122742,
        0.45827144384384155,
        0.4783383011817932,
        0.2965817451477051,
        0.02960628643631935
      ],
      [
        0.4100904166698456,
        -0.1550997495651245,
        -0.24471603333950043,
        0.18671564757823944,
        -0.20629717409610748
      ],
      [
        0.34999316930770874,
        -0.32050782442092896,
        0.07467731088399887,
        -0.3938751816749573,
        -0.37657904624938965
      ],
      [
        0.0005595472175627947,
        0.41417595744132996,
        -0.27568066120147705,
        -0.05642680078744888,
        0.25401759147644043
      ],
      [
        -0.06446902453899384,
        -0.4664427936077118,
        -0.07709750533103943,
        -0.1986328661441803,
        0.07050302624702454
      ],
      [
        0.18070140480995178,
        -0.22164878249168396,
        -0.32178083062171936,
        0.18221667408943176,
        -0.439491868019104
      ],
      [
        0.21069860458374023,
        0.24519683420658112,
        0.2481151670217514,
        -0.27939286828041077,
        0.22533656656742096
      ],
      [
        -0.27422401309013367,
        0.2894481420516968,
        -0.11260391771793365,
        0.18100936710834503,
        0.07064422219991684
      ],
      [
        -0.29267099499702454,
        -0.483306348323822,
        -0.18011359870433807,
        0.22020798921585083,
        -0.15178607404232025
      ],
      [
        -0.0770268440246582,
        -0.3497270345687866,
        -0.40291517972946167,
        -0.09984008967876434,
        -0.16432863473892212
      ],
      [
        0.15194956958293915,
        0.5264818668365479,
        -0.20938609540462494,
        -0.05487801879644394,
        0.23025469481945038
      ],
      [
        -0.28949153423309326,
        -0.061356399208307266,
        -0.2417496144771576,
        0.2561497986316681,
        -0.035971544682979584
      ],
      [
        0.03516112267971039,
        0.3585072159767151,
        -0.21858812868595123,
        -0.16495715081691742,
        0.4133445918560028
      ],
      [
        0.17689283192157745,
        -0.0717836394906044,
        0.4122527241706848,
        0.3795637786388397,
        -0.23699568212032318
      ],
      [
        -0.12391631305217743,
        0.10729463398456573,
        -0.37160131335258484,
        -0.5044652819633484,
        -0.2795303165912628
      ],
      [
        -0.4110765755176544,
        0.35923755168914795,
        0.19540520012378693,
        -0.2997641861438751,
        0.03083687275648117
      ],
      [
        0.4428413212299347,
        -0.36752739548683167,
        -0.3952927589416504,
        0.10858232527971268,
        -0.38940519094467163
      ],
      [
        -0.4285857677459717,
        0.23476970195770264,
        -0.07448340952396393,
        0.26342278718948364,
        -0.10633685439825058
      ],
      [
        0.4381415843963623,
        -0.28069037199020386,
        0.2686581611633301,
        -0.3436098098754883,
        -0.2357935756444931
      ]
    ],
    "actor.0.bias": [
      0.3611944317817688,
      0.21091324090957642,
      -0.29896026849746704,
      -0.05415642634034157,
      0.2609519958496094,
      -0.35219019651412964,
      -0.0021582324989140034,
      0.28566887974739075,
      -0.3388044834136963,
      0.17896687984466553,
      -0.44889459013938904,
      -0.40779441595077515,
      0.018382178619503975,
      -0.39570537209510803,
      -0.18279337882995605,
      0.2498500794172287,
      -0.06740124523639679,
      -0.31282320618629456,
      0.38976815342903137,
      -0.4372151494026184,
      0.11440375447273254,
      -0.3077426552772522,
      -0.2641899883747101,
      0.04939489811658859,
      0.4458256959915161,
      -0.10369080305099487,
      -0.42867109179496765,
      0.11257915198802948,
      -0.17113876342773438,
      -0.286977618932724,
      0.19963625073432922,
      0.18018344044685364,
      -0.21351712942123413,
      0.04005580395460129,
      0.0754120871424675,
      0.04361777380108833,
      -0.07297908514738083,
      -0.22896534204483032,
      0.22481922805309296,
      0.35050660371780396,
      0.3386872410774231,
      0.3504831790924072,
      -0.0262469332665205,
      0.023419110104441643,
      -0.17484378814697266,
      -0.08946976810693741,
      0.10572606325149536,
      0.02803869917988777,
      -0.3047443628311157,
      -0.2830493748188019,
      0.21741952002048492,
      0.32712608575820923,
      0.3973139226436615,
      0.2473408579826355,
      0.26799020171165466,
      0.22681796550750732,
      0.2657482326030731,
      -0.08843071758747101,
      0.09565848857164383,
      0.1640603244304657,
      0.0792958214879036,
      -0.008874607272446156,
      -0.20699167251586914,
      -0.3052078187465668,
      -0.2350115031003952,
      0.053366344422101974,
      0.3911975920200348,
      -0.15016475319862366,
      -0.38305628299713135,
      -0.4052029550075531,
      0.20202940702438354,
      0.1633463203907013,
      -0.2400018870830536,
      -0.13688147068023682,
      0.3257783055305481,
      -0.37326768040657043,
      0.2849447429180145,
      0.00459605036303401,
      -0.1892106533050537,
      0.4298664331436157,
      -0.3126714527606964,
      0.41114190220832825,
      0.3701167404651642,
      0.18085281550884247,
      0.28297123312950134,
      0.08248542249202728,
      0.3928295373916626,
      0.08840721100568771,
      -0.4197514057159424,
      -0.19911889731884003,
      0.060291752219200134,
      0.29874733090400696,
      -0.13956940174102783,
      0.14809715747833252,
      0.19354362785816193,
      0.003899576608091593,
      -0.3841075003147125,
      0.4131479561328888,
      -0.2420068234205246,
      0.043959733098745346,
      -0.1348615437746048,
      0.08169400691986084,
      0.3068946897983551,
      0.09632081538438797,
      -0.21011556684970856,
      0.08882871270179749,
      -0.36822423338890076,
      0.3648984730243683,
      0.25331947207450867,
      0.303691029548645,
      0.10408049076795578,
      -0.42176809906959534,
      -0.33998537063598633,
      -0.3906881511211395,
      0.25788217782974243,
      0.4258142113685608,
      0.2837189733982086,
      -0.1637161672115326,
      -0.23346370458602905,
      -0.2670173645019531,
      0.43293577432632446,
      -0.4315168261528015,
      -0.43812263011932373,
      0.18684154748916626,
      0.04073721915483475,
      -0.2160533219575882,
      -0.26131099462509155,
      -0.4124079644680023
    ],
    "actor.2.weight": [
      [
        0.06012598052620888,
        -0.02623862214386463,
        0.0376371331512928,
        0.04536983743309975,
        -0.06975284218788147,
        0.05259362980723381,
        -0.04265226796269417,
        0.06879717856645584,
        -0.023925401270389557,
        0.11380551010370255,
        -0.0607508160173893,
        -0.014029928483068943,
        -0.020060140639543533,
        0.06732801347970963,
        -0.06582402437925339,
        0.06006266549229622,
        0.07248197495937347,
        -0.11441948264837265,
        0.028843222185969353,
        -0.012857338413596153,
        0.003092489205300808,
        -0.057224128395318985,
        -0.05363598093390465,
        0.02746768295764923,
        0.052044373005628586,
        0.04087505862116814,
        0.062358684837818146,
        0.015048419125378132,
        0.07511121034622192,
        0.023481184616684914,
        -0.007598190568387508,
        0.12850385904312134,
        0.011666860431432724,
        0.05794740095734596,
        -0.024940872564911842,
        0.04669485613703728,
        -0.08729209005832672,
        -0.013675672933459282,
        -0.045948728919029236,
        -0.03074542246758938,
        -0.058484409004449844,
        0.06096426770091057,
        -0.033217672258615494,
        -0.047249685972929,
        0.023469384759664536,
        0.031734809279441833,
        -0.0548127107322216,
        -0.10485051572322845,
        0.0010717040859162807,
        0.08960594981908798,
        0.023940911516547203,
        0.013805418275296688,
        0.028036830946803093,
        0.05043325200676918,
        0.012665707617998123,
        0.10386022925376892,
        -0.0374506413936615,
        0.03800995647907257,
        0.163060262799263,
        -0.04426117613911629,
        0.09110717475414276,
        -0.01757311075925827,
        0.021602265536785126,
        0.13211993873119354,
        0.1003575325012207,
        -0.04752516373991966,
        0.042621757835149765,
        0.0516958050429821,
        -0.1070595309138298,
        -0.08466605097055435,
        0.043759845197200775,
        -0.12540657818317413,
        0.0019511638674885035,
        0.049337200820446014,
        0.05943623557686806,
        0.06118781864643097,
        -0.0032817968167364597,
        0.025940820574760437,
        0.044664330780506134,
        -0.0030356000643223524,
        -0.10464126616716385,
        0.03065408580005169,
        0.12164489179849625,
        -0.0442085787653923,
        -0.02810804173350334,
        -0.012644329108297825,
        0.014794851653277874,
        0.028463957831263542,
        0.013900229707360268,
        -0.046558089554309845,
        -0.1298495978116989,
        -0.04931069165468216,
        -0.04235656186938286,
        0.0596606582403183,
        0.0677267536520958,
        -0.020693065598607063,
        0.04464093595743179,
        0.007341873832046986,
        -0.060168858617544174,
        -0.0390334352850914,
        0.06106451153755188,
        -0.05503547564148903,
        0.03819955512881279,
        0.11194968968629837,
        -0.01801948994398117,
        -0.07403035461902618,
        -0.11389441043138504,
        -0.07962119579315186,
        0.08820562809705734,
        -0.12706293165683746,
        -0.03494161739945412,
        0.11776695400476456,
        -0.05778909847140312,
        0.05238683149218559,
        0.0015328722074627876,
        -0.024983519688248634,
        -0.09572624415159225,
        0.045984528958797455,
        -0.03872548043727875,
        -0.11136187613010406,
        0.039752401411533356,
        -0.044496800750494,
        -0.04518746957182884,
        0.043248433619737625,
        -0.04491358622908592,
        -0.014473013579845428,
        0.07273043692111969,
        -0.019241783767938614
      ],
      [
        -0.004557542037218809,
        0.0031001337338238955,
        -0.116143137216568,
        -0.007973629049956799,
        0.07367968559265137,
        0.13567930459976196,
        -0.0005124439485371113,
        -0.05245388671755791,
        -0.03989312797784805,
        0.021354500204324722,
        -0.024409497156739235,
        0.029128151014447212,
        -0.0246911458671093,
        0.06074177473783493,
        -0.02642608806490898,
        0.038234952837228775,
        -0.12689369916915894,
        0.019041461870074272,
        -0.12537886202335358,
        -0.07875054329633713,
        -0.1188003420829773,
        0.07098103314638138,
        0.08319879323244095,
        -0.04509251192212105,
        -0.10124796628952026,
        0.030926233157515526,
        0.09082447737455368,
        0.05009029433131218,
        -0.030481604859232903,
        -0.060593217611312866,
        -0.031164202839136124,
        -0.04600432887673378,
        0.07707671076059341,
        0.027655426412820816,
        0.006136560812592506,
        -0.1143009290099144,
        -0.06694108247756958,
        0.009472206234931946,
        0.08854450285434723,
        -0.06969856470823288,
        0.04547584056854248,
        -0.032107364386320114,
        0.045476194471120834,
        0.0663643553853035,
        0.08122313767671585,
        0.07522492855787277,
        0.1505395770072937,
        0.10777290165424347,
        -0.014072445221245289,
        -0.05027294531464577,
        0.005481519736349583,
        -0.040615979582071304,
        0.08983441442251205,
        -0.019876690581440926,
        -0.0763963907957077,
        0.006552121136337519,
        0.08731842041015625,
        0.011660543270409107,
        -0.10648684203624725,
        -0.07350116223096848,
        0.0737728402018547,
        0.001688675838522613,
        -0.023327289149165154,
        -0.11612314730882645,
        -0.014791274443268776,
        -0.012179859913885593,
        0.05406402796506882,
        -0.048464540392160416,
        0.016808636486530304,
        0.09337157011032104,
        0.016112780198454857,
        -0.011045385152101517,
        0.06472212076187134,
        0.03515024110674858,
        0.07697714120149612,
        0.02600773610174656,
        -0.0784631222486496,
        -0.008661601692438126,
        -0.03886222094297409,
        -0.06919928640127182,
        0.07486987113952637,
        0.02767805941402912,
        -0.06826404482126236,
        0.04081657528877258,
        0.08018761873245239,
        0.18002818524837494,
        0.037571098655462265,
        0.02372237667441368,
        -0.10639042407274246,
        -0.07319281250238419,
        0.17386683821678162,
        -0.06738699227571487,
        0.05448869988322258,
        0.04480559751391411,
        -0.09972736239433289,
        0.08320551365613937,
        -0.024419737979769707,
        0.03929072618484497,
        0.08891502022743225,
        -0.06772623211145401,
        -0.04406220093369484,
        -0.02813132479786873,
        -0.03857799619436264,
        0.006787518505007029,
        0.1136941909790039,
        0.0599999837577343,
        0.012588618323206902,
        -0.024426229298114777,
        -0.06111400946974754,
        0.14230826497077942,
        -0.09639735519886017,
        -0.07648778706789017,
        -0.025090329349040985,
        0.019691675901412964,
        -0.04810428246855736,
        -0.040778521448373795,
        -0.010791479609906673,
        -0.04079006239771843,
        -0.09678623080253601,
        0.12926796078681946,
        -0.10376561433076859,
        -0.005985178519040346,
        0.1040976494550705,
        -0.1391444355249405,
        -0.030589928850531578,
        -0.15639077126979828,
        -0.03551856055855751,
        -0.01728132739663124
      ],
      [
        -0.054539356380701065,
        -0.08046416193246841,
        -0.00908296275883913,
        0.07462567090988159,
        0.04548245668411255,
        0.03707577660679817,
        0.03226242959499359,
        0.024835586547851562,
        0.08492843806743622,
        -0.0005832082824781537,
        -0.06088358163833618,
        -0.07677945494651794,
        -0.08063695579767227,
        -0.05044616758823395,
        0.05738482251763344,
        -0.0863981768488884,
        -0.08476882427930832,
        0.1257346272468567,
        -0.014465638436377048,
        -0.045760802924633026,
        -0.030757173895835876,
        -0.0563727505505085,
        -0.0287587009370327,
        -0.09394001960754395,
        -0.07010184228420258,
        0.05820208415389061,
        -0.015161525458097458,
        -0.07621987164020538,
        -0.04693514481186867,
        -0.06820639222860336,
        -0.09989699721336365,
        -0.05390022322535515,
        -0.05008488893508911,
        0.009371212683618069,
        -0.02762361243367195,
        0.015569756738841534,
        -0.042036160826683044,
        -0.027551010251045227,
        0.10349893569946289,
        -0.022389095276594162,
        -0.0728582814335823,
        -0.01924882084131241,
        0.09997569024562836,
        0.058786503970623016,
        0.020574798807501793,
        -0.07641886174678802,
        0.10515555739402771,
        -0.017109444364905357,
        -0.046656928956508636,
        -0.03365400433540344,
        0.05124851316213608,
        0.07261796295642853,
        0.1024252325296402,
        -0.00817714724689722,
        0.0352589450776577,
        -0.03617718070745468,
        0.06770119816064835,
        -0.06771641969680786,
        -0.13120102882385254,
        -0.06477582454681396,
        -0.004704008810222149,
        -0.06349792331457138,
        0.0062301987782120705,
        -0.10339096188545227,
        0.011851579882204533,
        -0.062093183398246765,
        0.05066271498799324,
        -0.03839762881398201,
        -0.007482783868908882,
        0.06382238864898682,
        -0.11450183391571045,
        0.034537672996520996,
        -0.05608706548810005,
        -0.10718957334756851,
        0.08895349502563477,
        0.05133815109729767,
        -0.009145517833530903,
        0.06981196999549866,
        -0.10018943250179291,
        -0.04501735046505928,
        -0.008287315256893635,
        -0.057129062712192535,
        -0.05640999600291252,
        0.03525448963046074,
        -0.033341165632009506,
        0.07374750077724457,
        0.0278477780520916,
        -0.010189590975642204,
        0.00902098324149847,
        -0.023391805589199066,
        0.09312863647937775,
        0.07951677590608597,
        0.04469645023345947,
        -0.057624995708465576,
        -0.11174371093511581,
        0.09796082228422165,
        -0.002553017344325781,
        0.1106046810746193,
        -0.04902468994259834,
        -0.036102842539548874,
        0.07339919358491898,
        0.025778576731681824,
        -0.049639131873846054,
        -0.06671953946352005,
        0.011776295490562916,
        -0.06534437835216522,
        0.09115137159824371,
        0.04873978719115257,
        -0.0625070109963417,
        -0.03097044676542282,
        -0.038203854113817215,
        -0.0003398132976144552,
        0.024305541068315506,
        0.05722087249159813,
        -0.06353238970041275,
        -0.013247515074908733,
        0.10006765276193619,
        -0.005414552055299282,
        0.03155563771724701,
        0.003270777640864253,
        0.048877060413360596,
        0.013270449824631214,
        0.00037511420669034123,
        0.008352061733603477,
        0.05301130563020706,
        -0.09891127049922943,
        0.057741429656744,
        -0.05671616271138191
      ],
      [
        0.07012125849723816,
        -0.004791515879333019,
        0.08170866966247559,
        -0.0299383532255888,
        0.04766495153307915,
        0.027050312608480453,
        -0.0007127835415303707,
        0.08790700137615204,
        0.030730968341231346,
        -0.01753874123096466,
        -0.06048508733510971,
        0.005809771828353405,
        -0.03364808112382889,
        0.050980933010578156,
        0.10992275923490524,
        -0.0571487694978714,
        0.052113648504018784,
        -0.13906173408031464,
        0.08316653966903687,
        0.005484221503138542,
        0.10090447217226028,
        -0.05123167857527733,
        -0.10861178487539291,
        0.1074814423918724,
        0.09361311048269272,
        -0.025670241564512253,
        -0.029642080888152122,
        0.00817152764648199,
        -0.05245925113558769,
        -0.08605560660362244,
        0.13086020946502686,
        0.12259981781244278,
        0.03927772864699364,
        -0.07198666036128998,
        0.04508346691727638,
        0.1119806095957756,
        0.0324535146355629,
        -0.007921029813587666,
        -0.020515529438853264,
        0.04685067757964134,
        0.06810027360916138,
        0.06926971673965454,
        -0.003972802311182022,
        -0.006126924883574247,
        -0.025888774544000626,
        0.09367623925209045,
        -0.07582386583089828,
        -0.053087834268808365,
        0.09421700239181519,
        0.03701157867908478,
        0.04176750406622887,
        -0.014198211953043938,
        -0.09632039815187454,
        -0.07166855782270432,
        0.11196757853031158,
        0.1385219246149063,
        -0.020290987566113472,
        -0.010038459673523903,
        0.18179011344909668,
        0.021708330139517784,
        0.045320071280002594,
        -0.041547808796167374,
        0.11747848242521286,
        0.07397092133760452,
        0.12641632556915283,
        0.08967145532369614,
        0.04785361513495445,
        0.07546097785234451,
        -0.03008839301764965,
        -0.03505348041653633,
        0.12317238748073578,
        0.0013729421189054847,
        0.0037880458403378725,
        0.061694927513599396,
        -0.04584344103932381,
        0.07363223284482956,
        -0.008879865519702435,
        0.05636271834373474,
        0.105911985039711,
        -0.07011287659406662,
        -0.1173427626490593,
        -0.0006612510769627988,
        0.08340298384428024,
        0.10947886109352112,
        -0.10771706700325012,
        -0.08867640048265457,
        0.0480520986020565,
        -0.0718282163143158,
        -0.03535808250308037,
        0.024652672931551933,
        -0.02960965968668461,
        -0.010536440648138523,
        0.01798754185438156,
        0.016235636547207832,
        0.13348056375980377,
        -0.013598858378827572,
        -0.0036128920037299395,
        -0.05273531749844551,
        -0.06823229789733887,
        0.020937412977218628,
        0.10349547117948532,
        0.0036840252578258514,
        -0.07146666944026947,
        0.13717487454414368,
        0.06280054897069931,
        -0.022467054426670074,
        -0.11947975307703018,
        -0.028462229296565056,
        0.13252869248390198,
        -0.006546874064952135,
        0.0025692640338093042,
        0.05967910587787628,
        -0.05452530458569527,
        -0.061563439667224884,
        0.09814880788326263,
        -0.020639289170503616,
        -0.13598142564296722,
        0.04050290957093239,
        0.07398775964975357,
        -0.1500653326511383,
        0.012509480118751526,
        -0.12034914642572403,
        0.02394835278391838,
        0.05663466826081276,
        0.016133610159158707,
        0.056624654680490494,
        0.07618986815214157,
        -0.018749404698610306
      ],
      [
        0.017580226063728333,
        -0.020496370270848274,
        0.02201671525835991,
        0.05757882818579674,
        0.053296931087970734,
        0.012526832520961761,
        0.022758224979043007,
        -0.030145565047860146,
        -0.012154189869761467,
        -0.01704506203532219,
        0.057091329246759415,
        -0.006764293648302555,
        0.032345209270715714,
        0.04427535459399223,
        0.014139779843389988,
        -0.05825111269950867,
        0.08532937616109848,
        -0.00633280212059617,
        0.12630116939544678,
        -0.08705881237983704,
        0.11623699963092804,
        0.010831751860678196,
        -0.12713009119033813,
        0.013148078694939613,
        -0.03967902809381485,
        0.04147692769765854,
        -0.08336357027292252,
        0.017612894997000694,
        0.06023118272423744,
        -0.02698969654738903,
        0.10098827630281448,
        0.03027224913239479,
        0.05463221296668053,
        0.06664778292179108,
        0.06893831491470337,
        0.06677591800689697,
        0.07545821368694305,
        -0.08072070777416229,
        0.023589493706822395,
        -0.049714405089616776,
        -0.040500473231077194,
        -0.09068822860717773,
        -0.07142362743616104,
        -0.009190420620143414,
        -0.008642662316560745,
        0.03919349983334541,
        -0.09079423546791077,
        -0.10143055766820908,
        -0.063485287129879,
        0.07122644782066345,
        0.09229106456041336,
        0.06403849273920059,
        -0.06608471274375916,
        0.02441565692424774,
        0.1117837205529213,
        -0.013794252648949623,
        -0.09268981963396072,
        -0.039290960878133774,
        0.14633159339427948,
        -0.059593357145786285,
        -0.07013768702745438,
        0.061094943434000015,
        0.13826103508472443,
        0.11409100890159607,
        -0.02638212777674198,
        0.09874280542135239,
        0.06637504696846008,
        0.027284665033221245,
        -0.12262070178985596,
        -0.11782611906528473,
        -0.0029813710134476423,
        -0.1279451996088028,
        0.06412216275930405,
        0.09867928922176361,
        0.02577114664018154,
        0.03751881420612335,
        -0.0038824633229523897,
        0.028772462159395218,
        0.10725574940443039,
        0.05633608624339104,
        0.026883497834205627,
        -0.02696404792368412,
        0.08763698488473892,
        0.0031898454762995243,
        -0.053479619324207306,
        0.011902431026101112,
        0.043606605380773544,
        -0.03652280941605568,
        0.04017088934779167,
        0.022740395739674568,
        -0.1156439259648323,
        0.07574400305747986,
        0.030850045382976532,
        -0.03472909331321716,
        -0.007161907851696014,
        -0.05101082846522331,
        -0.07476617395877838,
        0.028230799362063408,
        -0.0736289694905281,
        0.05367206782102585,
        0.033367179334163666,
        -0.054327934980392456,
        -0.024685651063919067,
        0.10148929804563522,
        -0.10450843721628189,
        -0.02594645321369171,
        -0.1520846039056778,
        -0.07294885069131851,
        0.015939565375447273,
        -0.005639499053359032,
        -0.04726656153798103,
        0.13074266910552979,
        -0.14781545102596283,
        -0.06441234797239304,
        0.0804685726761818,
        0.0008267998928204179,
        0.002418738789856434,
        -0.005968265701085329,
        0.05905553326010704,
        -0.008630061522126198,
        -0.03804663568735123,
        -0.10731034725904465,
        0.06374505907297134,
        0.12295633554458618,
        -0.04333990067243576,
        0.12989889085292816,
        -0.08238978683948517,
        0.14150157570838928
      ],
      [
        -0.061079904437065125,
        -0.015832319855690002,
        -0.09870041906833649,
        -0.04591651260852814,
        -0.04156447574496269,
        0.06496528536081314,
        0.011797822080552578,
        -0.0008904450223781168,
        -0.09057460725307465,
        -0.09168650209903717,
        -0.00884790439158678,
        0.02086811140179634,
        -0.08310248702764511,
        0.06896242499351501,
        -0.054743796586990356,
        0.06989980489015579,
        -0.055431634187698364,
        0.09466036409139633,
        -0.12499670684337616,
        0.04786016792058945,
        -0.0733412429690361,
        0.032860979437828064,
        0.10041500627994537,
        -0.023903382942080498,
        -0.030897311866283417,
        -0.01779554970562458,
        -0.04617622122168541,
        -0.10244376212358475,
        0.0025916744489222765,
        0.027773309499025345,
        -0.011531131342053413,
        -0.09787772595882416,
        -0.0024707773700356483,
        0.02765527181327343,
        -0.03447972983121872,
        -0.07911445945501328,
        0.03834143280982971,
        0.08693096786737442,
        -0.02492005191743374,
        -0.04895683377981186,
        -0.006365615408867598,
        0.08312522619962692,
        0.1279885619878769,
        0.00437625776976347,
        0.06431438028812408,
        0.07774969190359116,
        0.15043289959430695,
        0.04933423548936844,
        -0.08731069415807724,
        -0.08192483335733414,
        -0.0256335586309433,
        -0.05593672767281532,
        -0.0338229238986969,
        -0.021620916202664375,
        0.044501688331365585,
        -0.025695303454995155,
        0.007464718539267778,
        -0.017499437555670738,
        -0.18418604135513306,
        0.02778700180351734,
        0.00940479151904583,
        -0.0758625864982605,
        -0.16620081663131714,
        -0.1541385054588318,
        -0.024792438372969627,
        0.018430767580866814,
        0.00457041384652257,
        -0.08057646453380585,
        0.09064798057079315,
        -0.0014338284963741899,
        -0.01545422337949276,
        -0.012644723989069462,
        -0.07379727065563202,
        -0.09221040457487106,
        0.023554258048534393,
        -0.03878256306052208,
        0.0017296673031523824,
        0.057975221425294876,
        -0.029376542195677757,
        0.03557560592889786,
        0.09317777305841446,
        0.0171674694865942,
        -0.11877734214067459,
        -0.04965147003531456,
        0.005626578815281391,
        0.14466975629329681,
        -0.11008952558040619,
        0.053915031254291534,
        0.009254798293113708,
        0.03817714378237724,
        0.16637973487377167,
        -0.036293793469667435,
        -0.014707507565617561,
        -0.10127938538789749,
        -0.09177469462156296,
        0.08184964209794998,
        0.019039012491703033,
        -0.04830062761902809,
        -0.0023475857451558113,
        -0.047300852835178375,
        -0.05615660920739174,
        0.0227625984698534,
        -0.03392947092652321,
        -0.1276213824748993,
        0.02148468792438507,
        -0.0386747270822525,
        0.052747588604688644,
        0.02704557776451111,
        -0.07088831812143326,
        0.025621114298701286,
        -0.0042094276286661625,
        0.015944326296448708,
        0.12826374173164368,
        -0.043844763189554214,
        -0.1121324971318245,
        0.015186592005193233,
        0.09180203080177307,
        0.003838727017864585,
        0.0726662427186966,
        0.14243124425411224,
        -0.018090352416038513,
        0.09868286550045013,
        0.08237484842538834,
        -0.07158856838941574,
        -0.02094580978155136,
        -0.09504734724760056,
        -0.00582767091691494,
        -0.13298313319683075
      ],
      [
        -0.054802339524030685,
        0.08403747528791428,
        -0.052055198699235916,
        -0.07374927401542664,
        0.07411202788352966,
        -0.013351059518754482,
        0.037467263638973236,
        -0.012875870801508427,
        0.02798187918961048,
        0.0372733511030674,
        -0.07849448919296265,
        -0.03318306803703308,
        -0.02100134640932083,
        0.05568568408489227,
        0.05043423920869827,
        0.0773579478263855,
        -0.03399026393890381,
        -0.0030289501883089542,
        -0.038777150213718414,
        -0.07914157956838608,
        -0.08469533920288086,
        -0.03105146996676922,
        -0.02472931705415249,
        0.011897863820195198,
        -0.06219282001256943,
        -0.06024261936545372,
        0.054925717413425446,
        0.026544133201241493,
        -0.08577604591846466,
        0.025314582511782646,
        -0.027373056858778,
        -0.08672814071178436,
        -0.05544000864028931,
        -0.0653834268450737,
        -0.04397863894701004,
        -0.011529997922480106,
        0.05974145606160164,
        0.030016222968697548,
        0.10784170776605606,
        0.07618647813796997,
        -0.03131285682320595,
        0.0962248370051384,
        0.008654163219034672,
        0.05962873250246048,
        -0.05679873004555702,
        0.05472256988286972,
        0.020561154931783676,
        0.047201383858919144,
        0.057693254202604294,
        0.014080527238547802,
        0.03738737851381302,
        0.041752900928258896,
        -0.009255082346498966,
        0.023147115483880043,
        0.045413222163915634,
        0.023881012573838234,
        0.07996290177106857,
        0.020872512832283974,
        0.03371234983205795,
        -0.018719378858804703,
        -0.0036087539047002792,
        0.03168153017759323,
        0.021809369325637817,
        0.008695474825799465,
        0.04018080607056618,
        0.01592850498855114,
        0.05253158509731293,
        -0.06406965851783752,
        0.032952360808849335,
        -0.000827435462269932,
        0.025926414877176285,
        0.053211942315101624,
        -0.03316894918680191,
        0.03259068727493286,
        0.008163911290466785,
        0.019828487187623978,
        -0.02543831244111061,
        -0.05501789227128029,
        0.024398205801844597,
        0.06413961946964264,
        0.05992662534117699,
        0.07134578377008438,
        0.049994781613349915,
        0.027157705277204514,
        0.05566231906414032,
        -0.006598358508199453,
        0.05246003717184067,
        -0.04894908145070076,
        -0.07119458168745041,
        0.10207263380289078,
        0.07673827558755875,
        0.0534990020096302,
        -0.027710910886526108,
        -0.05999429151415825,
        -0.02122117392718792,
        -0.013984721153974533,
        -0.04606669768691063,
        0.024499179795384407,
        -0.07855672389268875,
        -0.029965780675411224,
        -0.035886090248823166,
        -0.06513220816850662,
        0.0036809584125876427,
        -0.0032502685207873583,
        -0.021464161574840546,
        -0.012534803710877895,
        -0.02548898011445999,
        0.08691089600324631,
        0.04290500655770302,
        0.0412968285381794,
        -0.047065820544958115,
        -0.08114075660705566,
        0.03371622785925865,
        -0.01884005032479763,
        0.0027808169834315777,
        -0.009484931826591492,
        -0.03976598009467125,
        -0.06817641109228134,
        0.03109595738351345,
        0.09771018475294113,
        0.06490152329206467,
        -0.062155116349458694,
        -0.02249731682240963,
        -0.0910222977399826,
        -0.06658528745174408,
        -0.1030886247754097,
        0.009730303660035133,
        -0.1124291643500328
      ],
      [
        0.08008337020874023,
        0.08419383317232132,
        0.040799885988235474,
        0.02875470742583275,
        0.023617824539542198,
        0.05119812861084938,
        -0.01422074344009161,
        0.08199747651815414,
        0.03960662707686424,
        0.006891499273478985,
        0.06564363837242126,
        0.038128361105918884,
        0.05664024129509926,
        0.026289314031600952,
        -0.022690117359161377,
        0.07271211594343185,
        0.07361020892858505,
        -0.05023462697863579,
        0.07918177545070648,
        -0.03821864351630211,
        0.05923599377274513,
        -0.09248559921979904,
        0.035273853689432144,
        0.08000017702579498,
        -0.053473446518182755,
        0.064569853246212,
        0.015063198283314705,
        -0.010668693110346794,
        0.08952014893293381,
        0.003933860454708338,
        -0.005341936834156513,
        -0.014495665207505226,
        0.005593519192188978,
        -0.0341341607272625,
        -0.04227589815855026,
        -0.009057259187102318,
        0.052833110094070435,
        -0.033245816826820374,
        -0.07623498141765594,
        -0.0396086610853672,
        -0.005290370900183916,
        -0.034407228231430054,
        -0.13317620754241943,
        -0.1077372133731842,
        -0.04969608038663864,
        0.02880140021443367,
        -0.04848509281873703,
        0.05625849589705467,
        0.05059143528342247,
        0.05282335728406906,
        0.0920746773481369,
        0.006914133671671152,
        -0.0739869624376297,
        0.0640813559293747,
        -0.007972396910190582,
        -0.026435883715748787,
        0.057015012949705124,
        0.1227307915687561,
        0.1209450364112854,
        -0.024952562525868416,
        0.07744597643613815,
        0.07429944723844528,
        0.07059653103351593,
        0.07497343420982361,
        0.07906997948884964,
        -0.02224062755703926,
        -0.039567992091178894,
        0.09749355912208557,
        -0.022880639880895615,
        -0.04470524936914444,
        0.03336019068956375,
        -0.023198232054710388,
        0.08882661163806915,
        0.10593382269144058,
        -0.09693031758069992,
        -0.06124761328101158,
        -0.045459043234586716,
        -0.023121938109397888,
        0.04402606189250946,
        -0.05531112849712372,
        0.0169733427464962,
        -0.09038235992193222,
        0.0873306468129158,
        0.03014664351940155,
        0.008168048225343227,
        -0.007593356538563967,
        0.03178649768233299,
        -0.08077254146337509,
        0.002124152146279812,
        0.07337794452905655,
        -0.06839673221111298,
        -0.0096454918384552,
        -0.0900111272931099,
        -0.052658796310424805,
        0.03546296805143356,
        -0.007658492773771286,
        -0.0739884302020073,
        -0.010134478099644184,
        0.06417961418628693,
        0.06612877547740936,
        0.019907189533114433,
        0.06582214683294296,
        0.08407433331012726,
        0.09685123711824417,
        0.06178060173988342,
        -0.0005829001311212778,
        -0.07594574242830276,
        0.06454794108867645,
        0.07515311986207962,
        -0.022499224171042442,
        0.001564175239764154,
        0.02511868253350258,
        -0.10959165543317795,
        -0.025424787774682045,
        -0.03700040653347969,
        -0.026839029043912888,
        0.0008832997409626842,
        -0.026095159351825714,
        0.028602059930562973,
        -0.10917025059461594,
        -0.02464199624955654,
        -0.0015024770982563496,
        0.040996622294187546,
        0.09197769314050674,
        -0.0351126454770565,
        0.13283699750900269,
        -0.0633763000369072,
        0.06236660107970238
      ],
      [
        0.033108264207839966,
        0.09844683110713959,
        0.10190775245428085,
        -0.04426104575395584,
        0.04192548245191574,
        -0.030023539438843727,
        -0.08486884832382202,
        -0.04209434613585472,
        -0.069463811814785,
        0.11968774348497391,
        0.0655018538236618,
        -0.05797358602285385,
        0.06586889922618866,
        0.09652478247880936,
        0.011868469417095184,
        0.05914781242609024,
        0.13716605305671692,
        -0.008802711963653564,
        0.009584080427885056,
        0.07563257962465286,
        0.05327986553311348,
        0.02732168510556221,
        -0.10641553997993469,
        0.05261409282684326,
        0.058983538299798965,
        -0.03270382061600685,
        -0.060226231813430786,
        -0.0073824175633490086,
        0.04538263753056526,
        -0.037585221230983734,
        0.04327643662691116,
        -0.024350576102733612,
        -0.029448887333273888,
        -0.028182679787278175,
        -0.029749108478426933,
        0.08521507680416107,
        -0.0007616772782057524,
        -0.0701332688331604,
        0.02433878555893898,
        0.07636350393295288,
        -0.06187589466571808,
        -0.043052561581134796,
        -0.10635081678628922,
        -0.10451096296310425,
        0.03039146214723587,
        0.06773757934570312,
        0.012400521896779537,
        -0.08889260143041611,
        0.09548971056938171,
        0.031849343329668045,
        -0.050188831984996796,
        0.044112350791692734,
        0.040316637605428696,
        -0.018078817054629326,
        -0.05481899157166481,
        0.09784684330224991,
        -0.057897165417671204,
        -0.026498127728700638,
        0.06321629136800766,
        6.703399412799627e-05,
        0.014299091883003712,
        0.05709574371576309,
        0.09513332694768906,
        0.04669469967484474,
        -0.018574336543679237,
        -0.012396184727549553,
        0.05100702866911888,
        0.06168867647647858,
        0.012394619174301624,
        -0.0530037097632885,
        0.04034971073269844,
        -0.12426304817199707,
        -0.011648069135844707,
        -0.020579099655151367,
        -0.09471981227397919,
        0.07033096998929977,
        0.07889268547296524,
        0.06102176010608673,
        0.09860487282276154,
        0.056455813348293304,
        -0.09014950692653656,
        0.07450585812330246,
        -0.03517798334360123,
        0.05337238684296608,
        -0.08762621134519577,
        -0.005136261228471994,
        -0.005832826718688011,
        0.033915963023900986,
        0.04836665093898773,
        0.05913195759057999,
        -0.0640341266989708,
        -0.07138164341449738,
        -0.10744820535182953,
        -0.07854808121919632,
        0.01919366605579853,
        0.04802686348557472,
        0.0073959706351161,
        -0.01330516766756773,
        0.04442566633224487,
        -0.08249390125274658,
        0.027280544862151146,
        0.02456694282591343,
        -0.07988578826189041,
        -0.008040782995522022,
        0.0647629052400589,
        -0.03187897801399231,
        -0.14099061489105225,
        0.07291959971189499,
        0.06359223276376724,
        0.0014374267775565386,
        0.020598506554961205,
        0.07068275660276413,
        0.011196428909897804,
        0.04848770052194595,
        -0.028985051438212395,
        0.04239320382475853,
        -0.12148919701576233,
        0.05923168361186981,
        -0.054849814623594284,
        -0.08664742112159729,
        0.005135281942784786,
        -0.03114665299654007,
        0.04955209419131279,
        -0.03234086558222771,
        -0.10224166512489319,
        0.11932464689016342,
        -0.06679315119981766,
        -0.021018916741013527
      ],
      [
        -0.009023269638419151,
        -0.002895871177315712,
        -0.029124222695827484,
        -0.028689667582511902,
        0.040932103991508484,
        0.05115620419383049,
        0.04017621651291847,
        0.04223635420203209,
        0.001595178386196494,
        -0.04270954430103302,
        -0.028181275352835655,
        -0.02914319932460785,
        0.03356252238154411,
        0.03480570390820503,
        0.06620161235332489,
        -0.031188149005174637,
        0.025980951264500618,
        -0.004215893801301718,
        -0.04052375629544258,
        0.044396817684173584,
        0.05466156080365181,
        -0.001057411078363657,
        -0.07205673307180405,
        0.05707927420735359,
        0.08555679023265839,
        -0.05544049292802811,
        -0.06269877403974533,
        0.09007519483566284,
        -0.09396825730800629,
        -0.022589612752199173,
        0.00347007904201746,
        -0.022353090345859528,
        -0.0755217894911766,
        -0.05602848902344704,
        -0.03801080957055092,
        -0.0005414555198512971,
        0.07080986350774765,
        -0.06603986024856567,
        0.09437321126461029,
        0.047292742878198624,
        -0.006008097901940346,
        0.0758855789899826,
        -0.052905645221471786,
        -0.040508486330509186,
        -0.0917605385184288,
        -0.04308950901031494,
        -0.04820048063993454,
        0.04355503246188164,
        -0.09254183620214462,
        0.10450075566768646,
        0.006158469710499048,
        0.03325805813074112,
        -0.006380318198353052,
        -0.006762070581316948,
        -0.077428437769413,
        -0.0070373923517763615,
        0.07216686010360718,
        0.00964527577161789,
        0.05302875488996506,
        -0.04647988826036453,
        0.05605032667517662,
        -0.03869013488292694,
        -0.05135571211576462,
        -0.045853666961193085,
        -0.06936956942081451,
        -0.034590572118759155,
        0.09704557806253433,
        -0.05048461630940437,
        -0.027742929756641388,
        0.05650356411933899,
        -0.04415912181138992,
        0.033641934394836426,
        0.08352281898260117,
        0.035750050097703934,
        0.05954260006546974,
        0.04744255915284157,
        0.013847620226442814,
        -0.05927801504731178,
        -0.05883045122027397,
        0.018749142065644264,
        -0.02044474333524704,
        0.03536833077669144,
        0.048731423914432526,
        -0.025409100577235222,
        0.04524218291044235,
        -0.08424974232912064,
        0.006454813294112682,
        -0.06083773076534271,
        0.025954952463507652,
        0.08146263659000397,
        -0.04550089314579964,
        0.0009201751672662795,
        0.01734859310090542,
        -0.026088276877999306,
        0.059375207871198654,
        -0.047432392835617065,
        -0.009567482396960258,
        0.004806737415492535,
        -0.09817999601364136,
        0.0062101250514388084,
        -0.020870858803391457,
        0.012234569527208805,
        0.10209760069847107,
        0.007066076621413231,
        0.034209221601486206,
        -0.013236427679657936,
        -0.059130486100912094,
        0.0047331880778074265,
        -0.05329548195004463,
        -0.031087135896086693,
        -0.00886908732354641,
        -0.0022235012147575617,
        -0.06359536945819855,
        -0.05975387617945671,
        -0.05215584486722946,
        -0.03685702756047249,
        -0.07348944246768951,
        -0.07598456740379333,
        -0.03875894844532013,
        -0.012361453846096992,
        0.0661657527089119,
        -0.015871576964855194,
        -0.06882289052009583,
        -0.05020133778452873,
        -0.04783729463815689,
        0.011612098664045334,
        -0.08740909397602081,
        -0.033284518867731094
      ],
      [
        -0.02697506546974182,
        0.02809271030128002,
        -0.07069879025220871,
        -0.06325800716876984,
        -0.07360658794641495,
        0.004173503257334232,
        0.06762466579675674,
        0.03459057956933975,
        -0.012787928804755211,
        -0.09643857926130295,
        -0.012901061214506626,
        -0.05127398297190666,
        0.0654207095503807,
        -0.0752544105052948,
        -0.0007451896090060472,
        0.030387962237000465,
        -0.1493787318468094,
        0.08878149837255478,
        -0.056174568831920624,
        0.030801208689808846,
        0.05173202231526375,
        -0.014205390587449074,
        -0.04007214680314064,
        -0.06773493438959122,
        -0.10089443624019623,
        0.003809573594480753,
        0.028225187212228775,
        -0.07994981855154037,
        -0.014293474145233631,
        0.0661541223526001,
        -0.0837046429514885,
        -0.02638676017522812,
        -0.022653309628367424,
        0.016367590054869652,
        -0.030749045312404633,
        -0.10401668399572372,
        0.06673125177621841,
        -0.028362805023789406,
        0.03605766221880913,
        -0.0802692323923111,
        0.02137049287557602,
        0.05856296047568321,
        0.0056094336323440075,
        0.1707390993833542,
        0.0031572706066071987,
        0.09129662066698074,
        0.12535621225833893,
        0.06485120952129364,
        -0.010172739624977112,
        -0.05152031034231186,
        0.007095610722899437,
        -0.06449565291404724,
        0.06884720921516418,
        0.06574729084968567,
        -0.06115008518099785,
        -0.11233024299144745,
        0.07637497782707214,
        0.03068096935749054,
        -0.09122071415185928,
        -0.08261625468730927,
        -0.013639243319630623,
        -0.025594331324100494,
        -0.027595603838562965,
        -0.1821817010641098,
        -0.107749804854393,
        -0.017405593767762184,
        -0.021198293194174767,
        -0.055368438363075256,
        0.14019496738910675,
        0.12062841653823853,
        0.02253139391541481,
        -0.047259438782930374,
        0.051674578338861465,
        -0.09641113877296448,
        -0.026875032112002373,
        0.05787388235330582,
        -0.07414605468511581,
        -0.02910440042614937,
        -0.02123544178903103,
        0.06991945207118988,
        0.03489958494901657,
        -0.10153642296791077,
        -0.06955494731664658,
        -0.10430659353733063,
        0.01838499866425991,
        0.16563276946544647,
        0.004851703532040119,
        0.051241859793663025,
        -0.08395878225564957,
        -0.06793037801980972,
        0.12795217335224152,
        0.021470731124281883,
        0.0013442108174785972,
        -0.006418274715542793,
        -0.10003010183572769,
        -0.03653189539909363,
        0.131977841258049,
        0.06512303650379181,
        0.019805269315838814,
        0.054783470928668976,
        -0.06975766271352768,
        0.06685707718133926,
        0.009190636686980724,
        -0.09927377104759216,
        -0.009631467051804066,
        0.011416899971663952,
        0.11086652427911758,
        -0.003731919452548027,
        -0.13373476266860962,
        -0.006129440385848284,
        -0.031780678778886795,
        -0.004413043148815632,
        0.10184551030397415,
        0.05946609750390053,
        0.03417795151472092,
        -0.011113634333014488,
        0.005972879473119974,
        -0.074771948158741,
        -0.01641305722296238,
        0.17687451839447021,
        0.0077400472946465015,
        0.07004290074110031,
        0.03490931913256645,
        -0.0950668528676033,
        0.02123759128153324,
        -0.13543570041656494,
        -0.05198606476187706,
        -0.01069082971662283
      ],
      [
        0.08960242569446564,
        0.017917901277542114,
        0.008812466636300087,
        0.027948882430791855,
        -0.061370205134153366,
        -0.11265750229358673,
        0.008288643322885036,
        0.03565515950322151,
        0.021177144721150398,
        0.1364704966545105,
        0.05368002504110336,
        -0.021649446338415146,
        0.08056125789880753,
        -0.06913191080093384,
        0.07552732527256012,
        -0.07758976519107819,
        0.040588103234767914,
        0.0011034131748601794,
        0.04827600345015526,
        -0.06743863224983215,
        0.058318424969911575,
        0.04728541895747185,
        0.0013885082444176078,
        0.07236381620168686,
        -0.022873612120747566,
        0.052576083689928055,
        -0.0582289956510067,
        0.025209886953234673,
        0.003908676095306873,
        -0.06761528551578522,
        0.06702940165996552,
        0.02985709346830845,
        -0.046811092644929886,
        -0.08600103110074997,
        0.0873105451464653,
        0.11159554868936539,
        0.08396555483341217,
        0.08099880814552307,
        -0.08828229457139969,
        0.08558197319507599,
        0.07742368429899216,
        0.03956397995352745,
        -0.016456149518489838,
        -0.014642287977039814,
        0.06292105466127396,
        0.012331475503742695,
        -0.12644487619400024,
        -0.008534284308552742,
        -0.06522830575704575,
        0.11190996319055557,
        0.11409613490104675,
        -0.03241056948900223,
        0.06371427327394485,
        -0.016498202458024025,
        -0.04107677564024925,
        0.07553759962320328,
        0.06796800345182419,
        0.11750175058841705,
        0.1390419453382492,
        0.0667281225323677,
        0.05252822861075401,
        0.06684934347867966,
        -0.008694538846611977,
        0.035063400864601135,
        0.05067071318626404,
        0.08391571789979935,
        -0.00806871335953474,
        0.08684851974248886,
        -0.12001802772283554,
        -0.09613125771284103,
        0.06545552611351013,
        -0.01856197789311409,
        0.020428955554962158,
        0.03535854071378708,
        0.04666556790471077,
        -0.01712823659181595,
        0.09216762334108353,
        0.0730535238981247,
        0.010899035260081291,
        -0.067137211561203,
        -0.019923843443393707,
        0.047799404710531235,
        0.08087995648384094,
        -0.05021496117115021,
        -0.035115230828523636,
        -0.06818680465221405,
        0.04859736189246178,
        -0.04367205128073692,
        0.0969662293791771,
        -0.02403351664543152,
        -0.0028951724525541067,
        -0.07674147188663483,
        0.060332827270030975,
        0.018958047032356262,
        0.015764014795422554,
        0.03299203887581825,
        -0.054379820823669434,
        -0.06385418027639389,
        -0.06093061715364456,
        0.07663767784833908,
        0.09194307774305344,
        0.0031540594063699245,
        0.0005875480128452182,
        0.014349929988384247,
        -0.05084717646241188,
        -0.0963553637266159,
        -0.14503097534179688,
        0.00727873295545578,
        0.119319386780262,
        -0.03336217999458313,
        -0.057208430022001266,
        0.006891496013849974,
        0.0028071666602045298,
        0.029759127646684647,
        0.056726060807704926,
        -0.0830952599644661,
        -0.07501689344644547,
        0.08482808619737625,
        -0.017668342217803,
        -0.1119154766201973,
        -0.05727916583418846,
        0.003792692208662629,
        0.022345153614878654,
        0.027856241911649704,
        0.03470339998602867,
        0.12336742132902145,
        0.03707151114940643,
        0.1053469255566597
      ],
      [
        -0.018971290439367294,
        -0.04413919523358345,
        -0.03932824358344078,
        0.03039960190653801,
        -0.08896977454423904,
        -0.023133592680096626,
        -0.07857778668403625,
        0.014214841648936272,
        0.049604739993810654,
        -0.04203307256102562,
        0.045093290507793427,
        0.031029699370265007,
        0.08738285303115845,
        0.08926734328269958,
        0.07456216216087341,
        0.041032977402210236,
        0.024568798020482063,
        0.07113693654537201,
        -0.06453759223222733,
        0.0843837559223175,
        0.09252903610467911,
        0.05308898910880089,
        -0.017769770696759224,
        0.002528868615627289,
        0.029121898114681244,
        0.02517319843173027,
        0.08215001225471497,
        0.022236961871385574,
        0.03240133449435234,
        -0.005073818378150463,
        -0.06451206654310226,
        -0.0376056469976902,
        -0.05891556665301323,
        -0.05763690173625946,
        -0.04745972901582718,
        0.007011848501861095,
        0.03869113326072693,
        0.03640565276145935,
        0.01960793510079384,
        -0.0811384916305542,
        0.06085297465324402,
        0.058423638343811035,
        0.0455789789557457,
        -0.06276579201221466,
        0.021582424640655518,
        0.03471798449754715,
        -0.055776070803403854,
        0.014178706333041191,
        0.0043893856927752495,
        -0.07859021425247192,
        -0.028934296220541,
        0.06766825914382935,
        0.014697745442390442,
        0.02155541442334652,
        0.03886757418513298,
        0.04931701719760895,
        0.010962235741317272,
        -0.029334956780076027,
        0.04103529825806618,
        -0.043672867119312286,
        -0.0788164734840393,
        -0.04502736032009125,
        0.008101677522063255,
        -0.055779874324798584,
        -0.06489623337984085,
        0.1016877070069313,
        -0.01395360380411148,
        0.0253183301538229,
        -0.09993012249469757,
        0.007928757928311825,
        0.09163203090429306,
        0.07446836680173874,
        -0.09087640792131424,
        -0.003962707705795765,
        0.04901376739144325,
        0.09576646983623505,
        0.07795161753892899,
        -0.1021449938416481,
        -0.04947574809193611,
        -0.06447017937898636,
        0.04643746092915535,
        -0.09136585146188736,
        0.010928760282695293,
        0.0783408135175705,
        0.0007031395216472447,
        -0.04737989977002144,
        0.041421446949243546,
        -0.016542380675673485,
        0.07264869660139084,
        -0.0740136057138443,
        0.038047417998313904,
        -0.009505372494459152,
        -0.05885911360383034,
        0.010369624942541122,
        -0.05311831831932068,
        0.05124327540397644,
        0.025634804740548134,
        -0.09255620092153549,
        0.01244891807436943,
        -0.032373808324337006,
        -0.012867066077888012,
        -0.10790716856718063,
        -0.07468700408935547,
        -0.06163876876235008,
        0.029693325981497765,
        -0.015649352222681046,
        0.0034871231764554977,
        -0.10552000999450684,
        -0.024876398965716362,
        -0.08217284083366394,
        -0.004179866518825293,
        -0.0545133501291275,
        0.056438058614730835,
        -0.0342961810529232,
        0.017162473872303963,
        0.05965142324566841,
        -0.060588572174310684,
        0.09892623126506805,
        -0.054838381707668304,
        -0.02299737185239792,
        -0.09235433489084244,
        -0.008920539170503616,
        0.10437170416116714,
        0.06241730600595474,
        0.017140360549092293,
        -0.012178227305412292,
        0.06450352072715759,
        -0.04398299381136894
      ],
      [
        0.057099875062704086,
        -0.07787512987852097,
        -0.025972435250878334,
        0.0953332707285881,
        -0.07924753427505493,
        -0.04538499936461449,
        -0.0056569743901491165,
        -0.01284098532050848,
        0.006478189490735531,
        -0.024363689124584198,
        -0.02256958559155464,
        0.09903553873300552,
        0.10166215151548386,
        -0.05299203842878342,
        0.024361323565244675,
        -0.0824032574892044,
        0.09181588888168335,
        -0.017468340694904327,
        -0.0022574663162231445,
        0.09054762870073318,
        0.07366427779197693,
        -0.009797593578696251,
        -0.03189403936266899,
        0.030569666996598244,
        -0.06587335467338562,
        0.021286342293024063,
        -0.01608911156654358,
        -0.06849363446235657,
        0.06969407945871353,
        -0.04286098852753639,
        -0.008209038525819778,
        -0.016263362020254135,
        0.027623889967799187,
        0.056026432663202286,
        0.05583874508738518,
        0.012296831235289574,
        -0.0022882239427417517,
        -0.05754177272319794,
        -0.10018980503082275,
        -0.03063523769378662,
        -0.07931113243103027,
        -0.04067792743444443,
        0.026149123907089233,
        -0.1080562174320221,
        -0.047599006444215775,
        0.06888926029205322,
        -0.08741366118192673,
        0.01407586969435215,
        0.006018130108714104,
        -0.07196134328842163,
        0.02774292416870594,
        -0.036900825798511505,
        -0.07581263780593872,
        0.05102314427495003,
        0.018775533884763718,
        0.03757733106613159,
        -0.014316949062049389,
        -0.02975228987634182,
        0.05148022621870041,
        0.020211689174175262,
        -0.020567668601870537,
        0.032409075647592545,
        0.06407667696475983,
        0.09926313161849976,
        0.03907268866896629,
        0.010901255533099174,
        -0.06717982143163681,
        0.0020122197456657887,
        -0.06192817911505699,
        -0.06008074805140495,
        -0.028659680858254433,
        -0.0279184952378273,
        -0.06843998283147812,
        0.03711450472474098,
        0.007082611322402954,
        0.08018355071544647,
        0.00197809562087059,
        0.0387658029794693,
        -0.036210305988788605,
        -0.04040059447288513,
        -0.03818392753601074,
        -0.04310847818851471,
        -0.06193522363901138,
        -0.053068578243255615,
        -0.10263458639383316,
        0.035313528031110764,
        -0.06008728966116905,
        0.01743687130510807,
        0.050776343792676926,
        -0.0019473304273560643,
        -0.03902217000722885,
        -0.028604991734027863,
        -0.025322018191218376,
        -0.01055444497615099,
        -0.06138328090310097,
        0.024089867249131203,
        0.0026430797297507524,
        -0.07853172719478607,
        0.0921221524477005,
        -0.08542967587709427,
        -0.015261074528098106,
        -8.158320997608826e-05,
        0.04472795128822327,
        0.019952138885855675,
        -0.0057890634052455425,
        0.04198021441698074,
        0.055324405431747437,
        -0.01900540105998516,
        -0.025683993473649025,
        -0.09454523026943207,
        0.02490554377436638,
        -0.0272731464356184,
        0.016099287196993828,
        0.01903187856078148,
        0.04150227829813957,
        -0.07955155521631241,
        -0.11061463505029678,
        -0.019854698330163956,
        -0.015887992456555367,
        0.0437391921877861,
        -0.012931996025145054,
        -0.02795420214533806,
        -0.040839098393917084,
        0.0009985616197809577,
        0.02709941938519478,
        0.0023480046074837446,
        0.07924834638834,
        -0.01483948528766632
      ],
      [
        -0.10509482771158218,
        0.00824600737541914,
        0.027743954211473465,
        0.11511089652776718,
        -0.09786152094602585,
        0.050253208726644516,
        0.00301962997764349,
        -0.03742636740207672,
        -0.025134621188044548,
        0.026622846722602844,
        0.03280804678797722,
        0.022485805675387383,
        0.04025064781308174,
        0.07536472380161285,
        0.014820242300629616,
        0.01841091923415661,
        -0.0518275648355484,
        0.039228491485118866,
        0.060599375516176224,
        0.05193362757563591,
        -0.025349074974656105,
        -0.06247817352414131,
        0.008492420427501202,
        0.08897703886032104,
        0.038822196424007416,
        0.02683996967971325,
        0.04519963264465332,
        -0.06581684947013855,
        -0.02146080881357193,
        0.02359931915998459,
        0.03010021522641182,
        0.07975021004676819,
        0.06756018847227097,
        -0.06656506657600403,
        0.031161576509475708,
        0.012067736126482487,
        -0.06202761456370354,
        -0.06916402280330658,
        0.00997096486389637,
        -0.08219482749700546,
        -0.003756443504244089,
        0.06412319093942642,
        -0.03584209829568863,
        0.05070551857352257,
        -0.048918914049863815,
        -0.008004891686141491,
        0.08067155629396439,
        0.02807387337088585,
        0.04165684059262276,
        -0.09258351475000381,
        0.07106467336416245,
        -0.07139762490987778,
        0.04645797610282898,
        -0.09104578197002411,
        -0.0478578545153141,
        0.03593157231807709,
        0.04525848478078842,
        -0.05446844920516014,
        0.0081730205565691,
        -0.011216696351766586,
        0.014992172829806805,
        0.0388391837477684,
        -0.01798315718770027,
        0.03499855101108551,
        -0.055743519216775894,
        0.06515884399414062,
        -0.040103137493133545,
        -0.0412156842648983,
        0.047232095152139664,
        0.08919075131416321,
        0.08709748834371567,
        0.07117437571287155,
        -0.10034197568893433,
        -0.0015860212733969092,
        0.033393409103155136,
        -0.008274290710687637,
        0.051909640431404114,
        -0.0457320474088192,
        0.0801030769944191,
        -0.00915747694671154,
        0.012562332674860954,
        -0.031714778393507004,
        -0.0008596375701017678,
        0.08895963430404663,
        -0.012976229190826416,
        -0.05683440342545509,
        0.02125815860927105,
        -0.011268752627074718,
        -0.0742761567234993,
        0.06278058886528015,
        -0.05789561569690704,
        0.0420188270509243,
        -0.04497961327433586,
        -0.021899621933698654,
        0.031831830739974976,
        -0.0218699611723423,
        -0.060629867017269135,
        -0.08200258761644363,
        0.05760053172707558,
        -0.012385179288685322,
        0.08494973182678223,
        0.009322782047092915,
        0.018824048340320587,
        -0.028354983776807785,
        -0.007120165973901749,
        -0.09217137843370438,
        -0.029257815331220627,
        -0.08429688215255737,
        -0.06505558639764786,
        -0.035466793924570084,
        -0.04984630271792412,
        0.028198735788464546,
        -0.06131037324666977,
        0.0620361864566803,
        0.018939031288027763,
        -0.0006244531250558794,
        -0.004636305384337902,
        -0.03631138429045677,
        -0.0661638155579567,
        0.005719615146517754,
        -0.0007307272171601653,
        0.02535242587327957,
        0.0340413823723793,
        -0.06408223509788513,
        0.08303041756153107,
        -0.07562503963708878,
        0.0878584012389183,
        -0.06780566275119781
      ],
      [
        -0.10166160762310028,
        -0.015273278579115868,
        -0.10243921726942062,
        -0.057333286851644516,
        -0.05742520093917847,
        0.11356059461832047,
        -0.06280960887670517,
        0.01124627236276865,
        0.09247242659330368,
        -0.001677707303315401,
        0.09004194289445877,
        0.014203515835106373,
        -0.1183975338935852,
        -0.055638235062360764,
        -0.011053571477532387,
        -0.03016347438097,
        -0.05894061177968979,
        0.012544567696750164,
        -0.07654689997434616,
        -0.04588587209582329,
        -0.01819494180381298,
        -0.05155785009264946,
        -0.005847235210239887,
        0.019941160455346107,
        -0.010223808698356152,
        0.035116344690322876,
        -0.03190116956830025,
        0.04416289180517197,
        -0.02253459021449089,
        0.025992916896939278,
        -0.1000259593129158,
        -0.02004741132259369,
        0.019680814817547798,
        0.022189635783433914,
        -0.004867442883551121,
        -0.06427514553070068,
        -0.08257083594799042,
        -0.02890191040933132,
        -0.008767100982367992,
        0.0647328570485115,
        0.010789030231535435,
        0.054365240037441254,
        0.12345912307500839,
        0.04828640818595886,
        -0.02007962018251419,
        0.06340038031339645,
        0.14708583056926727,
        0.015444300137460232,
        0.07209023833274841,
        -0.005832110531628132,
        0.0483725406229496,
        -0.002890864387154579,
        0.07818499952554703,
        0.04150032252073288,
        0.025573108345270157,
        0.018487587571144104,
        0.0610182099044323,
        -0.03874633088707924,
        -0.10753379762172699,
        -0.04339350759983063,
        -0.02166728489100933,
        -0.016914604231715202,
        -0.15940922498703003,
        0.00457559572532773,
        0.0418560653924942,
        0.02823048271238804,
        0.008832404389977455,
        -0.09946918487548828,
        0.05701928958296776,
        0.04788973927497864,
        -0.03144801780581474,
        0.1267271488904953,
        -0.0025233032647520304,
        -0.09568867832422256,
        0.056377753615379333,
        -0.0799860954284668,
        -0.0014259129529818892,
        0.06325869262218475,
        0.05331958457827568,
        -0.06705369800329208,
        0.11471620947122574,
        -0.06343231350183487,
        -0.0064758495427668095,
        -0.10408971458673477,
        0.10243239253759384,
        -0.015471694059669971,
        0.07671751081943512,
        0.07602464407682419,
        0.027293959632515907,
        -0.06503336876630783,
        0.002319727325811982,
        -0.07632942497730255,
        0.023299995809793472,
        0.014832314103841782,
        -0.04305759072303772,
        0.03322469815611839,
        -0.01598595827817917,
        -0.0431804321706295,
        0.0646718218922615,
        0.07191754132509232,
        -0.04692677780985832,
        0.044629570096731186,
        -0.03462311998009682,
        -0.0009256962221115828,
        0.03383457288146019,
        0.07026544958353043,
        0.06571312248706818,
        0.030877310782670975,
        -0.00859999842941761,
        -0.009340056218206882,
        0.0038810980040580034,
        0.032955750823020935,
        0.006672805640846491,
        0.005425680428743362,
        -0.12209678441286087,
        0.04542763531208038,
        0.03746678680181503,
        -0.016099292784929276,
        0.030476605519652367,
        0.13521729409694672,
        -0.005295748356729746,
        0.020954955369234085,
        0.02196638658642769,
        -0.07192420959472656,
        -0.057203616946935654,
        0.019520467147231102,
        0.06868381053209305,
        -0.1244276687502861
      ],
      [
        0.0531739704310894,
        0.04894202947616577,
        0.01402692124247551,
        -0.09346774965524673,
        0.008302166126668453,
        -0.052677493542432785,
        -0.06999363005161285,
        -0.05521507188677788,
        -0.06726069003343582,
        0.0014490392059087753,
        -0.022907309234142303,
        -0.056258950382471085,
        -0.021946949884295464,
        0.05615950748324394,
        0.005089609418064356,
        -0.032832805067300797,
        0.04697461798787117,
        -0.03918306156992912,
        -0.1089378371834755,
        0.04419379308819771,
        -0.10527537763118744,
        -0.07341944426298141,
        0.08114474266767502,
        0.06341966241598129,
        0.07377422600984573,
        -0.049667246639728546,
        -0.09190859645605087,
        0.07520011812448502,
        -0.08908723294734955,
        -0.03947225213050842,
        0.03377292677760124,
        -0.05970822274684906,
        0.057372186332941055,
        0.07757631689310074,
        -0.01744970493018627,
        0.01630893163383007,
        0.0928371474146843,
        -0.00666910782456398,
        -0.02924450673162937,
        0.006855124607682228,
        -0.02035263180732727,
        0.0676787793636322,
        0.04615466669201851,
        0.100699782371521,
        -0.04773612320423126,
        -0.07885774224996567,
        -0.012055305764079094,
        0.07053242623806,
        -0.06524665653705597,
        0.03737941384315491,
        0.04910580441355705,
        -0.012306947261095047,
        0.027644295245409012,
        -0.030242951586842537,
        0.05973951891064644,
        0.003291601547971368,
        -0.06235624477267265,
        -0.08669638633728027,
        -0.08846908807754517,
        0.0725087821483612,
        -0.04796736314892769,
        -0.03538617119193077,
        -0.09162156283855438,
        -0.10256675630807877,
        -0.09542444348335266,
        0.0487796887755394,
        -0.039669450372457504,
        -0.10820696502923965,
        0.009191619232296944,
        -0.03921271115541458,
        -0.09975782036781311,
        0.0033301501534879208,
        -0.03245718777179718,
        -0.08916831016540527,
        -0.04080728814005852,
        -0.07416754961013794,
        0.012939868494868279,
        0.0010878239991143346,
        -0.09266752749681473,
        0.03187479078769684,
        -0.05630836635828018,
        0.07003007084131241,
        -0.09914953261613846,
        -0.08512239158153534,
        0.008505764417350292,
        -0.020696301013231277,
        0.05906788632273674,
        -0.02800876647233963,
        -0.016017209738492966,
        0.09140980243682861,
        0.04981791600584984,
        0.05548274144530296,
        -0.08196136355400085,
        0.06602102518081665,
        0.019906582310795784,
        -0.013341229408979416,
        -0.01473103929311037,
        -0.0003547754022292793,
        -0.08217792958021164,
        0.05648978799581528,
        -0.007758548948913813,
        -0.03320986405014992,
        0.06546450406312943,
        -0.04689371585845947,
        -0.027349136769771576,
        0.06747351586818695,
        -0.044125985354185104,
        -0.069271981716156,
        -0.09540461748838425,
        -0.01914297230541706,
        0.07397134602069855,
        -0.036030009388923645,
        0.04413547366857529,
        -0.06675559282302856,
        -0.004188050981611013,
        0.09476502984762192,
        0.08415067940950394,
        -0.020848572254180908,
        -0.037612829357385635,
        0.01937338523566723,
        -0.02993118390440941,
        0.015001830644905567,
        0.0648309588432312,
        -0.033120296895504,
        0.019243106245994568,
        -0.11348175257444382,
        0.07602326571941376,
        -0.02065291814506054
      ],
      [
        0.048711374402046204,
        0.04661739617586136,
        -0.12353713810443878,
        -0.06650561839342117,
        0.08109008520841599,
        0.00888279639184475,
        0.0483725443482399,
        -0.0777907744050026,
        0.02435240149497986,
        -0.10298704355955124,
        0.020433759316802025,
        0.0756249651312828,
        -0.07700767368078232,
        0.024321986362338066,
        0.03217910975217819,
        0.024957044050097466,
        -0.07601466029882431,
        0.07257898151874542,
        -0.08452480286359787,
        -0.09091832488775253,
        0.022793805226683617,
        -0.007762087509036064,
        0.10990061610937119,
        0.050249841064214706,
        -0.01815975457429886,
        0.02577248215675354,
        -0.02520492672920227,
        -0.026342682540416718,
        -0.07838559150695801,
        0.08714161068201065,
        -0.020179543644189835,
        -0.15183919668197632,
        0.03229731321334839,
        -0.029953278601169586,
        0.001103170681744814,
        -0.05569665506482124,
        -0.009726875461637974,
        -0.025507569313049316,
        0.004905822686851025,
        -0.04913924261927605,
        -0.0478120893239975,
        -0.01589827984571457,
        0.08894526213407516,
        0.0065765888430178165,
        0.056207891553640366,
        -0.013009984977543354,
        0.12805242836475372,
        -0.021664081141352654,
        0.025647662580013275,
        -0.02031882479786873,
        -0.04926517978310585,
        -0.02829863876104355,
        0.06198626011610031,
        -0.04236476495862007,
        -0.12286299467086792,
        0.004734699614346027,
        0.08010998368263245,
        -0.009607145562767982,
        -0.17081467807292938,
        -0.0023820693604648113,
        0.012133641168475151,
        0.047567714005708694,
        -0.13577547669410706,
        -0.0631871297955513,
        -0.05188663303852081,
        0.03726794570684433,
        -0.07307057082653046,
        -0.011806895956397057,
        0.09765497595071793,
        0.1327100396156311,
        0.016560770571231842,
        -0.006463150028139353,
        -0.04337991029024124,
        -0.07469101250171661,
        0.03461417555809021,
        -0.005393133964389563,
        -0.10030101239681244,
        -0.0636429637670517,
        -0.04140359163284302,
        -0.08358077704906464,
        0.019337641075253487,
        -0.006294806022197008,
        -0.03895511105656624,
        -0.12112609297037125,
        0.06985015422105789,
        0.0921933725476265,
        -0.01245423685759306,
        0.03183315321803093,
        0.03450538218021393,
        0.07118633389472961,
        0.008268670178949833,
        0.024016601964831352,
        -0.036742862313985825,
        -0.059592582285404205,
        -0.10060868412256241,
        0.006408740766346455,
        0.10857652127742767,
        0.10181575268507004,
        -0.006966501474380493,
        0.06567736715078354,
        0.06813980638980865,
        0.071902334690094,
        0.05083605647087097,
        -0.009154249913990498,
        0.08973417431116104,
        0.02259201928973198,
        0.1167326495051384,
        0.06889107823371887,
        -0.0965244472026825,
        0.0010284932795912027,
        0.005043004173785448,
        -0.09930142760276794,
        0.06928455084562302,
        -0.053379494696855545,
        -0.10002896189689636,
        0.084588423371315,
        0.1447942703962326,
        0.03262946754693985,
        0.056242622435092926,
        0.08849292993545532,
        0.013804581016302109,
        -0.02014901302754879,
        -0.009773274883627892,
        -0.12163692712783813,
        0.06493762880563736,
        -0.1119895800948143,
        -0.033332034945487976,
        0.0019151117885485291
      ],
      [
        0.04006797447800636,
        0.013264183886349201,
        -0.06905823945999146,
        0.07278759032487869,
        0.044311847537755966,
        0.07648914307355881,
        0.02439536713063717,
        -0.010608178563416004,
        0.07492184638977051,
        -0.12264127284288406,
        0.05572753772139549,
        0.02771621011197567,
        0.057787247002124786,
        -0.03510276973247528,
        -0.027396412566304207,
        0.059524472802877426,
        -0.026797756552696228,
        0.016251062974333763,
        -0.15004409849643707,
        -0.026426980271935463,
        0.019149666652083397,
        0.11669935286045074,
        0.12712092697620392,
        -0.05010280758142471,
        -0.0797404795885086,
        0.045248545706272125,
        0.0056044901721179485,
        0.02279943972826004,
        -0.057535942643880844,
        0.048712339252233505,
        -0.09127269685268402,
        -0.08863282203674316,
        -0.032321251928806305,
        -0.07480013370513916,
        -0.11181670427322388,
        -0.05663496255874634,
        -0.07951311022043228,
        -0.011771469376981258,
        -0.02690444327890873,
        -0.01960594952106476,
        0.06287238001823425,
        -0.012656631879508495,
        0.08708605170249939,
        -0.016843441873788834,
        0.02549498714506626,
        -0.07265253365039825,
        0.09062381088733673,
        -0.063297800719738,
        -0.08031871914863586,
        -0.09975896030664444,
        0.027905110269784927,
        0.03162164241075516,
        0.09058362990617752,
        -0.01528259925544262,
        -0.05771996080875397,
        0.0018362486734986305,
        -0.06503119319677353,
        0.024314990267157555,
        -0.015043831430375576,
        -0.06728779524564743,
        0.06758848577737808,
        -0.050196874886751175,
        -0.036806371062994,
        -0.10514752566814423,
        -0.07942391186952591,
        0.018225105479359627,
        0.013522017747163773,
        -0.023638064041733742,
        0.011130197905004025,
        0.13071204721927643,
        -0.08506489545106888,
        0.06055145338177681,
        0.016795851290225983,
        -0.10377628356218338,
        0.030116282403469086,
        -0.03725150600075722,
        -0.0014715491561219096,
        -0.05380057916045189,
        -0.01667415164411068,
        -0.08699079602956772,
        0.06134053319692612,
        0.06336776912212372,
        0.009827195666730404,
        -0.06405843794345856,
        0.09433477371931076,
        0.09210927039384842,
        -0.01678810641169548,
        -0.007195493206381798,
        0.07208649069070816,
        -0.08253137022256851,
        0.14116717875003815,
        0.05069156736135483,
        0.05505719780921936,
        0.015754787251353264,
        -0.10947812348604202,
        0.05044946074485779,
        0.03163878619670868,
        -0.04149143770337105,
        0.060242678970098495,
        0.07808046042919159,
        0.027917634695768356,
        -0.06204979121685028,
        0.025826260447502136,
        -0.03876680135726929,
        0.005753037985414267,
        -0.02953077107667923,
        0.10056917369365692,
        0.05919815972447395,
        -0.08246712386608124,
        -0.027179919183254242,
        0.05815057083964348,
        -0.09828592836856842,
        0.05331842601299286,
        -0.03696223720908165,
        -0.025851603597402573,
        -0.06514377146959305,
        0.09667163342237473,
        0.0644749104976654,
        -0.06839502602815628,
        0.1071169450879097,
        -0.01646932028234005,
        0.12764257192611694,
        -0.0502309687435627,
        -0.10811446607112885,
        0.015607383102178574,
        -0.14088062942028046,
        -0.008749742992222309,
        -0.11103128641843796
      ],
      [
        -0.027224354445934296,
        -0.002825445495545864,
        -0.10262102633714676,
        0.04259955510497093,
        0.05295176059007645,
        -0.021794892847537994,
        -0.025793010368943214,
        0.0654577910900116,
        0.07124880701303482,
        -0.1371268630027771,
        0.0684714987874031,
        -0.08283393830060959,
        0.016924895346164703,
        0.04419133812189102,
        -0.00971370842307806,
        -0.08464191854000092,
        -0.1277533322572708,
        0.14395523071289062,
        -0.14767415821552277,
        -0.07019233703613281,
        -0.1162949651479721,
        0.024212270975112915,
        0.08417914807796478,
        -0.07325128465890884,
        0.049018774181604385,
        0.036326028406620026,
        -0.037873830646276474,
        -0.08291435986757278,
        0.04693871736526489,
        0.06602442264556885,
        -0.06379228830337524,
        -0.042694684118032455,
        0.03270970657467842,
        -0.05726107954978943,
        -0.13465039432048798,
        -0.14316269755363464,
        -0.08259230107069016,
        -0.06165023893117905,
        -0.033263709396123886,
        -0.02787056751549244,
        -0.06635775417089462,
        0.09047563374042511,
        0.03820120170712471,
        0.11553321778774261,
        -0.07928191125392914,
        -0.02297104336321354,
        0.01492671761661768,
        0.09833800047636032,
        -0.055123213678598404,
        -0.09496495127677917,
        0.03987342119216919,
        -0.0032905007246881723,
        0.09401591122150421,
        -0.04546956345438957,
        -0.09921818226575851,
        0.028425775468349457,
        0.0440349206328392,
        -0.018644189462065697,
        -0.04323829710483551,
        0.003391990205273032,
        0.037741903215646744,
        -0.08034244924783707,
        -0.10995668172836304,
        -0.008424165658652782,
        -0.13116876780986786,
        -0.018605919554829597,
        -0.06659059971570969,
        -0.014311449602246284,
        0.13384488224983215,
        0.11535190790891647,
        -0.0410919152200222,
        -0.0076853251084685326,
