{
  "policy_type": "mappo_timeout_policy",
  "algorithm": "mappo_ctde_shared_actor_centralized_critic",
  "episodes": 4,
  "nodes": 8,
  "seed": 7,
  "features": [
    "bias",
    "rtt_norm",
    "loss_rate",
    "log_gap_norm",
    "recent_split"
  ],
  "global_features": [
    "node_count_norm",
    "alive_fraction",
    "mean_rtt_norm",
    "mean_loss",
    "mean_log_gap_norm",
    "recent_split"
  ],
  "arms": {
    "very_short": [
      150.0,
      230.0
    ],
    "short": [
      280.0,
      420.0
    ],
    "medium": [
      520.0,
      760.0
    ],
    "long": [
      900.0,
      1300.0
    ],
    "very_long": [
      1450.0,
      2100.0
    ]
  },
  "actor_critic": {
    "actor.0.weight": [
      [
        0.03003867156803608,
        -0.27059492468833923,
        0.1412075161933899,
        0.13913162052631378,
        -0.24022209644317627
      ],
      [
        -0.06822968274354935,
        -0.2631928622722626,
        0.11483704298734665,
        -0.12166770547628403,
        0.3129808008670807
      ],
      [
        0.3162698447704315,
        0.04435659199953079,
        -0.19185830652713776,
        -0.2614766061306,
        -0.05031423643231392
      ],
      [
        -0.12465771287679672,
        0.19831523299217224,
        -0.3806729316711426,
        0.42150917649269104,
        -0.34960493445396423
      ],
      [
        0.34365931153297424,
        -0.07645737379789352,
        0.2312450110912323,
        0.17547959089279175,
        0.019923677667975426
      ],
      [
        0.08458949625492096,
        0.3408190608024597,
        0.11621496826410294,
        0.23846818506717682,
        -0.344744473695755
      ],
      [
        0.31956779956817627,
        0.15512005984783173,
        0.11448259651660919,
        0.06298282742500305,
        0.2192041128873825
      ],
      [
        0.41193923354148865,
        -0.09830879420042038,
        -0.2479425072669983,
        -0.11131403595209122,
        -0.2713659703731537
      ],
      [
        0.21393118798732758,
        -0.22223152220249176,
        -0.2398781180381775,
        0.38466891646385193,
        0.40803346037864685
      ],
      [
        0.0526292622089386,
        -0.0762464627623558,
        -0.056534040719270706,
        0.21305033564567566,
        -0.41640132665634155
      ],
      [
        -0.36668631434440613,
        0.3560342788696289,
        0.44030386209487915,
        -0.027778971940279007,
        -0.3545701503753662
      ],
      [
        0.013422775082290173,
        -0.20684900879859924,
        0.00034362261067144573,
        0.22009767591953278,
        0.19917351007461548
      ],
      [
        -0.05150384455919266,
        0.04880357161164284,
        0.1205626055598259,
        -0.3493647575378418,
        -0.15044905245304108
      ],
      [
        0.01870729587972164,
        -0.25398752093315125,
        -0.19411709904670715,
        0.1514064520597458,
        0.2585793733596802
      ],
      [
        0.00746556231752038,
        -0.17275919020175934,
        0.24605992436408997,
        -0.24395357072353363,
        -0.10377077013254166
      ],
      [
        0.4207098186016083,
        0.0812273845076561,
        0.030397403985261917,
        0.14957159757614136,
        -0.11024632304906845
      ],
      [
        0.38143011927604675,
        -0.3659510314464569,
        -0.12421313673257828,
        -0.07708259671926498,
        -0.185213103890419
      ],
      [
        -0.11187448352575302,
        0.2759602963924408,
        0.24418087303638458,
        0.024726392701268196,
        0.3905632793903351
      ],
      [
        -0.3145880699157715,
        -0.26582518219947815,
        0.20167012512683868,
        -0.023937536403536797,
        -0.4086601436138153
      ],
      [
        -0.3107457458972931,
        -0.27345240116119385,
        0.344140887260437,
        0.20132672786712646,
        0.34477558732032776
      ],
      [
        -0.33188596367836,
        -0.43482232093811035,
        -0.2920726239681244,
        0.048560041934251785,
        -0.0871269553899765
      ],
      [
        -0.28302523493766785,
        0.3243567645549774,
        -0.14542311429977417,
        -0.259860634803772,
        0.20537526905536652
      ],
      [
        -0.11943936347961426,
        0.2839081287384033,
        0.10538331419229507,
        0.012236131355166435,
        0.09268562495708466
      ],
      [
        -0.33484581112861633,
        -0.23808489739894867,
        -0.20898793637752533,
        -0.2518543303012848,
        0.08050219714641571
      ],
      [
        0.09053637087345123,
        -0.18461216986179352,
        0.2927381992340088,
        -0.24763773381710052,
        0.09149169921875
      ],
      [
        -0.1289033740758896,
        -0.38912874460220337,
        -0.2924056053161621,
        0.18147411942481995,
        0.1757708340883255
      ],
      [
        -0.2753330171108246,
        -0.13825269043445587,
        -0.41687238216400146,
        0.24159930646419525,
        0.38790470361709595
      ],
      [
        0.1450483500957489,
        -0.277914434671402,
        0.23468555510044098,
        0.3699352741241455,
        -0.09269506484270096
      ],
      [
        -0.07211215794086456,
        0.15598592162132263,
        0.05873019993305206,
        -0.14661161601543427,
        -0.41398048400878906
      ],
      [
        -0.31242769956588745,
        0.02536543272435665,
        -0.02281254716217518,
        0.37048959732055664,
        0.016471587121486664
      ],
      [
        -0.11394961178302765,
        -0.4357665479183197,
        -0.4099775552749634,
        0.18695217370986938,
        0.399537593126297
      ],
      [
        -0.0057011498138308525,
        -0.39964625239372253,
        0.15956193208694458,
        0.36544057726860046,
        -0.2951582372188568
      ],
      [
        -0.11894314736127853,
        0.03641330450773239,
        -0.25624144077301025,
        -0.4158739149570465,
        0.19458098709583282
      ],
      [
        -0.36587902903556824,
        -0.11106671392917633,
        -0.2362716794013977,
        0.33528029918670654,
        0.08669791370630264
      ],
      [
        0.20620064437389374,
        -0.3040250241756439,
        0.37568914890289307,
        0.03865157440304756,
        -0.2487291544675827
      ],
      [
        -0.030454223975539207,
        -0.317851722240448,
        -0.02184269018471241,
        0.24852913618087769,
        -0.2022428661584854
      ],
      [
        0.3792209029197693,
        0.13774921000003815,
        -0.07705266028642654,
        0.1409033089876175,
        -0.08118470013141632
      ],
      [
        -0.10274126380681992,
        -0.2922069728374481,
        0.2617820203304291,
        0.26965686678886414,
        0.15432748198509216
      ],
      [
        0.2632932662963867,
        0.4455857276916504,
        0.4199000597000122,
        -0.43037670850753784,
        0.10077248513698578
      ],
      [
        -0.03949431702494621,
        0.15065112709999084,
        -0.08793511986732483,
        0.12361879646778107,
        -0.4126824140548706
      ],
      [
        0.20320090651512146,
        0.4284505248069763,
        -0.08162881433963776,
        -0.35692721605300903,
        -0.37295857071876526
      ],
      [
        -0.08699332177639008,
        -0.007965724915266037,
        0.048676785081624985,
        0.054912492632865906,
        0.3356536626815796
      ],
      [
        -0.07993153482675552,
        0.12671788036823273,
        -0.2388795018196106,
        0.4410562515258789,
        0.170413538813591
      ],
      [
        -0.06322330981492996,
        0.2927766740322113,
        0.15710602700710297,
        0.07787589728832245,
        -0.13322116434574127
      ],
      [
        0.055033545941114426,
        0.030772363767027855,
        -0.2624872624874115,
        0.00519983796402812,
        0.0964566022157669
      ],
      [
        -0.26369085907936096,
        0.08108165860176086,
        -0.14724788069725037,
        -0.3732667863368988,
        -0.2666319012641907
      ],
      [
        -0.3537471294403076,
        0.10468586534261703,
        0.27473926544189453,
        0.4053710997104645,
        0.4396425187587738
      ],
      [
        0.1749509871006012,
        0.2175387740135193,
        -0.07745982706546783,
        0.3685053288936615,
        -0.1721717268228531
      ],
      [
        -0.12270556390285492,
        -0.15002860128879547,
        -0.3009844720363617,
        -0.3458509147167206,
        -0.09233050048351288
      ],
      [
        0.3626454472541809,
        -0.22158245742321014,
        -0.4048022925853729,
        -0.10097647458314896,
        0.4064410328865051
      ],
      [
        0.10667634010314941,
        -0.02944963425397873,
        -0.12902294099330902,
        0.3914758265018463,
        -0.4298650324344635
      ],
      [
        0.25222063064575195,
        0.1202310249209404,
        0.27914971113204956,
        -0.26039671897888184,
        -0.147830531001091
      ],
      [
        -0.18914614617824554,
        0.43273863196372986,
        -0.05894971638917923,
        -0.4276406168937683,
        0.22303970158100128
      ],
      [
        0.08502325415611267,
        0.05999282747507095,
        -0.2994280457496643,
        -0.42014071345329285,
        0.40402692556381226
      ],
      [
        -0.33801883459091187,
        -0.08618390560150146,
        -0.0831686407327652,
        0.2542010545730591,
        -0.37822258472442627
      ],
      [
        -0.25716879963874817,
        -0.24085749685764313,
        -0.22667723894119263,
        0.2724109888076782,
        0.27258390188217163
      ],
      [
        0.20407384634017944,
        0.36625704169273376,
        -0.296225368976593,
        -0.0005731296259909868,
        -0.36070552468299866
      ],
      [
        0.00032333098351955414,
        -0.3810276389122009,
        -0.42954161763191223,
        0.282834529876709,
        -0.19670458137989044
      ],
      [
        -0.03679722547531128,
        -0.13301432132720947,
        -0.3559039831161499,
        -0.04579160735011101,
        0.06486379355192184
      ],
      [
        0.35615208745002747,
        -0.191237673163414,
        0.42562204599380493,
        -0.20825591683387756,
        0.2874545156955719
      ],
      [
        0.3894274830818176,
        0.045043352991342545,
        -0.1547902375459671,
        0.3296149671077728,
        -0.13164860010147095
      ],
      [
        -0.19265682995319366,
        -0.1571068912744522,
        -0.36594921350479126,
        -0.04588964208960533,
        -0.3650277853012085
      ],
      [
        0.2916748821735382,
        -0.4319225251674652,
        -0.3334483504295349,
        0.08745492994785309,
        0.27665677666664124
      ],
      [
        0.4289359748363495,
        -0.36257606744766235,
        0.3676486611366272,
        0.3145608603954315,
        -0.29456835985183716
      ],
      [
        0.187623530626297,
        -0.12691272795200348,
        0.12759095430374146,
        -0.3947046995162964,
        -0.25559213757514954
      ],
      [
        -0.2847250699996948,
        -0.08841738104820251,
        -0.0174725241959095,
        -0.01082609687000513,
        -0.26538708806037903
      ],
      [
        0.22208525240421295,
        0.2283848375082016,
        -0.3911018669605255,
        -0.4133278727531433,
        -0.09489582479000092
      ],
      [
        0.1232045516371727,
        -0.3418211042881012,
        -0.04238235950469971,
        0.024200107902288437,
        -0.3429171144962311
      ],
      [
        0.4199826419353485,
        0.3250998854637146,
        0.3427859842777252,
        -0.18345071375370026,
        -0.3184261620044708
      ],
      [
        0.05611613765358925,
        0.2627812922000885,
        0.21997769176959991,
        -0.2889286279678345,
        0.3522830009460449
      ],
      [
        -0.2108122855424881,
        -0.07698073983192444,
        -0.12418965250253677,
        0.21412068605422974,
        -0.41606175899505615
      ],
      [
        -0.2835710942745209,
        -0.05291517451405525,
        0.3090396225452423,
        -0.10647965222597122,
        0.28179141879081726
      ],
      [
        0.4107514023780823,
        0.018009129911661148,
        -0.3000100553035736,
        0.0036911051720380783,
        0.17520783841609955
      ],
      [
        -0.0964292585849762,
        -0.4378182291984558,
        0.2650744318962097,
        -0.19370734691619873,
        -0.31161561608314514
      ],
      [
        0.2267177402973175,
        0.1064448133111,
        0.3246285319328308,
        -0.09151171892881393,
        0.27533677220344543
      ],
      [
        -0.10498552024364471,
        -0.27646520733833313,
        0.41404595971107483,
        0.4412205219268799,
        0.31991836428642273
      ],
      [
        -0.12375468015670776,
        -0.1940675973892212,
        0.07939577847719193,
        0.22393473982810974,
        0.058132559061050415
      ],
      [
        0.18710872530937195,
        -0.022545816376805305,
        0.2524690330028534,
        0.2109679877758026,
        0.2535408139228821
      ],
      [
        -0.03229270130395889,
        -0.3668731153011322,
        -0.27929940819740295,
        -0.2220095843076706,
        0.37940743565559387
      ],
      [
        -0.023752504959702492,
        -0.06126192584633827,
        -0.17566438019275665,
        -0.019982028752565384,
        0.3002309203147888
      ],
      [
        -0.0010979876387864351,
        0.20643869042396545,
        0.25489866733551025,
        -0.4367601275444031,
        0.15520083904266357
      ],
      [
        0.4479064643383026,
        -0.22542716562747955,
        0.07385805249214172,
        0.011222213506698608,
        0.23758935928344727
      ],
      [
        0.10654430836439133,
        -0.3371899425983429,
        -0.33525481820106506,
        0.38065454363822937,
        -0.1939610093832016
      ],
      [
        -0.39426249265670776,
        -0.402555376291275,
        -0.3902773857116699,
        0.10090617835521698,
        0.050495535135269165
      ],
      [
        -0.2608139216899872,
        -0.10223173350095749,
        0.0687083825469017,
        0.1617037057876587,
        0.18138310313224792
      ],
      [
        -0.23954476416110992,
        0.42261502146720886,
        0.4189717173576355,
        -0.3163982629776001,
        0.4157249331474304
      ],
      [
        -0.3675694763660431,
        -0.29636940360069275,
        0.087091825902462,
        0.12997926771640778,
        0.3964608311653137
      ],
      [
        0.0010509392013773322,
        0.30084383487701416,
        -0.15027476847171783,
        -0.3270747661590576,
        -0.04468070715665817
      ],
      [
        0.23112721741199493,
        -0.1735284924507141,
        -0.377354234457016,
        -0.27360332012176514,
        0.080425925552845
      ],
      [
        0.4252658784389496,
        0.023670455440878868,
        -0.3613910377025604,
        -0.2013998180627823,
        0.22700926661491394
      ],
      [
        -0.13954389095306396,
        -0.05916065722703934,
        0.33390012383461,
        0.16558517515659332,
        0.2749817669391632
      ],
      [
        0.4002896547317505,
        -0.14839410781860352,
        0.06363574415445328,
        -0.3367331922054291,
        0.4433210790157318
      ],
      [
        -0.3009754717350006,
        0.42388787865638733,
        0.408255010843277,
        0.0960865169763565,
        -0.38785985112190247
      ],
      [
        -0.013210095465183258,
        -0.18310661613941193,
        0.13829869031906128,
        0.25409436225891113,
        0.2502618134021759
      ],
      [
        0.14478430151939392,
        -0.3415338099002838,
        -0.3750154674053192,
        0.13321012258529663,
        -0.0981234684586525
      ],
      [
        0.20782442390918732,
        0.43345576524734497,
        0.13384731113910675,
        -0.26809874176979065,
        -0.1303372085094452
      ]
    ],
    "actor.0.bias": [
      0.27435797452926636,
      0.04126759618520737,
      0.30375269055366516,
      -0.42745858430862427,
      -0.053903043270111084,
      -0.21689818799495697,
      0.34104299545288086,
      0.19681914150714874,
      -0.06115936487913132,
      -0.41374462842941284,
      -0.05392847955226898,
      0.3637522757053375,
      -0.011039052158594131,
      -0.0173249039798975,
      -0.41236793994903564,
      0.35288575291633606,
      0.3688313066959381,
      -0.360521525144577,
      -0.31607547402381897,
      0.020466690883040428,
      -0.25483784079551697,
      -0.3671327233314514,
      0.14140282571315765,
      -0.11471526324748993,
      0.15620562434196472,
      0.17650146782398224,
      0.3994390666484833,
      0.26450586318969727,
      -0.41920602321624756,
      -0.3592478632926941,
      0.3596344292163849,
      -0.3788965046405792,
      0.2721453011035919,
      -0.27146339416503906,
      0.35765722393989563,
      0.2517193555831909,
      -0.3074871301651001,
      -0.3685413599014282,
      -0.19727976620197296,
      -0.20565535128116608,
      -0.2550126016139984,
      0.3139461576938629,
      0.1110345646739006,
      -0.05732828751206398,
      -0.03157000243663788,
      0.1872962862253189,
      0.046989262104034424,
      -0.05656817927956581,
      0.39592260122299194,
      0.30980831384658813,
      0.030169572681188583,
      0.3074483275413513,
      -0.09759393334388733,
      -0.3406066298484802,
      0.2556523382663727,
      0.24687594175338745,
      0.07372359931468964,
      -0.3803541660308838,
      0.3216535449028015,
      0.030624866485595703,
      -0.23671545088291168,
      -0.3957524299621582,
      -0.23343195021152496,
      0.41704437136650085,
      0.22298642992973328,
      -0.19848787784576416,
      0.3712986707687378,
      0.3818731904029846,
      0.22347863018512726,
      -0.03864752873778343,
      0.4203009307384491,
      -0.09997871518135071,
      -0.1853824406862259,
      0.21250376105308533,
      -0.1877787709236145,
      0.3276227116584778,
      -0.23681646585464478,
      0.1634741723537445,
      -0.3278007507324219,
      -0.2991792559623718,
      0.021472441032528877,
      0.35358789563179016,
      -0.3439562916755676,
      -0.12014294415712357,
      0.20682206749916077,
      -0.07884274423122406,
      -0.40235036611557007,
      -0.006343583110719919,
      -0.15810789167881012,
      0.10527940094470978,
      0.1852213740348816,
      -0.1355603039264679,
      -0.23031283915042877,
      0.2656175196170807,
      -0.38411298394203186,
      0.21707387268543243
    ],
    "actor.2.weight": [
      [
        0.04222039878368378,
        0.041687238961458206,
        -0.07000315189361572,
        0.039838824421167374,
        -0.05970998853445053,
        0.04440760985016823,
        -0.04631642624735832,
        0.023667505010962486,
        0.002322467276826501,
        -0.07177592068910599,
        -0.09604567289352417,
        -0.02287089079618454,
        0.059553343802690506,
        -0.022481687366962433,
        -0.02759704738855362,
        -0.06216644495725632,
        -0.07268355041742325,
        -0.009489809162914753,
        -0.02789592556655407,
        0.03531765937805176,
        0.09793764352798462,
        -0.0713791698217392,
        -0.030140014365315437,
        0.03666050732135773,
        -0.06768526881933212,
        -0.01251436211168766,
        -0.05055271089076996,
        0.06611553579568863,
        -0.012564771808683872,
        0.007182233035564423,
        0.06189485266804695,
        -0.0735091120004654,
        -0.05392185598611832,
        0.07790959626436234,
        0.041755177080631256,
        -0.009447173215448856,
        0.10296227782964706,
        0.08826424926519394,
        -0.04293655976653099,
        -0.02973201684653759,
        0.04303133115172386,
        -0.06243864446878433,
        -0.10025042295455933,
        -0.05272066220641136,
        -0.09224817901849747,
        0.06333113461732864,
        0.024647150188684464,
        -0.08468454331159592,
        -0.0030937285628169775,
        0.09899797290563583,
        -0.060875993221998215,
        -0.0634339302778244,
        0.04270066320896149,
        -0.07330057770013809,
        -0.09641475975513458,
        0.0588429793715477,
        -0.011792240664362907,
        0.052891358733177185,
        -0.020016126334667206,
        0.09718675166368484,
        -0.040915194898843765,
        0.08361389487981796,
        -0.059249281883239746,
        -0.03466939926147461,
        0.08003926277160645,
        0.0440390445291996,
        -0.07325420528650284,
        -0.00896180048584938,
        0.06145578250288963,
        -0.07783327251672745,
        0.0036257642786949873,
        0.06130972504615784,
        -0.07672535628080368,
        0.0376213863492012,
        -0.09747318178415298,
        -0.09424623847007751,
        0.0010412258561700583,
        -0.09102790802717209,
        -0.04825728014111519,
        0.05919294431805611,
        -0.018245888873934746,
        -0.06706079095602036,
        0.08209163695573807,
        -0.10094468295574188,
        0.021625790745019913,
        -0.06558682769536972,
        -0.05803360417485237,
        0.00948361400514841,
        0.09932825714349747,
        -0.025892063975334167,
        -0.10018294304609299,
        0.02320937067270279,
        -0.04183110594749451,
        -0.06698323786258698,
        0.039119865745306015,
        0.041511740535497665
      ],
      [
        -0.05170738697052002,
        0.007871544919908047,
        0.013597141951322556,
        0.008741683326661587,
        -0.01696714386343956,
        -0.05778267979621887,
        0.05514910817146301,
        0.07591914385557175,
        0.08133777230978012,
        0.08596303313970566,
        -0.0037442066241055727,
        0.006978750228881836,
        -0.039388179779052734,
        -0.02300213649868965,
        0.02736690267920494,
        0.006943674758076668,
        -0.07436706125736237,
        -0.07182459533214569,
        0.048500001430511475,
        0.0790582224726677,
        0.09581371396780014,
        0.0635552778840065,
        0.057521894574165344,
        0.043981388211250305,
        0.06759559363126755,
        -0.024969197809696198,
        0.014579079113900661,
        0.03999852389097214,
        0.022749396041035652,
        -0.007602434605360031,
        -0.054841525852680206,
        -0.07141481339931488,
        -0.05998256430029869,
        0.011092511005699635,
        0.09281850606203079,
        -0.03837678208947182,
        -0.08435229957103729,
        -0.08768223226070404,
        0.03861520439386368,
        0.04360203817486763,
        -0.055732037872076035,
        -0.04079952463507652,
        0.07784032076597214,
        -0.08519583195447922,
        0.05873719975352287,
        0.004628385882824659,
        -0.046771641820669174,
        0.09741175174713135,
        -0.06827734410762787,
        0.09082619100809097,
        0.08339149504899979,
        0.03387398645281792,
        0.06768791377544403,
        0.025965573266148567,
        0.08666779845952988,
        0.023968767374753952,
        -0.10312831401824951,
        -0.04186217114329338,
        0.013695563189685345,
        0.0705333948135376,
        -0.030767768621444702,
        0.03825318440794945,
        0.04017045721411705,
        0.007616414688527584,
        -0.08530313521623611,
        0.09898798167705536,
        -0.05041636899113655,
        0.01490208599716425,
        -0.04090707749128342,
        0.024847084656357765,
        0.06778772175312042,
        0.02271612547338009,
        -0.045535191893577576,
        0.02381807193160057,
        -0.08475814759731293,
        0.08459756523370743,
        0.05594276264309883,
        0.0719359740614891,
        0.0270101185888052,
        -0.10043329745531082,
        -0.07374629378318787,
        -0.09391778707504272,
        0.06081205606460571,
        0.10010651499032974,
        0.06762123852968216,
        -0.039941947907209396,
        -0.060893699526786804,
        -0.06029585748910904,
        0.09478656202554703,
        -0.09932005405426025,
        -0.101007841527462,
        0.04119029641151428,
        0.010862539522349834,
        -0.05377863720059395,
        -0.0558348223567009,
        -0.09932871907949448
      ],
      [
        0.03585924208164215,
        -0.05107732489705086,
        -0.02730141580104828,
        0.05232697352766991,
        -0.0812433660030365,
        0.09915880113840103,
        -0.03208659961819649,
        0.06632784008979797,
        -0.0155336894094944,
        0.07111425697803497,
        -0.057840604335069656,
        -0.021193616092205048,
        -0.051776789128780365,
        0.06592795997858047,
        -0.09993109852075577,
        0.06879618018865585,
        0.0012956525897607207,
        -0.06617087870836258,
        -0.03066837415099144,
        -0.013303791172802448,
        -0.03194010630249977,
        -0.04614968225359917,
        -0.026287900283932686,
        0.009444858878850937,
        0.050698839128017426,
        0.015691064298152924,
        0.0751497820019722,
        -0.01557787973433733,
        0.08500995486974716,
        0.03302375227212906,
        -0.07132099568843842,
        0.06735274940729141,
        0.022871296852827072,
        0.06423360854387283,
        -0.09595128148794174,
        -0.005409688223153353,
        -0.09358780086040497,
        -0.024747001007199287,
        -0.03567607328295708,
        -0.0642223134636879,
        -0.06289813667535782,
        0.07997924089431763,
        0.04743043705821037,
        0.03345838934183121,
        0.01959478296339512,
        0.031088165938854218,
        0.008570818230509758,
        -0.09746949374675751,
        -0.010345959104597569,
        0.06611564755439758,
        -0.011897310614585876,
        0.019046859815716743,
        0.06153237074613571,
        0.05873006209731102,
        -0.019056206569075584,
        0.08187971264123917,
        -0.036760881543159485,
        -0.004043350461870432,
        0.08346880972385406,
        -0.055827487260103226,
        0.10230708122253418,
        -0.05032895505428314,
        -0.0532388798892498,
        0.07977920025587082,
        0.07420381158590317,
        -0.07310322672128677,
        0.04944765567779541,
        0.008561323396861553,
        -0.07710085064172745,
        -0.02860305644571781,
        0.01004614494740963,
        -0.0956142246723175,
        -0.005505796056240797,
        0.024315224960446358,
        0.0773484855890274,
        0.07388195395469666,
        -0.043766673654317856,
        0.049632616341114044,
        0.0204650666564703,
        -0.006997200660407543,
        -0.07658285647630692,
        0.030176645144820213,
        0.0925169289112091,
        -0.08713144809007645,
        -0.008287157863378525,
        0.05838332325220108,
        -0.0010671211639419198,
        0.07439877837896347,
        -0.013003016822040081,
        -0.055275995284318924,
        -0.08240168541669846,
        -0.0601574145257473,
        -0.020542938262224197,
        0.06466709077358246,
        0.009368734434247017,
        0.009779554791748524
      ],
      [
        0.08101234585046768,
        0.027961988002061844,
        -0.044176336377859116,
        -0.03302450105547905,
        0.05684354156255722,
        -0.03973861038684845,
        0.031804632395505905,
        0.042409371584653854,
        0.0030814213678240776,
        -0.07045108824968338,
        -0.058065030723810196,
        -0.0952385812997818,
        0.03438231721520424,
        -0.09549356997013092,
        -0.05636843666434288,
        0.09519270062446594,
        -0.004068711772561073,
        0.048137009143829346,
        -0.049559079110622406,
        -0.022890426218509674,
        -0.049519289284944534,
        0.03954673185944557,
        -0.06638374924659729,
        -0.0451405867934227,
        0.02376432530581951,
        0.005872663576155901,
        -0.049976613372564316,
        0.00720607815310359,
        -0.01687529869377613,
        -0.0970512256026268,
        0.0942530632019043,
        -0.08214474469423294,
        0.03223629295825958,
        0.058614522218704224,
        -0.01984534040093422,
        -0.02944904752075672,
        0.09289757907390594,
        0.07795412093400955,
        -0.019007032737135887,
        -0.03504690155386925,
        -0.05336344987154007,
        0.0825386717915535,
        -0.056829292327165604,
        0.03813861683011055,
        0.02694489061832428,
        0.07995658367872238,
        0.0004731510125566274,
        0.0512128546833992,
        -0.05765073001384735,
        -0.041601747274398804,
        -0.03989262133836746,
        -0.09934835880994797,
        -0.09051082283258438,
        0.05187284201383591,
        0.04674673452973366,
        -0.02459011599421501,
        -0.09447813779115677,
        0.07037456333637238,
        0.09757505357265472,
        0.10063360631465912,
        -0.04362610727548599,
        -0.08707407116889954,
        0.06713508069515228,
        0.05061810091137886,
        0.07866793125867844,
        0.027930045500397682,
        0.06803706288337708,
        -0.04638286679983139,
        -0.08404643088579178,
        0.014714017510414124,
        0.0858868807554245,
        -0.0624789223074913,
        0.05190890654921532,
        -0.041693203151226044,
        -0.06429154425859451,
        -0.02937176264822483,
        0.10163894295692444,
        0.08671160787343979,
        0.08469689637422562,
        0.09917374700307846,
        -0.0046184672974050045,
        0.04363173991441727,
        0.03624347969889641,
        -0.041271645575761795,
        0.06814172863960266,
        -0.012095442973077297,
        -0.03643650934100151,
        0.05650637671351433,
        0.09667045623064041,
        0.0775597095489502,
        0.004012155346572399,
        -0.06810915470123291,
        0.09585706144571304,
        0.04123661294579506,
        0.08530247956514359,
        -0.03133607283234596
      ],
      [
        0.061834678053855896,
        0.003909517545253038,
        0.07295582443475723,
        0.022901197895407677,
        -0.04186471179127693,
        0.043490249663591385,
        0.09838876873254776,
        -0.06762131303548813,
        0.10014639794826508,
        0.0829852968454361,
        0.08440762758255005,
        0.02337672747671604,
        -0.03346014395356178,
        -0.03539440408349037,
        -0.014400692656636238,
        -0.06644579768180847,
        0.03911671042442322,
        0.04738004505634308,
        -0.022474877536296844,
        0.08957351744174957,
        0.03341522067785263,
        0.09994161128997803,
        0.09402800351381302,
        -0.020282436162233353,
        -0.08237052708864212,
        -0.06866981089115143,
        0.09956878423690796,
        -0.06075417250394821,
        0.005975388456135988,
        0.0647302120923996,
        -0.03182810917496681,
        0.05748673900961876,
        -0.06733578443527222,
        0.019061379134655,
        0.04799381271004677,
        -0.08396661281585693,
        -0.036113373935222626,
        -0.052792903035879135,
        -0.01767369732260704,
        0.09680841118097305,
        0.08902724832296371,
        0.053612034767866135,
        -0.046753861010074615,
        -0.020487548783421516,
        0.010766742751002312,
        0.09729988127946854,
        -0.08654382079839706,
        -0.023323772475123405,
        -0.08594608306884766,
        0.0392172634601593,
        -0.012149420566856861,
        -0.044488538056612015,
        -0.09452914446592331,
        -0.03483866527676582,
        -0.08956439793109894,
        0.032964859157800674,
        -0.0917198434472084,
        -0.05350544676184654,
        0.10306483507156372,
        -0.09738273918628693,
        -0.0827770084142685,
        -0.07945366948843002,
        -0.06663977354764938,
        0.08197744190692902,
        -0.031572431325912476,
        -0.08007983863353729,
        0.0587456189095974,
        0.09009288251399994,
        0.051876574754714966,
        0.01074706856161356,
        0.02023651823401451,
        0.03824441879987717,
        0.0914514809846878,
        0.05732835456728935,
        -0.07833035290241241,
        -0.0779394656419754,
        -0.0654984638094902,
        -0.043277982622385025,
        0.08933058381080627,
        -0.10292311757802963,
        -0.013655991293489933,
        0.07856644690036774,
        0.037667013704776764,
        -0.053168606013059616,
        -0.002410534769296646,
        -0.08425823599100113,
        -0.06613082438707352,
        -0.08394985646009445,
        -0.07337088882923126,
        0.10004053264856339,
        -0.014627482742071152,
        -0.05492947995662689,
        -0.0511019229888916,
        -0.08066564798355103,
        -0.056335270404815674,
        0.011435617692768574
      ],
      [
        -0.06127827987074852,
        0.014731676317751408,
        0.03839828819036484,
        0.07137022167444229,
        -0.05660254880785942,
        -0.022073544561862946,
        0.10207076370716095,
        -0.009792691096663475,
        -0.0898469090461731,
        -0.03468600660562515,
        0.03160453215241432,
        -0.017069915309548378,
        0.034818924963474274,
        -0.08166084438562393,
        0.04874948039650917,
        -0.04367762804031372,
        -0.03708341717720032,
        -0.00776847917586565,
        0.09799296408891678,
        0.07718133181333542,
        0.08656416833400726,
        -0.01593119092285633,
        0.07309700548648834,
        -0.00250409753061831,
        0.07072922587394714,
        -0.03611644357442856,
        -0.04989109933376312,
        -0.07191278785467148,
        -0.006165887229144573,
        -0.04556768387556076,
        0.08195900171995163,
        -0.05420799180865288,
        0.05507936701178551,
        -0.05381914973258972,
        0.05696455389261246,
        0.004824357107281685,
        -0.059714335948228836,
        0.003908097743988037,
        -0.09342566877603531,
        -0.010713393799960613,
        -0.05937085300683975,
        -0.09109418839216232,
        0.0932011678814888,
        0.05959530547261238,
        0.025758329778909683,
        0.059002235531806946,
        -0.08311591297388077,
        -0.05238598957657814,
        -0.04720216989517212,
        -0.06235826015472412,
        -0.019881632179021835,
        0.07693426311016083,
        -0.06576515734195709,
        0.018383456394076347,
        0.04326334968209267,
        -0.0530104823410511,
        0.04312213137745857,
        -0.02938760630786419,
        0.04637087881565094,
        0.09342486411333084,
        0.028242116793990135,
        -0.06697490811347961,
        -0.06639031320810318,
        0.08115816861391068,
        -0.028703687712550163,
        0.09591889381408691,
        -0.07632459700107574,
        -0.05422796308994293,
        0.10125687718391418,
        0.0054734800942242146,
        -0.04932621493935585,
        0.0069902269169688225,
        -0.006460666656494141,
        -0.09301207214593887,
        0.03351932764053345,
        0.05583948642015457,
        0.00023170540225692093,
        -0.08287782222032547,
        -0.03170819953083992,
        0.03628361225128174,
        -0.032933175563812256,
        0.08366241306066513,
        -0.03305448219180107,
        -0.024689577519893646,
        0.056991804391145706,
        0.009889197535812855,
        0.05750983953475952,
        -0.06827586889266968,
        0.07374539971351624,
        -0.031143099069595337,
        0.002161927055567503,
        0.0522853285074234,
        0.030074095353484154,
        -0.03675268217921257,
        0.058109432458877563,
        -0.00813225843012333
      ],
      [
        0.048106398433446884,
        -0.03138308972120285,
        0.008247651159763336,
        -0.034956417977809906,
        0.06057830899953842,
        0.0768267884850502,
        0.025253333151340485,
        0.09137073904275894,
        0.035329267382621765,
        -0.08749283105134964,
        -0.06023292988538742,
        -0.005933158565312624,
        -0.08319197595119476,
        0.03814433515071869,
        0.0920189768075943,
        -0.060048237442970276,
        -0.029940634965896606,
        -0.08710198104381561,
        0.02499612793326378,
        0.0018682152731344104,
        0.07052100449800491,
        -0.040760576725006104,
        -0.08716077357530594,
        0.09055756777524948,
        0.10198339819908142,
        -0.07190235704183578,
        -0.03740604221820831,
        -0.025012657046318054,
        -0.06687788665294647,
        -0.09765380620956421,
        0.07541725784540176,
        0.0579577200114727,
        0.04797372594475746,
        -0.09186594188213348,
        -0.021203191950917244,
        0.06383626908063889,
        0.053276121616363525,
        -0.025867117568850517,
        0.0024243679363280535,
        0.04367312416434288,
        0.08827189356088638,
        0.09621886163949966,
        0.09606704860925674,
        0.0897127240896225,
        -0.046179886907339096,
        0.09520319104194641,
        -0.005125122610479593,
        -0.024723466485738754,
        0.08771813660860062,
        -0.011554624885320663,
        0.015197640284895897,
        -0.006532090250402689,
        -0.07349952310323715,
        -0.0786779373884201,
        0.08921712636947632,
        0.09530404210090637,
        -0.008634695783257484,
        -0.06698954850435257,
        0.10173245519399643,
        0.024276508018374443,
        0.0558985210955143,
        -0.08763618767261505,
        0.040374837815761566,
        0.009299802593886852,
        0.0916188508272171,
        0.07672108709812164,
        0.06128235161304474,
        0.027237677946686745,
        0.040535490959882736,
        0.036299169063568115,
        0.09664338082075119,
        0.05553046986460686,
        -0.0012662109220400453,
        0.02801118977367878,
        -0.03667155280709267,
        0.08263964205980301,
        -0.0525948591530323,
        0.09441778808832169,
        0.07620061933994293,
        -0.07968538254499435,
        -0.09119759500026703,
        -0.0012504184851422906,
        0.04632383584976196,
        0.07979339361190796,
        -0.08867562562227249,
        -0.026502961292862892,
        0.023879041895270348,
        -0.03234007954597473,
        -0.08253128081560135,
        0.029575666412711143,
        0.04532738775014877,
        -0.01111059170216322,
        0.05208510160446167,
        0.018039576709270477,
        0.08134674280881882,
        0.02809734083712101
      ],
      [
        0.026079876348376274,
        -0.020425034686923027,
        -0.04786505177617073,
        0.04165179282426834,
        0.09870298951864243,
        0.036122407764196396,
        -0.08977831900119781,
        0.07036461681127548,
        0.09892851114273071,
        -0.003939789719879627,
        -0.06905458867549896,
        -0.027446646243333817,
        0.06871454417705536,
        0.05305776745080948,
        -0.012298092246055603,
        0.01908106915652752,
        -0.0009322398109361529,
        -0.09544004499912262,
        0.06964749097824097,
        -0.013349927961826324,
        -0.08574709296226501,
        0.022078517824411392,
        0.056421954184770584,
        -0.0892314538359642,
        -0.0037713786587119102,
        -0.09229876101016998,
        0.02969617396593094,
        0.015575909055769444,
        0.051762111485004425,
        -0.021898411214351654,
        0.09751855581998825,
        -0.09708477556705475,
        -0.02155914530158043,
        -0.07465081661939621,
        -0.07417743653059006,
        0.08632918447256088,
        0.057017385959625244,
        0.08296540379524231,
        0.04608382284641266,
        -0.05792582035064697,
        -0.01942780613899231,
        -0.08663984388113022,
        0.09149456024169922,
        -0.014120262116193771,
        -0.0034408695064485073,
        0.038197435438632965,
        -0.014378254301846027,
        -0.07085517048835754,
        0.006156494375318289,
        0.07221617549657822,
        0.0662977397441864,
        -0.09296533465385437,
        0.090433269739151,
        0.041074711829423904,
        -0.09851644933223724,
        -0.012892781756818295,
        -0.06473404914140701,
        0.010478796437382698,
        -0.09007749706506729,
        -0.022480430081486702,
        0.07856034487485886,
        -0.01779046282172203,
        0.018627116456627846,
        -0.05235458165407181,
        0.07251317799091339,
        0.07783406227827072,
        0.002419102471321821,
        0.0059093814343214035,
        0.09510210156440735,
        -0.09925605356693268,
        0.046487849205732346,
        -0.0717504620552063,
        -0.04334886372089386,
        -0.09978865832090378,
        0.025613758713006973,
        0.0873466283082962,
        -0.020618190988898277,
        0.04387707635760307,
        -0.015896880999207497,
        -0.08867859095335007,
        -0.0874975323677063,
        -0.0014146585017442703,
        0.07124260067939758,
        0.07187999784946442,
        -0.04128721356391907,
        0.019610825926065445,
        0.08868623524904251,
        -0.07965978235006332,
        -0.100139319896698,
        -0.10057390481233597,
        0.059367142617702484,
        -0.08242635428905487,
        -0.08869579434394836,
        0.035032566636800766,
        0.057114940136671066,
        0.047538794577121735
      ],
      [
        -0.09248960018157959,
        0.09583324193954468,
        0.06987098604440689,
        -0.03353235498070717,
        -0.07165016233921051,
        -0.05791029334068298,
        -0.058312710374593735,
        -0.08933864533901215,
        0.05121647194027901,
        0.0746157318353653,
        0.03730624541640282,
        0.048319727182388306,
        -0.05757793039083481,
        0.057155296206474304,
        0.08624568581581116,
        0.05414270982146263,
        0.0809892863035202,
        -0.04321296140551567,
        0.04446098208427429,
        -0.03769829124212265,
        -0.024191653355956078,
        0.09973594546318054,
        -0.0087582441046834,
        0.005653426516801119,
        0.0059549338184297085,
        0.01273450069129467,
        -0.04560616984963417,
        0.0737270638346672,
        0.08816983550786972,
        -0.05565205588936806,
        -0.09665492177009583,
        -0.019048478454351425,
        -0.04993193969130516,
        0.06845519691705704,
        -0.03568601235747337,
        0.07144881784915924,
        0.02205614000558853,
        -0.03515512868762016,
        -0.0522199384868145,
        0.02221023105084896,
        -0.08098684996366501,
        -0.014459745027124882,
        -0.10025861859321594,
        -0.08864561468362808,
        -0.06389889866113663,
        0.055736031383275986,
        -0.07718849182128906,
        0.09640137851238251,
        -0.09975064545869827,
        -0.09174492210149765,
        0.044220905750989914,
        0.0019570959266275167,
        0.07706128805875778,
        -0.022150419652462006,
        0.04431656375527382,
        0.08287940919399261,
        -0.07153965532779694,
        -0.07040386646986008,
        0.08772404491901398,
        0.08654467016458511,
        -0.005344522651284933,
        0.059978075325489044,
        -0.07273182272911072,
        0.080135777592659,
        -0.03099967911839485,
        0.054153922945261,
        -0.028272442519664764,
        -0.08284954726696014,
        -0.03686169907450676,
        -0.019010087475180626,
        0.0033212576527148485,
        0.024954117834568024,
        -0.08923086524009705,
        -0.053090550005435944,
        -0.04186307266354561,
        0.02165745571255684,
        -0.06487905234098434,
        0.08480516076087952,
        -0.04356406256556511,
        0.09291389584541321,
        0.025057822465896606,
        0.04464632645249367,
        -0.02691974677145481,
        0.04520992934703827,
        -0.046887900680303574,
        0.00713736517354846,
        0.0661935806274414,
        -0.011959139257669449,
        -0.011497215367853642,
        0.008176896721124649,
        -0.06425882130861282,
        -0.0749773234128952,
        -0.014561580494046211,
        0.011295328848063946,
        0.08497431874275208,
        -0.0048438869416713715
      ],
      [
        -0.014543936587870121,
        0.023417646065354347,
        0.025763507932424545,
        -0.011144032701849937,
        0.04573593661189079,
        0.10042431205511093,
        -0.03686750307679176,
        -0.04725034907460213,
        -0.0036086037289351225,
        0.09798435866832733,
        0.037399135529994965,
        -0.08671213686466217,
        0.07500213384628296,
        0.08208802342414856,
        0.08663900196552277,
        0.03884055092930794,
        -0.0934828668832779,
        0.013374625705182552,
        -0.00534517876803875,
        -0.058634527027606964,
        -0.07094744592905045,
        -0.010251962579786777,
        0.08931098133325577,
        0.027512436732649803,
        0.01004836242645979,
        0.03750190511345863,
        -0.0904202088713646,
        0.055384207516908646,
        0.02189912647008896,
        -0.0608719065785408,
        -0.08746016770601273,
        -0.06934501975774765,
        0.032105766236782074,
        0.029525743797421455,
        0.017669513821601868,
        -0.018981097266077995,
        0.04593680799007416,
        -0.06652238965034485,
        0.052855234593153,
        -0.05333821475505829,
        -0.05137825384736061,
        -0.07396907359361649,
        0.030458424240350723,
        -0.055506810545921326,
        0.06370025128126144,
        0.053576841950416565,
        -0.003948227036744356,
        0.05986757576465607,
        0.060637637972831726,
        0.04046596214175224,
        -0.07750699669122696,
        -0.01963510364294052,
        -0.01885046437382698,
        0.05374502018094063,
        -0.04062344506382942,
        0.02086944878101349,
        0.041809916496276855,
        0.06606791168451309,
        0.09877213090658188,
        -0.02131556160748005,
        -0.07897382229566574,
        -0.0857568234205246,
        -0.024032047018408775,
        0.06318852305412292,
        -0.018408529460430145,
        -0.0854160264134407,
        -0.06788532435894012,
        -0.05635521560907364,
        -0.0565103217959404,
        0.00484594376757741,
        -0.009039567783474922,
        -0.056755539029836655,
        -0.017108233645558357,
        -0.05242210254073143,
        -0.0032543570268899202,
        0.044834379106760025,
        -0.008939923718571663,
        -0.023832883685827255,
        0.02100210078060627,
        0.06473731249570847,
        0.08949948847293854,
        -0.042048849165439606,
        -0.0883755013346672,
        0.021658597514033318,
        0.03951871767640114,
        0.010906849056482315,
        0.09813795983791351,
        0.052750248461961746,
        0.008588372729718685,
        0.0694822296500206,
        0.07398855686187744,
        -0.055049166083335876,
        -0.0771285742521286,
        -0.0021701969671994448,
        -0.03414731100201607,
        -0.06609326601028442
      ],
      [
        -0.07702390849590302,
        0.06661934405565262,
        -0.04293332248926163,
        -0.05531049519777298,
        0.06421133130788803,
        0.01036076806485653,
        0.018382787704467773,
        -0.03307343274354935,
        0.02383178286254406,
        0.06620147824287415,
        -0.06923262774944305,
        -0.020467298105359077,
        0.008615981787443161,
        0.08419065177440643,
        0.08323901891708374,
        0.06871340423822403,
        -0.03808072209358215,
        0.0013643915299326181,
        -0.0006980501930229366,
        -0.07186459004878998,
        -0.07239788770675659,
        -0.018680833280086517,
        -0.015093930996954441,
        0.036238692700862885,
        -0.09295392781496048,
        -0.04771067574620247,
        0.08022180199623108,
        0.016185054555535316,
        -0.07113593071699142,
        0.04985915496945381,
        -0.04097255319356918,
        -0.05606472119688988,
        -0.04907538741827011,
        -0.055047135800123215,
        -0.05624983087182045,
        0.01636889949440956,
        0.04847331717610359,
        0.054641835391521454,
        0.10078156739473343,
        0.0842565968632698,
        -0.05518954619765282,
        0.08484365046024323,
        -0.025271186605095863,
        0.059574250131845474,
        -0.049139853566884995,
        0.08760514110326767,
        -0.006021606270223856,
        0.033891335129737854,
        0.08748235553503036,
        -0.022942878305912018,
        0.03938373178243637,
        0.027381883934140205,
        -0.03470349684357643,
        0.003285718150436878,
        0.0858883410692215,
        0.024402258917689323,
        0.07356924563646317,
        0.051974378526210785,
        0.046820346266031265,
        -0.04482581093907356,
        -0.02366921491920948,
        0.06451287120580673,
        0.024997645989060402,
        0.05126238241791725,
        0.07654763758182526,
        0.04484796151518822,
        0.039837345480918884,
        -0.043920375406742096,
        0.032207053154706955,
        -0.001970339100807905,
        0.06635240465402603,
        0.04057125002145767,
        -0.06485249102115631,
        0.06461699306964874,
        -0.014017927460372448,
        0.0388789176940918,
        -0.04451664537191391,
        -0.0907861664891243,
        0.04263659939169884,
        0.052434515208005905,
        0.0787191092967987,
        0.060835547745227814,
        0.0494888536632061,
        0.05502662435173988,
        0.028438160195946693,
        -0.04496311768889427,
        0.02346823923289776,
        -0.07978903502225876,
        -0.05995267629623413,
        0.09219599515199661,
        0.0383787602186203,
        0.03898437321186066,
        -0.008990631438791752,
        -0.1002105250954628,
        -0.02804839238524437,
        -0.03850146010518074
      ],
      [
        -0.03811097517609596,
        0.02111915498971939,
        -0.06644000113010406,
        -0.05468983203172684,
        -0.02307501621544361,
        -0.08697149157524109,
        -0.018021102994680405,
        -0.003105420619249344,
        -0.00806916318833828,
        -0.03810221701860428,
        -0.026930810883641243,
        0.07901696115732193,
        0.05825602263212204,
        0.024922268465161324,
        -0.06952681392431259,
        -0.06575067341327667,
        0.045371465384960175,
        0.0003770221665035933,
        -0.004060239065438509,
        -0.031285662204027176,
        -0.07022219896316528,
        -0.05516635999083519,
        0.05748153477907181,
        0.07925476133823395,
        0.05826253816485405,
        -0.06297750771045685,
        -0.0038131203036755323,
        -0.08772731572389603,
        -0.060239098966121674,
        -0.07162738591432571,
        0.029700521379709244,
        -0.0951131209731102,
        0.07305232435464859,
        0.08334194868803024,
        -0.009956778027117252,
        0.02464444376528263,
        0.03427870199084282,
        0.09356089681386948,
        0.0045017353259027,
        0.09461221098899841,
        0.03921560198068619,
        -0.031611938029527664,
        0.07583506405353546,
        0.03036232851445675,
        0.04108858108520508,
        0.014126086607575417,
        -0.05138476938009262,
        0.09120144695043564,
        0.020686864852905273,
        -0.015585893765091896,
        0.02346290461719036,
        -0.053360823541879654,
        0.032477594912052155,
        -0.0980355516076088,
        0.06024826318025589,
        0.06868775933980942,
        -0.06105959042906761,
        0.043321192264556885,
        0.007576990406960249,
        -0.03438907489180565,
        0.09552394598722458,
        0.0006209939019754529,
        -0.06399770081043243,
        -0.09999369829893112,
        0.0042514014057815075,
        -0.050574637949466705,
        -0.09492757171392441,
        -0.07637510448694229,
        0.07398971915245056,
        -0.0564030297100544,
        -0.06594211608171463,
        -0.054221004247665405,
        0.005601833574473858,
        -0.023558886721730232,
        -0.08224780112504959,
        -0.06365100294351578,
        -0.06945380568504333,
        0.020650416612625122,
        0.0012102439068257809,
        0.08853644877672195,
        0.03805138170719147,
        0.01925327628850937,
        0.0873374417424202,
        0.021124787628650665,
        -0.04846607893705368,
        0.08600720018148422,
        -0.0456957183778286,
        -0.06996871531009674,
        0.07764596492052078,
        0.08966988325119019,
        0.05677783861756325,
        -0.025404129177331924,
        0.09659602493047714,
        0.05198109522461891,
        0.01614060439169407,
        0.007089283782988787
      ],
      [
        0.04806940257549286,
        -0.04972046986222267,
        -0.036767031997442245,
        0.058939144015312195,
        0.012113715521991253,
        -0.0044003697112202644,
        -0.009153098799288273,
        0.0032230427023023367,
        0.09995807707309723,
        0.08923003077507019,
        -0.0949641540646553,
        -0.08066340535879135,
        -0.0773041695356369,
        -0.005017923191189766,
        0.026397274807095528,
        -0.057892609387636185,
        0.044457241892814636,
        -0.09841569513082504,
        0.07230457663536072,
        -0.0011768917320296168,
        0.03312256187200546,
        0.07261669635772705,
        0.009789175353944302,
        -0.04879370331764221,
        -0.029718585312366486,
        0.09135530143976212,
        -0.022023838013410568,
        -0.0059347003698349,
        -0.08451885730028152,
        -0.0626942589879036,
        -0.007173430640250444,
        0.027654852718114853,
        -0.06346887350082397,
        0.00645639980211854,
        0.09171195328235626,
        0.09454911202192307,
        0.0026494695339351892,
        0.10247400403022766,
        0.0967467725276947,
        0.05097528174519539,
        0.08333325386047363,
        0.016983985900878906,
        -0.0404987633228302,
        0.08348922431468964,
        0.030843202024698257,
        0.02207443118095398,
        -0.0012918487191200256,
        -0.01256322581321001,
        -0.0871090367436409,
        -0.05063138157129288,
        -0.06664662808179855,
        -0.018138950690627098,
        0.05652179196476936,
        -0.05085321143269539,
        0.00837278738617897,
        -0.04056582972407341,
        -0.04137793555855751,
        0.03213248774409294,
        0.03831733763217926,
        0.08942940086126328,
        -0.021658267825841904,
        0.07815222442150116,
        -0.07561559230089188,
        0.012248346582055092,
        0.003209104295819998,
        0.09919361770153046,
        0.05104394629597664,
        -0.05456860363483429,
        0.049115803092718124,
        -0.00039002211997285485,
        -0.08084417879581451,
        -0.057706672698259354,
        -0.07519949972629547,
        0.08505114912986755,
        0.08413374423980713,
        -0.07839741557836533,
        0.05085036903619766,
        0.09567949920892715,
        -0.009502818807959557,
        0.07162530720233917,
        0.07747253030538559,
        0.05225405469536781,
        -0.0433051735162735,
        0.08716250956058502,
        0.02750641666352749,
        0.05026290565729141,
        -0.09031929820775986,
        0.03574720025062561,
        0.06036730483174324,
        -0.07182997465133667,
        -0.07292605936527252,
        -0.04058576002717018,
        0.050276000052690506,
        -0.041604992002248764,
        -0.012360990047454834,
        -0.10252745449542999
      ],
      [
        -0.028380097821354866,
        -0.03934382274746895,
        -0.09826119244098663,
        0.040561456233263016,
        0.010061370208859444,
        -0.09390877187252045,
        0.048335056751966476,
        0.06625426560640335,
        -0.0626906231045723,
        -0.040061771869659424,
        -0.04646878316998482,
        -0.03153538331389427,
        0.020791690796613693,
        0.06971107423305511,
        0.07968387007713318,
        -0.07576781511306763,
        0.09578371047973633,
        0.0010914329905062914,
        -0.09630522131919861,
        0.055603984743356705,
        0.07679685205221176,
        -0.017015352845191956,
        -0.09369488805532455,
        0.07099785655736923,
        -0.05631094053387642,
        -0.07677577435970306,
        -0.02897963859140873,
        -0.0008613845566287637,
        0.015071626752614975,
        0.03553883358836174,
        0.03405120223760605,
        -0.014649180695414543,
        -0.05989548936486244,
        -0.034592822194099426,
        0.06317824870347977,
        0.02355201169848442,
        0.06443855166435242,
        0.0018098385771736503,
        0.009794522076845169,
        -0.09944121539592743,
        -0.01752789504826069,
        -0.05437779054045677,
        -0.09740425646305084,
        0.07772133499383926,
        0.0563698373734951,
        0.08932509273290634,
        0.07912257313728333,
        0.06765113025903702,
        -0.05409744381904602,
        0.08468613028526306,
        -0.08447056263685226,
        0.026618923991918564,
        -0.07828094065189362,
        0.05979536101222038,
        -0.023265518248081207,
        0.08019375801086426,
        0.024882392957806587,
        0.06785455346107483,
        -0.014027311466634274,
        -0.08181389421224594,
        -0.0968337282538414,
        -0.09483514726161957,
        -0.054056037217378616,
        0.09127631783485413,
        0.03811279311776161,
        0.009365667589008808,
        0.0750613734126091,
        -0.07980450987815857,
        0.01685383729636669,
        0.05607008561491966,
        -0.09824143350124359,
        -0.09264881908893585,
        0.09754663705825806,
        -0.022102007642388344,
        -0.09200043231248856,
        0.08705170452594757,
        -0.0023794923909008503,
        0.05230041965842247,
        0.009072093293070793,
        0.04254719987511635,
        0.07516437023878098,
        0.040407102555036545,
        -0.08476775139570236,
        0.05609159916639328,
        -0.08289283514022827,
        0.0494939461350441,
        -0.0872219055891037,
        -0.023371180519461632,
        -0.009733983315527439,
        0.01863810606300831,
        0.057847779244184494,
        -0.07242288440465927,
        -0.08836536854505539,
        0.06402884423732758,
        -0.07084823399782181,
        -0.07898057997226715
      ],
      [
        -0.02495463192462921,
        -0.03226702660322189,
        -0.07709246128797531,
        -0.005401742644608021,
        0.03157429397106171,
        0.08874514698982239,
        0.03136812150478363,
        0.03226538375020027,
        0.01586867682635784,
        -0.05909569561481476,
        -0.013642450794577599,
        -0.01592423766851425,
        0.03862273320555687,
        0.054376550018787384,
        0.08760625123977661,
        -0.05144142359495163,
        0.009127113968133926,
        0.011075496673583984,
        -0.05347861349582672,
        0.0670316070318222,
        0.0761631652712822,
        0.01407208014279604,
        -0.062369104474782944,
        0.07755698263645172,
        0.07927412539720535,
        -0.05100977048277855,
        -0.05439739674329758,
        0.0917087271809578,
        -0.0909738838672638,
        -0.00745080690830946,
        -0.007092425599694252,
        -0.02866527996957302,
        -0.07368195801973343,
        -0.04633411020040512,
        -0.05966275557875633,
        0.01482974924147129,
        0.06820780783891678,
        -0.060372818261384964,
        0.09241919219493866,
        0.041338831186294556,
        -0.022783590480685234,
        0.07079292833805084,
        -0.02159414440393448,
        -0.03689362108707428,
        -0.09185533970594406,
        -0.035215023905038834,
        -0.03587217628955841,
        0.042192135006189346,
        -0.09075199067592621,
        0.09465421736240387,
        -0.0011391866719350219,
        0.022107401862740517,
        -0.026914183050394058,
        -0.032085590064525604,
        -0.06968773156404495,
        -0.0036348896101117134,
        0.06995859742164612,
        0.02585037425160408,
        0.034191641956567764,
        -0.07324665784835815,
        0.0510375015437603,
        -0.03085418790578842,
        -0.07562719285488129,
        -0.04907015338540077,
        -0.07523303478956223,
        -0.024140601977705956,
        0.0946023240685463,
        -0.045473579317331314,
        -0.03353892266750336,
        0.07949662208557129,
        -0.03413419798016548,
        0.041755955666303635,
        0.07583540678024292,
        0.05344749987125397,
        0.05238059163093567,
        0.07368458062410355,
        -0.003191027557477355,
        -0.08196663856506348,
        -0.06021798774600029,
        0.0008030782919377089,
        -0.00917122047394514,
        0.02336718514561653,
        0.03863148391246796,
        -0.01665746420621872,
        0.04453334957361221,
        -0.09761013835668564,
        -0.004541019443422556,
        -0.08572714030742645,
        0.04138031601905823,
        0.07223266363143921,
        -0.03668030723929405,
        -0.018169907853007317,
        0.04363947734236717,
        -0.04432576522231102,
        0.046758417040109634,
        -0.06832698732614517
      ],
      [
        -0.0017538046231493354,
        -0.005169674288481474,
        -0.08665357530117035,
        -0.01209859549999237,
        -0.00841311551630497,
        -0.002009852323681116,
        0.0977044552564621,
        -0.014595831744372845,
        0.060632508248090744,
        -0.03092273324728012,
        -0.055479444563388824,
        -0.009757270105183125,
        -0.06103179231286049,
        -0.04579300433397293,
        -0.027668645605444908,
        0.008143735118210316,
        -0.055504705756902695,
        -0.055070504546165466,
        -0.0755724236369133,
        -0.06217476725578308,
        -0.09132711589336395,
        -0.0716245174407959,
        -0.02830500155687332,
        -0.01524172443896532,
        0.06791016459465027,
        -0.005401228088885546,
        -0.05426875501871109,
        -0.08176545053720474,
        -0.03929344564676285,
        0.001412188052199781,
        -0.0795804113149643,
        -0.04154396802186966,
        0.009071850217878819,
        0.09184321761131287,
        0.0014489303575828671,
        -0.0960099920630455,
        -0.07246840000152588,
        -0.07779727131128311,
        0.06930992752313614,
        0.06160150468349457,
        0.003547958331182599,
        -0.06019320338964462,
        -0.04204317927360535,
        -0.05967011675238609,
        0.09572192281484604,
        -0.08154568076133728,
        0.017048897221684456,
        0.04606584087014198,
        -0.0863700658082962,
        0.044266026467084885,
        0.05198068544268608,
        0.027345377951860428,
        0.09367761015892029,
        -0.04831304773688316,
        -0.09559010714292526,
        -0.06180943176150322,
        -0.09217004477977753,
        0.0319206565618515,
        0.026122651994228363,
        -0.045482151210308075,
        -0.03392970189452171,
        0.05791771411895752,
        -0.0009932970860973,
        0.08653806149959564,
        -0.03788261488080025,
        0.0126698799431324,
        0.026653630658984184,
        -0.034990280866622925,
        0.0776139497756958,
        -0.02806907333433628,
        0.031754270195961,
        -0.08347045630216599,
        0.02652817592024803,
        0.06937049329280853,
        -0.0948352962732315,
        0.10313009470701218,
        0.00645524961873889,
        0.09971670061349869,
        0.06485781073570251,
        0.054555077105760574,
        -0.0038734583649784327,
        0.03598190099000931,
        0.032164331525564194,
        -0.07044575363397598,
        0.047733355313539505,
        0.08806657046079636,
        -0.03298336640000343,
        -0.06577372550964355,
        0.08768149465322495,
        0.09520447999238968,
        0.014408777467906475,
        -0.07397222518920898,
        -0.00551341287791729,
        0.0004935155156999826,
        0.06995189189910889,
        -0.0924900472164154
      ],
      [
        -0.06662584096193314,
        -0.011113185435533524,
        -0.0143173448741436,
        0.005955880507826805,
        0.10010998696088791,
        0.07647593319416046,
        0.10044721513986588,
        -0.09590376913547516,
        0.0921631008386612,
        -0.08044890314340591,
        -0.03134923055768013,
        0.06087642163038254,
        -0.025847921147942543,
        -0.0464768148958683,
        0.0038691016379743814,
        0.09832686930894852,
        -0.007105623371899128,
        -0.10040298104286194,
        -0.02540905773639679,
        -0.08619143813848495,
        0.001986508956179023,
        0.07442120462656021,
        0.08509493619203568,
        0.01693113148212433,
        -0.06627846509218216,
        -0.05901828408241272,
        0.05639432370662689,
        0.0434374064207077,
        -0.057267408818006516,
        0.024939527735114098,
        -0.035049036145210266,
        -0.07556638866662979,
        0.09977800399065018,
        0.04648109897971153,
        -0.036075182259082794,
        0.0594140961766243,
        -0.07067937403917313,
        0.05345749855041504,
        0.038310613483190536,
        -0.030816879123449326,
        -0.05079623684287071,
        0.008685356937348843,
        0.06610655039548874,
        0.006087350193411112,
        -0.0744883120059967,
        -0.06169241666793823,
        -0.01215395424515009,
        0.04312420263886452,
        0.06150684133172035,
        0.07847857475280762,
        0.08110403269529343,
        -0.007820709608495235,
        -0.05874331668019295,
        -0.07831369340419769,
        -0.0032327701337635517,
        0.08655507117509842,
        0.04205009341239929,
        0.03595471754670143,
        0.02242099680006504,
        -0.08704789727926254,
        -0.0246050413697958,
        -0.052176594734191895,
        -0.0852605402469635,
        0.07417451590299606,
        0.06724555790424347,
        -0.001608101767487824,
        -0.061711035668849945,
        0.03677748143672943,
        -0.07267226278781891,
        -0.08761116117238998,
        0.02494283765554428,
        0.02591407671570778,
        0.040586140006780624,
        0.09736422449350357,
        0.07781249284744263,
        -0.02858148328959942,
        0.06202965974807739,
        -0.08770867437124252,
        0.06467985361814499,
        -0.0935458242893219,
        -0.032297901809215546,
        0.06655221432447433,
        -0.010910718701779842,
        -0.07562582939863205,
        0.034408360719680786,
        0.07360990345478058,
        0.033579885959625244,
        0.06564565747976303,
        -0.03939509764313698,
        0.03472891449928284,
        -0.06344586610794067,
        -0.0016784979961812496,
        0.0038730246014893055,
        -0.06862565875053406,
        0.013365432620048523,
        -0.044779542833566666
      ],
      [
        -0.045804429799318314,
        -0.1003572940826416,
        0.03717461973428726,
        0.06832186877727509,
        0.10299365967512131,
        0.08872002363204956,
        -0.08690498024225235,
        0.07537244260311127,
        0.09132809937000275,
        0.05145939812064171,
        0.06340135633945465,
        0.07312387973070145,
        0.06370794773101807,
        0.009803038090467453,
        -0.07437445223331451,
        0.012687534093856812,
        -0.08527016639709473,
        0.08757724612951279,
        0.09204227477312088,
        -0.03809087350964546,
        0.10004695504903793,
        -0.02045215480029583,
        -0.07792533934116364,
        0.05516770854592323,
        0.08432422578334808,
        0.0900864452123642,
        0.048926759511232376,
        0.07091441005468369,
        0.05496079474687576,
        0.04861307516694069,
        -0.08631602674722672,
        -0.03586564585566521,
        0.015576639212667942,
        0.08036399632692337,
        -0.010433612391352654,
        0.04966636374592781,
        -0.09648967534303665,
        -0.04619748145341873,
        0.033559516072273254,
        0.028534289449453354,
        0.014830490574240685,
        0.012165850959718227,
        0.059980228543281555,
        -0.01838194765150547,
        0.0660954937338829,
        0.10269394516944885,
        -0.01722712256014347,
        -0.0800977423787117,
        0.02322375774383545,
        0.048807691782712936,
        0.0505441278219223,
        -0.08865296840667725,
        -0.013898847624659538,
        -0.004746702965348959,
        0.040784914046525955,
        -0.015418162569403648,
        0.08496303111314774,
        -0.033325206488370895,
        0.06662912666797638,
        -0.09337741136550903,
        0.10174614936113358,
        0.01531993318349123,
        -0.05378378555178642,
        0.06853077560663223,
        -0.03180922940373421,
        -0.060924164950847626,
        -0.04121355339884758,
        0.09840712696313858,
        0.09659222513437271,
        0.02265189215540886,
        -0.010609030723571777,
        -0.06562556326389313,
        -0.03223748877644539,
        -0.09735357016324997,
        -0.09887677431106567,
        0.006539965979754925,
        0.0753597542643547,
        0.009925450198352337,
        -0.08383453637361526,
        -0.03260667249560356,
        0.06383062154054642,
        0.023853503167629242,
        0.016976475715637207,
        -0.09413982182741165,
        -0.030355485156178474,
        0.08417682349681854,
        -0.03998508304357529,
        -0.04572382569313049,
        -0.08604605495929718,
        0.0568736307322979,
        0.02992667630314827,
        -0.011444127187132835,
        0.07243324816226959,
        0.0617796890437603,
        0.054117657244205475,
        0.059976886957883835
      ],
      [
        -0.011880485340952873,
        -0.03677240386605263,
        -0.05083374306559563,
        0.011560452170670033,
        -0.07994621247053146,
        -0.03815259411931038,
        -0.06457601487636566,
        0.03601093590259552,
        0.040483955293893814,
        -0.06532340496778488,
        0.0322701632976532,
        0.01260262168943882,
        0.07897721976041794,
        0.0764213502407074,
        0.05978352203965187,
        0.0702151358127594,
        0.010867927223443985,
        0.08855284750461578,
        -0.10247042030096054,
        0.07436962425708771,
        0.0763157308101654,
        0.04509499669075012,
        -0.029408907517790794,
        -0.02506577968597412,
        0.05490026995539665,
        -0.0019175485940650105,
        0.07397279888391495,
        0.033966150134801865,
        0.015981776639819145,
        -0.02798081748187542,
        -0.09295076131820679,
        -0.07866959273815155,
        -0.08507668226957321,
        -0.09142147749662399,
        -0.060167036950588226,
        -0.023489268496632576,
        0.06884992867708206,
        0.01650218851864338,
        0.05039224028587341,
        -0.07900099456310272,
        0.0951494425535202,
        0.09094659239053726,
        0.08174405246973038,
        -0.03479162976145744,
        0.001768347341567278,
        0.017311999574303627,
        -0.0413643941283226,
        0.043969206511974335,
        -0.01838800124824047,
        -0.0842605009675026,
        -0.026745159178972244,
        0.1025630459189415,
        0.044638846069574356,
        0.04587298259139061,
        0.01705135963857174,
        0.029746152460575104,
        0.037010498344898224,
        -0.06539904326200485,
        0.011975201778113842,
        -0.028430741280317307,
        -0.06969869881868362,
        -0.07973586767911911,
        -0.0238333772867918,
        -0.09503677487373352,
        -0.09866724163293839,
        0.09102928638458252,
        0.007541766855865717,
        -4.89459780510515e-05,
        -0.08066442608833313,
        0.024278895929455757,
        0.08274620026350021,
        0.09859231859445572,
        -0.0849032998085022,
        -0.030689461156725883,
        0.08165999501943588,
        0.08918026089668274,
        0.09700429439544678,
        -0.09204327315092087,
        -0.08684888482093811,
        -0.05457638204097748,
        0.05179240182042122,
        -0.08372273296117783,
        0.014229421503841877,
        0.059653688222169876,
        0.02025274746119976,
        -0.024804770946502686,
        0.05135186389088631,
        0.014346716925501823,
        0.057664792984724045,
        -0.0639871135354042,
        0.06839589774608612,
        0.01146846916526556,
        -0.08249200135469437,
        0.029494374990463257,
        -0.07094879448413849,
        0.08979600667953491
      ],
      [
        0.02212856337428093,
        -0.07994166016578674,
        -0.001131247729063034,
        -0.01120567787438631,
        -0.04060172289609909,
        -0.09542935341596603,
        -0.06769956648349762,
        -0.08684480935335159,
        0.01825595460832119,
        0.006757849827408791,
        0.013836737722158432,
        -0.1019483283162117,
        -0.06633138656616211,
        -0.06375541538000107,
        0.012906774878501892,
        -0.09112394601106644,
        0.06643325835466385,
        -0.06499173492193222,
        0.02588917873799801,
        0.09381645917892456,
        -0.03479273244738579,
        0.08938241750001907,
        -0.09056101739406586,
        0.010248254984617233,
        -0.09745027869939804,
        -0.011985763907432556,
        0.09703098237514496,
        0.07626496255397797,
        0.011119595728814602,
        -0.045518599450588226,
        0.05362168699502945,
        -0.07814154028892517,
        0.0624869205057621,
        -0.07489991188049316,
        -0.0817544162273407,
        0.09296572953462601,
        -0.07733640819787979,
        -0.04881104826927185,
        0.01568874716758728,
        -0.005804788321256638,
        0.009114410728216171,
        -0.057389575988054276,
        -0.0383838526904583,
        0.10016105324029922,
        0.071159727871418,
        -0.0764695405960083,
        0.00035819856566376984,
        -0.08178799599409103,
        0.06950149685144424,
        -0.0002681999758351594,
        -0.05136425048112869,
        0.09082430601119995,
        0.05593118444085121,
        -0.01669200509786606,
        -0.033112842589616776,
        0.011056692339479923,
        -0.06611805409193039,
        0.0026771111879497766,
        -0.03216719999909401,
        -0.07997513562440872,
        0.05701524391770363,
        -0.059852730482816696,
        -0.0416121706366539,
        -0.07370881736278534,
        0.019091621041297913,
        0.052485108375549316,
        0.04360425844788551,
        -0.025693021714687347,
        0.012973364442586899,
        -0.08282540738582611,
        -0.09312789887189865,
        -0.029940860345959663,
        -0.07949324697256088,
        -0.023327095434069633,
        0.09480138123035431,
        -0.08320754766464233,
        -0.0694698765873909,
        0.05727357417345047,
        -0.04826263338327408,
        0.03993561491370201,
        -0.01598808914422989,
        -0.08833245187997818,
        0.03140593320131302,
        -0.026433292776346207,
        -0.06211160123348236,
        0.07524950057268143,
        -0.009551710449159145,
        0.029443074017763138,
        -0.0010899376356974244,
        -0.06695561856031418,
        0.004347402602434158,
        0.03658769652247429,
        -0.009074494242668152,
        0.006703612860292196,
        0.034962937235832214,
        0.0625874400138855
      ],
      [
        0.0028939370531588793,
        -0.011402122676372528,
        -0.06505662947893143,
        -0.035463958978652954,
        -0.04617709293961525,
        -0.044611331075429916,
        -0.071909599006176,
        -0.0021539691369980574,
        -0.06419982761144638,
        0.014292150735855103,
        0.028905581682920456,
        0.08060711622238159,
        0.004585136193782091,
        0.07360173016786575,
        -0.06227907910943031,
        -0.030857698991894722,
        -0.04077460244297981,
        -0.03485160320997238,
        -0.07859861105680466,
        -0.08609433472156525,
        -0.07133515179157257,
        0.08994869887828827,
        -0.04803971201181412,
        0.04688979685306549,
        0.031873662024736404,
        0.014693843200802803,
        0.017664633691310883,
        -0.019668804481625557,
        -0.03209731727838516,
        0.013538333587348461,
        -0.09589237719774246,
        0.052520666271448135,
        -0.010009316727519035,
        -0.0710374042391777,
        0.09655875712633133,
        -0.0813085287809372,
        -0.03732653334736824,
        0.017585987225174904,
        0.062417756766080856,
        -0.009522386826574802,
        -0.012862784788012505,
        0.07294540107250214,
        0.08162719011306763,
        -0.005330993328243494,
        -0.061491843312978745,
        -0.07525477558374405,
        0.03748476132750511,
        -0.06899245083332062,
        0.031854625791311264,
        0.0005961954593658447,
        0.040288567543029785,
        -0.0754082202911377,
        -0.08850622177124023,
        -0.04284460470080376,
        -0.040636688470840454,
        0.10121525079011917,
        -0.007998401299118996,
        -0.022660650312900543,
        -0.06287514418363571,
        -0.0285929124802351,
        0.028046760708093643,
        -0.05611635372042656,
        0.08191576600074768,
        -0.06723756343126297,
        -0.09828971326351166,
        0.051639772951602936,
        0.053828321397304535,
        0.09809710085391998,
        -0.09187127649784088,
        0.01302068866789341,
        0.022179115563631058,
        -0.0182043369859457,
        -0.02669275365769863,
        0.031001845374703407,
        0.009721928276121616,
        0.004475150723010302,
        0.03195605427026749,
        0.06729170680046082,
        0.0017016094643622637,
        0.043999481946229935,
        -0.024466611444950104,
        0.01790965348482132,
        0.06807217746973038,
        0.039519302546978,
        -0.04344953969120979,
        -0.0950949639081955,
        -0.01821235753595829,
        0.08554178476333618,
        0.06974409520626068,
        0.014451148919761181,
        0.02981475740671158,
        -0.05329902842640877,
        -0.05078211799263954,
        0.001486020628362894,
        0.06618909537792206,
        0.09925860166549683
      ],
      [
        0.061530690640211105,
        -0.10033904016017914,
        0.06326080113649368,
        0.0023154374212026596,
        -0.05164509266614914,
        -0.10085190087556839,
        0.03299562260508537,
        -0.08082059770822525,
        0.016872968524694443,
        0.09623370319604874,
        -0.0710071548819542,
        0.036735281348228455,
        -0.07528527081012726,
        -0.0324881449341774,
        0.07704358547925949,
        0.0460389107465744,
        0.030253645032644272,
        -0.060281675308942795,
        0.09218689054250717,
        -0.06193605437874794,
        0.0711224153637886,
        -0.07905960083007812,
        -0.07703036069869995,
        0.05403314158320427,
        0.0716230720281601,
        -0.07740171253681183,
        0.05480799823999405,
        0.014535523019731045,
        0.03644730523228645,
        0.025764761492609978,
        0.012181973084807396,
        0.03996746987104416,
        -0.0739072933793068,
        0.05295795202255249,
        -0.022265931591391563,
        -0.05813666433095932,
        0.04505458101630211,
        0.08069993555545807,
        0.08076512068510056,
        0.08146457374095917,
        -0.08532357215881348,
        -0.016599606722593307,
        0.06149013713002205,
        -0.03248678147792816,
        0.09168395400047302,
        -0.03389262780547142,
        0.08230258524417877,
        0.01607978530228138,
        -0.007790699601173401,
        -0.01103174313902855,
        0.027030449360609055,
        0.08933713287115097,
        0.007162018679082394,
        -0.07361920922994614,
        0.060200389474630356,
        0.0017332627903670073,
        -0.0970330610871315,
        0.09978052228689194,
        -0.06668452173471451,
        0.0753021240234375,
        -0.08647894859313965,
        0.00252462737262249,
        0.0706406831741333,
        -0.00877988152205944,
        -0.09054230153560638,
        -0.08803211897611618,
        0.030330725014209747,
        0.007713482715189457,
        0.08179377764463425,
        0.027233943343162537,
        0.050497617572546005,
        0.0035681850276887417,
        -0.03548870608210564,
        -0.08751311153173447,
        -0.0564684122800827,
        -0.07419562339782715,
        -0.06603991240262985,
        -0.03056926466524601,
        -0.03591856360435486,
        0.017863256856799126,
        -0.09675145149230957,
        0.05430035665631294,
        0.04157254844903946,
        0.02047131396830082,
        5.775177851319313e-05,
        -0.06330970674753189,
        -0.09561721235513687,
        1.730193616822362e-05,
        0.01933359168469906,
        0.009445533156394958,
        0.012052908539772034,
        -0.06965150684118271,
        0.06712488830089569,
        -0.07141462713479996,
        0.07415022701025009,
        -0.08099344372749329
      ],
      [
        -0.08919782191514969,
        -0.0026469440199434757,
        -0.03972750902175903,
        -0.06386277824640274,
        -0.06747280806303024,
        0.09521652013063431,
        -0.09099391847848892,
        0.025106871500611305,
        0.08060409873723984,
        0.062086086720228195,
        0.09427758306264877,
        0.020006049424409866,
        -0.09327652305364609,
        -0.05468679964542389,
        0.013129585422575474,
        -0.03550095483660698,
        0.011228078976273537,
        -0.0495663620531559,
        -0.025222081691026688,
        -0.05457567051053047,
        0.011801152490079403,
        -0.07727499306201935,
        -0.040526535362005234,
        0.04454050213098526,
        -0.0039051566272974014,
        0.0671471655368805,
        -0.04045192152261734,
        0.07968082278966904,
        -0.01832554303109646,
        0.024804122745990753,
        -0.05091215670108795,
        0.052835650742053986,
        0.01572231948375702,
        0.0267778430134058,
        0.058618370443582535,
        -0.020432738587260246,
        -0.10297507047653198,
        -0.02643391117453575,
        -0.026431523263454437,
        0.09033830463886261,
        0.012321513146162033,
        0.049756504595279694,
        0.053507812321186066,
        -0.026911050081253052,
        -0.016565488651394844,
        0.08297944813966751,
        0.09463081508874893,
        -0.005100734531879425,
        0.09609174728393555,
        0.027702130377292633,
        0.0918380618095398,
        -0.006327483337372541,
        0.06368900835514069,
        0.04565409570932388,
        0.06405243277549744,
        0.052313998341560364,
        0.06528054922819138,
        -0.002207402838394046,
        -0.02156319096684456,
        -0.047672346234321594,
        -0.02394113875925541,
        0.011298689991235733,
        -0.09406641125679016,
        0.07391861081123352,
        0.0939069390296936,
        0.05284235626459122,
        0.00992138497531414,
        -0.06607629358768463,
        0.01191000733524561,
        -0.012713287025690079,
        0.005222549196332693,
        0.09175223857164383,
        -5.062745185568929e-05,
        -0.07770735025405884,
        0.055099308490753174,
        -0.09731975942850113,
        0.03410860523581505,
        0.04978988319635391,
        0.08933336287736893,
        -0.07698893547058105,
        0.091682568192482,
        -0.07015596330165863,
        0.03624429926276207,
        -0.08836795389652252,
        0.08035745471715927,
        -0.0848129540681839,
        0.0902593582868576,
        0.05281643569469452,
        0.061362478882074356,
        -0.07602480798959732,
        -0.0702911764383316,
        -0.08677374571561813,
        0.0016113710589706898,
        0.011210627853870392,
        0.021929388865828514,
        0.009834694676101208
      ],
      [
        -0.037941284477710724,
        -0.0717117190361023,
        0.05422203615307808,
        0.07180920988321304,
        -0.041478294879198074,
        0.034324951469898224,
        -0.029855024069547653,
        0.08170813322067261,
        0.017741117626428604,
        0.06210007518529892,
        0.00814499706029892,
        0.036765363067388535,
        0.05493956059217453,
        -0.05728985741734505,
        0.018276743590831757,
        0.08062870800495148,
        -0.04905091971158981,
        0.0181996151804924,
        -0.09974712878465652,
        0.04578699544072151,
        -0.014412961900234222,
        -0.005587158724665642,
        0.05648909509181976,
        0.0800759568810463,
        0.010404161177575588,
        -0.024646105244755745,
        0.024290090426802635,
        -0.018953848630189896,
        -0.0968712568283081,
        0.09996335208415985,
        0.07068941742181778,
        -0.08186130225658417,
        0.06691601872444153,
        0.047375280410051346,
        0.056674469262361526,
        -0.09479890763759613,
        0.0006172738503664732,
        -0.0663631409406662,
        -0.09750941395759583,
        -0.069585420191288,
        -0.08657300472259521,
        0.04378928616642952,
        -0.019581221044063568,
        -0.05311344191431999,
        0.00225086254067719,
        0.07799171656370163,
        0.02691071480512619,
        -0.046718779951334,
        0.09368215501308441,
        -0.07249727100133896,
        -0.08021815121173859,
        0.06166394054889679,
        -0.09593050181865692,
        -0.08466982841491699,
        0.08720947057008743,
        0.0906776413321495,
        0.07938450574874878,
        -0.0369163379073143,
        -0.09524773061275482,
        0.09393010288476944,
        -0.08796209841966629,
        -0.03855926916003227,
        0.05653463676571846,
        -0.009574692696332932,
        0.07414890080690384,
        0.0999254584312439,
        0.007137363310903311,
        0.05800294131040573,
        0.09587723016738892,
        0.00668412446975708,
        -0.05274146422743797,
        0.0023076413199305534,
        -0.03396676108241081,
        0.06110570579767227,
        -0.004459802061319351,
        0.0782962515950203,
        -0.043026018887758255,
        -0.07628729194402695,
        -0.0679519847035408,
        0.06186140701174736,
        -0.05801882594823837,
        0.04044900834560394,
        0.0672616958618164,
        -0.02696041204035282,
        0.008957096375524998,
        -0.047284722328186035,
        0.09590740501880646,
        0.014726883731782436,
        -0.08522629737854004,
        -0.06871671229600906,
        -0.04591495171189308,
        0.07520368695259094,
        -0.06520755589008331,
        -0.015795111656188965,
        -0.07665330171585083,
        -0.06395114213228226
      ],
      [
        -0.07995007187128067,
        0.07654958218336105,
        -0.05751699581742287,
        -0.08870893716812134,
        -0.009819626808166504,
        -0.08191249519586563,
        -0.08208350837230682,
        -0.03310525789856911,
        -0.04878779128193855,
        -0.07747655361890793,
        -0.06038178130984306,
        -0.07726391404867172,
        0.024107351899147034,
        -0.017430458217859268,
        -0.08484721928834915,
        0.024585189297795296,
        -0.07570988684892654,
        0.07348335534334183,
        -0.10008541494607925,
        -0.07334958016872406,
        -0.017191020771861076,
        -0.07385657727718353,
        0.051333364099264145,
        -0.05656111240386963,
        0.0016298432601615787,
        0.09505243599414825,
        0.0021763816475868225,
        0.05298788473010063,
        -0.09420592337846756,
        0.06413065642118454,
        0.04816693067550659,
        -0.03658195957541466,
        -0.02230309136211872,
        -0.018336845561861992,
        -0.09402059763669968,
        0.04880990833044052,
        0.00475874450057745,
        -0.05490214750170708,
        0.06730255484580994,
        -0.018492814153432846,
        -0.03160543739795685,
        0.05902863293886185,
        -0.07638151198625565,
        -0.08889110386371613,
        -0.08373723179101944,
        -0.050622228533029556,
        0.08345591276884079,
        -0.01384850312024355,
        0.034483008086681366,
        -0.062278397381305695,
        0.0022993485908955336,
        0.09495262801647186,
        0.064702108502388,
        -0.00574033847078681,
        -0.02321615256369114,
        -0.02869068644940853,
        -0.03643225505948067,
        0.00824469979852438,
        0.0847800150513649,
        -0.012943090870976448,
        0.01585717312991619,
        -0.06701206415891647,
        0.09544819593429565,
        0.014821479097008705,
        0.09261348098516464,
        0.07858172059059143,
        -0.06594754010438919,
        -0.07743312418460846,
        0.08757564425468445,
        -0.037102796137332916,
        0.030929718166589737,
        -0.0807429626584053,
        0.025576632469892502,
        -0.06336387991905212,
        0.013153132051229477,
        0.10054315626621246,
        -0.05153772607445717,
        0.04624715447425842,
        0.07003520429134369,
        0.024708060547709465,
        -0.006824295036494732,
        0.02017817460000515,
        -0.021777549758553505,
        -0.09904187172651291,
        0.07129515707492828,
        -0.02282487228512764,
        0.09764783084392548,
        0.08706492185592651,
        -0.016451014205813408,
        0.06844691187143326,
        -0.02459089457988739,
        -0.0025808769278228283,
        -0.08502887934446335,
        0.0980878472328186,
        0.0551585853099823,
        -0.08783449232578278
      ],
      [
        0.03818704932928085,
        -0.027432940900325775,
        0.06618873029947281,
        0.006809416692703962,
        -0.02445872686803341,
        -0.014695843681693077,
        -0.017176151275634766,
        -0.037319429218769073,
        -0.0654960498213768,
        -0.03372638672590256,
        0.013278404250741005,
        -0.08964414149522781,
        0.08108115196228027,
        -0.005561379250138998,
        0.07359949499368668,
        -0.05608978495001793,
        0.05162236467003822,
        0.029186364263296127,
        -0.026448186486959457,
        -0.04315356910228729,
        0.031225569546222687,
        -0.05599227547645569,
        -0.10001106560230255,
        0.05286598578095436,
        0.07974554598331451,
        0.04487316310405731,
        -0.08115381002426147,
        -2.5884161004796624e-05,
        0.009461873210966587,
        0.09127570688724518,
        -0.06640174984931946,
        0.010060436092317104,
        -0.00490189203992486,
        0.06631216406822205,
        -0.08905309438705444,
        0.051102716475725174,
        0.05848174914717674,
        0.08861555904150009,
        0.0719720795750618,
        -0.05377448350191116,
        -0.04424614459276199,
        -0.044362179934978485,
        0.026680385693907738,
        -0.001727491500787437,
        -0.07716824114322662,
        -0.10080159455537796,
        -0.010764174163341522,
        -0.09808121621608734,
        -0.0221956018358469,
        -0.005320179276168346,
        9.58296877797693e-05,
        -0.09405530989170074,
        0.04656988009810448,
        0.019805626943707466,
        0.01537215244024992,
        -0.014871911145746708,
        0.08123818784952164,
        0.080167256295681,
        -0.06085390970110893,
        0.02828124538064003,
        -0.07172104716300964,
        -0.06551111489534378,
        -0.04382171109318733,
        -0.03360339626669884,
        0.09856728464365005,
        0.09279816597700119,
        -0.03551904857158661,
        0.05851138010621071,
        0.10097867995500565,
        0.052580539137125015,
        0.06693969666957855,
        0.072194404900074,
        0.08331850171089172,
        0.0037378063425421715,
        0.06887554377317429,
        0.07610569894313812,
        -0.03734317049384117,
        -0.05792944133281708,
        0.015693338587880135,
        -0.06614610552787781,
        0.022974947467446327,
        -0.03847036510705948,
        -0.07074122130870819,
        0.08486931025981903,
        0.09532307833433151,
        0.05908476188778877,
        0.09270937740802765,
        0.009079602546989918,
        0.03078189305961132,
        -0.07139185816049576,
        -0.00919080339372158,
        -0.10010144114494324,
        0.04240623489022255,
        -0.0417092964053154,
        -0.046097688376903534,
        0.07695148140192032
      ],
      [
        0.08967267721891403,
        0.0520934984087944,
        0.007524728775024414,
        0.06534938514232635,
        0.06532876938581467,
        0.03337372839450836,
        0.025360828265547752,
        0.013914011418819427,
        0.059699542820453644,
        -0.08015341311693192,
        0.03939492627978325,
        0.020165542140603065,
        0.10070125758647919,
        -0.048596467822790146,
        -0.020075466483831406,
        0.08283080160617828,
        0.0463058240711689,
        -0.04284954443573952,
        -0.09037483483552933,
        -0.046652160584926605,
        0.04211382195353508,
        0.10040517151355743,
        0.0975366160273552,
        -0.05152537673711777,
        -0.06912017613649368,
        0.06362004578113556,
        -0.011615825816988945,
        0.06981344521045685,
        -0.07740519940853119,
        0.03625178709626198,
        -0.030831240117549896,
        -0.012822186574339867,
        -0.05722006782889366,
        -0.0999833270907402,
        -0.06765323877334595,
        -0.005342409014701843,
        -0.08452880382537842,
        -0.021715860813856125,
        -0.03155459463596344,
        0.00817751232534647,
        0.08694089204072952,
        -0.010960828512907028,
        0.006820454262197018,
        -0.0994856059551239,
        0.014596108347177505,
        -0.09059450775384903,
        0.024755090475082397,
        -0.08041511476039886,
        -0.09552041441202164,
        -0.04844980686903,
        0.07224110513925552,
        0.04876650869846344,
        0.08911877125501633,
        -0.0030067572370171547,
        -0.039971936494112015,
        0.021233802661299706,
        -0.06536056101322174,
        0.06491461396217346,
        0.09287810325622559,
        -0.05893335118889809,
        0.09314871579408646,
        -0.03907701373100281,
        0.05241084471344948,
        -0.03660978749394417,
        -0.04562871903181076,
        0.025495149195194244,
        0.03051804192364216,
        0.02259291149675846,
        -0.019312722608447075,
        0.08603724837303162,
        -0.04563644900918007,
        0.01445849146693945,
        0.04019242897629738,
        -0.09885606169700623,
        0.04094957932829857,
        -0.06337038427591324,
        0.045564912259578705,
        -0.07021234184503555,
        -0.008544580079615116,
        -0.0828649178147316,
        0.020510783419013023,
        0.09168623387813568,
        0.06693349033594131,
        -0.05560296028852463,
        0.07528136670589447,
        0.01983587257564068,
        0.0016001061303541064,
        -0.028562165796756744,
        0.09906413406133652,
        -0.07804099470376968,
        0.07847872376441956,
        0.07623341679573059,
        0.02223239466547966,
        0.031117932870984077,
        -0.053089458495378494,
        0.04424447938799858
      ],
      [
        0.002934981370344758,
        -0.04648422822356224,
        0.02690928615629673,
        0.09715387970209122,
        0.027688872069120407,
        -0.07006441056728363,
        0.05352132394909859,
        0.03268441557884216,
        -0.030106743797659874,
        -0.03506379574537277,
        0.05428546667098999,
        0.08213689923286438,
        -0.039231181144714355,
        -0.06549163162708282,
        0.09614815562963486,
        -0.07892385870218277,
        0.001503164297901094,
        -0.04386071860790253,
        0.018914630636572838,
        -0.06342578679323196,
        0.06429751962423325,
        0.07403621077537537,
        -0.07498364895582199,
        0.03483116254210472,
        0.01257111132144928,
        0.09843848645687103,
        -0.07920778542757034,
        -0.06571672111749649,
        -0.02134122885763645,
        -0.07426615059375763,
        -0.03603846952319145,
        -0.05570874363183975,
        0.009798156097531319,
        0.038138341158628464,
        -0.016370758414268494,
        0.03773867338895798,
        0.06333988159894943,
        -0.0884038656949997,
        -0.05242728814482689,
        0.10042943805456161,
        0.06889981031417847,
        -0.09785601496696472,
        0.058326780796051025,
        -0.09296420216560364,
        0.07142873853445053,
        0.05822125822305679,
        0.022188156843185425,
        -0.09537553042173386,
        -0.06370509415864944,
        0.0991191491484642,
        -0.07154450565576553,
        -0.0918152928352356,
        -0.08916795998811722,
        -0.0013457604218274355,
        0.05067325383424759,
        -0.05754601210355759,
        0.07156722992658615,
        0.0762777328491211,
        -0.05396413803100586,
        -0.053878411650657654,
        0.05279438942670822,
        0.06541519612073898,
        0.018250025808811188,
        0.04947544261813164,
        0.02392604574561119,
        -0.06710759550333023,
        -0.09063643217086792,
        -0.0827043354511261,
        -0.10316313803195953,
        -0.06697326898574829,
        -0.0582905188202858,
        -0.009827164933085442,
        -0.07449740916490555,
        0.09422902017831802,
        -0.05987422913312912,
        0.03066147305071354,
        -0.08861639350652695,
        -0.020626280456781387,
        -0.0669323205947876,
        0.09131729602813721,
        -0.04802149906754494,
        -0.028807666152715683,
        0.08123208582401276,
        -0.002019629580900073,
        0.07075630873441696,
        -0.05158388987183571,
        -0.06246998906135559,
        0.0751643106341362,
        0.05274994671344757,
        0.04090581461787224,
        0.07265682518482208,
        0.013024898245930672,
        0.05249141901731491,
        -0.05216243490576744,
        -0.019869394600391388,
        0.08867302536964417
      ],
      [
        -0.0810413733124733,
        0.0032317806035280228,
        -0.07373347133398056,
        0.06121513247489929,
        0.09794380515813828,
        0.06797940284013748,
        0.02589668333530426,
        -0.06646504253149033,
        -0.018609175458550453,
        -0.08901804685592651,
        0.02533496543765068,
        0.06721561402082443,
        -0.006651042029261589,
        -0.008179515600204468,
        0.05157877504825592,
        -0.05326712876558304,
        0.09164462238550186,
        0.01316351629793644,
        -0.03556346148252487,
        0.03994959592819214,
        0.03104492649435997,
        -0.014126533642411232,
        0.08294541388750076,
