{
  "policy_type": "mappo_timeout_policy",
  "algorithm": "llm_mappo_ctde_gae",
  "episodes": 3,
  "nodes": 5,
  "seed": 7,
  "features": [
    "bias",
    "rtt_norm",
    "loss_rate",
    "log_gap_norm",
    "recent_split"
  ],
  "global_features": [
    "node_count_norm",
    "alive_fraction",
    "mean_rtt_norm",
    "mean_loss",
    "mean_log_gap_norm",
    "recent_split",
    "round_index_norm"
  ],
  "arms": {
    "very_short": [
      150.0,
      230.0
    ],
    "short": [
      280.0,
      420.0
    ],
    "medium": [
      520.0,
      760.0
    ],
    "long": [
      900.0,
      1300.0
    ],
    "very_long": [
      1450.0,
      2100.0
    ]
  },
  "actor_critic": {
    "actor.0.weight": [
      [
        0.0300416462123394,
        -0.27059465646743774,
        0.14120697975158691,
        0.1415260136127472,
        -0.2402210682630539
      ],
      [
        -0.06582442671060562,
        -0.2607872486114502,
        0.11724267154932022,
        -0.11926890909671783,
        0.3153855502605438
      ],
      [
        0.318657249212265,
        0.04675796627998352,
        -0.18945792317390442,
        -0.2615084946155548,
        -0.047919586300849915
      ],
      [
        -0.1246640756726265,
        0.1983109712600708,
        -0.3806769549846649,
        0.41910943388938904,
        -0.3496101200580597
      ],
      [
        0.34135007858276367,
        -0.07883895188570023,
        0.22886893153190613,
        0.17547230422496796,
        0.019922906532883644
      ],
      [
        0.08219495415687561,
        0.33856356143951416,
        0.11472619324922562,
        0.23607423901557922,
        -0.34476709365844727
      ],
      [
        0.3195595145225525,
        0.1551014930009842,
        0.1144600436091423,
        0.06294062733650208,
        0.21689465641975403
      ],
      [
        0.40954822301864624,
        -0.10070756822824478,
        -0.25034117698669434,
        -0.11131859570741653,
        -0.27137821912765503
      ],
      [
        0.21393072605133057,
        -0.2222333550453186,
        -0.2398800551891327,
        0.3849795460700989,
        0.4080328345298767
      ],
      [
        0.05263817310333252,
        -0.07623782753944397,
        -0.056525640189647675,
        0.21067358553409576,
        -0.41639620065689087
      ],
      [
        -0.36668503284454346,
        0.35603487491607666,
        0.44030436873435974,
        -0.025374121963977814,
        -0.3545636832714081
      ],
      [
        0.01341293752193451,
        -0.2068575918674469,
        0.00033534158137626946,
        0.21943101286888123,
        0.1991606056690216
      ],
      [
        -0.053643371909856796,
        0.04803476110100746,
        0.12050137668848038,
        -0.3493376076221466,
        -0.15282633900642395
      ],
      [
        0.016309121623635292,
        -0.2563866078853607,
        -0.1965160071849823,
        0.15141215920448303,
        0.25618070363998413
      ],
      [
        0.007443212904036045,
        -0.17280517518520355,
        0.24601800739765167,
        -0.24394704401493073,
        -0.10378534346818924
      ],
      [
        0.4206954836845398,
        0.08116956800222397,
        0.030316084623336792,
        0.1519615352153778,
        -0.11024600267410278
      ],
      [
        0.38143089413642883,
        -0.3659532368183136,
        -0.12421705573797226,
        -0.07610837370157242,
        -0.18521074950695038
      ],
      [
        -0.10949819535017014,
        0.27835091948509216,
        0.24657228589057922,
        0.02369159646332264,
        0.3907915949821472
      ],
      [
        -0.31459841132164,
        -0.26698926091194153,
        0.202023446559906,
        -0.022836409509181976,
        -0.4063566327095032
      ],
      [
        -0.31074535846710205,
        -0.2734418213367462,
        0.34414586424827576,
        0.20133960247039795,
        0.344766229391098
      ],
      [
        -0.3317839801311493,
        -0.43482518196105957,
        -0.2920772433280945,
        0.04664565250277519,
        -0.08762018382549286
      ],
      [
        -0.28302398324012756,
        0.3267595171928406,
        -0.1430206596851349,
        -0.2598573863506317,
        0.20537666976451874
      ],
      [
        -0.12169664353132248,
        0.2839027941226959,
        0.10537911206483841,
        0.012236420065164566,
        0.09268098324537277
      ],
      [
        -0.33724552392959595,
        -0.2404864877462387,
        -0.2113897204399109,
        -0.2518515884876251,
        0.07809855788946152
      ],
      [
        0.08815433084964752,
        -0.18701054155826569,
        0.2903391420841217,
        -0.24762924015522003,
        0.08909623324871063
      ],
      [
        -0.12889927625656128,
        -0.3891264498233795,
        -0.2924034893512726,
        0.18149611353874207,
        0.1757735162973404
      ],
      [
        -0.275341659784317,
        -0.13826067745685577,
        -0.41687992215156555,
        0.24159616231918335,
        0.3878973126411438
      ],
      [
        0.1474505066871643,
        -0.2755107879638672,
        0.23708930611610413,
        0.37232932448387146,
        -0.09029172360897064
      ],
      [
        -0.07451128214597702,
        0.15358632802963257,
        0.05633070319890976,
        -0.1466091126203537,
        -0.41637957096099854
      ],
      [
        -0.31478720903396606,
        0.023015713319182396,
        -0.02519296482205391,
        0.3681011199951172,
        0.014103278517723083
      ],
      [
        -0.11632309854030609,
        -0.43817266821861267,
        -0.41238364577293396,
        0.1869748830795288,
        0.397131085395813
      ],
      [
        -0.005583272315561771,
        -0.3985186219215393,
        0.15998013317584991,
        0.3630482256412506,
        -0.29718685150146484
      ],
      [
        -0.116550974547863,
        0.03880744427442551,
        -0.2538469731807709,
        -0.41587358713150024,
        0.19697602093219757
      ],
      [
        -0.36578369140625,
        -0.11106156557798386,
        -0.23626986145973206,
        0.3351360559463501,
        0.08754394948482513
      ],
      [
        0.20846985280513763,
        -0.30163583159446716,
        0.37807437777519226,
        0.03864649310708046,
        -0.24922998249530792
      ],
      [
        -0.02807495929300785,
        -0.3177940845489502,
        -0.021768124774098396,
        0.2509283721446991,
        -0.19984814524650574
      ],
      [
        0.3792177438735962,
        0.13774754106998444,
        -0.07705391198396683,
        0.14089715480804443,
        -0.0811864361166954
      ],
      [
        -0.10276059806346893,
        -0.2922307252883911,
        0.26176050305366516,
        0.2696624994277954,
        0.15430274605751038
      ],
      [
        0.2633041739463806,
        0.44559115171432495,
        0.4199053943157196,
        -0.43037962913513184,
        0.10078293830156326
      ],
      [
        -0.037089262157678604,
        0.15305717289447784,
        -0.08552923053503036,
        0.12595729529857635,
        -0.41028133034706116
      ],
      [
        0.2056039273738861,
        0.43085551261901855,
        -0.07922372221946716,
        -0.35692867636680603,
        -0.37055280804634094
      ],
      [
        -0.08697495609521866,
        -0.007947278209030628,
        0.04869355633854866,
        0.05655638501048088,
        0.3356608748435974
      ],
      [
        -0.08233513683080673,
        0.1264210045337677,
        -0.2388809621334076,
        0.4410565495491028,
        0.17229437828063965
      ],
      [
        -0.0608217716217041,
        0.2951814532279968,
        0.15950976312160492,
        0.07549607753753662,
        -0.13081765174865723
      ],
      [
        0.05740223452448845,
        0.030843978747725487,
        -0.262376070022583,
        0.007600288838148117,
        0.09885282069444656
      ],
      [
        -0.26609036326408386,
        0.078681580722332,
        -0.14964628219604492,
        -0.37088537216186523,
        -0.2690342664718628
      ],
      [
        -0.3561321198940277,
        0.10467036068439484,
        0.2747238874435425,
        0.4053778052330017,
        0.43729278445243835
      ],
      [
        0.1773471236228943,
        0.21993303298950195,
        -0.07506438344717026,
        0.3703841269016266,
        -0.1697763204574585
      ],
      [
        -0.12272524833679199,
        -0.15003922581672668,
        -0.30099308490753174,
        -0.34585291147232056,
        -0.09236693382263184
      ],
      [
        0.3626379370689392,
        -0.2215893417596817,
        -0.4048087000846863,
        -0.10097886621952057,
        0.406436562538147
      ],
      [
        0.10673994570970535,
        -0.02708638273179531,
        -0.12665855884552002,
        0.3914702236652374,
        -0.4309176206588745
      ],
      [
        0.2545906901359558,
        0.12262735515832901,
        0.2815472483634949,
        -0.26040709018707275,
        -0.14543034136295319
      ],
      [
        -0.18913738429546356,
        0.4327464699745178,
        -0.058942150324583054,
        -0.4276292622089386,
        0.22305557131767273
      ],
      [
        0.08503665775060654,
        0.06001156195998192,
        -0.29941123723983765,
        -0.4201385974884033,
        0.4040340781211853
      ],
      [
        -0.33801525831222534,
        -0.08618231862783432,
        -0.08316725492477417,
        0.25422537326812744,
        -0.37821972370147705
      ],
      [
        -0.2547738254070282,
        -0.2384614199399948,
        -0.2242986410856247,
        0.27238738536834717,
        0.2749442756175995
      ],
      [
        0.2040720283985138,
        0.36625680327415466,
        -0.2962256371974945,
        -0.0029772636480629444,
        -0.3607064187526703
      ],
      [
        -0.0020776221062988043,
        -0.38337162137031555,
        -0.43180346488952637,
        0.28049296140670776,
        -0.19672390818595886
      ],
      [
        -0.03683241456747055,
        -0.13302180171012878,
        -0.3559100031852722,
        -0.043413709849119186,
        0.0648614838719368
      ],
      [
        0.35852545499801636,
        -0.1890377402305603,
        0.4273005723953247,
        -0.20826809108257294,
        0.28507864475250244
      ],
      [
        0.39182785153388977,
        0.04744416102766991,
        -0.1523899883031845,
        0.33200526237487793,
        -0.1292479783296585
      ],
      [
        -0.19026923179626465,
        -0.15471354126930237,
        -0.36355581879615784,
        -0.04588434100151062,
        -0.36266958713531494
      ],
      [
        0.2926021218299866,
        -0.4319145083427429,
        -0.3334394097328186,
        0.0898599848151207,
        0.27551209926605225
      ],
      [
        0.42653322219848633,
        -0.3636462390422821,
        0.36617353558540344,
        0.3145611584186554,
        -0.29458096623420715
      ],
      [
        0.18764068186283112,
        -0.12460508197546005,
        0.12992559373378754,
        -0.39710742235183716,
        -0.255588173866272
      ],
      [
        -0.28472328186035156,
        -0.08841651678085327,
        -0.017471706494688988,
        -0.008421541191637516,
        -0.26539015769958496
      ],
      [
        0.222025528550148,
        0.2283780425786972,
        -0.39111125469207764,
        -0.415733277797699,
        -0.09712616354227066
      ],
      [
        0.12559889256954193,
        -0.3394230604171753,
        -0.03998437896370888,
        0.02418208122253418,
        -0.34292131662368774
      ],
      [
        0.4176033139228821,
        0.3227248191833496,
        0.3404105305671692,
        -0.183560311794281,
        -0.3208082914352417
      ],
      [
        0.05371354520320892,
        0.26037687063217163,
        0.21757324039936066,
        -0.2911454141139984,
        0.3498798906803131
      ],
      [
        -0.21140643954277039,
        -0.07706786692142487,
        -0.12426578253507614,
        0.21173053979873657,
        -0.41640082001686096
      ],
      [
        -0.28596949577331543,
        -0.055315643548965454,
        0.3066391348838806,
        -0.1088709756731987,
        0.2793918550014496
      ],
      [
        0.4083581864833832,
        0.015610841102898121,
        -0.30240893363952637,
        0.003686922835186124,
        0.17281129956245422
      ],
      [
        -0.09644366800785065,
        -0.43784627318382263,
        0.2649526596069336,
        -0.1936918944120407,
        -0.3139922618865967
      ],
      [
        0.22910982370376587,
        0.10884916037321091,
        0.32703274488449097,
        -0.09151317924261093,
        0.27537205815315247
      ],
      [
        -0.10738546401262283,
        -0.278872013092041,
        0.4116393029689789,
        0.44121789932250977,
        0.3193967342376709
      ],
      [
        -0.12363817542791367,
        -0.19631674885749817,
        0.07786931842565536,
        0.22633735835552216,
        0.058251116424798965
      ],
      [
        0.1895005851984024,
        -0.020154764875769615,
        0.2548571228981018,
        0.21334323287010193,
        0.25593385100364685
      ],
      [
        -0.03468255698680878,
        -0.36926063895225525,
        -0.281685471534729,
        -0.22358354926109314,
        0.3770110309123993
      ],
      [
        -0.02370472624897957,
        -0.06109943613409996,
        -0.1755402535200119,
        -0.01998176798224449,
        0.3002397418022156
      ],
      [
        -0.00110051897354424,
        0.20643550157546997,
        0.2548954486846924,
        -0.4367521107196808,
        0.15519940853118896
      ],
      [
        0.44804415106773376,
        -0.22541220486164093,
        0.07386653870344162,
        0.01123901642858982,
        0.237587109208107
      ],
      [
        0.10655456781387329,
        -0.3371836245059967,
        -0.3352486491203308,
        0.38305655121803284,
        -0.19395096600055695
      ],
      [
        -0.3942577540874481,
        -0.4025523364543915,
        -0.3902747333049774,
        0.10091296583414078,
        0.05049911141395569
      ],
      [
        -0.2584100663661957,
        -0.09982630610466003,
        0.07111379504203796,
        0.16170848906040192,
        0.18275998532772064
      ],
      [
        -0.24193836748600006,
        0.4202173352241516,
        0.41657376289367676,
        -0.31639933586120605,
        0.41333165764808655
      ],
      [
        -0.36756688356399536,
        -0.296368271112442,
        0.08709275722503662,
        0.13236062228679657,
        0.3964606821537018
      ],
      [
        0.0034506998490542173,
        0.30324506759643555,
        -0.1478736251592636,
        -0.3259267508983612,
        -0.04228037968277931
      ],
      [
        0.2309703677892685,
        -0.17591454088687897,
        -0.3797488808631897,
        -0.2736060619354248,
        0.07801968604326248
      ],
      [
        0.42763906717300415,
        0.025924859568476677,
        -0.35930901765823364,
        -0.20141595602035522,
        0.2281671166419983
      ],
      [
        -0.13955417275428772,
        -0.05917414650321007,
        0.33388751745224,
        0.16558317840099335,
        0.27497488260269165
      ],
      [
        0.40030765533447266,
        -0.14837880432605743,
        0.0636504590511322,
        -0.33434510231018066,
        0.44333362579345703
      ],
      [
        -0.30097541213035583,
        0.423887699842453,
        0.4082547724246979,
        0.0984891951084137,
        -0.38548529148101807
      ],
      [
        -0.013212433084845543,
        -0.18310749530792236,
        0.1382979154586792,
        0.2516886293888092,
        0.2502605617046356
      ],
      [
        0.14245600998401642,
        -0.34374579787254333,
        -0.377246230840683,
        0.1308448612689972,
        -0.09930042177438736
      ],
      [
        0.20929163694381714,
        0.4358123242855072,
        0.13618889451026917,
        -0.27050480246543884,
        -0.12795530259609222
      ],
      [
        0.27674970030784607,
        0.04366873949766159,
        0.3061524033546448,
        -0.4298613667488098,
        -0.05391104891896248
      ],
      [
        -0.21690689027309418,
        0.34103238582611084,
        0.19680647552013397,
        -0.06114759296178818,
        -0.4160105884075165
      ],
      [
        -0.05392551049590111,
        0.3637492060661316,
        -0.010777503252029419,
        -0.019721632823348045,
        -0.41476839780807495
      ],
      [
        0.35287365317344666,
        0.36884045600891113,
        -0.3605218827724457,
        -0.3184441030025482,
        0.020474014803767204
      ],
      [
        -0.2570975422859192,
        -0.3671301007270813,
        0.13914752006530762,
        -0.11471078544855118,
        0.15609733760356903
      ],
      [
        0.17890426516532898,
        0.3994372487068176,
        0.26690879464149475,
        -0.4216056168079376,
        -0.35920432209968567
      ],
      [
        0.35725364089012146,
        -0.3810972273349762,
        0.27223116159439087,
        -0.2737601399421692,
        0.35766205191612244
      ],
      [
        0.25172948837280273,
        -0.30988290905952454,
        -0.37093210220336914,
        -0.1948835253715515,
        -0.2032797783613205
      ],
      [
        -0.2549784183502197,
        0.31404948234558105,
        0.1087644174695015,
        -0.057295527309179306,
        -0.029215551912784576
      ],
      [
        0.1872991919517517,
        0.04700616002082825,
        -0.05417093262076378,
        0.39590153098106384,
        0.30822014808654785
      ],
      [
        0.03243090584874153,
        0.3098337948322296,
        -0.09519588947296143,
        -0.34060192108154297,
        0.25565198063850403
      ],
      [
        0.24927940964698792,
        0.07372207939624786,
        -0.3803509473800659,
        0.3239801824092865,
        0.03300914168357849
      ],
      [
        -0.23437373340129852,
        -0.39571428298950195,
        -0.23338638246059418,
        0.4170433580875397,
        0.22300386428833008
      ],
      [
        -0.19847887754440308,
        0.36889883875846863,
        0.38187623023986816,
        0.22347776591777802,
        -0.04104054346680641
      ],
      [
        0.4179077446460724,
        -0.10235648602247238,
        -0.18776561319828033,
        0.21249030530452728,
        -0.18777325749397278
      ],
      [
        0.3276098668575287,
        -0.23669284582138062,
        0.16585752367973328,
        -0.3277914524078369,
        -0.29678067564964294
      ],
      [
        0.023863423615694046,
        0.3537253737449646,
        -0.3415539264678955,
        -0.12013879418373108,
        0.20682495832443237
      ],
      [
        -0.08124486356973648,
        -0.4023507833480835,
        -0.006346549838781357,
        -0.1576641947031021,
        0.10524959862232208
      ],
      [
        0.18283508718013763,
        -0.1355365812778473,
        -0.23029038310050964,
        0.2632116973400116,
        -0.3864688277244568
      ],
      [
        0.21707859635353088,
        0.17853643000125885,
        0.17627516388893127,
        -0.3108151853084564,
        0.17865055799484253
      ],
      [
        -0.2680966556072235,
        0.19867107272148132,
        -0.20940464735031128,
        0.09723036736249924,
        0.006106435786932707
      ],
      [
        -0.3080434799194336,
        -0.4143831133842468,
        -0.10429370403289795,
        0.2650231719017029,
        -0.10111570358276367
      ],
      [
        -0.11447793245315552,
        -0.2764813303947449,
        -0.32256510853767395,
        -0.03750768303871155,
        -0.11815766990184784
      ],
      [
        0.1588566154241562,
        0.43403831124305725,
        -0.3073669970035553,
        -0.1385423094034195,
        0.16532249748706818
      ],
      [
        -0.3030148446559906,
        -0.05058009549975395,
        -0.22776499390602112,
        0.28323182463645935,
        -0.05095801502466202
      ],
      [
        0.037935175001621246,
        0.26712918281555176,
        -0.31563472747802734,
        -0.2427356243133545,
        0.3478502333164215
      ],
      [
        0.17886538803577423,
        -0.03887457028031349,
        0.4470679461956024,
        0.39083829522132874,
        -0.19460445642471313
      ],
      [
        -0.12380523234605789,
        0.19502098858356476,
        -0.2776675522327423,
        -0.4449257552623749,
        -0.22453553974628448
      ],
      [
        -0.4082878530025482,
        0.283971905708313,
        0.11438892781734467,
        -0.3775421679019928,
        -0.017634563148021698
      ],
      [
        0.42731693387031555,
        -0.2626800835132599,
        -0.2844269573688507,
        0.19343958795070648,
        -0.3171190619468689
      ],
      [
        -0.4183950424194336,
        0.2517974078655243,
        -0.058145683258771896,
        0.2358531802892685,
        -0.09417974948883057
      ],
      [
        0.4217611849308014,
        -0.18336978554725647,
        0.3728356957435608,
        -0.2531815469264984,
        -0.15607546269893646
      ]
    ],
    "actor.0.bias": [
      0.344247043132782,
      0.19944536685943604,
      -0.3250707983970642,
      -0.043347492814064026,
      0.26290619373321533,
      -0.3475143611431122,
      0.02224329486489296,
      0.27273160219192505,
      -0.3426673710346222,
      0.17132243514060974,
      -0.4335803687572479,
      -0.41704562306404114,
      0.008634869009256363,
      -0.4053381681442261,
      -0.2050023376941681,
      0.2634512186050415,
      -0.08641773462295532,
      -0.2979312837123871,
      0.36613771319389343,
      -0.4382457733154297,
      0.0924958810210228,
      -0.29385054111480713,
      -0.25021740794181824,
      0.035081371665000916,
      0.43930181860923767,
      -0.11992576718330383,
      -0.44305747747421265,
      0.0976264476776123,
      -0.17922329902648926,
      -0.29998043179512024,
      0.175514817237854,
      0.1778242290019989,
      -0.22011356055736542,
      0.03041478618979454,
      0.0659206360578537,
      0.0342196449637413,
      -0.0678805336356163,
      -0.25727489590644836,
      0.24572689831256866,
      0.33912816643714905,
      0.3628690838813782,
      0.3702240586280823,
      -0.02287321723997593,
      0.03704512119293213,
      -0.1766849309206009,
      -0.10725226998329163,
      0.11345147341489792,
      0.03689190745353699,
      -0.32179537415504456,
      -0.3187887966632843,
      0.2061261534690857,
      0.3423301577568054,
      0.4133754074573517,
      0.27203038334846497,
      0.25611552596092224,
      0.18864354491233826,
      0.3026564419269562,
      -0.11588110029697418,
      0.06794880330562592,
      0.18171900510787964,
      0.0956198051571846,
      -0.0373922735452652,
      -0.23531337082386017,
      -0.31938886642456055,
      -0.2563745975494385,
      0.042138878256082535,
      0.4131181836128235,
      -0.16170233488082886,
      -0.3655259609222412,
      -0.39066821336746216,
      0.17507782578468323,
      0.18458907306194305,
      -0.2403014451265335,
      -0.1747109740972519,
      0.347537100315094,
      -0.3797732889652252,
      0.26381680369377136,
      0.016216572374105453,
      -0.21140511333942413,
      0.430945485830307,
      -0.2951122224330902,
      0.40444520115852356,
      0.3694709539413452,
      0.1524944007396698,
      0.29252955317497253,
      0.10731665045022964,
      0.3732922077178955,
      0.10095686465501785,
      -0.4478216767311096,
      -0.18749599158763885,
      0.0664680227637291,
      0.31314408779144287,
      -0.13075672090053558,
      0.16355276107788086,
      0.1695813685655594,
      0.038915447890758514,
      -0.3673197031021118,
      0.42967042326927185,
      -0.216848686337471,
      0.06937142461538315,
      -0.1751796007156372,
      0.1153412014245987,
      0.3011157214641571,
      0.09308400750160217,
      -0.19542725384235382,
      0.10029558092355728,
      -0.3650543987751007,
      0.3771536946296692,
      0.24100717902183533,
      0.3192784786224365,
      0.11189796030521393,
      -0.4441514015197754,
      -0.3166816234588623,
      -0.40746426582336426,
      0.2600160837173462,
      0.43219393491744995,
      0.2898463308811188,
      -0.17908844351768494,
      -0.27091485261917114,
      -0.2601105272769928,
      0.41941243410110474,
      -0.428742915391922,
      -0.43615004420280457,
      0.1869526207447052,
      0.04352575168013573,
      -0.23157767951488495,
      -0.25112029910087585,
      -0.4287883937358856
    ],
    "actor.2.weight": [
      [
        0.028812570497393608,
        -0.041996538639068604,
        -0.025883572176098824,
        0.04755958542227745,
        -0.07260231673717499,
        0.08572522550821304,
        -0.030031364411115646,
        0.05519861727952957,
        -0.01329136174172163,
        0.06142542138695717,
        -0.047849416732788086,
        -0.0181922297924757,
        -0.04499933123588562,
        0.05933724716305733,
        -0.08430018275976181,
        0.0573359839618206,
        -0.0010072843870148063,
        -0.05506390333175659,
        -0.024393979460000992,
        -0.009278405457735062,
        -0.025417936965823174,
        -0.037723761051893234,
        -0.02260524593293667,
        0.010422734543681145,
        0.04166312888264656,
        0.015832411125302315,
        0.06524354219436646,
        -0.01333558652549982,
        0.07347720861434937,
        0.030842382460832596,
        -0.0616050623357296,
        0.06057093292474747,
        0.019969914108514786,
        0.057870447635650635,
        -0.08533857762813568,
        -0.004522284958511591,
        -0.08329300582408905,
        -0.019188979640603065,
        -0.03313935548067093,
        -0.055779822170734406,
        -0.056708384305238724,
        0.06702253222465515,
        0.04123590141534805,
        0.02881465293467045,
        0.017132658511400223,
        0.02912447601556778,
        0.009662927128374577,
        -0.08665410429239273,
        -0.00879670213907957,
        0.05741804093122482,
        -0.012545234523713589,
        0.014252150431275368,
        0.05312635377049446,
        0.050699103623628616,
        -0.014259294606745243,
        0.07315221428871155,
        -0.034078747034072876,
        -0.0012588227400556207,
        0.07244789600372314,
        -0.05059141293168068,
        0.08635745197534561,
        -0.04134255275130272,
        -0.04386357590556145,
        0.06925272196531296,
        0.06203131750226021,
        -0.06106578931212425,
        0.04057995602488518,
        0.007577337324619293,
        -0.06901303678750992,
        -0.026381246745586395,
        0.008862986229360104,
        -0.08056341111660004,
        -0.0070033022202551365,
        0.023302843794226646,
        0.06474240869283676,
        0.06414536386728287,
        -0.03566418215632439,
        0.04079359024763107,
        0.019965793937444687,
        -0.006221982650458813,
        -0.06855768710374832,
        0.023890258744359016,
        0.08231145888566971,
        -0.07321514189243317,
        -0.004937074147164822,
        0.05039874091744423,
        0.001316942274570465,
        0.06218932941555977,
        -0.011086920276284218,
        -0.050113752484321594,
        -0.07120301574468613,
        -0.05434117093682289,
        -0.017939558252692223,
        0.0561596117913723,
        0.010352743789553642,
        0.0062268138863146305,
        0.06999874114990234,
        0.021973656490445137,
        -0.03841445595026016,
        -0.030842458829283714,
        0.05147073417901993,
        -0.036656156182289124,
        0.027380445972085,
        0.03656672313809395,
        0.004897075705230236,
        -0.062419477850198746,
        -0.052495893090963364,
        -0.08264219015836716,
        0.029937732964754105,
        -0.08494075387716293,
        -0.05105926841497421,
        0.08464522659778595,
        -0.0012915658298879862,
        0.04185087978839874,
        -0.04516180604696274,
        -0.022066479548811913,
        -0.045127350836992264,
        0.034411314874887466,
        -0.05524693429470062,
        -0.04133470356464386,
        0.022818900644779205,
        0.0052476683631539345,
        -0.04103820025920868,
        0.00607948936522007,
        -0.016845040023326874,
        -0.08388644456863403,
        0.08386874943971634,
        -0.07337205857038498
      ],
      [
        0.027767715975642204,
        0.050924476236104965,
        -0.017345484346151352,
        -0.025609485805034637,
        0.08030842244625092,
        0.06532841920852661,
        -0.016599157825112343,
        -0.032580193132162094,
        -0.04605288431048393,
        0.0713253989815712,
        -0.04699968546628952,
        0.03317878022789955,
        0.02317149005830288,
        0.06939613819122314,
        0.000545516493730247,
        0.04420500621199608,
        -0.05007675290107727,
        -0.033795807510614395,
        -0.03471050411462784,
        -0.08380904793739319,
        -0.07823795080184937,
        0.04507031291723251,
        0.04062933102250099,
        -0.021148107945919037,
        -0.08196309208869934,
        0.06109846755862236,
        0.08673210442066193,
        0.08700846135616302,
        -0.0365925095975399,
        -0.07526198029518127,
        0.05829988792538643,
        0.043682459741830826,
        0.0703568309545517,
        0.02433774061501026,
        0.05876968055963516,
        -0.03798265755176544,
        -0.07293414324522018,
        0.01497338991612196,
        0.07423312216997147,
        -0.05634169280529022,
        0.044803302735090256,
        -0.038290102034807205,
        -0.053440358489751816,
        -0.02559388428926468,
        0.08817337453365326,
        0.07729706913232803,
        0.0735066831111908,
        0.08365672081708908,
        -0.0017772724386304617,
        0.040025804191827774,
        0.029154736548662186,
        -0.03797050192952156,
        0.05678745359182358,
        -0.012678585015237331,
        -0.03378735110163689,
        0.05117204412817955,
        0.08356659859418869,
        0.06939408928155899,
        0.005713116843253374,
        -0.05912177637219429,
        0.08078798651695251,
        0.037910256534814835,
        0.07403331995010376,
        -0.027293946593999863,
        0.051378995180130005,
        0.005588669795542955,
        0.06095306575298309,
        0.021744808182120323,
        -0.03849375993013382,
        0.03989597037434578,
        0.08296382427215576,
        -0.058406002819538116,
        0.08456666767597198,
        0.07408415526151657,
        0.07295829802751541,
        0.020395943894982338,
        -0.029001258313655853,
        -0.030736872926354408,
        -0.010237178765237331,
        -0.05975021421909332,
        0.03402135893702507,
        0.040891826152801514,
        -0.01960897073149681,
        0.0798037052154541,
        0.03118073008954525,
        0.08879217505455017,
        0.0815894603729248,
        -0.01771768368780613,
        -0.07118725776672363,
        -0.05958480387926102,
        0.08638621121644974,
        -0.054833292961120605,
        0.007213700097054243,
        0.058274902403354645,
        -0.02978663332760334,
        0.04963402822613716,
        -0.058663979172706604,
        0.016353202983736992,
        0.03934573754668236,
        -0.07494452595710754,
        -0.03112708032131195,
        -0.045873481780290604,
        -0.01752091757953167,
        0.08368927240371704,
        0.07932039350271225,
        0.044242773205041885,
        -0.040341924875974655,
        -0.017884885892271996,
        0.009482886642217636,
        0.08411526679992676,
        -0.07509609311819077,
        -0.020201636478304863,
        -0.0742826908826828,
        0.03411031886935234,
        -0.0127525944262743,
        -0.04075298458337784,
        -0.08200938254594803,
        -0.02794434130191803,
        -0.07533988356590271,
        0.03078524023294449,
        -0.08165179193019867,
        -0.04410526528954506,
        0.0893874242901802,
        -0.08657513558864594,
        -0.0715538039803505,
        -0.06896212697029114,
        -0.05548744648694992,
        0.06875873357057571
      ],
      [
        -0.027189107611775398,
        -0.06711529195308685,
        0.05103706941008568,
        0.07578503340482712,
        0.04508258029818535,
        0.007070991676300764,
        0.017682379111647606,
        0.03535781055688858,
        0.07695917785167694,
        0.05188150331377983,
        -0.07007303833961487,
        -0.06973597407341003,
        -0.05448552221059799,
        -0.03971843421459198,
        0.0772060826420784,
        -0.08689626306295395,
        -0.011684451252222061,
        0.06580737233161926,
        0.032462626695632935,
        -0.046202026307582855,
        -0.0022446527145802975,
        -0.07312548160552979,
        -0.05742528289556503,
        -0.07494080066680908,
        -0.06338296830654144,
        0.08439846336841583,
        -0.014906278811395168,
        -0.047421928495168686,
        -0.044411078095436096,
        -0.07209667563438416,
        -0.0489484928548336,
        0.0076622008346021175,
        -0.05530596524477005,
        0.012602085247635841,
        0.033406276255846024,
        0.06165066361427307,
        -0.04886329546570778,
        -0.019272824749350548,
        0.088552325963974,
        -0.008324740454554558,
        -0.07765320688486099,
        -0.02780056744813919,
        0.027213208377361298,
        -0.014623801223933697,
        0.029998324811458588,
        -0.07087637484073639,
        0.04206375032663345,
        -0.03766966983675957,
        -0.03435410186648369,
        -0.006889012176543474,
        0.08710012584924698,
        0.06908009201288223,
        0.0772065818309784,
        -0.01155789289623499,
        0.06106371432542801,
        -0.0023262270260602236,
        0.06140938773751259,
        -0.03143490478396416,
        -0.0454501248896122,
        -0.06212245300412178,
        -0.00310145178809762,
        -0.03961910307407379,
        0.06873609870672226,
        -0.047104768455028534,
        0.04546248912811279,
        -0.04676503688097,
        0.049488890916109085,
        0.0019384860061109066,
        -0.05155651643872261,
        0.0032417941838502884,
        -0.08314857631921768,
        -0.009422739036381245,
        -0.05125758424401283,
        -0.08112936466932297,
        0.08087044954299927,
        0.05145525932312012,
        0.022449351847171783,
        0.05333613604307175,
        -0.07213766127824783,
        -0.04521220549941063,
        -0.043106719851493835,
        -0.053848423063755035,
        -0.017066599801182747,
        0.06438708305358887,
        -0.05473770201206207,
        0.018161935731768608,
        0.03730690851807594,
        -0.043667592108249664,
        0.035105299204587936,
        -0.023211518302559853,
        0.03792409598827362,
        0.08106393367052078,
        0.022222591564059258,
        -0.05576606094837189,
        -0.05528045818209648,
        0.07044203579425812,
        -0.024760916829109192,
        0.08530832827091217,
        -0.06833462417125702,
        -0.046806372702121735,
        0.08545178920030594,
        0.00489709060639143,
        -0.042562682181596756,
        0.008286413736641407,
        -0.007832083851099014,
        -0.07831194251775742,
        0.02679930254817009,
        0.04851376637816429,
        4.2177533032372594e-05,
        -0.07161732017993927,
        -0.025222577154636383,
        0.03126658499240875,
        -0.030752545222640038,
        0.07021453231573105,
        -0.02638976275920868,
        -0.019142817705869675,
        0.05159620940685272,
        0.008407048881053925,
        0.04964872822165489,
        -0.05896969139575958,
        0.06603936105966568,
        -0.029206402599811554,
        -0.00036667363019660115,
        0.045438773930072784,
        0.02589397318661213,
        -0.034072015434503555,
        0.05016877502202988,
        -0.009280277416110039
      ],
      [
        0.03943035751581192,
        -0.027333252131938934,
        0.007292828988283873,
        -0.028037942945957184,
        0.050228193402290344,
        0.06876840442419052,
        0.019634991884231567,
        0.07689603418111801,
        0.03074873797595501,
        -0.07591410726308823,
        -0.04992901161313057,
        -0.004985082428902388,
        -0.06981068849563599,
        0.03526649624109268,
        0.08192511647939682,
        -0.0542372465133667,
        -0.028155934065580368,
        -0.07320400327444077,
        0.023884259164333344,
        0.003851942252367735,
        0.06330803781747818,
        -0.033066559582948685,
        -0.07533157616853714,
        0.08065978437662125,
        0.08608593046665192,
        -0.06003301218152046,
        -0.03224179521203041,
        -0.023893721401691437,
        -0.05568286404013634,
        -0.0823364108800888,
        0.06547118723392487,
        0.05243212729692459,
        0.04169890284538269,
        -0.07732405513525009,
        -0.02059297449886799,
        0.055440738797187805,
        0.04390379413962364,
        -0.020167581737041473,
        -0.00013533158926293254,
        0.03767017275094986,
        0.0762934684753418,
        0.08109323680400848,
        0.08334310352802277,
        0.0775369182229042,
        -0.039839956909418106,
        0.08468295633792877,
        -0.002222037175670266,
        -0.023645007982850075,
        0.07612047344446182,
        -0.012244561687111855,
        0.010934248566627502,
        -0.007891228422522545,
        -0.06380739063024521,
        -0.06829139590263367,
        0.07950127124786377,
        0.0847698450088501,
        -0.009711852297186852,
        -0.055778563022613525,
        0.08826277405023575,
        0.01878945529460907,
        0.046176016330718994,
        -0.07365987449884415,
        0.03720478713512421,
        0.008213222026824951,
        0.07949874550104141,
        0.06867777556180954,
        0.05083773285150528,
        0.023744303733110428,
        0.03287116065621376,
        0.03158243000507355,
        0.08385157585144043,
        0.050246838480234146,
        -0.003331045852974057,
        0.026495058089494705,
        -0.033993300050497055,
        0.07172112166881561,
        -0.04570137709379196,
        0.0795329287648201,
        0.0682256668806076,
        -0.06916329264640808,
        -0.078828826546669,
        -0.003317193826660514,
        0.039967045187950134,
        0.07133840024471283,
        -0.07695088535547256,
        -0.023111063987016678,
        0.02052694745361805,
        -0.03024279512465,
        -0.07131625711917877,
        0.02337823621928692,
        0.037021201103925705,
        -0.01185649074614048,
        0.04734122008085251,
        0.013387373648583889,
        0.0703001320362091,
        0.022098137065768242,
        0.02273666299879551,
        -0.017841605469584465,
        -0.04129771515727043,
        0.03591711446642876,
        0.08563343435525894,
        0.031127573922276497,
        -0.07998403906822205,
        0.05870877578854561,
        0.08582854270935059,
        -0.0035668956115841866,
        -0.05757381394505501,
        -0.026003265753388405,
        0.06174302101135254,
        0.04579409956932068,
        -0.01080357562750578,
        0.016679801046848297,
        -0.0006575495935976505,
        -0.08041935414075851,
        0.06016534939408302,
        -0.011715540662407875,
        -0.07441356033086777,
        0.021354762837290764,
        0.04901723563671112,
        -0.07743445038795471,
        -0.005495068151503801,
        -0.07770168781280518,
        0.02587178908288479,
        0.011256849393248558,
        0.047059398144483566,
        -0.016753463074564934,
        0.08460744470357895,
        -0.08184344321489334
      ],
      [
        -0.020905619487166405,
        -0.06480655074119568,
        -0.06647052615880966,
        0.07492157071828842,
        0.047140877693891525,
        0.07408642768859863,
        0.03767191618680954,
        -0.050322480499744415,
        -0.016664741560816765,
        -0.07726550847291946,
        0.07939369231462479,
        -0.009990104474127293,
        -0.002834801794961095,
        0.03531740978360176,
        -0.010214535519480705,
        -0.06359954178333282,
        0.003102043643593788,
        0.06269530206918716,
        0.0575752928853035,
        -0.08035233616828918,
        0.08055613934993744,
        0.03780829533934593,
        -0.0830816924571991,
        -0.008926594629883766,
        -0.05829877406358719,
        0.011313442140817642,
        -0.077851302921772,
        -0.0217018760740757,
        0.0681929811835289,
        -0.013169323094189167,
        0.018374033272266388,
        -0.04518011212348938,
        0.06295514851808548,
        0.06964420527219772,
        -0.00013987720012664795,
        0.005277534015476704,
        0.08012302219867706,
        -0.08580026030540466,
        0.03802121430635452,
        -0.06229560449719429,
        -0.03977930173277855,
        -0.08657517284154892,
        0.022341322153806686,
        0.07340344786643982,
        -0.015618756413459778,
        0.038156501948833466,
        -0.011531554162502289,
        -0.07695599645376205,
        -0.07561644911766052,
        -0.0010622068075463176,
        0.06154254451394081,
        0.06209179759025574,
        -0.035913970321416855,
        0.016825180500745773,
        0.07904352992773056,
        -0.06882749497890472,
        -0.08895602822303772,
        -0.0869399756193161,
        0.051575370132923126,
        -0.07362070679664612,
        -0.07697039842605591,
        0.030497465282678604,
        0.05170387774705887,
        0.041331253945827484,
        -0.07786057144403458,
        0.08315115422010422,
        0.06035270169377327,
        -0.0288813766092062,
        -0.06220949813723564,
        -0.05000066012144089,
        -0.048260800540447235,
        -0.07513753324747086,
        0.04419809952378273,
        0.06477701663970947,
        0.030069436877965927,
        0.04408486932516098,
        -0.052096616476774216,
        0.04726007953286171,
        0.07484889030456543,
        0.04673216864466667,
        0.0723721981048584,
        -0.039661601185798645,
        0.03626953065395355,
        -0.03248957544565201,
        -0.02318654954433441,
        0.08413290977478027,
        -0.005342178512364626,
        0.0026560949627310038,
        0.007396315224468708,
        0.008788837119936943,
        -0.03726347163319588,
        0.0636923685669899,
        0.07651277631521225,
        -0.05043317750096321,
        -0.08385348320007324,
        -0.018735865131020546,
        -0.04103308171033859,
        0.05704463645815849,
        -0.028668440878391266,
        0.06171831116080284,
        0.021340250968933105,
        -0.0326845645904541,
        -0.04538041353225708,
        0.01700028032064438,
        -0.06992004811763763,
        -0.012679686769843102,
        -0.08459316194057465,
        -0.07900794595479965,
        -0.05309823527932167,
        0.04602966085076332,
        -0.0690842792391777,
        0.0857245996594429,
        -0.08415304124355316,
        -0.07721462100744247,
        0.03814031183719635,
        0.00153755908831954,
        0.06449799984693527,
        -0.019025277346372604,
        0.03853645548224449,
        0.06953378766775131,
        -0.06210228055715561,
        -0.06081685051321983,
        0.07820945978164673,
        0.07479065656661987,
        -0.002393377246335149,
        0.05207347124814987,
        -0.06283172965049744,
        0.07163763046264648
      ],
      [
        -0.02460944652557373,
        0.047054652124643326,
        -0.022240828722715378,
        -0.07190793752670288,
        -0.029684310778975487,
        -0.016618970781564713,
        0.005115850828588009,
        0.021768413484096527,
        -0.07743534445762634,
        -0.04582330584526062,
        -0.03641171753406525,
        0.018597936257719994,
        -0.05604322627186775,
        0.07328498363494873,
        -0.03996654227375984,
        0.08062344044446945,
        0.023933453485369682,
        0.03850977122783661,
        -0.025554392486810684,
        0.036913663148880005,
        -0.04284669831395149,
        0.003943952266126871,
        0.055087797343730927,
        -0.010515587404370308,
        -0.007722998037934303,
        0.006922481581568718,
        -0.055807244032621384,
        -0.06269743293523788,
        -0.014849184080958366,
        0.009624214842915535,
        0.07134761661291122,
        -0.00435421708971262,
        -0.014832514338195324,
        0.02012176252901554,
        0.022468695417046547,
        -0.009811940602958202,
        0.03976747393608093,
        0.0868096575140953,
        -0.031768713146448135,
        -0.04076109826564789,
        -0.002965271007269621,
        0.08709472417831421,
        0.03222886100411415,
        -0.07493316382169724,
        0.06479436904191971,
        0.07093121856451035,
        0.07487352192401886,
        0.03379619121551514,
        -0.08319677412509918,
        0.011420880444347858,
        -0.0023928245063871145,
        -0.048540499061346054,
        -0.05920325592160225,
        -0.0066401357762515545,
        0.07510583102703094,
        0.023666154593229294,
        0.008861171081662178,
        0.03231814131140709,
        -0.08054816722869873,
        0.048123180866241455,
        0.021202893927693367,
        -0.05287613719701767,
        -0.07798374444246292,
        -0.06021707504987717,
        0.02556717023253441,
        0.02541057951748371,
        0.01546146348118782,
        -0.0186772383749485,
        0.03994247689843178,
        -0.057764336466789246,
        0.04353489354252815,
        -0.046348921954631805,
        -0.04433577507734299,
        -0.0662977322936058,
        0.026536719873547554,
        -0.048229001462459564,
        0.05531930550932884,
        0.048636600375175476,
        -0.0035790777765214443,
        0.05200555548071861,
        0.050280433148145676,
        0.03520318493247032,
        -0.06696715950965881,
        -0.019243579357862473,
        -0.01636490412056446,
        0.04878551885485649,
        -0.035342615097761154,
        0.020314021036028862,
        0.03396955877542496,
        0.05945470556616783,
        0.08330316841602325,
        -0.01830088533461094,
        -0.0706290602684021,
        -0.07203167676925659,
        -0.018581829965114594,
        0.054882753640413284,
        -0.01810356415808201,
        -0.07173337787389755,
        -0.061026010662317276,
        -0.048645611852407455,
        -0.051177896559238434,
        0.004356361925601959,
        -0.007670368533581495,
        -0.04691725969314575,
        -0.01705300249159336,
        -0.04315924271941185,
        -0.005051456391811371,
        0.038986314088106155,
        -0.00790337286889553,
        -0.020479822531342506,
        0.02042553201317787,
        0.055905021727085114,
        0.07527509331703186,
        -0.03865384683012962,
        -0.0742989256978035,
        0.020995216444134712,
        0.03646381199359894,
        0.009285973384976387,
        0.08483065664768219,
        0.045845311135053635,
        0.00759272463619709,
        0.05793733149766922,
        0.061837512999773026,
        -0.04751298949122429,
        -0.06695106625556946,
        -0.002048803260549903,
        -0.029731180518865585,
        -0.05947590246796608
      ],
      [
        -0.0668596550822258,
        0.055455710738897324,
        -0.0373409166932106,
        -0.047743067145347595,
        0.055452123284339905,
        0.00912859570235014,
        0.015762612223625183,
        -0.028798844665288925,
        0.02287963218986988,
        0.05509573966264725,
        -0.05980099365115166,
        -0.01548562478274107,
        0.007325223181396723,
        0.07306940108537674,
        0.07224392890930176,
        0.05935075879096985,
        -0.033129338175058365,
        0.0013355910778045654,
        -0.0004455961752682924,
        -0.062079593539237976,
        -0.06254056096076965,
        -0.01602233573794365,
        -0.010833936743438244,
        0.03154108673334122,
        -0.08065705746412277,
        -0.04116116836667061,
        0.07171367853879929,
        0.013863981701433659,
        -0.061449188739061356,
        0.04333638772368431,
        -0.03324030712246895,
        -0.04839450865983963,
        -0.04026231914758682,
        -0.04751482233405113,
        -0.048868484795093536,
        0.016416436061263084,
        0.041822291910648346,
        0.047478605061769485,
        0.08712185174226761,
        0.07072899490594864,
        -0.04795859009027481,
        0.0733199194073677,
        -0.019644875079393387,
        0.049350012093782425,
        -0.040318168699741364,
        0.07602503895759583,
        -0.005058585200458765,
        0.029193388298153877,
        0.07800114899873734,
        -0.017626380547881126,
        0.033950917422771454,
        0.023556161671876907,
        -0.03229439631104469,
        0.000605940236710012,
        0.07453976571559906,
        0.021290870383381844,
        0.06355570256710052,
        0.04516974836587906,
        0.042790737003088,
        -0.03897731006145477,
        -0.020655035972595215,
        0.05602724850177765,
        0.02180815488100052,
        0.04663774371147156,
        0.06853078305721283,
        0.03899687901139259,
        0.034342993050813675,
        -0.035795606672763824,
        0.027733560651540756,
        0.0005280637415125966,
        0.059703413397073746,
        0.03528989106416702,
        -0.05632001534104347,
        0.05611706152558327,
        -0.012297134846448898,
        0.03590991720557213,
        -0.04078492522239685,
        -0.07878029346466064,
        0.03708215057849884,
        0.04317070171236992,
        0.0704072043299675,
        0.05252847075462341,
        0.04062272608280182,
        0.04781244695186615,
        0.02241109311580658,
        -0.04118017479777336,
        0.02048439159989357,
        -0.0692582055926323,
        -0.05169866606593132,
        0.07968677580356598,
        0.03547421470284462,
        0.033604562282562256,
        -0.007631137501448393,
        -0.08693966269493103,
        -0.026521295309066772,
        -0.0335012711584568,
        -0.030812546610832214,
        0.016050931066274643,
        -0.05530382692813873,
        -0.04960036277770996,
        -0.017745845019817352,
        -0.07755744457244873,
        -0.01576528511941433,
        -0.002844666363671422,
        -0.004752524197101593,
        -0.035234443843364716,
        -0.023168763145804405,
        0.06827206164598465,
        0.05061313509941101,
        0.019347043707966805,
        -0.06244813650846481,
        -0.054704293608665466,
        0.04152586683630943,
        0.00048571499064564705,
        -0.005751524120569229,
        -0.029331713914871216,
        -0.0630519837141037,
        -0.04761604592204094,
        0.052018072456121445,
        0.06639648973941803,
        0.05030786991119385,
        -0.05438370257616043,
        -0.0010645529255270958,
        -0.0761353075504303,
        -0.05201270058751106,
        -0.06391244381666183,
        0.027958732098340988,
        -0.08221203088760376
      ],
      [
        0.06310807168483734,
        0.06994719058275223,
        -0.008778727613389492,
        0.023577304556965828,
        0.029529158025979996,
        0.08118106424808502,
        0.0037401749286800623,
        0.07970075309276581,
        0.03411974385380745,
        -0.02753482572734356,
        0.06791059672832489,
        0.026451559737324715,
        0.03543698415160179,
        0.012392363511025906,
        -0.044343091547489166,
        0.07882479578256607,
        0.017760274931788445,
        -0.011262771673500538,
        0.02255454659461975,
        -0.04397580027580261,
        0.028284365311264992,
        -0.08474426716566086,
        0.05233323574066162,
        0.05964289605617523,
        -0.05303644388914108,
        0.03767614811658859,
        0.008797839283943176,
        -0.02993813529610634,
        0.08496033400297165,
        0.0006955794524401426,
        -0.055263031274080276,
        -0.08669035881757736,
        0.005917542614042759,
        -0.04364094138145447,
        -0.082366943359375,
        -0.06390544772148132,
        0.06391899287700653,
        -0.04661014676094055,
        -0.057265304028987885,
        -0.049193162471055984,
        0.004693263676017523,
        -0.0226378683000803,
        -0.06899207830429077,
        -0.05528375506401062,
        -0.059990882873535156,
        0.020119110122323036,
        0.001206340966746211,
        0.07443820685148239,
        0.035188596695661545,
        0.018912596628069878,
        0.07340079545974731,
        0.0160584207624197,
        -0.044210199266672134,
        0.07224877178668976,
        -0.03941527381539345,
        -0.0583590567111969,
        0.0670846700668335,
        0.07989353686571121,
        0.051411114633083344,
        -0.022158360108733177,
        0.08141863346099854,
        0.04725306108593941,
        0.014138973318040371,
        0.008377115242183208,
        0.04386648163199425,
        -0.04086662456393242,
        -0.031995989382267,
        0.05119810253381729,
        0.010334603488445282,
        -0.003656548447906971,
        -0.005688305012881756,
        0.0050310720689594746,
        0.08641257137060165,
        0.07743064314126968,
        -0.084480419754982,
        -0.06761709600687027,
        -0.06918178498744965,
        -0.004517225548624992,
        0.023016339167952538,
        -0.05029034987092018,
        0.04073859751224518,
        -0.08746929466724396,
        0.06038021296262741,
        -0.0008636278798803687,
        0.0288425050675869,
        0.06064620614051819,
        0.010719798505306244,
        -0.04449702054262161,
        -0.023497359827160835,
        0.07793506979942322,
        -0.01683438941836357,
        -0.0052938926964998245,
        -0.07304314523935318,
        -0.05653071030974388,
        -0.006363355088979006,
        0.021709907799959183,
        -0.052742019295692444,
        0.003351177554577589,
        0.08166000247001648,
        0.0817270502448082,
        0.0045339567586779594,
        0.08650495857000351,
        0.08363118767738342,
        0.04190876707434654,
        0.07232428342103958,
        0.014554174616932869,
        -0.032835815101861954,
        0.07006525993347168,
        0.028951406478881836,
        0.016877584159374237,
        -0.003356990171596408,
        -0.008641419000923634,
        -0.0732012391090393,
        -0.04160866513848305,
        -0.05990338698029518,
        -0.01586342789232731,
        0.04671008884906769,
        -0.04388505220413208,
        0.007406060118228197,
        -0.03531401604413986,
        -0.03598504886031151,
        0.027981532737612724,
        0.03542221337556839,
        0.07729139924049377,
        -0.016519645228981972,
        0.06544982641935349,
        -0.06326271593570709,
        0.012843147851526737
      ],
      [
        0.0026253184769302607,
        0.08367601782083511,
        0.044047143310308456,
        -0.045017439872026443,
        0.042379483580589294,
        0.0018986003706231713,
        -0.07017355412244797,
        -0.052215855568647385,
        -0.06288270652294159,
        0.07141777127981186,
        0.07510153949260712,
        -0.06565315276384354,
        0.04179611802101135,
        0.08510223031044006,
        -0.00807334203273058,
        0.05978858098387718,
        0.0669490322470665,
        0.04749109596014023,
        -0.037345144897699356,
        0.07564148306846619,
        0.02404448762536049,
        0.04368474707007408,
        -0.0780647024512291,
        0.03319945186376572,
        0.05212153121829033,
        -0.05996478348970413,
        -0.06091509759426117,
        -0.03528449311852455,
        0.043694961816072464,
        -0.03379017487168312,
        -0.01054629497230053,
        -0.08654854446649551,
        -0.02442110888659954,
        -0.03183199465274811,
        -0.08733421564102173,
        0.03736865893006325,
        0.006473044864833355,
        -0.07908745855093002,
        0.0396188348531723,
        0.055137526243925095,
        -0.05653192847967148,
        -0.034851476550102234,
        -0.038002658635377884,
        -0.02955290675163269,
        0.020245814695954323,
        0.06261055171489716,
        0.07124757021665573,
        -0.06785743683576584,
        0.08310879021883011,
        0.0031874270644038916,
        -0.08355860412120819,
        0.047996968030929565,
        0.06634987890720367,
        -0.014892985112965107,
        -0.08098392933607101,
        0.06372693926095963,
        -0.051007162779569626,
        -0.06424804776906967,
        -0.024937044829130173,
        -0.002985782455652952,
        0.01289527490735054,
        0.03301798179745674,
        0.029648495838046074,
        -0.010444140061736107,
        -0.05171474441885948,
        -0.02771785482764244,
        0.052473828196525574,
        0.020555591210722923,
        0.05356390029191971,
        0.003798294812440872,
        0.008640309795737267,
        -0.08387941122055054,
        -0.017415618523955345,
        -0.04693436250090599,
        -0.08659496903419495,
        0.06954948604106903,
        0.04894610494375229,
        0.07720015943050385,
        0.07076290249824524,
        0.05634837970137596,
        -0.046709880232810974,
        0.07110067456960678,
        -0.07538687437772751,
        0.023211002349853516,
        -0.06555242836475372,
        0.051625173538923264,
        -0.01790633052587509,
        0.06929178535938263,
        0.021706826984882355,
        0.058606430888175964,
        -0.01199136208742857,
        -0.07309258729219437,
        -0.08370797336101532,
        -0.08224818855524063,
        -0.04690910503268242,
        0.0768066868185997,
        0.03076418861746788,
        0.00795262586325407,
        0.06515107303857803,
        -0.0713530033826828,
        0.014753610827028751,
        0.04631704092025757,
        -0.08731898665428162,
        -0.08038890361785889,
        0.084633007645607,
        -0.0192976463586092,
        -0.07952633500099182,
        0.07314909994602203,
        0.00018076610285788774,
        0.04305245354771614,
        0.007700207643210888,
        0.03908747807145119,
        0.06524540483951569,
        0.03515133261680603,
        -0.07356655597686768,
        0.04841931164264679,
        -0.07194502651691437,
        0.04510293900966644,
        -0.07329592853784561,
        -0.022481704130768776,
        -0.010049717500805855,
        0.016296302899718285,
        0.05025439336895943,
        -0.06496116518974304,
        -0.07429385185241699,
        0.05560840293765068,
        -0.05911681428551674,
        -0.06824268400669098
      ],
      [
        -0.021456090733408928,
        -0.02570507861673832,
        -0.06900104135274887,
        -0.004833182319998741,
        0.02749931812286377,
        0.07669919729232788,
        0.027321072295308113,
        0.028097622096538544,
        0.011512143537402153,
        -0.04894162714481354,
        -0.01197015680372715,
        -0.0160274188965559,
        0.03329097852110863,
        0.046935658901929855,
        0.07571393996477127,
        -0.04439438134431839,
        0.00805901549756527,
        0.009437093511223793,
        -0.04646909236907959,
        0.05789606273174286,
        0.06580416858196259,
        0.012031382881104946,
        -0.05625079199671745,
        0.06701086461544037,
        0.0688084065914154,
        -0.04433002322912216,
        -0.04934655874967575,
        0.07957813888788223,
        -0.07894175499677658,
        -0.0066077979281544685,
        -0.005985292140394449,
        -0.02258691005408764,
        -0.06604734808206558,
        -0.04028114676475525,
        -0.0515141598880291,
        0.010608039796352386,
        0.05922478809952736,
        -0.05243900045752525,
        0.080192431807518,
        0.03803735598921776,
        -0.019483445212244987,
        0.061463966965675354,
        -0.020498421043157578,
        -0.029713908210396767,
        -0.08178440481424332,
        -0.030653035268187523,
        -0.031216764822602272,
        0.036695096641778946,
        -0.08083067834377289,
        0.08213243633508682,
        -0.000830886943731457,
        0.01930074393749237,
        -0.021071748808026314,
        -0.02554994821548462,
        -0.0605071559548378,
        -0.0032929820008575916,
        0.060740865767002106,
        0.022231729701161385,
        0.0273707527667284,
        -0.06327798962593079,
        0.04435541853308678,
        -0.026875855401158333,
        -0.06325378268957138,
        -0.04234165698289871,
        -0.06739133596420288,
        -0.021061990410089493,
        0.08208302408456802,
        -0.04161827638745308,
        -0.028896911069750786,
        0.0666084960103035,
        -0.031798433512449265,
        0.036007121205329895,
        0.06583049148321152,
        0.04613221436738968,
        0.04551837593317032,
        0.06157603859901428,
        -0.0005253907293081284,
        -0.07082920521497726,
        -0.05230538919568062,
        0.002932759001851082,
        -0.010180043056607246,
        0.020391957834362984,
        0.035693150013685226,
        -0.014580977149307728,
        0.04080672189593315,
        -0.08463628590106964,
        -0.0016944806557148695,
        -0.0740872472524643,
        0.033602166920900345,
        0.06271090358495712,
        -0.03369284048676491,
        -0.01558030303567648,
        0.03763711452484131,
        -0.038230977952480316,
        0.04273100197315216,
        -0.059018149971961975,
        -0.003755860263481736,
        -0.002240621019154787,
        -0.0772818922996521,
        -0.00824127160012722,
        -0.009522877633571625,
        0.0004949235590174794,
        0.08477006107568741,
        -0.012485595420002937,
        0.05027233809232712,
        -0.024542484432458878,
        -0.04820200055837631,
        -0.00829443521797657,
        -0.05064564198255539,
        -0.037422072142362595,
        -0.02172507531940937,
        0.004815572407096624,
        -0.05030503496527672,
        -0.04784802719950676,
        -0.06321115791797638,
        -0.05160811170935631,
        -0.07685581594705582,
        -0.06218397989869118,
        -0.026749921962618828,
        -0.013358489610254765,
        0.05896720662713051,
        -0.004832064267247915,
        -0.04923480376601219,
        -0.07301825284957886,
        -0.03418492153286934,
        0.0034587604459375143,
        -0.07115576416254044,
        -0.03613368794322014
      ],
      [
        0.008012019097805023,
        0.0817761942744255,
        -0.0007811461109668016,
        -0.0853852704167366,
        -0.06260290741920471,
        -0.0675305649638176,
        0.06018177047371864,
        0.055586643517017365,
        0.0008387078996747732,
        -0.05197355896234512,
        -0.03864873945713043,
        -0.05183267965912819,
        0.08066762238740921,
        -0.070778489112854,
        0.014607466757297516,
        0.040051400661468506,
        -0.07464585453271866,
        0.036099307239055634,
        0.042776938527822495,
        0.021443288773298264,
        0.08096926659345627,
        -0.04199652001261711,
        -0.08293906599283218,
        -0.05368552356958389,
        -0.07966471463441849,
        0.027485951781272888,
        0.020384525880217552,
        -0.03923404961824417,
        -0.03162180259823799,
        0.05000099167227745,
        -0.0010203358251601458,
        0.07271868735551834,
        -0.035045068711042404,
        0.010815012268722057,
        0.02323814667761326,
        -0.032542865723371506,
        0.06737295538187027,
        -0.026547694578766823,
        0.02765764854848385,
        -0.07004919648170471,
        0.02313147485256195,
        0.062316130846738815,
        -0.08436906337738037,
        0.08947329223155975,
        0.005433513782918453,
        0.08411893993616104,
        0.056012362241744995,
        0.04948488250374794,
        -0.005593083333224058,
        0.02891959249973297,
        0.030092140659689903,
        -0.05876903980970383,
        0.043578289449214935,
        0.07850601524114609,
        -0.028723157942295074,
        -0.05920107662677765,
        0.07609542459249496,
        0.08020943403244019,
        0.010235252790153027,
        -0.0639045313000679,
        -0.0025364570319652557,
        -0.0018117305589839816,
        0.060419708490371704,
        -0.08234146982431412,
        -0.05993817001581192,
        -0.00978128146380186,
        -0.012242475524544716,
        0.0050000958144664764,
        0.08685564994812012,
        0.06607683002948761,
        0.08474933356046677,
        -0.08529236912727356,
        0.07997140288352966,
        -0.06982797384262085,
        -0.024909628555178642,
        0.050480905920267105,
        -0.020149409770965576,
        -0.03801135718822479,
        0.003193584503605962,
        0.08530974388122559,
        -0.008389937691390514,
        -0.08471254259347916,
        -0.01976814493536949,
        -0.07480145990848541,
        0.003956705331802368,
        0.06669306010007858,
        0.07145172357559204,
        0.016903506591916084,
        -0.05963873490691185,
        -0.04887177422642708,
        0.046602122485637665,
        0.037774354219436646,
        -0.04975007846951485,
        0.023836273699998856,
        -0.030202601104974747,
        -0.06320226937532425,
        0.08418223261833191,
        0.04249380901455879,
        -0.03347960114479065,
        0.05161147564649582,
        -0.06344980001449585,
        0.048535626381635666,
        0.03333412855863571,
        -0.024451669305562973,
        -0.046227626502513885,
        0.007678203284740448,
        0.055013686418533325,
        0.007510795723646879,
        -0.06674957275390625,
        -0.05118719860911369,
        -0.008287522941827774,
        0.03510740399360657,
        0.051030419766902924,
        0.06572483479976654,
        0.07039406895637512,
        -0.006616232916712761,
        -0.04863344505429268,
        -0.06797858327627182,
        -0.002956220181658864,
        0.07720130681991577,
        0.036567509174346924,
        0.030982881784439087,
        0.01717800833284855,
        -0.07522713392972946,
        -0.023545291274785995,
        -0.04298785328865051,
        -0.07399407774209976,
        0.061998527497053146
      ],
      [
        0.05838952958583832,
        0.0008464787970297039,
        -0.05568119138479233,
        0.029612947255373,
        -0.06278189271688461,
        -0.07811179012060165,
        0.021755792200565338,
        0.024678336456418037,
        0.03292239084839821,
        0.08655430376529694,
        0.0651504397392273,
        -0.026988429948687553,
        0.0535619892179966,
        -0.07819410413503647,
        0.05585988238453865,
        -0.07877641171216965,
        -0.027818553149700165,
        0.0554012767970562,
        -0.00960497371852398,
        -0.06564752757549286,
        0.029644619673490524,
        0.06359338015317917,
        0.028927035629749298,
        0.05461426079273224,
        -0.03188028186559677,
        0.02783989906311035,
        -0.057182274758815765,
        -0.001298961928114295,
        0.0031987465918064117,
        -0.06166839599609375,
        0.013816719874739647,
        -0.038629695773124695,
        -0.041902199387550354,
        -0.08706605434417725,
        0.032350219786167145,
        0.05901022255420685,
        0.08935243636369705,
        0.07459772378206253,
        -0.07510440051555634,
        0.06542956829071045,
        0.08063772320747375,
        0.04679698124527931,
        0.05483601614832878,
        0.06348308175802231,
        0.05477868393063545,
        0.008333403617143631,
        -0.06455407291650772,
        0.011144869029521942,
        -0.0760805532336235,
        0.078084796667099,
        0.0819418877363205,
        -0.03075309470295906,
        0.08887629210948944,
        -0.015477686189115047,
        -0.06971663236618042,
        0.04763123393058777,
        0.07318395376205444,
        0.0778612270951271,
        0.04221276938915253,
        0.061570923775434494,
        0.04982971027493477,
        0.041942235082387924,
        -0.0746002048254013,
        -0.029261142015457153,
        0.011258949525654316,
        0.06943921744823456,
        -0.008879470638930798,
        0.040776174515485764,
        -0.08341598510742188,
        -0.04016413167119026,
        0.02683064714074135,
        0.024555649608373642,
        0.012998826801776886,
        0.008306331001222134,
        0.05286364257335663,
        -0.016106408089399338,
        0.05945899337530136,
        0.08920586109161377,
        -0.015073769725859165,
        -0.06920980662107468,
        0.017877833917737007,
        0.04242671653628349,
        0.043927211314439774,
        -0.07900949567556381,
        -0.009797845967113972,
        -0.0018749766750261188,
        0.0368083119392395,
        -0.011117606423795223,
        0.07134511321783066,
        -0.026627182960510254,
        0.057807162404060364,
        -0.08070828020572662,
        0.08587940782308578,
        0.015502196736633778,
        -0.04434281960129738,
        0.0595054104924202,
        -0.029783183708786964,
        -0.05053122341632843,
        -0.037927351891994476,
        0.08537887036800385,
        0.08141734451055527,
        0.02182122878730297,
        -0.009032299742102623,
        -0.05460086837410927,
        -0.030150961130857468,
        -0.08415569365024567,
        -0.08712225407361984,
        0.005826594308018684,
        0.06515226513147354,
        0.008754304610192776,
        -0.07036875933408737,
        -0.028395360335707664,
        0.05306408554315567,
        0.018424373120069504,
        0.016933059319853783,
        -0.0792938843369484,
        -0.024053551256656647,
        0.07274419069290161,
        -0.03478488698601723,
        -0.039448536932468414,
        -0.072283536195755,
        0.04702227935194969,
        0.025763126090168953,
        -0.009990137070417404,
        0.06257077306509018,
        0.05365559458732605,
        0.04670886695384979,
        0.04970652237534523
      ],
      [
        -0.012522238306701183,
        -0.03200361505150795,
        -0.04386647790670395,
        0.012246656231582165,
        -0.07147005200386047,
        -0.030806569382548332,
        -0.058159466832876205,
        0.028952203691005707,
        0.03521352261304855,
        -0.05672500655055046,
        0.03018164075911045,
        0.011070888489484787,
        0.07063201814889908,
        0.06841593235731125,
        0.05400852859020233,
        0.05857376009225845,
        0.007180477026849985,
        0.07892115414142609,
        -0.08650576323270798,
        0.06664054095745087,
        0.06832599639892578,
        0.04128778725862503,
        -0.0253110621124506,
        -0.019472988322377205,
        0.04531042277812958,
        0.0005731880664825439,
        0.064219169318676,
        0.02718113362789154,
        0.016075942665338516,
        -0.02199762687087059,
        -0.08273381739854813,
        -0.06813540309667587,
        -0.07352124154567719,
        -0.07693924754858017,
        -0.054339125752449036,
        -0.020184405148029327,
        0.05739074945449829,
        0.016525259241461754,
        0.04140762239694595,
        -0.06857310980558395,
        0.08017947524785995,
        0.07652762532234192,
        0.07091482728719711,
        -0.030287915840744972,
        0.0016901615308597684,
        0.017226435244083405,
        -0.0336034819483757,
        0.035844191908836365,
        -0.015766950324177742,
        -0.07521025091409683,
        -0.025394851341843605,
        0.0865878090262413,
        0.038501616567373276,
        0.039570122957229614,
        0.017002325505018234,
        0.02799157239496708,
        0.029817648231983185,
        -0.05440206080675125,
        0.010533031076192856,
        -0.026856331154704094,
        -0.06259524822235107,
        -0.0668182298541069,
        -0.018420999869704247,
        -0.08214278519153595,
        -0.08529044687747955,
        0.08106891065835953,
        0.004296891391277313,
        0.0001157846418209374,
        -0.07208804041147232,
        0.021182918921113014,
        0.07181806862354279,
        0.0876028761267662,
        -0.07576315104961395,
        -0.02642332948744297,
        0.06848707050085068,
        0.07738912105560303,
        0.08385007828474045,
        -0.0819469764828682,
        -0.07297933101654053,
        -0.04742177948355675,
        0.0450129397213459,
        -0.07474067807197571,
        0.012166433967649937,
        0.05389648675918579,
        0.017380692064762115,
        -0.021640310063958168,
        0.04431277886033058,
        0.010192527435719967,
        0.05009645223617554,
        -0.05764952301979065,
        0.05700283125042915,
        0.007697835098952055,
        -0.06920504570007324,
        0.023307032883167267,
        -0.061599504202604294,
        0.07553128153085709,
        0.02071765996515751,
        -0.06939981877803802,
        0.001257966156117618,
        -0.011941867880523205,
        -0.032925017178058624,
        -0.08488187193870544,
        -0.058784011751413345,
        -0.07536537945270538,
        0.01804824359714985,
        0.003613781649619341,
        0.012135934084653854,
        -0.08844440430402756,
        -0.05729544907808304,
        -0.05546233803033829,
        0.008940601721405983,
        -0.07667800039052963,
        0.05976577475667,
        -0.0552184134721756,
        0.020184684544801712,
        0.0790204107761383,
        -0.03236864134669304,
        0.0775647833943367,
        -0.07618971914052963,
        0.006636530160903931,
        -0.0845477432012558,
        -0.01022720243781805,
        0.0862695500254631,
        0.06592752039432526,
        0.009783626534044743,
        -0.04162675514817238,
        0.04867551103234291,
        -0.06751781702041626
      ],
      [
        0.056357208639383316,
        -0.06710318475961685,
        -0.06856372952461243,
        0.0782807394862175,
        -0.06473378092050552,
        -0.04212966188788414,
        0.015831084921956062,
        -0.0048680552281439304,
        0.005651961080729961,
        -0.047458749264478683,
        -0.03339904174208641,
        0.08452476561069489,
        0.06386741250753403,
        -0.06846832484006882,
        0.00012655628961510956,
        -0.06858848035335541,
        0.06240837648510933,
        -0.00039061313145793974,
        -0.044336844235658646,
        0.07849545776844025,
        0.04825335741043091,
        -0.015749819576740265,
        -0.03091845102608204,
        0.009370364248752594,
        -0.05502308905124664,
        7.485022069886327e-05,
        -0.028018653392791748,
        -0.06915096193552017,
        0.051594559103250504,
        -0.05407731607556343,
        -0.038274507969617844,
        -0.06399638950824738,
        0.016365261748433113,
        0.04321019724011421,
        0.04000299796462059,
        -0.022449573501944542,
        0.01347721554338932,
        -0.07188816368579865,
        -0.08048038929700851,
        -0.025764215737581253,
        -0.06659996509552002,
        -0.020045839250087738,
        0.08194231986999512,
        -0.0698159858584404,
        -0.062404945492744446,
        0.04945169389247894,
        -0.04403600096702576,
        0.034751590341329575,
        -0.014005694538354874,
        -0.07665711641311646,
        0.027356673032045364,
        -0.022731654345989227,
        -0.051572687923908234,
        0.0674084797501564,
        -0.010512243956327438,
        0.025339582934975624,
        -0.0007826540968380868,
        -0.05814622342586517,
        0.0036052719224244356,
        0.03392958268523216,
        -0.007698267698287964,
        0.005645399913191795,
        0.028035663068294525,
        0.054040443152189255,
        0.004737252835184336,
        -0.01211597677320242,
        -0.054100241512060165,
        -0.032954275608062744,
        -0.0377504825592041,
        -0.040870703756809235,
        -0.06142807379364967,
        -0.00202603405341506,
        -0.05336860194802284,
        0.010136513039469719,
        0.025195833295583725,
        0.0696454644203186,
        0.0017353901639580727,
        0.06385671347379684,
        -0.056175436824560165,
        -0.024484355002641678,
        -0.03541208431124687,
        -0.030020393431186676,
        -0.06791165471076965,
        -0.07680103927850723,
        -0.06401561945676804,
        0.07806205749511719,
        -0.04176590219140053,
        0.040770646184682846,
        0.027440443634986877,
        0.0128879863768816,
        0.015137452632188797,
        -0.014793177135288715,
        -0.027673346921801567,
        0.009489438496530056,
        -0.08248689770698547,
        0.04564739391207695,
        -0.006430401466786861,
        -0.0613577738404274,
        0.08585664629936218,
        -0.06817414611577988,
        -0.032488204538822174,
        0.015392448753118515,
        0.05629406124353409,
        -0.00808664783835411,
        -0.011302121914923191,
        0.0653686374425888,
        0.07053326815366745,
        -0.0044553535990417,
        -0.05341845750808716,
        -0.06500793993473053,
        0.03262443467974663,
        -0.05979170277714729,
        0.027428030967712402,
        0.00035341191687621176,
        0.037130795419216156,
        -0.063064806163311,
        -0.0764862447977066,
        -0.03934585303068161,
        -0.03743258863687515,
        0.08781777322292328,
        -0.007077830843627453,
        -0.021863430738449097,
        -0.05461421608924866,
        -0.02252289652824402,
        0.025397442281246185,
        -0.04847748205065727,
        0.06870045512914658,
        -0.05599603429436684
      ],
      [
        -0.08288508653640747,
        0.04488012194633484,
        0.0488569401204586,
        0.08479411900043488,
        -0.07732459902763367,
        0.011115741916000843,
        0.02144746668636799,
        -0.015605347231030464,
        -0.02327815443277359,
        0.029086081311106682,
        0.008257160894572735,
        0.0037147002294659615,
        0.027834363281726837,
        0.0581149198114872,
        -0.0007648322498425841,
        0.0382649190723896,
        -0.018962014466524124,
        0.0153528843075037,
        0.05671219155192375,
        0.031986262649297714,
        -0.03986876457929611,
        -0.08459258079528809,
        -0.018008990213274956,
        0.07391773164272308,
        0.0626385286450386,
        0.012353411875665188,
        0.025658955797553062,
        -0.04392945393919945,
        -0.04621661826968193,
        0.0011262251064181328,
        0.055081386119127274,
        0.08579842001199722,
        0.05104773864150047,
        -0.0870547741651535,
        0.05494129657745361,
        0.0018451663199812174,
        -0.044567275792360306,
        -0.08749961107969284,
        0.0287341121584177,
        -0.0698341429233551,
        0.014771470800042152,
        0.08558135479688644,
        -0.06165272742509842,
        0.031974416226148605,
        -0.06535756587982178,
        -0.02829461544752121,
        0.06656433641910553,
        0.040029820054769516,
        0.023959685117006302,
        -0.05236594006419182,
        0.08207455277442932,
        -0.0513974092900753,
        0.06383519619703293,
        -0.06622687727212906,
        -0.0689522847533226,
        0.046634599566459656,
        0.062186066061258316,
        -0.06719120591878891,
        0.045221421867609024,
        0.012746906839311123,
        0.03380456566810608,
        0.022153690457344055,
        0.008307216688990593,
        0.034452058374881744,
        -0.06624607741832733,
        0.04570375755429268,
        -0.019123965874314308,
        -0.052588921040296555,
        0.039177801460027695,
        0.06973794847726822,
        0.06770303845405579,
        0.07039541751146317,
        -0.07373256981372833,
        -0.01661701127886772,
        0.053410518914461136,
        -0.028292667120695114,
        0.07952505350112915,
        -0.027111083269119263,
        0.07111642509698868,
        0.014083991758525372,
        -0.0089779207482934,
        -0.009395446628332138,
        0.023564191535115242,
        0.07512680441141129,
        0.006046097259968519,
        -0.061513714492321014,
        0.051975056529045105,
        0.0037430778611451387,
        -0.08627432584762573,
        0.08865327388048172,
        -0.059988833963871,
        0.06537207961082458,
        -0.07713084667921066,
        0.004423388279974461,
        0.06339932233095169,
        -0.007444157265126705,
        -0.07825775444507599,
        -0.07399667799472809,
        0.024029681459069252,
        0.006839259061962366,
        0.0685945376753807,
        0.023744208738207817,
        0.043890468776226044,
        0.005326363258063793,
        -0.03297330066561699,
        -0.07354690879583359,
        -0.051136456429958344,
        -0.06409706175327301,
        -0.05735227093100548,
        -0.026314174756407738,
        -0.028866779059171677,
        0.01531082671135664,
        -0.08602432906627655,
        0.044784512370824814,
        0.038241636008024216,
        0.019969483837485313,
        0.0022916640155017376,
        -0.054987844079732895,
        -0.08296597003936768,
        0.00017569228657521307,
        0.01733778603374958,
        0.005941866897046566,
        0.008197080343961716,
        -0.060160331428050995,
        0.05797751620411873,
        -0.06407710909843445,
        0.06405766308307648,
        -0.07238335907459259
      ],
      [
        -0.0774037092924118,
        -0.0045333560556173325,
        -0.032166581600904465,
        -0.05515013635158539,
        -0.058589547872543335,
        0.08261722326278687,
        -0.07895982265472412,
        0.021587077528238297,
        0.07204268872737885,
        0.05152900889515877,
        0.08180329203605652,
        0.01956525444984436,
        -0.08062215149402618,
        -0.04720412939786911,
        0.01152705866843462,
        -0.03090110793709755,
        0.009568355977535248,
        -0.04277022182941437,
        -0.021684015169739723,
        -0.047107797116041183,
        0.010376781225204468,
        -0.06676578521728516,
        -0.032857272773981094,
        0.03872988373041153,
        -0.003538227640092373,
        0.05830737575888634,
        -0.032792914658784866,
        0.06884904950857162,
        -0.015713375061750412,
        0.021637437865138054,
        -0.044239286333322525,
        0.04351820796728134,
        0.0158554520457983,
        0.02334647625684738,
        0.050608910620212555,
        -0.01545498427003622,
        -0.0893353670835495,
        -0.022736303508281708,
        -0.02304682321846485,
        0.07599573582410812,
        0.008432715199887753,
        0.04293364658951759,
        0.048548609018325806,
        -0.02554710954427719,
        -0.012107742950320244,
        0.07201947271823883,
        0.08210665732622147,
        -0.004574067424982786,
        0.08545788377523422,
        0.02383146807551384,
        0.0793771892786026,
        -0.005636191926896572,
        0.05291643738746643,
        0.037297673523426056,
        0.055629000067710876,
        0.04546443745493889,
        0.056378476321697235,
        -0.0017542657442390919,
        -0.016433551907539368,
        -0.0414421372115612,
        -0.020890329033136368,
        0.009941762313246727,
        -0.08336417376995087,
        0.06386193633079529,
        0.08356598764657974,
        0.04591972380876541,
        0.008435853756964207,
        -0.05498303845524788,
        0.01015980914235115,
        -0.00877055898308754,
        0.006764543242752552,
        0.07961548864841461,
        -0.00020018170471303165,
        -0.06713967025279999,
        0.04756058007478714,
        -0.08204195648431778,
        0.027298875153064728,
        0.042962200939655304,
        0.07752139121294022,
        -0.06891431659460068,
        0.08163908869028091,
        -0.06091335415840149,
        0.02914898470044136,
        -0.07637212425470352,
        0.06735046952962875,
        -0.07329831272363663,
        0.07595241814851761,
        0.04558401554822922,
        0.0532982274889946,
        -0.0659962147474289,
        -0.05864572897553444,
        -0.07530480623245239,
        0.0015520516317337751,
        0.009551620110869408,
        0.016752323135733604,
        0.00836062990128994,
        -0.03264457359910011,
        -0.06425260752439499,
        0.047115352004766464,
        0.0620320700109005,
        -0.0357639342546463,
        0.02957049198448658,
        -0.028094707056879997,
        0.06852567195892334,
        0.015520201995968819,
        0.05362366512417793,
        0.00929215457290411,
        0.029600447043776512,
        0.04861035943031311,
        -0.04978080466389656,
        0.0156717486679554,
        0.06998410820960999,
        -0.04232092946767807,
        0.017939511686563492,
        -0.08653951436281204,
        0.039491552859544754,
        -0.01263816561549902,
        -0.002601832151412964,
        0.04907701164484024,
        0.07158505171537399,
        0.006771926302462816,
        -0.019104432314634323,
        0.02119162492454052,
        -0.01845717616379261,
        -0.08165350556373596,
        0.0864153727889061,
        0.06137601658701897,
        -0.06865405291318893
      ],
      [
        0.055713046342134476,
        0.04087270796298981,
        0.04684301093220711,
        -0.07987850904464722,
        -0.0017033062176778913,
        -0.05523477867245674,
        -0.08668623119592667,
        -0.06041821092367172,
        -0.072734534740448,
        0.035684943199157715,
        -0.01680275984108448,
        -0.04388708993792534,
        0.0018583879573270679,
        0.06978349387645721,
        0.023611947894096375,
        -0.04269781336188316,
        0.07890591770410538,
        -0.06263040006160736,
        -0.06723350286483765,
        0.05355966463685036,
        -0.08288364857435226,
        -0.07117609679698944,
        0.07776425778865814,
        0.08071534335613251,
        0.06651290506124496,
        -0.029729671776294708,
        -0.08232923597097397,
        0.07910992205142975,
        -0.07601754367351532,
        -0.031153634190559387,
        0.051203373819589615,
        -0.008132503367960453,
        0.06437554210424423,
        0.08877784013748169,
        0.0039444575086236,
        0.05041014030575752,
        0.08079341053962708,
        0.005944644100964069,
        -0.0458550751209259,
        0.0018379222601652145,
        -0.03165600076317787,
        0.052763164043426514,
        -0.003705814713612199,
        0.06556385010480881,
        -0.0350228026509285,
        -0.06591079384088516,
        -0.05661115050315857,
        0.05341276898980141,
        -0.05008985102176666,
        0.03518954664468765,
        0.05809619650244713,
        -0.023505207151174545,
        0.005884803831577301,
        -0.043184794485569,
        0.08529791235923767,
        0.012910829856991768,
        -0.07396602630615234,
        -0.059352245181798935,
        -0.039604004472494125,
        0.06288828700780869,
        -0.05662833899259567,
        -0.013522080145776272,
        -0.06414087116718292,
        -0.0552227646112442,
        -0.06700272113084793,
        0.06645314395427704,
        -0.04997062310576439,
        -0.0766635462641716,
        -0.008664512075483799,
        -0.07078302651643753,
        -0.0688483715057373,
        -0.02643543854355812,
        -0.04241004213690758,
        -0.06693664193153381,
        -0.0545293428003788,
        -0.06467527896165848,
        0.018647052347660065,
        -0.017330344766378403,
        -0.07331988215446472,
        0.021132560446858406,
        -0.06333397328853607,
        0.0614018589258194,
        -0.08891009539365768,
        -0.06336244940757751,
        -0.017091941088438034,
        -0.06620139628648758,
        0.04669588804244995,
        -0.05122153088450432,
        0.00364904897287488,
        0.08008027076721191,
        0.004119682125747204,
        0.04572971165180206,
        -0.08142737299203873,
        0.05330387130379677,
        0.04156259447336197,
        -0.03391852229833603,
        -0.0171097069978714,
        -0.01811772957444191,
        -0.0791897252202034,
        0.04211077839136124,
        0.006358673796057701,
        -0.049784235656261444,
        0.05812664330005646,
        -0.018248794600367546,
        -0.02606378123164177,
        0.050961025059223175,
        -0.06391526758670807,
        -0.07921953499317169,
        -0.07028128206729889,
        -0.046077556908130646,
        0.07003933936357498,
        -0.009756393730640411,
        0.03209596127271652,
        -0.05169748142361641,
        0.0018333049956709146,
        0.0820719376206398,
        0.05379606410861015,
        -0.00481179216876626,
        -0.019946599379181862,
        -0.027086976915597916,
        -0.03170232102274895,
        0.007297437638044357,
        0.07565823942422867,
        -0.011370155028998852,
        0.01596629060804844,
        -0.06010483577847481,
        0.08281905949115753,
        0.015071921981871128
      ],
      [
        0.08004418015480042,
        0.0658145397901535,
        -0.05487440899014473,
        -0.06710321456193924,
        0.07576340436935425,
        -0.029891997575759888,
        0.029021533206105232,
        -0.06976757943630219,
        0.021989285945892334,
        -0.05471909046173096,
        0.013629505410790443,
        0.08691240847110748,
        -0.04447227716445923,
        0.0398901030421257,
        0.060809120535850525,
        0.021555811166763306,
        -0.00607409980148077,
        0.017346233129501343,
        -0.018706651404500008,
        -0.08801072090864182,
        0.05950348451733589,
        -0.019605368375778198,
        0.0847277045249939,
        0.07523687183856964,
        -0.012018121778964996,
        0.05911540985107422,
        -0.021456245332956314,
        -0.0023964166175574064,
        -0.0734763815999031,
        0.08478721231222153,
        0.045529887080192566,
        -0.076228566467762,
        0.03321771323680878,
        -0.02391589805483818,
        0.05510151386260986,
        0.005737493745982647,
        -0.021023618057370186,
        -0.012886038981378078,
        -0.014716031029820442,
        -0.032160837203264236,
        -0.0565623976290226,
        -0.02936607599258423,
        0.011341487057507038,
        -0.07747436314821243,
        0.07005944103002548,
        -0.0025772019289433956,
        0.06358151137828827,
        -0.04841526970267296,
        0.04250140115618706,
        0.025116601958870888,
        -0.02067025750875473,
        -0.03513181209564209,
        0.02928316593170166,
        -0.046252574771642685,
        -0.08885341882705688,
        0.04562430828809738,
        0.06922030448913574,
        0.03870256245136261,
        -0.07252329587936401,
        -0.00015943724429234862,
        0.008237737230956554,
        0.07889655977487564,
        -0.059747014194726944,
        0.008552982471883297,
        -0.004087280016392469,
        0.05965544283390045,
        -0.07696381211280823,
        0.042014818638563156,
        0.05080557242035866,
        0.07898502796888351,
        0.06011200696229935,
        -0.046727683395147324,
        -0.038488566875457764,
        -0.04066081345081329,
        0.023263119161128998,
        -0.0016541981603950262,
        -0.06906992197036743,
        -0.08745459467172623,
        -0.009482013061642647,
        -0.08718108385801315,
        -0.019062474370002747,
        -0.006841582711786032,
        -0.0021564774215221405,
        -0.08369546383619308,
        0.040171898901462555,
        0.01939374767243862,
        0.013153992593288422,
        -0.01063800510019064,
        0.06811240315437317,
        0.06933935731649399,
        -0.054940756410360336,
        0.024627117440104485,
        -0.06195228546857834,
        -0.05689293518662453,
        -0.03810982406139374,
        -0.028942152857780457,
        0.08552055805921555,
        0.08260663598775864,
        -0.030601033940911293,
        0.05083145573735237,
        0.08520904183387756,
        0.04569453373551369,
        0.05573124811053276,
        0.06238148361444473,
        0.07231537252664566,
        0.003080228576436639,
        0.059807661920785904,
        0.06367694586515427,
        -0.03249933570623398,
        -0.05000823363661766,
        0.013450664468109608,
        -0.055046096444129944,
        0.020057177171111107,
        -0.03555731475353241,
        -0.059313707053661346,
        0.07573908567428589,
        0.08479456603527069,
        0.05100829899311066,
        0.08012940734624863,
        0.008023165166378021,
        0.024456024169921875,
        -0.06168503314256668,
        -0.010197659023106098,
        -0.08653178811073303,
        0.038966044783592224,
        -0.03836365416646004,
        -0.03998424857854843,
        0.06679917126893997
      ],
      [
        0.07748064398765564,
        0.04494712874293327,
        0.008754194714128971,
        0.056749261915683746,
        0.0564211867749691,
        0.029057618230581284,
        0.02180766873061657,
        0.011894256807863712,
        0.05394044518470764,
        -0.07165328413248062,
        0.03427205979824066,
        0.01970290020108223,
        0.08736635744571686,
        -0.040072038769721985,
        -0.017230767756700516,
        0.07157845795154572,
        0.03994841128587723,
        -0.03693411499261856,
        -0.07811031490564346,
        -0.040244948118925095,
        0.036627043038606644,
        0.08710913360118866,
        0.0867081806063652,
        -0.04446680471301079,
        -0.06001479551196098,
        0.05525210499763489,
        -0.007820382714271545,
        0.06030451878905296,
        -0.06687939167022705,
        0.03155012056231499,
        -0.024458764120936394,
        -0.013338538818061352,
        -0.047314923256635666,
        -0.08643309772014618,
        -0.05874478816986084,
        -0.004459427669644356,
        -0.07336021959781647,
        -0.01865147240459919,
        -0.027482185512781143,
        0.004842749331146479,
        0.07305442541837692,
        -0.009647425264120102,
        0.008142956532537937,
        -0.08839696645736694,
        0.014879127033054829,
        -0.07830183953046799,
        0.023591188713908195,
        -0.06979768723249435,
        -0.08048495650291443,
        -0.03976213559508324,
        0.06032664701342583,
        0.04207777976989746,
        0.07700151205062866,
        -0.0039837546646595,
        -0.03446036949753761,
        0.0205003023147583,
        -0.05676054581999779,
        0.056373678147792816,
        0.08267806470394135,
        -0.05119289085268974,
        0.08051210641860962,
        -0.033686257898807526,
        0.045549917966127396,
        -0.031777046620845795,
        -0.03727753460407257,
        0.022234991192817688,
        0.026274217292666435,
        0.021799756214022636,
        -0.016880333423614502,
        0.076748788356781,
        -0.039356473833322525,
        0.012676678597927094,
        0.03465284779667854,
        -0.08545592427253723,
        0.0353081189095974,
        -0.05264114961028099,
        0.0372210256755352,
        -0.0609612911939621,
        -0.0072438353672623634,
        -0.07400039583444595,
        0.020001737400889397,
        0.07924744486808777,
        0.055727455765008926,
        -0.04799793288111687,
        0.0649656355381012,
        0.017017750069499016,
        0.0015372327761724591,
        -0.024891220033168793,
        0.085948646068573,
        -0.06774082034826279,
        0.07019311189651489,
        0.0658651813864708,
        0.01940883696079254,
        0.0267932191491127,
        -0.04821468144655228,
        0.03816146403551102,
        0.004780346993356943,
        -0.042495351284742355,
        0.025543678551912308,
        0.08189842849969864,
        0.026218734681606293,
        -0.06291677802801132,
        0.04619590938091278,
        0.028152305632829666,
        -0.02383442223072052,
        -0.0326058454811573,
        0.04716651141643524,
        0.07097755372524261,
        -0.033819492906332016,
        -0.05895712971687317,
        0.08102786540985107,
        -0.06611024588346481,
        0.0035399440675973892,
        -0.03782932832837105,
        0.014142099767923355,
        -0.057167816907167435,
        0.05344410240650177,
        0.06427235156297684,
        -0.06269839406013489,
        0.02792496234178543,
        0.01073315180838108,
        0.08540437370538712,
        -0.06635697185993195,
        -0.057066161185503006,
        -0.018327461555600166,
        -0.06655046343803406,
        -0.028970928862690926,
        -0.048089850693941116
      ],
      [
        0.008331489749252796,
        0.030787985771894455,
        -0.011936897411942482,
        0.034917548298835754,
        0.054700758308172226,
        -0.0764044001698494,
        -0.04555633291602135,
        0.08473782986402512,
        0.05743137374520302,
        -0.0848989486694336,
        0.05275063216686249,
        -0.0803404375910759,
        0.06409981846809387,
        0.05057014152407646,
        0.01937069371342659,
        -0.08275038003921509,
        -0.055324893444776535,
        0.08807716518640518,
        -0.06180189922451973,
        -0.0772787407040596,
        -0.07707159221172333,
        -0.0010114464676007628,
        0.044038932770490646,
        -0.04968356713652611,
        0.06182657182216644,
        0.0662010908126831,
        -0.044499337673187256,
        -0.0468159094452858,
        0.04796081781387329,
        0.05680300295352936,
        0.013561827130615711,
        0.04268946126103401,
        0.02295841835439205,
        -0.05796993896365166,
        -0.0786474198102951,
        -0.07176889479160309,
        -0.08949442952871323,
        -0.05576927214860916,
        -0.05063707008957863,
        -0.010744676925241947,
        -0.06466516852378845,
        0.07936710119247437,
        -0.05201079696416855,
        0.028798464685678482,
        -0.07659465074539185,
        -0.015624189749360085,
        -0.060159098356962204,
        0.07684607058763504,
        -0.039350610226392746,
        -0.02510715089738369,
        0.06811178475618362,
        -0.003984449431300163,
        0.05905500426888466,
        -0.044828057289123535,
        -0.05394957587122917,
        0.06493394076824188,
        0.04344920814037323,
        0.03764607384800911,
        0.06276247650384903,
        0.011126700788736343,
        0.04322117194533348,
        -0.04293721541762352,
        -0.019451182335615158,
        0.07663512974977493,
        -0.0679471343755722,
        0.00295388069935143,
        -0.06400823593139648,
        0.053165003657341,
        0.08706413954496384,
        0.05903036892414093,
        0.024659862741827965,
        -0.05532855540513992,
        -0.01627279259264469,
