{
  "policy_type": "mappo_timeout_policy",
  "algorithm": "mappo_ctde_shared_actor_centralized_critic",
  "episodes": 4,
  "nodes": 6,
  "seed": 7,
  "features": [
    "bias",
    "rtt_norm",
    "loss_rate",
    "log_gap_norm",
    "recent_split"
  ],
  "global_features": [
    "node_count_norm",
    "alive_fraction",
    "mean_rtt_norm",
    "mean_loss",
    "mean_log_gap_norm",
    "recent_split"
  ],
  "arms": {
    "very_short": [
      150.0,
      230.0
    ],
    "short": [
      280.0,
      420.0
    ],
    "medium": [
      520.0,
      760.0
    ],
    "long": [
      900.0,
      1300.0
    ],
    "very_long": [
      1450.0,
      2100.0
    ]
  },
  "actor_critic": {
    "actor.0.weight": [
      [
        0.03243790939450264,
        -0.26819753646850586,
        0.14360415935516357,
        0.14032691717147827,
        -0.2378302663564682
      ],
      [
        -0.06582692265510559,
        -0.26078876852989197,
        0.11724112182855606,
        -0.12046489119529724,
        0.31536075472831726
      ],
      [
        0.318674236536026,
        0.04672618582844734,
        -0.18949279189109802,
        -0.2626759111881256,
        -0.0479314886033535
      ],
      [
        -0.12706050276756287,
        0.19591204822063446,
        -0.3830760419368744,
        0.4203088879585266,
        -0.3520096242427826
      ],
      [
        0.3412662446498871,
        -0.0788453072309494,
        0.22885693609714508,
        0.1742769479751587,
        0.019922660663723946
      ],
      [
        0.08218847960233688,
        0.3384164273738861,
        0.11381245404481888,
        0.23726797103881836,
        -0.3471493124961853
      ],
      [
        0.31716591119766235,
        0.15271903574466705,
        0.11208193004131317,
        0.061780452728271484,
        0.21920359134674072
      ],
      [
        0.41193917393684387,
        -0.09831085801124573,
        -0.2479446828365326,
        -0.1125170886516571,
        -0.27136969566345215
      ],
      [
        0.21633318066596985,
        -0.22214291989803314,
        -0.23980745673179626,
        0.3858681917190552,
        0.40803876519203186
      ],
      [
        0.05023248866200447,
        -0.07864392548799515,
        -0.05893123522400856,
        0.2118561863899231,
        -0.4164365231990814
      ],
      [
        -0.3642861545085907,
        0.35843390226364136,
        0.44270315766334534,
        -0.02657565474510193,
        -0.3521776795387268
      ],
      [
        0.01342239324003458,
        -0.20684997737407684,
        0.0003425061295274645,
        0.2188948392868042,
        0.199171781539917
      ],
      [
        -0.05364416539669037,
        0.04803493991494179,
        0.12050182372331619,
        -0.3505365252494812,
        -0.15282486379146576
      ],
      [
        0.01630767621099949,
        -0.2563859522342682,
        -0.19651514291763306,
        0.15020906925201416,
        0.2585853934288025
      ],
      [
        0.005062943324446678,
        -0.17516113817691803,
        0.24365854263305664,
        -0.24514959752559662,
        -0.10380322486162186
      ],
      [
        0.42309141159057617,
        0.08356587588787079,
        0.03271249309182167,
        0.1507623791694641,
        -0.10785866528749466
      ],
      [
        0.38382911682128906,
        -0.3635531961917877,
        -0.12181688845157623,
        -0.07730865478515625,
        -0.1828157603740692
      ],
      [
        -0.11188710480928421,
        0.275962769985199,
        0.2441842257976532,
        0.02486664056777954,
        0.38840994238853455
      ],
      [
        -0.31695881485939026,
        -0.26787519454956055,
        0.2008562982082367,
        -0.024037688970565796,
        -0.40874186158180237
      ],
      [
        -0.3107467591762543,
        -0.2734508514404297,
        0.344142347574234,
        0.20252758264541626,
        0.34476765990257263
      ],
      [
        -0.3317563533782959,
        -0.4348377287387848,
        -0.2920936048030853,
        0.0478435754776001,
        -0.08952978998422623
      ],
      [
        -0.280821830034256,
        0.32435742020606995,
        -0.14542202651500702,
        -0.2586582899093628,
        0.20537926256656647
      ],
      [
        -0.12169080227613449,
        0.28390854597091675,
        0.10538513958454132,
        0.011033177375793457,
        0.0926893875002861
      ],
      [
        -0.3371877372264862,
        -0.2381221204996109,
        -0.20902788639068604,
        -0.25305303931236267,
        0.08050310611724854
      ],
      [
        0.09054795652627945,
        -0.1846139132976532,
        0.29273587465286255,
        -0.24882827699184418,
        0.09148813039064407
      ],
      [
        -0.12890350818634033,
        -0.38912856578826904,
        -0.2924049198627472,
        0.1826770305633545,
        0.17577163875102997
      ],
      [
        -0.2777366638183594,
        -0.14065305888652802,
        -0.41927218437194824,
        0.24039655923843384,
        0.38790372014045715
      ],
      [
        0.14745162427425385,
        -0.2755112648010254,
        0.23708868026733398,
        0.3711361885070801,
        -0.09029310196638107
      ],
      [
        -0.0745122879743576,
        0.15358635783195496,
        0.056330930441617966,
        -0.14780926704406738,
        -0.41635996103286743
      ],
      [
        -0.31238868832588196,
        0.025417234748601913,
        -0.022791607305407524,
        0.36929309368133545,
        0.016507253050804138
      ],
      [
        -0.11394757032394409,
        -0.4357685446739197,
        -0.40997985005378723,
        0.18577289581298828,
        0.39953455328941345
      ],
      [
        -0.005602162331342697,
        -0.39857399463653564,
        0.15993483364582062,
        0.3642449975013733,
        -0.29478710889816284
      ],
      [
        -0.1165417730808258,
        0.03881508484482765,
        -0.2538398504257202,
        -0.4146755039691925,
        0.19696401059627533
      ],
      [
        -0.36580130457878113,
        -0.11105770617723465,
        -0.23626667261123657,
        0.3363223671913147,
        0.08754690736532211
      ],
      [
        0.20859593152999878,
        -0.30163753032684326,
        0.3780727982521057,
        0.03984677791595459,
        -0.2470153421163559
      ],
      [
        -0.028061004355549812,
        -0.31545698642730713,
        -0.019447915256023407,
        0.2497280240058899,
        -0.199946328997612
      ],
      [
        0.3768285810947418,
        0.13756044209003448,
        -0.0777939110994339,
        0.13969993591308594,
        -0.08118923753499985
      ],
      [
        -0.1051429957151413,
        -0.29460883140563965,
        0.259380578994751,
        0.2684593200683594,
        0.15432652831077576
      ],
      [
        0.2656964361667633,
        0.4479888081550598,
        0.4223029911518097,
        -0.43157798051834106,
        0.10317613929510117
      ],
      [
        -0.03709278628230095,
        0.15305128693580627,
        -0.08553514629602432,
        0.1248214840888977,
        -0.41256430745124817
      ],
      [
        0.20560592412948608,
        0.4308434724807739,
        -0.07924523949623108,
        -0.3557254672050476,
        -0.3729575276374817
      ],
      [
        -0.08459024876356125,
        -0.005564215127378702,
        0.05107675492763519,
        0.05611211061477661,
        0.3356683552265167
      ],
      [
        -0.08233361691236496,
        0.1264248788356781,
        -0.2388772815465927,
        0.4398534893989563,
        0.1704167276620865
      ],
      [
        -0.0608196035027504,
        0.2951827049255371,
        0.15951068699359894,
        0.07669615745544434,
        -0.13081595301628113
      ],
      [
        0.055045101791620255,
        0.033175621181726456,
        -0.2600843906402588,
        0.0063994526863098145,
        0.09645719081163406
      ],
      [
        -0.2660905420780182,
        0.07868235558271408,
        -0.14964532852172852,
        -0.3720650374889374,
        -0.26903384923934937
      ],
      [
        -0.3561352789402008,
        0.10229696333408356,
        0.2723580300807953,
        0.4065743088722229,
        0.4372946619987488
      ],
      [
        0.17734920978546143,
        0.21993570029735565,
        -0.07506298273801804,
        0.36970221996307373,
        -0.17218078672885895
      ],
      [
        -0.12266278266906738,
        -0.1500348001718521,
        -0.30098843574523926,
        -0.34466952085494995,
        -0.09236588329076767
      ],
      [
        0.36024340987205505,
        -0.22398410737514496,
        -0.40720367431640625,
        -0.10217982530593872,
        0.40404826402664185
      ],
      [
        0.10906792432069778,
        -0.02707294002175331,
        -0.12666046619415283,
        0.39267081022262573,
        -0.4309331178665161
      ],
      [
        0.2523209750652313,
        0.1202370673418045,
        0.27915698289871216,
        -0.2592049837112427,
        -0.1478320211172104
      ],
      [
        -0.18717347085475922,
        0.4351424276828766,
        -0.056546472012996674,
        -0.42643895745277405,
        0.22304166853427887
      ],
      [
        0.08742565661668777,
        0.06239683926105499,
        -0.2970242500305176,
        -0.41893747448921204,
        0.40453091263771057
      ],
      [
        -0.3356156647205353,
        -0.0861838161945343,
        -0.08316797763109207,
        0.25540363788604736,
        -0.3782208263874054
      ],
      [
        -0.2547665536403656,
        -0.23845723271369934,
        -0.22429479658603668,
        0.2735850214958191,
        0.27495184540748596
      ],
      [
        0.2030353993177414,
        0.3638686537742615,
        -0.2986144721508026,
        -0.001775890588760376,
        -0.3607568144798279
      ],
      [
        -0.002078278688713908,
        -0.38342970609664917,
        -0.4319433271884918,
        0.28168803453445435,
        -0.1991075873374939
      ],
      [
        -0.03681272268295288,
        -0.13300755620002747,
        -0.3558952212333679,
        -0.044615715742111206,
        0.06486748158931732
      ],
      [
        0.3585376441478729,
        -0.18903860449790955,
        0.42730051279067993,
        -0.2070666402578354,
        0.28746068477630615
      ],
      [
        0.3918280601501465,
        0.0474422313272953,
        -0.15239189565181732,
        0.33081328868865967,
        -0.12925352156162262
      ],
      [
        -0.19025647640228271,
        -0.15710175037384033,
        -0.36594700813293457,
        -0.04468768835067749,
        -0.3650262653827667
      ],
      [
        0.29407596588134766,
        -0.42952394485473633,
        -0.3310506045818329,
        0.0886572003364563,
        0.2754617929458618
      ],
      [
        0.427644819021225,
        -0.3634263873100281,
        0.36636584997177124,
        0.3133589029312134,
        -0.2921771705150604
      ],
      [
        0.18534839153289795,
        -0.12699659168720245,
        0.1275338977575302,
        -0.3959079682826996,
        -0.25797563791275024
      ],
      [
        -0.2823232412338257,
        -0.08601550757884979,
        -0.015070796012878418,
        -0.009623497724533081,
        -0.2629913091659546
      ],
      [
        0.21968351304531097,
        0.2259826511144638,
        -0.39350396394729614,
        -0.41453108191490173,
        -0.09729915112257004
      ],
      [
        0.1256062388420105,
        -0.33941978216171265,
        -0.039981212466955185,
        0.025381535291671753,
        -0.34051716327667236
      ],
      [
        0.41803231835365295,
        0.32510021328926086,
        0.34278541803359985,
        -0.1823616325855255,
        -0.32082363963127136
      ],
      [
        0.056115977466106415,
        0.2627807855606079,
        0.21997703611850739,
        -0.29013165831565857,
        0.35228198766708374
      ],
      [
        -0.21081244945526123,
        -0.07937707006931305,
        -0.1265869289636612,
        0.21291911602020264,
        -0.41606205701828003
      ],
      [
        -0.2859722673892975,
        -0.055315468460321426,
        0.3066394329071045,
        -0.10767847299575806,
        0.27960312366485596
      ],
      [
        0.41075167059898376,
        0.01800955832004547,
        -0.30001017451286316,
        0.00248795747756958,
        0.17520664632320404
      ],
      [
        -0.09404101967811584,
        -0.4354487657546997,
        0.2673482298851013,
        -0.19489336013793945,
        -0.31159713864326477
      ],
      [
        0.2291216105222702,
        0.10645981132984161,
        0.3246428966522217,
        -0.09031203389167786,
        0.2753419280052185
      ],
      [
        -0.10738144814968109,
        -0.27885496616363525,
        0.4116567075252533,
        0.44001734256744385,
        0.31989920139312744
      ],
      [
        -0.12602496147155762,
        -0.19632592797279358,
        0.07785963267087936,
        0.22513771057128906,
        0.05586285516619682
      ],
      [
        0.1895037740468979,
        -0.020154090598225594,
        0.25485759973526,
        0.21215718984603882,
        0.255935937166214
      ],
      [
        -0.03468737751245499,
        -0.3692614734172821,
        -0.28168585896492004,
        -0.22320300340652466,
        0.3770188093185425
      ],
      [
        -0.021350448951125145,
        -0.05885933339595795,
        -0.17326194047927856,
        -0.018779218196868896,
        0.300265371799469
      ],
      [
        0.001301002805121243,
        0.20645993947982788,
        0.2549198865890503,
        -0.4355642795562744,
        0.15520423650741577
      ],
      [
        0.4480478763580322,
        -0.2254110872745514,
        0.07386676967144012,
        0.010057538747787476,
        0.23758961260318756
      ],
      [
        0.10894422978162766,
        -0.3347896337509155,
        -0.33285462856292725,
        0.3818567991256714,
        -0.19157545268535614
      ],
      [
        -0.391864538192749,
        -0.4002203643321991,
        -0.3879565894603729,
        0.10210949182510376,
        0.05049901455640793
      ],
      [
        -0.2584121823310852,
        -0.09982838481664658,
        0.07111156731843948,
        0.16290658712387085,
        0.18140076100826263
      ],
      [
        -0.24194619059562683,
        0.4226170480251312,
        0.41897299885749817,
        -0.3175976276397705,
        0.41572630405426025
      ],
      [
        -0.3651711940765381,
        -0.2963620126247406,
        0.08709891885519028,
        0.13115805387496948,
        0.3965347707271576
      ],
      [
        0.003452733624726534,
        0.3032452166080475,
        -0.14787372946739197,
        -0.32587528228759766,
        -0.04227956011891365
      ],
      [
        0.23336386680603027,
        -0.1735188513994217,
        -0.3773534595966339,
        -0.2724173069000244,
        0.08040988445281982
      ],
      [
        0.4276423752307892,
        0.025925347581505775,
        -0.3593088984489441,
        -0.20021258294582367,
        0.22816598415374756
      ],
      [
        -0.1419467180967331,
        -0.061561863869428635,
        0.3314990997314453,
        0.16438239812850952,
        0.2726064920425415
      ],
      [
        0.4026920199394226,
        -0.14599092304706573,
        0.0660388395190239,
        -0.3355332016944885,
        0.4455474317073822
      ],
      [
        -0.29857397079467773,
        0.42628833651542664,
        0.41065531969070435,
        0.09728878736495972,
        -0.38785773515701294
      ],
      [
        -0.015609784983098507,
        -0.18548744916915894,
        0.13592085242271423,
        0.25289100408554077,
        0.25026026368141174
      ],
      [
        0.14242033660411835,
        -0.3438125550746918,
        -0.3772636651992798,
        0.13204360008239746,
        -0.09691347926855087
      ],
      [
        0.20802342891693115,
        0.4334588348865509,
        0.13385094702243805,
        -0.2693018615245819,
        -0.13033698499202728
      ]
    ],
    "actor.0.bias": [
      0.2767571806907654,
      0.043670348823070526,
      0.30615708231925964,
      -0.4298613369464874,
      -0.05629611760377884,
      -0.21929921209812164,
      0.33864110708236694,
      0.1968189924955368,
      -0.05875737965106964,
      -0.41614142060279846,
      -0.051528364419937134,
      0.3637518882751465,
      -0.013179372996091843,
      -0.019724523648619652,
      -0.41477054357528687,
      0.35526734590530396,
      0.3712303042411804,
      -0.3605341613292694,
      -0.31844621896743774,
      0.02046572044491768,
      -0.2547082304954529,
      -0.36492931842803955,
      0.13915136456489563,
      -0.1170571893453598,
      0.15621718764305115,
      0.1765013337135315,
      0.3970354199409485,
      0.26690909266471863,
      -0.4216061532497406,
      -0.3592088520526886,
      0.35963648557662964,
      -0.3787975013256073,
      0.27454662322998047,
      -0.27138566970825195,
      0.36005252599716187,
      0.2541125416755676,
      -0.30987945199012756,
      -0.3709430694580078,
      -0.1948765516281128,
      -0.20325380563735962,
      -0.2526076138019562,
      0.31634920835494995,
      0.10863248258829117,
      -0.05492458492517471,
      -0.03155845031142235,
      0.1848965436220169,
      0.04460112378001213,
      -0.05416995286941528,
      0.3959653675556183,
      0.3074062764644623,
      0.032561156898736954,
      0.3075486719608307,
      -0.0956212729215622,
      -0.33820420503616333,
      0.25805550813674927,
      0.24927818775177002,
      0.07268516719341278,
      -0.38275575637817383,
      0.3216380476951599,
      0.033010415732860565,
      -0.23431478440761566,
      -0.39335209131240845,
      -0.2310308963060379,
      0.41575321555137634,
      0.22071129083633423,
      -0.19608600437641144,
      0.3688969910144806,
      0.38427484035491943,
      0.22152821719646454,
      -0.038647688925266266,
      0.42030078172683716,
      -0.10237988829612732,
      -0.1853821724653244,
      0.21489199995994568,
      -0.1853749006986618,
      0.3252267837524414,
      -0.23908673226833344,
      0.16586922109127045,
      -0.33019542694091797,
      -0.2967771887779236,
      0.02387143485248089,
      0.3537293076515198,
      -0.3415563702583313,
      -0.11774497479200363,
      0.20922382175922394,
      -0.08124417066574097,
      -0.39995208382606506,
      -0.003941788803786039,
      -0.15587124228477478,
      0.10765589773654938,
      0.18281854689121246,
      -0.13315792381763458,
      -0.2279113382101059,
      0.2632178068161011,
      -0.38647696375846863,
      0.21727287769317627
    ],
    "actor.2.weight": [
      [
        0.04221644997596741,
        0.039314839988946915,
        -0.07000614702701569,
        0.039841149002313614,
        -0.059713102877140045,
        0.04440818354487419,
        -0.046319082379341125,
        0.023663954809308052,
        0.002322007901966572,
        -0.07177429646253586,
        -0.09604329615831375,
        -0.02287333831191063,
        0.05955423787236214,
        -0.024460284039378166,
        -0.02759452536702156,
        -0.062169477343559265,
        -0.07268687337636948,
        -0.009486069902777672,
        -0.02789359726011753,
        0.035321906208992004,
        0.0979403406381607,
        -0.07137566059827805,
        -0.03253062814474106,
        0.03666345775127411,
        -0.06768789142370224,
        -0.010110320523381233,
        -0.05055329203605652,
        0.06611219048500061,
        -0.012562640942633152,
        0.007185246329754591,
        0.06189323589205742,
        -0.07350704073905945,
        -0.053923264145851135,
        0.07791267335414886,
        0.041751597076654434,
        -0.007942814379930496,
        0.10295677185058594,
        0.08826743811368942,
        -0.043093178421258926,
        -0.029730651527643204,
        0.04303310811519623,
        -0.06243981048464775,
        -0.10222820192575455,
        -0.05271783098578453,
        -0.09225083887577057,
        0.06333254277706146,
        0.02463366650044918,
        -0.08468896150588989,
        -0.0030974848195910454,
        0.09899543225765228,
        -0.05847727879881859,
        -0.06343717873096466,
        0.0426727719604969,
        -0.073296919465065,
        -0.09638063609600067,
        0.05658913776278496,
        -0.011796742677688599,
        0.05289342254400253,
        -0.020019134506583214,
        0.09718463569879532,
        -0.04091920331120491,
        0.08361629396677017,
        -0.056851644068956375,
        -0.03467283397912979,
        0.08003533631563187,
        0.0440414734184742,
        -0.07325734943151474,
        -0.008965695276856422,
        0.06145235151052475,
        -0.08022060245275497,
        0.006001839879900217,
        0.06131359189748764,
        -0.07672741264104843,
        0.0400218702852726,
        -0.09979430586099625,
        -0.09424789994955063,
        0.0010442142374813557,
        -0.09102994203567505,
        -0.04825328290462494,
        0.059197213500738144,
        -0.02062383107841015,
        -0.06706350296735764,
        0.08209338784217834,
        -0.1009417250752449,
        0.019648799672722816,
        -0.06798643618822098,
        -0.058030109852552414,
        0.0070850723423063755,
        0.10172905027866364,
        -0.02589455060660839,
        -0.10204017907381058,
        0.02320821024477482,
        -0.04182860627770424,
        -0.0669853612780571,
        0.03912176564335823,
        0.04150858148932457
      ],
      [
        -0.04930524900555611,
        0.005468430928885937,
        0.01599906012415886,
        0.006340431049466133,
        -0.014565490186214447,
        -0.05778230354189873,
        0.05755070224404335,
        0.07832139730453491,
        0.08133739978075027,
        0.08356302231550217,
        -0.0061428723856806755,
        0.009380032308399677,
        -0.039387840777635574,
        -0.025404037907719612,
        0.024965228512883186,
        0.00934561900794506,
        -0.07196503132581711,
        -0.07422704994678497,
        0.04609854146838188,
        0.07665569335222244,
        0.09341204911470413,
        0.061153165996074677,
        0.059913139790296555,
        0.04157942906022072,
        0.06999723613262177,
        -0.02737281657755375,
        0.01457902416586876,
        0.04240049421787262,
        0.020348651334643364,
        -0.010004255920648575,
        -0.05484168976545334,
        -0.0738157108426094,
        -0.05759178102016449,
        0.00869061704725027,
        0.09522062540054321,
        -0.035974856466054916,
        -0.08195006847381592,
        -0.09008429944515228,
        0.041015904396772385,
        0.04360106587409973,
        -0.05336776748299599,
        -0.03841349110007286,
        0.07784010469913483,
        -0.08519604802131653,
        0.0587359182536602,
        0.004628801718354225,
        -0.049173902720212936,
        0.09981396794319153,
        -0.06587551534175873,
        0.09322740882635117,
        0.08579330891370773,
        0.036275941878557205,
        0.0652855783700943,
        0.023563094437122345,
        0.08666812628507614,
        0.02156538888812065,
        -0.10072587430477142,
        -0.044263605028390884,
        0.016096776351332664,
        0.07293417304754257,
        -0.02836572751402855,
        0.0358518585562706,
        0.03776700422167778,
        0.010018519125878811,
        -0.08290084451436996,
        0.09658672660589218,
        -0.04801436513662338,
        0.01730429008603096,
        -0.038504913449287415,
        0.024847280234098434,
        0.0701904222369194,
        0.020313933491706848,
        -0.043134674429893494,
        0.023816578090190887,
        -0.08475852012634277,
        0.08460024744272232,
        0.053540829569101334,
        0.07433684170246124,
        0.024607880041003227,
        -0.10283563286066055,
        -0.07374706119298935,
        -0.09151604026556015,
        0.05841129273176193,
        0.09770462661981583,
        0.06521826982498169,
        -0.04234392195940018,
        -0.0632958635687828,
        -0.057894110679626465,
        0.0947817862033844,
        -0.09691856801509857,
        -0.10100763291120529,
        0.041195616126060486,
        0.008462347090244293,
        -0.05138359218835831,
        -0.05823637545108795,
        -0.09692678600549698
      ],
      [
        0.03345758095383644,
        -0.048674412071704865,
        -0.029702618718147278,
        0.054720476269721985,
        -0.08364401757717133,
        0.09915788471698761,
        -0.03448638692498207,
        0.06392604112625122,
        -0.015533155761659145,
        0.07111281156539917,
        -0.05784176290035248,
        -0.023587193340063095,
        -0.05177755653858185,
        0.06832968443632126,
        -0.09753107279539108,
        0.06639489531517029,
        -0.0011058298405259848,
        -0.06376887112855911,
        -0.02827095054090023,
        -0.010901608504354954,
        -0.02953982539474964,
        -0.04374804347753525,
        -0.02628808096051216,
        0.011846218258142471,
        0.04830024018883705,
        0.01809467375278473,
        0.07514981180429459,
        -0.017979271709918976,
        0.08502974361181259,
        0.035424865782260895,
        -0.0713205635547638,
        0.06745181232690811,
        0.022872213274240494,
        0.0666348934173584,
        -0.09835291653871536,
        -0.007811055984348059,
        -0.09598971158266068,
        -0.022345418110489845,
        -0.035675469785928726,
        -0.06422291696071625,
        -0.06529427319765091,
        0.07997996360063553,
        0.04743022099137306,
        0.033458173274993896,
        0.019596250727772713,
        0.031087614595890045,
        0.010972652584314346,
        -0.09987138956785202,
        -0.012747424654662609,
        0.06371873617172241,
        -0.014298738911747932,
        0.01664539985358715,
        0.06393426656723022,
        0.06113221123814583,
        -0.019056057557463646,
        0.08428299427032471,
        -0.03916303813457489,
        -0.0016507783439010382,
        0.08106870949268341,
        -0.0558462031185627,
        0.09990552067756653,
        -0.04793325811624527,
        -0.05083538964390755,
        0.0773775652050972,
        0.07180183380842209,
        -0.07070863246917725,
        0.04704621061682701,
        0.006159581243991852,
        -0.07950260490179062,
        -0.028603579849004745,
        0.0076438733376562595,
        -0.09321244806051254,
        -0.005504416301846504,
        0.024317240342497826,
        0.07734861224889755,
        0.07388272881507874,
        -0.04136544466018677,
        0.04962011054158211,
        0.022866958752274513,
        -0.004595173988491297,
        -0.07658287137746811,
        0.027776207774877548,
        0.09251536428928375,
        -0.08473039418458939,
        -0.0058843763545155525,
        0.060784801840782166,
        0.0013346225023269653,
        0.07199794799089432,
        -0.012989562004804611,
        -0.05767478421330452,
        -0.08240210264921188,
        -0.0601566806435585,
        -0.018243277445435524,
        0.06466851383447647,
        0.011761794798076153,
        0.0073781548999249935
      ],
      [
        0.08341574668884277,
        0.025558950379490852,
        -0.041774507611989975,
        -0.035426028072834015,
        0.0592452697455883,
        -0.03973902761936188,
        0.034206241369247437,
        0.04481176286935806,
        0.005480409134179354,
        -0.07285235077142715,
        -0.06046636775135994,
        -0.09283673018217087,
        0.03198174014687538,
        -0.09789423644542694,
        -0.05877000838518143,
        0.09759451448917389,
        -0.0016664721770212054,
        0.04573342576622963,
        -0.051960598677396774,
        -0.025292910635471344,
        -0.051920805126428604,
        0.03714444860816002,
        -0.06398281455039978,
        -0.047542233020067215,
        0.02616642601788044,
        0.0034698997624218464,
        -0.04757937788963318,
        0.00960836187005043,
        -0.019276738166809082,
        -0.0994529128074646,
        0.09665228426456451,
        -0.08454599976539612,
        0.03463741019368172,
        0.05621284618973732,
        -0.017442995682358742,
        -0.029342036694288254,
        0.09529965370893478,
        0.0755523294210434,
        -0.016605982556939125,
        -0.0374477282166481,
        -0.053357671946287155,
        0.08493971079587936,
        -0.054429326206445694,
        0.03813845291733742,
        0.02934141643345356,
        0.07755643874406815,
        -0.0019305135356262326,
        0.053614675998687744,
        -0.055248528718948364,
        -0.03920017182826996,
        -0.03751707822084427,
        -0.09694666415452957,
        -0.09055677801370621,
        0.049469780176877975,
        0.04434618726372719,
        -0.026992887258529663,
        -0.09207595139741898,
        0.06797316670417786,
        0.09997653216123581,
        0.10303505510091782,
        -0.041223812848329544,
        -0.0894755944609642,
        0.0647326111793518,
        0.05302025377750397,
        0.08107028901576996,
        0.025528553873300552,
        0.07043886184692383,
        -0.04397978261113167,
        -0.08164455741643906,
        0.017115039750933647,
        0.08829082548618317,
        -0.06488125771284103,
        0.054310645908117294,
        -0.044094208627939224,
        -0.0618913359940052,
        -0.02697100304067135,
        0.09923721104860306,
        0.08911299705505371,
        0.0822949931025505,
        0.0967714861035347,
        -0.00221802550368011,
        0.046033527702093124,
        0.033842165023088455,
        -0.04367329180240631,
        0.06573852151632309,
        -0.012107426300644875,
        -0.038838472217321396,
        0.05890701338648796,
        0.09667032957077026,
        0.07996131479740143,
        0.0064116655848920345,
        -0.06570819020271301,
        0.09345554560422897,
        0.04363776370882988,
        0.08290113508701324,
        -0.028934532776474953
      ],
      [
        0.059431593865156174,
        0.006312527693808079,
        0.07055356353521347,
        0.0253033097833395,
        -0.04426684230566025,
        0.0434899628162384,
        0.09598661959171295,
        -0.07002389430999756,
        0.0977458730340004,
        0.08538729697465897,
        0.08680936694145203,
        0.020974410697817802,
        -0.031058385968208313,
        -0.03299284353852272,
        -0.011998542584478855,
        -0.06884805113077164,
        0.036714278161525726,
        0.049783289432525635,
        -0.020072750747203827,
        0.09197625517845154,
        0.035817328840494156,
        0.10234403610229492,
        0.0916261225938797,
        -0.017880253493785858,
        -0.08477305620908737,
        -0.066266268491745,
        0.09716970473527908,
        -0.0631566271185875,
        0.00837744027376175,
        0.06713233888149261,
        -0.03422871232032776,
        0.05988870561122894,
        -0.0697377398610115,
        0.02146352268755436,
        0.045591313391923904,
        -0.08547596633434296,
        -0.03851582482457161,
        -0.05039063096046448,
        -0.02007574774324894,
        0.09921003878116608,
        0.08902787417173386,
        0.05121015012264252,
        -0.04915495589375496,
        -0.020486922934651375,
        0.008368529379367828,
        0.09970135241746902,
        -0.08414047211408615,
        -0.025726083666086197,
        -0.08834808319807053,
        0.036815203726291656,
        -0.014552685432136059,
        -0.04689068719744682,
        -0.09368046373128891,
        -0.03243585303425789,
        -0.08716271817684174,
        0.0353679284453392,
        -0.09412233531475067,
        -0.05110333114862442,
        0.10066310316324234,
        -0.09978479892015457,
        -0.08517954498529434,
        -0.0770515501499176,
        -0.06423650681972504,
        0.0795750617980957,
        -0.03397485613822937,
        -0.07767777144908905,
        0.05634337663650513,
        0.08769001066684723,
        0.049474261701107025,
        0.00834487471729517,
        0.017832228913903236,
        0.04064693674445152,
        0.08904913812875748,
        0.059730321168899536,
        -0.08073188364505768,
        -0.08034096658229828,
        -0.06309621036052704,
        -0.04568004235625267,
        0.0917329415678978,
        -0.10052066296339035,
        -0.01605769619345665,
        0.07616420090198517,
        0.04006907343864441,
        -0.05076640099287033,
        -7.625378202646971e-06,
        -0.08424953371286392,
        -0.06372848898172379,
        -0.08635174483060837,
        -0.0733710527420044,
        0.09763837605714798,
        -0.017028341069817543,
        -0.05733130872249603,
        -0.048700008541345596,
        -0.0830673947930336,
        -0.053933173418045044,
        0.009033506736159325
      ],
      [
        -0.06368046253919601,
        0.017133353278040886,
        0.035993605852127075,
        0.07377596199512482,
        -0.05900740996003151,
        -0.022040238603949547,
        0.09966522455215454,
        -0.012196354568004608,
        -0.08988192677497864,
        -0.032281868159770966,
        0.03400999680161476,
        -0.01947539858520031,
        0.03486676514148712,
        -0.07925885915756226,
        0.05115511268377304,
        -0.04608234018087387,
        -0.03948710486292839,
        -0.005366064608097076,
        0.10039883106946945,
        0.07958477735519409,
        0.08896979689598083,
        -0.01352756004780531,
        0.07307639718055725,
        -9.893241804093122e-05,
        0.06832396984100342,
        -0.034717727452516556,
        -0.04990704357624054,
        -0.0743163675069809,
        -0.0037599417846649885,
        -0.04316295310854912,
        0.07955322414636612,
        -0.051802247762680054,
        0.05268801003694534,
        -0.05141433700919151,
        0.05456114932894707,
        0.002423450816422701,
        -0.06211854889988899,
        0.006312832236289978,
        -0.09350910782814026,
        -0.008414954878389835,
        -0.0617671012878418,
        -0.09345414489507675,
        0.09318896383047104,
        0.06199824437499046,
        0.02574704773724079,
        0.05902023985981941,
        -0.08071431517601013,
        -0.05478997156023979,
        -0.04960494488477707,
        -0.06476369500160217,
        -0.022281190380454063,
        0.07452963292598724,
        -0.06336359679698944,
        0.02078566886484623,
        0.04327739402651787,
        -0.05060816928744316,
        0.04071851447224617,
        -0.02698170207440853,
        0.04396672546863556,
        0.0910189151763916,
        0.02583901956677437,
        -0.06456895917654037,
        -0.06398600339889526,
        0.07875435799360275,
        -0.031106946989893913,
        0.09832482784986496,
        -0.07872938364744186,
        -0.05663047730922699,
        0.09885230660438538,
        0.005462010391056538,
        -0.05172780901193619,
        0.009393477812409401,
        -0.00886674877256155,
        -0.09300573915243149,
        0.033505454659461975,
        0.0534416027367115,
        0.0026367332320660353,
        -0.0852838009595871,
        -0.029304098337888718,
        0.03868696838617325,
        -0.03295031189918518,
        0.08125728368759155,
        -0.030655845999717712,
        -0.022284086793661118,
        0.05939367040991783,
        0.012289240024983883,
        0.05991411209106445,
        -0.06843976676464081,
        0.07371584326028824,
        -0.033548615872859955,
        0.0021513053216040134,
        0.049934376031160355,
        0.03247934952378273,
        -0.03915875777602196,
        0.06051423400640488,
        -0.010537517257034779
      ],
      [
        0.045703429728746414,
        -0.028979316353797913,
        0.005846609827131033,
        -0.032568592578172684,
        0.05817841738462448,
        0.07682543992996216,
        0.022854510694742203,
        0.08896826207637787,
        0.035330891609191895,
        -0.0854235514998436,
        -0.06023496389389038,
        -0.008125378750264645,
        -0.08319392055273056,
        0.04054553434252739,
        0.09441807121038437,
        -0.06244943290948868,
        -0.032342616468667984,
        -0.08469866216182709,
        0.027392789721488953,
        0.004271161276847124,
        0.07292099297046661,
        -0.038358330726623535,
        -0.08955400437116623,
        0.09295879304409027,
        0.09959791600704193,
        -0.0694982260465622,
        -0.03740490972995758,
        -0.02741461805999279,
        -0.06479278206825256,
        -0.09525308012962341,
        0.07541818916797638,
        0.060352083295583725,
        0.047974564135074615,
        -0.08946479856967926,
        -0.023605598136782646,
        0.06143319234251976,
        0.05087351053953171,
        -0.023465406149625778,
        2.615302219055593e-05,
        0.043671246618032455,
        0.08827251195907593,
        0.09621927887201309,
        0.09606868028640747,
        0.0897127017378807,
        -0.0461774505674839,
        0.09520117193460464,
        -0.0027221739292144775,
        -0.02712583728134632,
        0.08531570434570312,
        -0.01393804606050253,
        0.012796478345990181,
        -0.00893360935151577,
        -0.07109561562538147,
        -0.07627475261688232,
        0.08921555429697037,
        0.09770842641592026,
        -0.011037500575184822,
        -0.06459138542413712,
        0.09934372454881668,
        0.022003812715411186,
        0.05349612236022949,
        -0.08523990213871002,
        0.042779337614774704,
        0.006897686515003443,
        0.08921606838703156,
        0.07911572605371475,
        0.058880988508462906,
        0.02483469806611538,
        0.038133468478918076,
        0.03629995509982109,
        0.0942399725317955,
        0.05793303996324539,
        -0.0013966611586511135,
        0.02801060862839222,
        -0.036669857800006866,
        0.08264156430959702,
        -0.05019364133477211,
        0.09203897416591644,
        0.07860298454761505,
        -0.07728261500597,
        -0.09340056031942368,
        -0.0036491784267127514,
        0.048719409853219986,
        0.08219432085752487,
        -0.08627167344093323,
        -0.024100320413708687,
        0.026281151920557022,
        -0.03474152460694313,
        -0.08252706378698349,
        0.027179691940546036,
        0.045328713953495026,
        -0.011108478531241417,
        0.05208391696214676,
        0.018040938302874565,
        0.08374593406915665,
        0.02569594234228134
      ],
      [
        0.02367866039276123,
        -0.01802320033311844,
        -0.05026711896061897,
        0.044054195284843445,
        0.0963008925318718,
        0.036124128848314285,
        -0.09218064695596695,
        0.06796275079250336,
        0.0989159643650055,
        -0.0015368848107755184,
        -0.06665230542421341,
        -0.02984912134706974,
        0.06892156600952148,
        0.05545913428068161,
        -0.009895749390125275,
        0.01667899452149868,
        -0.003333993488922715,
        -0.09303855150938034,
        0.07204994559288025,
        -0.010947968810796738,
        -0.08334481716156006,
        0.024480290710926056,
        0.054017819464206696,
        -0.08682926744222641,
        -0.006173884496092796,
        -0.08989499509334564,
        0.029693059623241425,
        0.013174226507544518,
        0.054164618253707886,
        -0.019496390596032143,
        0.09511508792638779,
        -0.09468219429254532,
        -0.023962251842021942,
        -0.07224875688552856,
        -0.07657910883426666,
        0.08392854779958725,
        0.05461528152227402,
        0.08536750078201294,
        0.04368036240339279,
        -0.05552225559949875,
        -0.021828582510352135,
        -0.08904318511486053,
        0.09148205071687698,
        -0.011732698418200016,
        -0.0034420702140778303,
        0.03821626305580139,
        -0.011977110989391804,
        -0.07325701415538788,
        0.0037552923895418644,
        0.06981388479471207,
        0.0638970360159874,
        -0.09536732733249664,
        0.09283415228128433,
        0.04347614943981171,
        -0.09849383682012558,
        -0.010490551590919495,
        -0.06713596731424332,
        0.012881437316536903,
        -0.09247909486293793,
        -0.024882951751351357,
        0.07615882158279419,
        -0.01538798026740551,
        0.021029911935329437,
        -0.05475641041994095,
        0.0701114758849144,
        0.0802365317940712,
        1.697000698186457e-05,
        0.003508013905957341,
        0.09270000457763672,
        -0.09927424788475037,
        0.04408644512295723,
        -0.06934881210327148,
        -0.045751817524433136,
        -0.0997842326760292,
        0.025569695979356766,
        0.08494342863559723,
        -0.01821603626012802,
        0.041474491357803345,
        -0.013494949787855148,
        -0.0862768143415451,
        -0.08989191055297852,
        -0.003816911019384861,
        0.07364559173583984,
        0.07428230345249176,
        -0.03888550028204918,
        0.02201133780181408,
        0.09108822047710419,
        -0.08206236362457275,
        -0.1001647487282753,
        -0.10297620296478271,
        0.05936267971992493,
        -0.08482982963323593,
        -0.08629360049962997,
        0.032629914581775665,
        0.05951767787337303,
        0.045136626809835434
      ],
      [
        -0.09008701145648956,
        0.0934298112988472,
        0.07227352261543274,
        -0.0359346978366375,
        -0.069247767329216,
        -0.05790987238287926,
        -0.05591028556227684,
        -0.08693590015172958,
        0.051215555518865585,
        0.0722135379910469,
        0.034904658794403076,
        0.050722185522317886,
        -0.05757778137922287,
        0.054753098636865616,
        0.08384323120117188,
        0.05654525384306908,
        0.08339186012744904,
        -0.04561582952737808,
        0.04205857217311859,
        -0.04010123759508133,
        -0.026594068855047226,
        0.09733334928750992,
        -0.0063563319854438305,
        0.003250887617468834,
        0.008357602171599865,
        0.01033049076795578,
        -0.04560692980885506,
        0.07612959295511246,
        0.08576761186122894,
        -0.058054495602846146,
        -0.09665517508983612,
        -0.021450692787766457,
        -0.04753004014492035,
        0.06605271995067596,
        -0.033283405005931854,
        0.07385123521089554,
        0.024458924308419228,
        -0.037557728588581085,
        -0.049817513674497604,
        0.019810138270258904,
        -0.08091659098863602,
        -0.012057863175868988,
        -0.09791743010282516,
        -0.08864563703536987,
        -0.06390097737312317,
        0.05573730915784836,
        -0.07959113270044327,
        0.09880401939153671,
        -0.0973484143614769,
        -0.08934266120195389,
        0.04662295803427696,
        0.004359588958323002,
        0.0746585801243782,
        -0.024553246796131134,
        0.04194466024637222,
        0.08047574013471603,
        -0.06913682073354721,
        -0.07280630618333817,
        0.09012600034475327,
        0.08894692361354828,
        -0.0029419753700494766,
        0.05757570266723633,
        -0.07513561844825745,
        0.08253836631774902,
        -0.028596987947821617,
        0.05175159499049187,
        -0.02586987242102623,
        -0.08044691383838654,
        -0.034459035843610764,
        -0.01661190204322338,
        0.005724368151277304,
        0.02255147695541382,
        -0.08682840317487717,
        -0.05309080705046654,
        -0.03946436569094658,
        0.024056971073150635,
        -0.06728158891201019,
        0.08720743656158447,
        -0.045966736972332,
        0.09051116555929184,
        0.027459628880023956,
        0.04704883322119713,
        -0.029322074726223946,
        0.04280738905072212,
        -0.04929118603467941,
        0.004735047463327646,
        0.0637909322977066,
        -0.009556666947901249,
        -0.011501695029437542,
        0.010579297319054604,
        -0.06425981223583221,
        -0.07257595658302307,
        -0.016963496804237366,
        0.01369672641158104,
        0.082571841776371,
        -0.0024413892533630133
      ],
      [
        -0.01694527640938759,
        0.025819987058639526,
        0.023361707106232643,
        -0.008742112666368484,
        0.04333411902189255,
        0.10042307525873184,
        -0.03926943987607956,
        -0.04965214803814888,
        -0.003611373482272029,
        0.10038653016090393,
        0.03980081528425217,
        -0.08911417424678802,
        0.07545241713523865,
        0.08448953181505203,
        0.08904094249010086,
        0.03643873333930969,
        -0.09588449448347092,
        0.015776267275214195,
        -0.002943197963759303,
        -0.05623255670070648,
        -0.06854555755853653,
        -0.007850280031561852,
        0.08690805733203888,
        0.029914328828454018,
        0.007646218407899141,
        0.03990558162331581,
        -0.0904197096824646,
        0.0529826395213604,
        0.02430107071995735,
        -0.05847015976905823,
        -0.08986301720142365,
        -0.06694303452968597,
        0.029703570529818535,
        0.031927525997161865,
        0.015267908573150635,
        -0.02138201892375946,
        0.04353475570678711,
        -0.06412053853273392,
        0.05045265704393387,
        -0.050936009734869,
        -0.053779203444719315,
        -0.0763714537024498,
        0.030452348291873932,
        -0.05469960719347,
        0.06370290368795395,
        0.05358811095356941,
        -0.0015468585770577192,
        0.0574658140540123,
        0.05823648348450661,
        0.03806410729885101,
        -0.07990812510251999,
        -0.02203686535358429,
        -0.01644924096763134,
        0.056146688759326935,
        -0.04059789702296257,
        0.023272104561328888,
        0.03940799832344055,
        0.06847000867128372,
        0.09637082368135452,
        -0.023717518895864487,
        -0.08137532323598862,
        -0.08335482329130173,
        -0.02162894234061241,
        0.060786813497543335,
        -0.020810216665267944,
        -0.08301404863595963,
        -0.07028719037771225,
        -0.05875665694475174,
        -0.05891222879290581,
        0.004821833688765764,
        -0.011441374197602272,
        -0.05435391888022423,
        -0.019510580226778984,
        -0.05242001637816429,
        -0.003721061395481229,
        0.04243245720863342,
        -0.00653805723413825,
        -0.02623489312827587,
        0.02340392768383026,
        0.06713909655809402,
        0.08709629625082016,
        -0.04445075988769531,
        -0.08597321063280106,
        0.024060580879449844,
        0.04192085191607475,
        0.013307751156389713,
        0.10053980350494385,
        0.050348229706287384,
        0.008596169762313366,
        0.06708034873008728,
        0.07398762553930283,
        -0.057451553642749786,
        -0.0747268795967102,
        -0.00457206042483449,
        -0.03174513578414917,
        -0.06849513202905655
      ],
      [
        -0.07462162524461746,
        0.0642162337899208,
        -0.040529049932956696,
        -0.05771613121032715,
        0.06661579757928848,
        0.010358363389968872,
        0.020788192749023438,
        -0.03067004308104515,
        0.023835521191358566,
        0.06616029143333435,
        -0.07163821160793304,
        -0.018061921000480652,
        0.008612088859081268,
        0.08178810030221939,
        0.08083353191614151,
        0.07111770659685135,
        -0.035677388310432434,
        -0.0010382018517702818,
        -0.0031036848668009043,
        -0.07426796108484268,
        -0.07480336725711823,
        -0.021084168925881386,
        -0.015087948180735111,
        0.03383386507630348,
        -0.09054895490407944,
        -0.05011606216430664,
        0.08022511750459671,
        0.018588261678814888,
        -0.07353934645652771,
        0.047454800456762314,
        -0.04096746817231178,
        -0.05748777464032173,
        -0.04906414449214935,
        -0.05745158717036247,
        -0.05384669080376625,
        0.018770158290863037,
        0.05087725445628166,
        0.05223749205470085,
        0.10079053789377213,
        0.08424991369247437,
        -0.05279311537742615,
        0.08485361188650131,
        -0.02526709996163845,
        0.057173699140548706,
        -0.04913748800754547,
        0.08760146796703339,
        -0.008423659950494766,
        0.03629501163959503,
        0.08988501876592636,
        -0.02053753100335598,
        0.04178420454263687,
        0.029786143451929092,
        -0.03710552677512169,
        0.0008830582955852151,
        0.08588432520627975,
        0.021998673677444458,
        0.0759727731347084,
        0.04958552122116089,
        0.04922407120466232,
        -0.0424233078956604,
        -0.021266335621476173,
        0.06210726499557495,
        0.02259303443133831,
        0.053665872663259506,
        0.07895082235336304,
        0.04244237020611763,
        0.04224178194999695,
        -0.04151783511042595,
        0.03461126983165741,
        -0.001966082723811269,
        0.06875474750995636,
        0.038168177008628845,
        -0.06253568083047867,
        0.06461332738399506,
        -0.014013671316206455,
        0.03888663277029991,
        -0.04692129045724869,
        -0.08839938044548035,
        0.040232833474874496,
        0.050031229853630066,
        0.07872425764799118,
        0.06324037164449692,
        0.049458086490631104,
        0.052621375769376755,
        0.026035187765955925,
        -0.047363750636577606,
        0.02106432616710663,
        -0.07976329326629639,
        -0.059883538633584976,
        0.09460139274597168,
        0.03838254511356354,
        0.03899231553077698,
        -0.011395780369639397,
        -0.10012021660804749,
        -0.029224706813693047,
        -0.036096516996622086
      ],
      [
        -0.035708241164684296,
        0.018716508522629738,
        -0.06403901427984238,
        -0.0570903979241848,
        -0.020674115046858788,
        -0.08696777373552322,
        -0.01562039740383625,
        -0.0007037536706775427,
        -0.005674273241311312,
        -0.0405023917555809,
        -0.02933107689023018,
        0.08141789585351944,
        0.055857300758361816,
        0.022522594779729843,
        -0.07192746549844742,
        -0.06334968656301498,
        0.04777297005057335,
        -0.0020259281154721975,
        -0.0064608086831867695,
        -0.03368745371699333,
        -0.07262279093265533,
        -0.05756793171167374,
        0.05988122150301933,
        0.07685397565364838,
        0.06066375598311424,
        -0.0653790757060051,
        -0.0014241827884688973,
        -0.08532577008008957,
        -0.06263954937458038,
        -0.07402823120355606,
        0.029715020209550858,
        -0.097513347864151,
        0.07545221596956253,
        0.08094111829996109,
        -0.007555147632956505,
        0.02540259249508381,
        0.03668007254600525,
        0.09115995466709137,
        0.006901480257511139,
        0.0922127366065979,
        0.039216529577970505,
        -0.029212096706032753,
        0.07823340594768524,
        0.03036297857761383,
        0.043481387197971344,
        0.011727889068424702,
        -0.05378778651356697,
        0.09360247850418091,
        0.023088421672582626,
        -0.01318524032831192,
        0.025863228365778923,
        -0.05095995217561722,
        0.03218035772442818,
        -0.10043805092573166,
        0.05784941464662552,
        0.06628547608852386,
        -0.058658093214035034,
        0.040920794010162354,
        0.009977614507079124,
        -0.03198864683508873,
        0.09792553633451462,
        -0.0017795870080590248,
        -0.06639913469552994,
        -0.09759227931499481,
        0.006653101183474064,
        -0.052975188940763474,
        -0.09252659976482391,
        -0.0739726647734642,
        0.07639080286026001,
        -0.054003678262233734,
        -0.06353840976953506,
        -0.05662262812256813,
        0.00800257921218872,
        -0.025955887511372566,
        -0.07984939217567444,
        -0.061251625418663025,
        -0.07185465842485428,
        0.02305079810321331,
        -0.0011908833403140306,
        0.08613485097885132,
        0.0404500737786293,
        0.021654196083545685,
        0.08493717759847641,
        0.018724020570516586,
        -0.05086885392665863,
        0.08597969263792038,
        -0.0480969063937664,
        -0.06756982207298279,
        0.07764534652233124,
        0.0920705497264862,
        0.059174951165914536,
        -0.023004459217190742,
        0.09419548511505127,
        0.054381124675273895,
        0.0137402955442667,
        0.009489950723946095
      ],
      [
        0.04807273671030998,
        -0.04737226665019989,
        -0.03440217673778534,
        0.056547630578279495,
        0.014485131949186325,
        -0.006184897385537624,
        -0.006759910378605127,
        0.003223355859518051,
        0.10235229134559631,
        0.08683261275291443,
        -0.09604029357433319,
        -0.07829686254262924,
        -0.07970155030488968,
        -0.005033033434301615,
        0.024003146216273308,
        -0.055518750101327896,
        0.04445754364132881,
        -0.0984189584851265,
        0.06990945339202881,
        -0.0011773701990023255,
        0.030726633965969086,
        0.07261624932289124,
        0.012189955450594425,
        -0.05118698254227638,
        -0.02737739309668541,
        0.09017457813024521,
        -0.01962747797369957,
        -0.005934042390435934,
        -0.08691105991601944,
        -0.06506184488534927,
        -0.007173445541411638,
        0.02525683306157589,
        -0.06107133999466896,
        0.004072069656103849,
        0.09171280264854431,
        0.09455326199531555,
        0.005045791156589985,
        0.10008649528026581,
        0.09914755821228027,
        0.04857842996716499,
        0.08333414793014526,
        0.019381895661354065,
        -0.03809881582856178,
        0.08348661661148071,
        0.0332411490380764,
        0.019675230607390404,
        -0.0012952896067872643,
        -0.010170583613216877,
        -0.08710706233978271,
        -0.04825199767947197,
        -0.06898786127567291,
        -0.015757350251078606,
        0.056517839431762695,
        -0.05085626244544983,
        0.005972571205347776,
        -0.04058809205889702,
        -0.0394245907664299,
        0.029734188690781593,
        0.038318563252687454,
        0.09182276576757431,
        -0.021656924858689308,
        0.07575643062591553,
        -0.07563013583421707,
        0.012248503975570202,
        0.0032101671677082777,
        0.09679877758026123,
        0.05342485010623932,
        -0.05456571280956268,
        0.051500555127859116,
        0.002010872820392251,
        -0.08084406703710556,
        -0.057707566767930984,
        -0.07280490547418594,
        0.08264990150928497,
        0.08653400093317032,
        -0.07600338011980057,
        0.048457931727170944,
        0.09807556122541428,
        -0.011891077272593975,
        0.0716250091791153,
        0.07987314462661743,
        0.054630380123853683,
        -0.04570448398590088,
        0.08476654440164566,
        0.027578527107834816,
        0.050259433686733246,
        -0.09264816343784332,
        0.0381486602127552,
        0.06036932393908501,
        -0.06943999230861664,
        -0.07052623480558395,
        -0.03818877786397934,
        0.04891515150666237,
        -0.03921373933553696,
        -0.01476012822240591,
        -0.10013150423765182
      ],
      [
        -0.03078264370560646,
        -0.03694098815321922,
        -0.10066492855548859,
        0.04296582564711571,
        0.007657592184841633,
        -0.0939026027917862,
        0.0459308847784996,
        0.06385095417499542,
        -0.06270178407430649,
        -0.03765640780329704,
        -0.04406460002064705,
        -0.0339396595954895,
        0.02081228606402874,
        0.07211364805698395,
        0.08208813518285751,
        -0.07817156612873077,
        0.09338045120239258,
        0.0034942079801112413,
        -0.09390077739953995,
        0.05800727382302284,
        0.07920103520154953,
        -0.014612099155783653,
        -0.09373713284730911,
        0.07340183109045029,
        -0.05871512368321419,
        -0.07437030225992203,
        -0.02898530848324299,
        -0.003264595288783312,
        0.017476223409175873,
        0.037942562252283096,
        0.03164565935730934,
        -0.012244315817952156,
        -0.06230109930038452,
        -0.03218905255198479,
        0.06077510118484497,
        0.02115017920732498,
        0.06203509867191315,
        0.0042136069387197495,
        0.007393293548375368,
        -0.0970359593629837,
        -0.01992749609053135,
        -0.05678343027830124,
        -0.09741104394197464,
        0.08012311905622482,
        0.05636570602655411,
        0.08933430910110474,
        0.08152488619089127,
        0.06524769216775894,
        -0.056500144302845,
        0.08228199928998947,
        -0.08687202632427216,
        0.024215253069996834,
        -0.07587867230176926,
        0.062198054045438766,
        -0.02325771003961563,
        0.08259689062833786,
        0.02247907780110836,
        0.07025939226150513,
        -0.016430646181106567,
        -0.08421852439641953,
        -0.09923671185970306,
        -0.09243070334196091,
        -0.051652371883392334,
        0.08887297660112381,
        0.0357096828520298,
        0.011770112439990044,
        0.07265758514404297,
        -0.08220723271369934,
        0.014450142160058022,
        0.056062594056129456,
        -0.10064398497343063,
        -0.09024573862552643,
        0.09514161199331284,
        -0.022097859531641006,
        -0.09200950711965561,
        0.08464585989713669,
        2.440542448312044e-05,
        0.04989564046263695,
        0.011475561186671257,
        0.04495035856962204,
        0.07514777779579163,
        0.0380031056702137,
        -0.08236227184534073,
        0.05849571153521538,
        -0.0804901123046875,
        0.05189545452594757,
        -0.08481835573911667,
        -0.02577642723917961,
        -0.012000234797596931,
        0.016233909875154495,
        0.05784225091338158,
        -0.07482811063528061,
        -0.08596134930849075,
        0.06162397935986519,
        -0.06844314187765121,
        -0.08138453215360641
      ],
      [
        -0.027357308194041252,
        -0.02986443042755127,
        -0.07949526607990265,
        -0.002998875454068184,
        0.029171539470553398,
        0.09113751351833344,
        0.028965303674340248,
        0.029862506315112114,
        0.013465491123497486,
        -0.056692786514759064,
        -0.011239690706133842,
        -0.018327297642827034,
        0.04102621227502823,
        0.05677858367562294,
        0.09000910073518753,
        -0.05384422838687897,
        0.006724331062287092,
        0.0134783536195755,
        -0.051075756549835205,
        0.06943454593420029,
        0.07856592535972595,
        0.01647484302520752,
        -0.06477189809083939,
        0.07995977252721786,
        0.07687094062566757,
        -0.04860594868659973,
        -0.056799981743097305,
        0.08930593729019165,
        -0.08857100456953049,
        -0.00504809757694602,
        -0.009496579878032207,
        -0.026262521743774414,
        -0.0760849341750145,
        -0.043931394815444946,
        -0.06206551939249039,
        0.012427076697349548,
        0.06580498069524765,
        -0.05797002092003822,
        0.09001627564430237,
        0.04374168440699577,
        -0.02507936581969261,
        0.06838997453451157,
        -0.023996703326702118,
        -0.036893270909786224,
        -0.09425584971904755,
        -0.03281179443001747,
        -0.033469635993242264,
        0.03978942707180977,
        -0.09315422177314758,
        0.09225142002105713,
        -0.0035411131102591753,
        0.01970471814274788,
        -0.024512114003300667,
        -0.029683059081435204,
        -0.06728465855121613,
        -0.0012320250971242785,
        0.06755582243204117,
        0.02825324796140194,
        0.03178923577070236,
        -0.07564955949783325,
        0.04863477125763893,
        -0.028451330959796906,
        -0.07322400063276291,
        -0.05147290974855423,
        -0.07763569056987762,
        -0.021737774834036827,
        0.09219954907894135,
        -0.04787628352642059,
        -0.0359417200088501,
        0.07709310203790665,
        -0.0365370437502861,
        0.0441586934030056,
        0.07343222200870514,
        0.05585087835788727,
        0.04997764527797699,
        0.071281798183918,
        -0.0007882063509896398,
        -0.08436952531337738,
        -0.05781523883342743,
        0.003205765038728714,
        -0.011574081145226955,
        0.02096429467201233,
        0.041034359484910965,
        -0.014254650101065636,
        0.04693586006760597,
        -0.09520808607339859,
        -0.0021382381673902273,
        -0.08812983334064484,
        0.041380882263183594,
        0.06982981413602829,
        -0.03908307105302811,
        -0.020572898909449577,
        0.04604226350784302,
        -0.04672855883836746,
        0.04916129261255264,
        -0.07072968035936356
      ],
      [
        -0.004156130366027355,
        -0.0027672245632857084,
        -0.08905630558729172,
        -0.009695740416646004,
        -0.010815830901265144,
        -0.0019375995034351945,
        0.09530164301395416,
        -0.01699855551123619,
        0.0582287572324276,
        -0.0285197626799345,
        -0.05307667329907417,
        -0.01216029655188322,
        -0.05862806737422943,
        -0.04339107498526573,
        -0.02526582032442093,
        0.0057410006411373615,
        -0.057907335460186005,
        -0.05266796052455902,
        -0.07316956669092178,
        -0.059771981090307236,
        -0.0889243632555008,
        -0.06922189891338348,
        -0.03070802614092827,
        -0.012838982976973057,
        0.06550703942775726,
        -0.002997338306158781,
        -0.0566721111536026,
        -0.08416806161403656,
        -0.03689055144786835,
        0.003814839059486985,
        -0.08198461681604385,
        -0.03914116695523262,
        0.0066688028164207935,
        0.09424588084220886,
        -0.0009536499273963273,
        -0.09841187298297882,
        -0.07487114518880844,
        -0.07539454847574234,
        0.0669068768620491,
        0.06400451809167862,
        0.0011522218119353056,
        -0.06259627640247345,
        -0.04444616660475731,
        -0.05967080965638161,
        0.0933213084936142,
        -0.0791419968008995,
        0.019451051950454712,
        0.04366324841976166,
        -0.08877213299274445,
        0.04186323285102844,
        0.04957927018404007,
        0.024942753836512566,
        0.09607937186956406,
        -0.04591073840856552,
        -0.09318661689758301,
        -0.05940666049718857,
        -0.09457270056009293,
        0.0343235582113266,
        0.023720314726233482,
        -0.04788505658507347,
        -0.03633221238851547,
        0.06032058224081993,
        0.0014098637038841844,
        0.08413543552160263,
        -0.0402851328253746,
        0.015072722919285297,
        0.024250896647572517,
        -0.037392694503068924,
        0.07521121948957443,
        -0.0304731298238039,
        0.029351865872740746,
        -0.08106790482997894,
        0.024124952033162117,
        0.07177620381116867,
        -0.09723865985870361,
        0.10072717070579529,
        0.008858011104166508,
        0.097313791513443,
        0.06726045161485672,
        0.05695763975381851,
        -0.006276600528508425,
        0.033579058945178986,
        0.034567296504974365,
        -0.06804296374320984,
        0.05013573542237282,
        0.09046784043312073,
        -0.0305806715041399,
        -0.06817644834518433,
        0.08768313378095627,
        0.09280165284872055,
        0.012005324475467205,
        -0.0763753354549408,
        -0.0031106476671993732,
        -0.0019093360751867294,
        0.07235480099916458,
        -0.094892717897892
      ],
      [
        -0.06902742385864258,
        -0.008711776696145535,
        -0.016722925007343292,
        0.005964930634945631,
        0.09770691394805908,
        0.07648114114999771,
        0.10043691843748093,
        -0.09830641746520996,
        0.09215802699327469,
        -0.08044353872537613,
        -0.031277477741241455,
        0.06084853783249855,
        -0.02584371156990528,
        -0.04407648742198944,
        0.00387841765768826,
        0.09592115879058838,
        -0.009508379735052586,
        -0.09800112247467041,
        -0.025401679798960686,
        -0.08378924429416656,
        0.001994334626942873,
        0.07682394981384277,
        0.08509077876806259,
        0.016959819942712784,
        -0.06775269657373428,
        -0.059015147387981415,
        0.056389275938272476,
        0.04103484004735947,
        -0.05725984647870064,
        0.027345195412635803,
        -0.035061679780483246,
        -0.07556110620498657,
        0.09977318346500397,
        0.04888284206390381,
        -0.038477573543787,
        0.05701306834816933,
        -0.07308221608400345,
        0.055862993001937866,
        0.03830670565366745,
        -0.03081173449754715,
        -0.0531952865421772,
        0.00868040882050991,
        0.0661020427942276,
        0.008490258827805519,
        -0.07449176907539368,
        -0.06168834865093231,
        -0.009752660058438778,
        0.04072126746177673,
        0.059104591608047485,
        0.07845767587423325,
        0.0787036195397377,
        -0.010226402431726456,
        -0.05634148418903351,
        -0.0759119763970375,
        -0.003228501882404089,
        0.08895654231309891,
        0.039647605270147324,
        0.03596004471182823,
        0.020016759634017944,
        -0.08705498278141022,
        -0.027006806805729866,
        -0.052169833332300186,
        -0.08525838702917099,
        0.0717715248465538,
        0.0648430734872818,
        -0.0016007382655516267,
        -0.06411650031805038,
        0.034375667572021484,
        -0.07507751882076263,
        -0.08761528879404068,
        0.022541318088769913,
        0.028316229581832886,
        0.04057973995804787,
        0.09736844897270203,
        0.0778084546327591,
        -0.028587142005562782,
        0.06209421902894974,
        -0.08771473169326782,
        0.06708308309316635,
        -0.09114343672990799,
        -0.03230183944106102,
        0.06568752229213715,
        -0.010905932635068893,
        -0.07561661303043365,
        0.03680993244051933,
        0.07601074874401093,
        0.03598380088806152,
        0.06564251333475113,
        -0.03939153999090195,
        0.03471671789884567,
        -0.06345048546791077,
        -0.001683508395217359,
        0.004752261098474264,
        -0.06863236427307129,
        0.013370366767048836,
        -0.0447915680706501
      ],
      [
        -0.04820404201745987,
        -0.09795869886875153,
        0.03477355092763901,
        0.07072287797927856,
        0.10059257596731186,
        0.08739060163497925,
        -0.08930642157793045,
        0.07297193259000778,
        0.09278981387615204,
        0.05385379120707512,
        0.06580162793397903,
        0.0707230344414711,
        0.06356430798768997,
        0.012202666141092777,
        -0.07197310030460358,
        0.010286387987434864,
        -0.08767050504684448,
        0.08997705578804016,
        0.0944434404373169,
        -0.03569018095731735,
        0.10244861245155334,
        -0.01805180124938488,
        -0.07793373614549637,
        0.05756933242082596,
        0.08192324638366699,
        0.09009767323732376,
        0.05129001662135124,
        0.06851421296596527,
        0.05736137926578522,
        0.051014140248298645,
        -0.0886945053935051,
        -0.03346702829003334,
        0.013201026245951653,
        0.08276526629924774,
        -0.012833881191909313,
        0.04726723954081535,
        -0.09889089316129684,
        -0.043796077370643616,
        0.03353144973516464,
        0.03085385262966156,
        0.012433983385562897,
        0.00985400378704071,
        0.06084902957081795,
        -0.016018779948353767,
        0.06845826655626297,
        0.10044782608747482,
        -0.014827647246420383,
        -0.08249886333942413,
        0.02082398347556591,
        0.04640655964612961,
        0.04814533516764641,
        -0.09105420857667923,
        -0.011499602347612381,
        -0.0023470637388527393,
        0.03993188589811325,
        -0.013019130565226078,
        0.0825621709227562,
        -0.030925553292036057,
        0.0642290711402893,
        -0.09577784687280655,
        0.09934602677822113,
        0.017721226438879967,
        -0.05377856642007828,
        0.06613026559352875,
        -0.03420955315232277,
        -0.058522891253232956,
        -0.04361487552523613,
        0.096007339656353,
        0.0941907986998558,
        0.02500883862376213,
        -0.013008377514779568,
        -0.06322523206472397,
        -0.034637775272130966,
        -0.09975209087133408,
        -0.09803349524736404,
        0.004151265602558851,
        0.07776124775409698,
        0.007525327615439892,
        -0.0814332515001297,
        -0.03020617738366127,
        0.06383853405714035,
        0.02145233564078808,
        0.01931985840201378,
        -0.09173789620399475,
        -0.027956368401646614,
        0.0865759328007698,
        -0.037583962082862854,
        -0.045746274292469025,
        -0.086045041680336,
        0.05447252094745636,
        0.03231818974018097,
        -0.013790395110845566,
        0.07483387738466263,
        0.05938035249710083,
        0.05651054531335831,
        0.05757497251033783
      ],
      [
        -0.014282874763011932,
        -0.03437017649412155,
        -0.05323408544063568,
        0.013960408978164196,
        -0.08234649151563644,
        -0.03575441986322403,
        -0.06697605550289154,
        0.033609893172979355,
        0.03808554634451866,
        -0.06292390078306198,
        0.03467027097940445,
        0.010202196426689625,
        0.08137622475624084,
        0.07882104814052582,
        0.06218348816037178,
        0.06781481206417084,
        0.008467045612633228,
        0.09095538407564163,
        -0.100070521235466,
        0.07677081972360611,
        0.07871560007333755,
        0.04749593138694763,
        -0.03180721029639244,
        -0.022665709257125854,
        0.05249961093068123,
        0.0004818868183065206,
        0.07157469540834427,
        0.03156520798802376,
        0.018381668254733086,
        -0.025580627843737602,
        -0.09535136818885803,
        -0.07627012580633163,
        -0.0874759778380394,
        -0.08902134001255035,
        -0.0625680536031723,
        -0.023536840453743935,
        0.06644930690526962,
        0.018902450799942017,
        0.047993890941143036,
        -0.07660165429115295,
        0.09276164323091507,
        0.08854734152555466,
        0.07934588193893433,
        -0.03479243442416191,
        -0.0006264075054787099,
        0.019710125401616096,
        -0.03896132856607437,
        0.04156886041164398,
        -0.020788898691534996,
        -0.08666062355041504,
        -0.026871703565120697,
        0.10016287863254547,
        0.0446617417037487,
        0.04827502369880676,
        0.019449615851044655,
        0.03214769810438156,
        0.03460967540740967,
        -0.06299944221973419,
        0.009575099684298038,
        -0.030830582603812218,
        -0.0720997303724289,
        -0.07733594626188278,
        -0.021433522924780846,
        -0.0974375531077385,
        -0.10106828063726425,
        0.09342919290065765,
        0.005141468718647957,
        -0.00245088548399508,
        -0.08306480944156647,
        0.02188141830265522,
        0.0803435817360878,
        0.10099335014820099,
        -0.0873035117983818,
        -0.03069397062063217,
        0.07926324009895325,
        0.08678078651428223,
        0.09940445423126221,
        -0.09444301575422287,
        -0.08444844186306,
        -0.052175454795360565,
        0.049395933747291565,
        -0.0861230343580246,
        0.016628848388791084,
        0.06205373257398605,
        0.022654930129647255,
        -0.02479839324951172,
        0.05375237762928009,
        0.011949778534471989,
        0.057664018124341965,
        -0.06638716906309128,
        0.06599825620651245,
        0.009069195948541164,
        -0.08009178191423416,
        0.027094600722193718,
        -0.06854936480522156,
        0.08739610016345978
      ],
      [
        0.021362807601690292,
        -0.07995801419019699,
        -0.0011310987174510956,
        -0.011206885799765587,
        -0.04060092940926552,
        -0.09543105959892273,
        -0.06769835948944092,
        -0.08684856444597244,
        0.018258044496178627,
        0.00675604771822691,
        0.013836000114679337,
        -0.10194742679595947,
        -0.06633318960666656,
        -0.06385865807533264,
        0.012905494309961796,
        -0.09112359583377838,
        0.06643088161945343,
        -0.06395405530929565,
        0.025887776166200638,
        0.09382807463407516,
        -0.034794021397829056,
        0.08938492089509964,
        -0.09055836498737335,
        0.01024730782955885,
        -0.09744994342327118,
        -0.011987189762294292,
        0.09703326225280762,
        0.07626328617334366,
        0.011118187569081783,
        -0.04551900178194046,
        0.05362279340624809,
        -0.07814331352710724,
        0.06248858943581581,
        -0.07490041106939316,
        -0.08175808191299438,
        0.09297481924295425,
        -0.07733657211065292,
        -0.04881110042333603,
        0.015690933912992477,
        -0.005806793924421072,
        0.009113934822380543,
        -0.05738760530948639,
        -0.0383811816573143,
        0.10018938034772873,
        0.07116242498159409,
        -0.07647155970335007,
        0.0003356754605192691,
        -0.08178827166557312,
        0.06948032230138779,
        -0.00026734545826911926,
        -0.0513637475669384,
        0.09082459658384323,
        0.055906809866428375,
        -0.017995448783040047,
        -0.0331152006983757,
        0.011005294509232044,
        -0.06612414866685867,
        0.002675436669960618,
        -0.032167356461286545,
        -0.07997371256351471,
        0.05701126903295517,
        -0.05985421687364578,
        -0.041612498462200165,
        -0.07371032983064651,
        0.01908201538026333,
        0.05248364061117172,
        0.04360438883304596,
        -0.025737114250659943,
        0.012973038479685783,
        -0.08282310515642166,
        -0.09311877191066742,
        -0.029934557154774666,
        -0.07949194312095642,
        -0.02332949824631214,
        0.09480369091033936,
        -0.08320549875497818,
        -0.06947042047977448,
        0.05727521702647209,
        -0.048261258751153946,
        0.03994182497262955,
        -0.015985708683729172,
        -0.08833179622888565,
        0.03140393644571304,
        -0.026434343308210373,
        -0.062140122056007385,
        0.075248584151268,
        -0.009550741873681545,
        0.029444919899106026,
        -0.001107429969124496,
        -0.066954605281353,
        0.004349945578724146,
        0.03658955171704292,
        -0.009074888192117214,
        0.0067053623497486115,
        0.034961115568876266,
        0.06258832663297653
      ],
      [
        0.0052965180948376656,
        -0.013804306276142597,
        -0.06265600770711899,
        -0.03786424174904823,
        -0.04377654194831848,
        -0.04701065644621849,
        -0.06950924545526505,
        0.00024729431606829166,
        -0.06180087476968765,
        0.01189227681607008,
        0.02650514803826809,
        0.08300783485174179,
        0.0021857493557035923,
        0.07120147347450256,
        -0.06467936187982559,
        -0.028457097709178925,
        -0.03837348148226738,
        -0.03725430741906166,
        -0.08099883049726486,
        -0.08849574625492096,
        -0.07373534142971039,
        0.08754754811525345,
        -0.045640911906957626,
        0.04448942840099335,
        0.03427461162209511,
        0.012293489649891853,
        0.020063497126102448,
        -0.017267631366848946,
        -0.03449753671884537,
        0.011137858964502811,
        -0.09349127858877182,
        0.05012083426117897,
        -0.007609600201249123,
        -0.07343783229589462,
        0.09895999729633331,
        -0.08127671480178833,
        -0.03492569178342819,
        0.01518543716520071,
        0.06481660157442093,
        -0.011922143399715424,
        -0.010464999824762344,
        0.07534503936767578,
        0.08402584493160248,
        -0.005330459214746952,
        -0.05909646302461624,
        -0.07765331864356995,
        0.03508145362138748,
        -0.06659184396266937,
        0.03425571694970131,
        0.002996621187776327,
        0.04031985253095627,
        -0.07300775498151779,
        -0.08852241188287735,
        -0.045246753841638565,
        -0.04303548112511635,
        0.09881360828876495,
        -0.0055973525159060955,
        -0.025060614570975304,
        -0.06047476455569267,
        -0.026192734017968178,
        0.030448034405708313,
        -0.058516595512628555,
        0.07951514422893524,
        -0.06483656167984009,
        -0.09588848054409027,
        0.04923953860998154,
        0.056228894740343094,
        0.1004992201924324,
        -0.08947062492370605,
        0.01541870180517435,
        0.02457982301712036,
        -0.020605595782399178,
        -0.024292202666401863,
        0.03100544586777687,
        0.012119129300117493,
        0.0068750143982470036,
        0.02955559641122818,
        0.06969178467988968,
        -0.0006991041591390967,
        0.041598349809646606,
        -0.022069593891501427,
        0.02031025104224682,
        0.0656723752617836,
        0.037118952721357346,
        -0.04585171118378639,
        -0.09510015696287155,
        -0.02061312459409237,
        0.08793947100639343,
        0.06974528729915619,
        0.01685151644051075,
        0.032212961465120316,
        -0.05089934542775154,
        -0.05318264290690422,
        0.0038861390203237534,
        0.06378929316997528,
        0.10165882855653763
      ],
      [
        0.05912889912724495,
        -0.09793730825185776,
        0.06085699424147606,
        0.004720036871731281,
        -0.05404902622103691,
        -0.10079475492238998,
        0.030591173097491264,
        -0.08322368562221527,
        0.01674814708530903,
        0.09863914549350739,
        -0.06860287487506866,
        0.03433086723089218,
        -0.07482197880744934,
        -0.030086010694503784,
        0.07944810390472412,
        0.04363507032394409,
        0.027850594371557236,
        -0.05787961184978485,
        0.09459163248538971,
        -0.059533022344112396,
        0.07352691888809204,
        -0.07665657997131348,
        -0.07710247486829758,
        0.05643731728196144,
        0.06921876966953278,
        -0.0749971941113472,
        0.05478845164179802,
        0.012132569216191769,
        0.03885212168097496,
        0.028168577700853348,
        0.00977658573538065,
        0.042372725903987885,
        -0.07631240785121918,
        0.055361852049827576,
        -0.024668777361512184,
        -0.0605371929705143,
        0.042650964111089706,
        0.08310380578041077,
        0.07840948551893234,
        0.08386937528848648,
        -0.08772341907024384,
        -0.019004331901669502,
        0.06147534027695656,
        -0.030085019767284393,
        0.0916718989610672,
        -0.03386344015598297,
        0.08470391482114792,
        0.013676407746970654,
        -0.010192912071943283,
        -0.013436068780720234,
        0.024630684405565262,
        0.08693336695432663,
        0.009563093073666096,
        -0.07121728360652924,
        0.06021991744637489,
        0.004135720431804657,
        -0.0994362011551857,
        0.10218574851751328,
        -0.06908777356147766,
        0.07289727032184601,
        -0.08888156712055206,
        0.0049294363707304,
        0.07304497808218002,
        -0.011183047667145729,
        -0.09294505417346954,
        -0.08562733978033066,
        0.027926817536354065,
        0.005311383865773678,
        0.07939000427722931,
        0.027220113202929497,
        0.048096295446157455,
        0.005970939062535763,
        -0.03789395093917847,
        -0.0875069797039032,
        -0.056487563997507095,
        -0.07660124450922012,
        -0.06363584101200104,
        -0.03297431394457817,
        -0.03351511061191559,
        0.02026614174246788,
        -0.096784807741642,
        0.051896218210458755,
        0.04397817328572273,
        0.022875746712088585,
        0.002459564944729209,
        -0.060909900814294815,
        -0.09321367740631104,
        -0.002375273499637842,
        0.017480554059147835,
        0.007041125558316708,
        0.012041988782584667,
        -0.0720561221241951,
        0.06952901929616928,
        -0.07381977885961533,
        0.07655563950538635,
        -0.08339767903089523
      ],
      [
        -0.08679361641407013,
        -0.005051820073276758,
        -0.039727307856082916,
        -0.06386308372020721,
        -0.06747238337993622,
        0.09521622210741043,
        -0.09099366515874863,
        0.025107145309448242,
        0.08060435205698013,
        0.0620858296751976,
        0.09427683055400848,
        0.020006483420729637,
        -0.09327642619609833,
        -0.05709097161889076,
        0.013129429891705513,
        -0.03550081327557564,
        0.011228472925722599,
        -0.05197134613990784,
        -0.0252222903072834,
        -0.056946221739053726,
        0.01180102489888668,
        -0.07727550715208054,
        -0.040526311844587326,
        0.044540487229824066,
        -0.0039046267047524452,
        0.06474801152944565,
        -0.040451277047395706,
        0.07968112081289291,
        -0.018325844779610634,
        0.02480381168425083,
        -0.050911400467157364,
        0.05283542349934578,
        0.01572265848517418,
        0.02677762508392334,
        0.058618590235710144,
        -0.018028048798441887,
        -0.10297319293022156,
        -0.02643396332859993,
        -0.026431605219841003,
        0.09033776074647903,
        0.012322026304900646,
        0.0497567392885685,
        0.0535082072019577,
        -0.026913480833172798,
        -0.016565285623073578,
        0.08297950774431229,
        0.09222571551799774,
        -0.004381504375487566,
        0.09609363228082657,
        0.027702605351805687,
        0.09424181282520294,
        -0.006327309180051088,
        0.061283305287361145,
        0.04324928671121597,
        0.06405195593833923,
        0.04991624131798744,
        0.06761947274208069,
        -0.002207492245361209,
        -0.02156245708465576,
        -0.047672051936388016,
        -0.023937886580824852,
        0.011298445984721184,
        -0.09646894037723541,
        0.07391896098852158,
        0.09390778839588165,
        0.052842024713754654,
        0.00992170162498951,
        -0.06607027351856232,
        0.011910070665180683,
        -0.012712983414530754,
        0.007627871818840504,
        0.09175235778093338,
        -5.019447416998446e-05,
        -0.07770764827728271,
        0.055099379271268845,
        -0.09731929004192352,
        0.03410855680704117,
        0.04979005083441734,
        0.08933335542678833,
        -0.07699235528707504,
        0.09168269485235214,
        -0.07015564292669296,
        0.03624403476715088,
        -0.08836808055639267,
        0.07795295119285583,
        -0.08721759170293808,
        0.09025928378105164,
        0.05281748250126839,
        0.05895935371518135,
        -0.07602451741695404,
        -0.07029065489768982,
        -0.08677338063716888,
        0.0016106951516121626,
        0.011211149394512177,
        0.02192937396466732,
        0.009834743104875088
      ],
      [
        -0.04021624103188515,
        -0.07161707431077957,
        0.05422190576791763,
        0.07181062549352646,
        -0.04147878661751747,
        0.034328050911426544,
        -0.029856298118829727,
        0.08171175420284271,
        0.017737820744514465,
        0.06210235878825188,
        0.008145763538777828,
        0.03676462918519974,
        0.0549423024058342,
        -0.0573006272315979,
        0.018278084695339203,
        0.08062852174043655,
        -0.04904806613922119,
        0.02045932039618492,
        -0.09974554926156998,
        0.04578142240643501,
        -0.014411507174372673,
        -0.005590565502643585,
        0.0564856231212616,
        0.08007687330245972,
        0.010403781197965145,
        -0.024643870070576668,
        0.02428640052676201,
        -0.01895066350698471,
        -0.09686965495347977,
        0.09996373951435089,
        0.07068842649459839,
        -0.08185908198356628,
        0.06691361218690872,
        0.04737582430243492,
        0.05667868256568909,
        -0.09481483697891235,
        0.0006176324677653611,
        -0.0663628801703453,
        -0.09751231968402863,
        -0.06958268582820892,
        -0.08655545115470886,
        0.04378669336438179,
        -0.01958516053855419,
        -0.05086018517613411,
        0.00224662316031754,
        0.0779949426651001,
        0.027071384713053703,
        -0.046717945486307144,
        0.09369232505559921,
        -0.07249823212623596,
        -0.08021724969148636,
        0.061663612723350525,
        -0.09589339792728424,
        -0.08240867406129837,
        0.08721298724412918,
        0.09061727672815323,
        0.07938795536756516,
        -0.036914288997650146,
        -0.0952473133802414,
        0.09392842650413513,
        -0.08795694261789322,
        -0.03855759650468826,
        0.05653652548789978,
        -0.009572427719831467,
        0.07415521144866943,
        0.09992712736129761,
        0.007137061096727848,
        0.05791939049959183,
        0.09587737172842026,
        0.006680665537714958,
        -0.05276030674576759,
        0.002302365144714713,
        -0.03396836295723915,
        0.061109744012355804,
        -0.004463289864361286,
        0.07829371094703674,
        -0.04302529990673065,
        -0.07628915458917618,
        -0.06795300543308258,
        0.06185654550790787,
        -0.05802218243479729,
        0.04044843465089798,
        0.06726423650979996,
        -0.026959188282489777,
        0.009365859441459179,
        -0.04728429764509201,
        0.0959065780043602,
        0.014724301174283028,
        -0.08522236347198486,
        -0.06871786713600159,
        -0.04591898247599602,
        0.075201116502285,
        -0.0652071014046669,
        -0.01579710654914379,
        -0.07665104418992996,
        -0.06395229697227478
      ],
      [
        -0.07754819840192795,
        0.07414761930704117,
        -0.05511569231748581,
        -0.09110996127128601,
        -0.0074183205142617226,
        -0.08190970122814178,
        -0.07968239486217499,
        -0.030703527852892876,
        -0.048790864646434784,
        -0.07987703382968903,
        -0.06278276443481445,
        -0.07486243546009064,
        0.024110348895192146,
        -0.01982985995709896,
        -0.08724827319383621,
        0.02698649652302265,
        -0.07330824434757233,
        0.07108119130134583,
        -0.10248640179634094,
        -0.07575123012065887,
        -0.01959197409451008,
        -0.07625830173492432,
        0.053732603788375854,
        -0.05896223336458206,
        0.004031503107398748,
        0.09265082329511642,
        0.00217374786734581,
        0.055389534682035446,
        -0.09660684317350388,
        0.06172943487763405,
        0.04816543310880661,
        -0.038982488214969635,
        -0.019903354346752167,
        -0.020738031715154648,
        -0.09161896258592606,
        0.05121218413114548,
        0.007160231005400419,
        -0.05730336531996727,
        0.06970234215259552,
        -0.020887309685349464,
        -0.03027557022869587,
        0.06142835691571236,
        -0.07542132586240768,
        -0.08889056742191315,
        -0.08374243974685669,
        -0.05061837285757065,
        0.08105416595935822,
        -0.011447402648627758,
        0.036884527653455734,
        -0.059877242892980576,
        0.0047009969130158424,
        0.09735380858182907,
        0.06229931116104126,
        -0.00814224872738123,
        -0.023319507017731667,
        -0.03109252266585827,
        -0.03403075784444809,
        0.005843971390277147,
        0.0871812179684639,
        -0.010542217642068863,
        0.018258551135659218,
        -0.06941304355859756,
        0.09304682910442352,
        0.01722310110926628,
        0.09501518309116364,
        0.07618075609207153,
        -0.06354623287916183,
        -0.07503125071525574,
        0.08997698128223419,
        -0.03473177179694176,
        0.03333207592368126,
        -0.08314448595046997,
        0.027977781370282173,
        -0.06336389482021332,
        0.015528198331594467,
        0.10293373465538025,
        -0.0539388433098793,
        0.048647936433553696,
        0.06763399392366409,
        0.02230645902454853,
        -0.0044268034398555756,
        0.022579533979296684,
        -0.0241780374199152,
        -0.10144297033548355,
        0.06889303028583527,
        -0.025227278470993042,
        0.09524641931056976,
        0.0894637182354927,
        -0.016454922035336494,
        0.0708480179309845,
        -0.024593805894255638,
        -0.00018250892753712833,
        -0.08743007481098175,
        0.10048780590295792,
        0.05275796353816986,
        -0.08543352037668228
      ],
      [
        0.03578431159257889,
        -0.025029174983501434,
        0.06378503888845444,
        0.00921388529241085,
        -0.026862377300858498,
        -0.014695688150823116,
        -0.019580230116844177,
        -0.039722882211208344,
        -0.06549671292304993,
        -0.03370838239789009,
        0.01327996514737606,
        -0.09204839169979095,
        0.08108185231685638,
        -0.003158742096275091,
        0.07600368559360504,
        -0.05849350988864899,
        0.0492190457880497,
        0.03158944845199585,
        -0.0240437351167202,
        -0.040749989449977875,
        0.0336296446621418,
        -0.05358891189098358,
        -0.10001657158136368,
        0.055269889533519745,
        0.07734154164791107,
        0.047278136014938354,
        -0.08115468919277191,
        -0.002429086249321699,
        0.011866884306073189,
        0.09367941319942474,
        -0.06640234589576721,
        0.012465478852391243,
        -0.004904274363070726,
        0.06871592253446579,
        -0.0914563536643982,
        0.048700883984565735,
        0.056078024208545685,
        0.09101933240890503,
        0.07051008194684982,
        -0.05377327650785446,
        -0.04425898566842079,
        -0.04436471313238144,
        0.026678865775465965,
        -0.0017273023258894682,
        -0.077168308198452,
        -0.10080071538686752,
        -0.008361552841961384,
        -0.100484699010849,
        -0.024598456919193268,
        -0.007724246010184288,
        -0.002305120462551713,
        -0.09645900875329971,
        0.04897240921854973,
        0.02220880053937435,
        0.015373599715530872,
        -0.012467670254409313,
        0.07883457839488983,
        0.08257204294204712,
        -0.06325702369213104,
        0.02587629109621048,
        -0.07412409782409668,
        -0.06310670077800751,
        -0.04141712561249733,
        -0.036006826907396317,
        0.09616390615701675,
        0.09520260989665985,
        -0.03792287036776543,
        0.056108444929122925,
        0.09857490658760071,
        0.05257854610681534,
        0.06453676521778107,
        0.07459765672683716,
        0.08279328048229218,
        0.00374002568423748,
        0.06887388974428177,
        0.07610473781824112,
        -0.03493935987353325,
        -0.060334462672472,
        0.018096910789608955,
        -0.06374264508485794,
        0.02297201007604599,
        -0.04087430611252785,
        -0.06833615899085999,
        0.08727335929870605,
        0.09772677719593048,
        0.06148599088191986,
        0.09511302411556244,
        0.006675279699265957,
        0.03082684986293316,
        -0.07379600405693054,
        -0.009192235767841339,
        -0.1001029685139656,
        0.04480952024459839,
        -0.04171087220311165,
        -0.04369274526834488,
        0.07454755902290344
      ],
      [
        0.08964785188436508,
        0.05448450520634651,
        0.007528399117290974,
        0.06534169614315033,
        0.06533306837081909,
        0.03096909448504448,
        0.025366654619574547,
        0.013916070573031902,
        0.062104225158691406,
        -0.08255942910909653,
        0.039387933909893036,
        0.020171331241726875,
        0.09829683601856232,
        -0.04645290598273277,
        -0.02008124068379402,
        0.082834392786026,
        0.04630836471915245,
        -0.042828015983104706,
        -0.09038375318050385,
        -0.04665277525782585,
        0.042107515037059784,
        0.10040302574634552,
        0.09994117170572281,
        -0.05152935907244682,
        -0.0691150352358818,
        0.06122490018606186,
        -0.009210916236042976,
        0.0698157399892807,
        -0.07742004841566086,
        0.036248017102479935,
        -0.028426259756088257,
        -0.015226700343191624,
        -0.05481480434536934,
        -0.09998711198568344,
        -0.06765136122703552,
        -0.00773360300809145,
        -0.08452542871236801,
        -0.021719327196478844,
        -0.02914973348379135,
        0.005771971307694912,
        0.08453730493783951,
        -0.00855555385351181,
        0.009224914014339447,
        -0.09948877990245819,
        0.016999952495098114,
        -0.09299910813570023,
        0.0270620696246624,
        -0.08041298389434814,
        -0.09551901370286942,
        -0.04844425991177559,
        0.06983964145183563,
        0.04877001419663429,
        0.091497041285038,
        -0.002017031889408827,
        -0.04237673431634903,
        0.023490840569138527,
        -0.06535942107439041,
        0.06253174692392349,
        0.09288186579942703,
        -0.058912601321935654,
        0.09314955770969391,
        -0.03908916562795639,
        0.0524120070040226,
        -0.03660734370350838,
        -0.045627668499946594,
        0.02548445202410221,
        0.03052167408168316,
        0.022588243708014488,
        -0.019309604540467262,
        0.08844174444675446,
        -0.04802926629781723,
        0.014457217417657375,
        0.040718838572502136,
        -0.10126002132892609,
        0.04335394501686096,
        -0.06096475571393967,
        0.045560773462057114,
        -0.06990215182304382,
        -0.008546951226890087,
        -0.08286567777395248,
        0.022915039211511612,
        0.0916905403137207,
        0.064527727663517,
        -0.05560806393623352,
        0.07760114222764969,
        0.022236518561840057,
        0.0015972548862919211,
        -0.026158515363931656,
        0.09666285663843155,
        -0.07803522050380707,
        0.08088323473930359,
        0.07863884419202805,
        0.022226694971323013,
        0.03351553529500961,
        -0.05549512058496475,
        0.044248826801776886
      ],
      [
        0.005338321439921856,
        -0.048888303339481354,
        0.026912085711956024,
        0.09715114533901215,
        0.027691863477230072,
        -0.07006639987230301,
        0.053524184972047806,
        0.03268701210618019,
        -0.030104437842965126,
        -0.035066522657871246,
        0.05428258702158928,
        0.0821395143866539,
        -0.039232973009347916,
        -0.0678960382938385,
        0.0961453840136528,
        -0.07892103493213654,
        0.0015056564006954432,
        -0.046264249831438065,
        0.018911847844719887,
        -0.06342895328998566,
        0.06429463624954224,
        0.07403337210416794,
        -0.07498066872358322,
        0.03482824191451073,
        0.01257367804646492,
        0.09843535721302032,
        -0.07920515537261963,
        -0.06571458280086517,
        -0.021343905478715897,
        -0.074269138276577,
        -0.03603621944785118,
        -0.05571160092949867,
        0.009800741448998451,
        0.03813531622290611,
        -0.016368526965379715,
        0.04014052450656891,
        0.06334340572357178,
        -0.08840681612491608,
        -0.052424561232328415,
        0.10042666643857956,
        0.0689043328166008,
        -0.0978534147143364,
        0.05832955986261368,
        -0.0953437089920044,
        0.07143119722604752,
        0.058219198137521744,
        0.019786573946475983,
        -0.09537245333194733,
        -0.06129942461848259,
        0.09912202507257462,
        -0.07154015451669693,
        -0.09181220829486847,
        -0.09157022833824158,
        -0.0037500630132853985,
        0.0506705641746521,
        -0.059950679540634155,
        0.07157154381275177,
        0.07627496123313904,
        -0.053961001336574554,
        -0.05387575551867485,
        0.05279532074928284,
        0.06541240215301514,
        0.018241047859191895,
        0.04947836697101593,
        0.023934373632073402,
        -0.06711048632860184,
        -0.0906333401799202,
        -0.08030104637145996,
        -0.10316000878810883,
        -0.06697066873311996,
        -0.05589419603347778,
        -0.009829320013523102,
        -0.07449475675821304,
        0.09422650933265686,
        -0.059871722012758255,
        0.030664125457406044,
        -0.08861919492483139,
        -0.020623650401830673,
        -0.06693536788225174,
        0.09131176769733429,
        -0.04801878333091736,
        -0.028804877772927284,
        0.08122915774583817,
        -0.002022598870098591,
        0.06835713982582092,
        -0.051585085690021515,
        -0.062473077327013016,
        0.0751669630408287,
        0.052744846791028976,
        0.0409085676074028,
        0.07265955209732056,
        0.013027498498558998,
        0.05248859524726868,
        -0.052159663289785385,
        -0.019872194156050682,
        0.08867611736059189
      ],
      [
        -0.07864035665988922,
        0.0008295502047985792,
        -0.07133138179779053,
        0.058811385184526443,
        0.10034595429897308,
        0.06798074394464493,
        0.028299711644649506,
        -0.06406334787607193,
        -0.018609406426548958,
        -0.08902116864919662,
        0.025303971022367477,
        0.06961879879236221,
        -0.006650655530393124,
        -0.010580834932625294,
        0.04917554184794426,
        -0.050865013152360916,
        0.09404616802930832,
        0.010762142948806286,
        -0.03796733170747757,
        0.03754773736000061,
