{
  "policy_type": "mappo_timeout_policy",
  "algorithm": "mappo_ctde_gae",
  "episodes": 3,
  "nodes": 5,
  "seed": 7,
  "features": [
    "bias",
    "rtt_norm",
    "loss_rate",
    "log_gap_norm",
    "recent_split"
  ],
  "global_features": [
    "node_count_norm",
    "alive_fraction",
    "mean_rtt_norm",
    "mean_loss",
    "mean_log_gap_norm",
    "recent_split",
    "round_index_norm"
  ],
  "arms": {
    "very_short": [
      150.0,
      230.0
    ],
    "short": [
      280.0,
      420.0
    ],
    "medium": [
      520.0,
      760.0
    ],
    "long": [
      900.0,
      1300.0
    ],
    "very_long": [
      1450.0,
      2100.0
    ]
  },
  "actor_critic": {
    "actor.0.weight": [
      [
        0.030036721378564835,
        -0.2705954909324646,
        0.14120660722255707,
        0.14152581989765167,
        -0.24022863805294037
      ],
      [
        -0.06582901626825333,
        -0.26079025864601135,
        0.11723967641592026,
        -0.11926529556512833,
        0.3139585256576538
      ],
      [
        0.318666011095047,
        0.04675397649407387,
        -0.1894611418247223,
        -0.2614787817001343,
        -0.050315335392951965
      ],
      [
        -0.12466038018465042,
        0.19830121099948883,
        -0.3806900680065155,
        0.4191077947616577,
        -0.352009654045105
      ],
      [
        0.34365901350975037,
        -0.07645828276872635,
        0.23124390840530396,
        0.17547324299812317,
        0.019923226907849312
      ],
      [
        0.08458886295557022,
        0.3408178389072418,
        0.11621358245611191,
        0.23846666514873505,
        -0.3447455167770386
      ],
      [
        0.31717613339424133,
        0.15272225439548492,
        0.11208473145961761,
        0.060582127422094345,
        0.2167997658252716
      ],
      [
        0.41192540526390076,
        -0.09831005334854126,
        -0.24794436991214752,
        -0.11131947487592697,
        -0.27377238869667053
      ],
      [
        0.21392787992954254,
        -0.21983133256435394,
        -0.23747777938842773,
        0.3870702087879181,
        0.4104377329349518
      ],
      [
        0.052637770771980286,
        -0.07624029368162155,
        -0.05652850493788719,
        0.2106594741344452,
        -0.41640499234199524
      ],
      [
        -0.36668601632118225,
        0.3568943738937378,
        0.44251754879951477,
        -0.025375740602612495,
        -0.3521656394004822
      ],
      [
        0.011016112752258778,
        -0.20925581455230713,
        -0.002062886720523238,
        0.21769480407238007,
        0.19676780700683594
      ],
      [
        -0.05364539846777916,
        0.04803301393985748,
        0.12049996107816696,
        -0.3493376076221466,
        -0.15282636880874634
      ],
      [
        0.018712541088461876,
        -0.25398191809654236,
        -0.19411161541938782,
        0.15141014754772186,
        0.2585865557193756
      ],
      [
        0.00742969149723649,
        -0.17283134162425995,
        0.24597902595996857,
        -0.24634286761283875,
        -0.10617461055517197
      ],
      [
        0.42214998602867126,
        0.08356079459190369,
        0.032709646970033646,
        0.15196140110492706,
        -0.10785253345966339
      ],
      [
        0.381452739238739,
        -0.36355265974998474,
        -0.12181659042835236,
        -0.07610825449228287,
        -0.18281476199626923
      ],
      [
        -0.10950196534395218,
        0.2759605050086975,
        0.24418307840824127,
        0.023670556023716927,
        0.3893066942691803
      ],
      [
        -0.3145996332168579,
        -0.26556283235549927,
        0.2031509280204773,
        -0.02288372628390789,
        -0.40874379873275757
      ],
      [
        -0.310745507478714,
        -0.27345114946365356,
        0.34414225816726685,
        0.20133692026138306,
        0.34717145562171936
      ],
      [
        -0.3317500352859497,
        -0.43483251333236694,
        -0.2920885980129242,
        0.04664719104766846,
        -0.08712974190711975
      ],
      [
        -0.2830222249031067,
        0.3243600130081177,
        -0.14541977643966675,
        -0.25985652208328247,
        0.20537365972995758
      ],
      [
        -0.12169770896434784,
        0.2839045822620392,
        0.10538145154714584,
        0.012235256843268871,
        0.09508510679006577
      ],
      [
        -0.3372466564178467,
        -0.24048656225204468,
        -0.211389422416687,
        -0.25185269117355347,
        0.08050385862588882
      ],
      [
        0.08814981579780579,
        -0.18700863420963287,
        0.2903420031070709,
        -0.24763146042823792,
        0.09149126708507538
      ],
      [
        -0.12887877225875854,
        -0.38673457503318787,
        -0.290004163980484,
        0.18387804925441742,
        0.17817650735378265
      ],
      [
        -0.27773791551589966,
        -0.14065773785114288,
        -0.41927751898765564,
        0.239197239279747,
        0.38549932837486267
      ],
      [
        0.14744940400123596,
        -0.27551648020744324,
        0.2370825707912445,
        0.36993589997291565,
        -0.09269672632217407
      ],
      [
        -0.0745105892419815,
        0.15358716249465942,
        0.05633160099387169,
        -0.14662709832191467,
        -0.41638126969337463
      ],
      [
        -0.3147886395454407,
        0.02301948517560959,
        -0.02518882043659687,
        0.37049365043640137,
        0.0165085606276989
      ],
      [
        -0.11635345965623856,
        -0.43817272782325745,
        -0.41238367557525635,
        0.18696525692939758,
        0.3971327245235443
      ],
      [
        -0.007984685711562634,
        -0.4009208381175995,
        0.15757782757282257,
        0.3630429804325104,
        -0.29719308018684387
      ],
      [
        -0.11655110865831375,
        0.03880367800593376,
        -0.25385183095932007,
        -0.415873259305954,
        0.1945788860321045
      ],
      [
        -0.36577850580215454,
        -0.1110583022236824,
        -0.23626738786697388,
        0.33512961864471436,
        0.08514972776174545
      ],
      [
        0.20851746201515198,
        -0.30399763584136963,
        0.37570077180862427,
        0.03864506632089615,
        -0.24684344232082367
      ],
      [
        -0.030405599623918533,
        -0.31782078742980957,
        -0.021794363856315613,
        0.24852930009365082,
        -0.20224513113498688
      ],
      [
        0.37682974338531494,
        0.1353459656238556,
        -0.07945546507835388,
        0.13849925994873047,
        -0.08359020203351974
      ],
      [
        -0.10387853533029556,
        -0.2933669984340668,
        0.260311096906662,
        0.26728665828704834,
        0.15192602574825287
      ],
      [
        0.26329734921455383,
        0.4456717073917389,
        0.4200790524482727,
        -0.4303794205188751,
        0.10077427327632904
      ],
      [
        -0.039490241557359695,
        0.15065337717533112,
        -0.0879327729344368,
        0.12362004071474075,
        -0.41268277168273926
      ],
      [
        0.20560596883296967,
        0.42851436138153076,
        -0.08157264441251755,
        -0.35692697763442993,
        -0.37055715918540955
      ],
      [
        -0.08698883652687073,
        -0.00796041265130043,
        0.04868243634700775,
        0.05730002745985985,
        0.3380536139011383
      ],
      [
        -0.08007125556468964,
        0.12881997227668762,
        -0.23648197948932648,
        0.4410557448863983,
        0.17041973769664764
      ],
      [
        -0.06082043796777725,
        0.2951805889606476,
        0.15950793027877808,
        0.07549487054347992,
        -0.1332216113805771
      ],
      [
        0.05742276832461357,
        0.03316722437739372,
        -0.2600919008255005,
        0.007466448470950127,
        0.09886153787374496
      ],
      [
        -0.2660842537879944,
        0.08108049631118774,
        -0.14724713563919067,
        -0.3708646297454834,
        -0.2666304409503937
      ],
      [
        -0.3561238944530487,
        0.10230524092912674,
        0.27236640453338623,
        0.4053841233253479,
        0.439696341753006
      ],
      [
        0.17734798789024353,
        0.21993432939052582,
        -0.07506420463323593,
        0.3708975911140442,
        -0.1697748303413391
      ],
      [
        -0.12272720038890839,
        -0.147637277841568,
        -0.2985915243625641,
        -0.34346848726272583,
        -0.0899633839726448
      ],
      [
        0.36264073848724365,
        -0.22158800065517426,
        -0.4048079252243042,
        -0.10337913781404495,
        0.4043152332305908
      ],
      [
        0.10902565717697144,
        -0.027081117033958435,
        -0.1266711950302124,
        0.39382094144821167,
        -0.42861437797546387
      ],
      [
        0.2546135485172272,
        0.12262842804193497,
        0.2815479636192322,
        -0.2580127716064453,
        -0.14543010294437408
      ],
      [
        -0.18674001097679138,
        0.43514442443847656,
        -0.056544285267591476,
        -0.4252379536628723,
        0.2254462093114853
      ],
      [
        0.0850306823849678,
        0.06000077351927757,
        -0.29941999912261963,
        -0.4177420437335968,
        0.4064328670501709
      ],
      [
        -0.3380146324634552,
        -0.08617912232875824,
        -0.08316356688737869,
        0.2566032111644745,
        -0.3758201599121094
      ],
      [
        -0.2547670602798462,
        -0.2384597212076187,
        -0.224297434091568,
        0.2723878026008606,
        0.2749538719654083
      ],
      [
        0.20407380163669586,
        0.36625146865844727,
        -0.2962338924407959,
        -0.0029773716814816,
        -0.36070922017097473
      ],
      [
        0.00032332961563952267,
        -0.38102734088897705,
        -0.4295412600040436,
        0.28288936614990234,
        -0.19670304656028748
      ],
      [
        -0.036835603415966034,
        -0.1306210309267044,
        -0.3535088300704956,
        -0.04341417923569679,
        0.06726577877998352
      ],
      [
        0.3561471700668335,
        -0.19143427908420563,
        0.4249049425125122,
        -0.20826822519302368,
        0.2874622941017151
      ],
      [
        0.391829252243042,
        0.04744436591863632,
        -0.152390256524086,
        0.3296132981777191,
        -0.12925003468990326
      ],
      [
        -0.19025975465774536,
        -0.15489651262760162,
        -0.36401069164276123,
        -0.04588747024536133,
        -0.3650282323360443
      ],
      [
        0.2916743755340576,
        -0.43192267417907715,
        -0.3334481418132782,
        0.08984066545963287,
        0.27546095848083496
      ],
      [
        0.4265311062335968,
        -0.3636467754840851,
        0.36617329716682434,
        0.3145589530467987,
        -0.29458320140838623
      ],
      [
        0.18764857947826385,
        -0.1246044710278511,
        0.12992547452449799,
        -0.39710867404937744,
        -0.2556058466434479
      ],
      [
        -0.2847239077091217,
        -0.08841610699892044,
        -0.017471134662628174,
        -0.008425028994679451,
        -0.26538246870040894
      ],
      [
        0.2209715098142624,
        0.22606801986694336,
        -0.3934306800365448,
        -0.41573092341423035,
        -0.09489985555410385
      ],
      [
        0.12320950627326965,
        -0.3418230414390564,
        -0.04238428547978401,
        0.02417992614209652,
        -0.3429217040538788
      ],
      [
        0.41916242241859436,
        0.3250960409641266,
        0.34278249740600586,
        -0.18116658926010132,
        -0.31842929124832153
      ],
      [
        0.05371361970901489,
        0.2603798806667328,
        0.21757665276527405,
        -0.288930743932724,
        0.3522607982158661
      ],
      [
        -0.21081717312335968,
        -0.07698717713356018,
        -0.12419703602790833,
        0.21409016847610474,
        -0.41616037487983704
      ],
      [
        -0.2859688401222229,
        -0.05531267449259758,
        0.3066422939300537,
        -0.10649236291646957,
        0.27940481901168823
      ],
      [
        0.4083527624607086,
        0.015611022710800171,
        -0.3024078607559204,
        0.0036866902373731136,
        0.1752076894044876
      ],
      [
        -0.09644594043493271,
        -0.4378332197666168,
        0.26498502492904663,
        -0.19369274377822876,
        -0.31399139761924744
      ],
      [
        0.22909803688526154,
        0.1067175343632698,
        0.3247678875923157,
        -0.0915113016963005,
        0.27547594904899597
      ],
      [
        -0.10739237815141678,
        -0.2788720428943634,
        0.411639541387558,
        0.44121667742729187,
        0.3175196349620819
      ],
      [
        -0.1260230988264084,
        -0.19632455706596375,
        0.07786107808351517,
        0.22630229592323303,
        0.055863890796899796
      ],
      [
        0.18950097262859344,
        -0.02015596255660057,
        0.25485581159591675,
        0.21096961200237274,
        0.25593480467796326
      ],
      [
        -0.034683384001255035,
        -0.3692575693130493,
        -0.28168147802352905,
        -0.22200188040733337,
        0.379413366317749
      ],
      [
        -0.023743659257888794,
        -0.06125495210289955,
        -0.1756574958562851,
        -0.019896287471055984,
        0.3002329468727112
      ],
      [
        -0.0010988996364176273,
        0.206442728638649,
        0.2549039423465729,
        -0.4343625009059906,
        0.15760304033756256
      ],
      [
        0.4480449855327606,
        -0.22541436553001404,
        0.07386365532875061,
        0.00885686557739973,
        0.2351849377155304
      ],
      [
        0.10654794424772263,
        -0.3371866047382355,
        -0.33525142073631287,
        0.38304752111434937,
        -0.19396084547042847
      ],
      [
        -0.3942578434944153,
        -0.40254974365234375,
        -0.3902711272239685,
        0.10330954939126968,
        0.052900392562150955
      ],
      [
        -0.25840795040130615,
        -0.09982539713382721,
        0.07111448049545288,
        0.16172721982002258,
        0.1837897151708603
      ],
      [
        -0.24194449186325073,
        0.42021963000297546,
        0.4165779948234558,
        -0.31639644503593445,
        0.4157274663448334
      ],
      [
        -0.3675696551799774,
        -0.2939654588699341,
        0.08949562907218933,
        0.1323598325252533,
        0.3988637924194336
      ],
      [
        0.003452987875789404,
        0.3032452464103699,
        -0.14787419140338898,
        -0.32707643508911133,
        -0.04468251392245293
      ],
      [
        0.23220686614513397,
        -0.17351950705051422,
        -0.3773531913757324,
        -0.2712159752845764,
        0.08042501658201218
      ],
      [
        0.42764222621917725,
        0.023554181680083275,
        -0.3616931736469269,
        -0.2014140486717224,
        0.22576576471328735
      ],
      [
        -0.13956768810749054,
        -0.05929218605160713,
        0.333711177110672,
        0.16318416595458984,
        0.27257779240608215
      ],
      [
        0.40029674768447876,
        -0.14838248491287231,
        0.06364836543798447,
        -0.33433997631073,
        0.44571882486343384
      ],
      [
        -0.3009738624095917,
        0.42597439885139465,
        0.4105437695980072,
        0.09848862886428833,
        -0.38552433252334595
      ],
      [
        -0.013211176730692387,
        -0.18310746550559998,
        0.1382976621389389,
        0.25169187784194946,
        0.2502618730068207
      ],
      [
        0.14242464303970337,
        -0.3438808023929596,
        -0.37736156582832336,
        0.1328391134738922,
        -0.09931185096502304
      ],
      [
        0.21021297574043274,
        0.4358518123626709,
        0.1362440437078476,
        -0.27049511671066284,
        -0.12793800234794617
      ],
      [
        0.2767537534236908,
        0.04366772249341011,
        0.3061509430408478,
        -0.4298587739467621,
        -0.05390895903110504
      ],
      [
        -0.21928469836711884,
        0.3386455178260803,
        0.19442060589790344,
        -0.06115465983748436,
        -0.4161413609981537
      ],
      [
        -0.05390923470258713,
        0.36135390400886536,
        -0.013173033483326435,
        -0.019721651449799538,
        -0.41237279772758484
      ],
      [
        0.35287436842918396,
        0.3688378930091858,
        -0.3605227470397949,
        -0.31605422496795654,
        0.022869806736707687
      ],
      [
        -0.2547364830970764,
        -0.3647371530532837,
        0.1415385901927948,
        -0.11471270769834518,
        0.15382394194602966
      ],
      [
        0.17890791594982147,
        0.3970356583595276,
        0.26450708508491516,
        -0.42160487174987793,
        -0.36160844564437866
      ],
      [
        0.3575608730316162,
        -0.3788163363933563,
        0.2744971811771393,
        -0.2713627219200134,
        0.36005350947380066
      ],
      [
        0.2541215717792511,
        -0.3074887990951538,
        -0.36853843927383423,
        -0.19488462805747986,
        -0.20325233042240143
      ],
      [
        -0.25262099504470825,
        0.3163413107395172,
        0.1110273152589798,
        -0.054940834641456604,
        -0.029167572036385536
      ],
      [
        0.1873008906841278,
        0.04461286962032318,
        -0.056566592305898666,
        0.3959018290042877,
        0.30740389227867126
      ],
      [
        0.03256044164299965,
        0.3098418116569519,
        -0.0951889157295227,
        -0.34057292342185974,
        0.25805845856666565
      ],
      [
        0.24928133189678192,
        0.07372185587882996,
        -0.38035160303115845,
        0.32161810994148254,
        0.03300660103559494
      ],
      [
        -0.23593783378601074,
        -0.3944569528102875,
        -0.2318619191646576,
        0.4152801036834717,
        0.22061201930046082
      ],
      [
        -0.19825401902198792,
        0.3712989389896393,
        0.38427630066871643,
        0.22347889840602875,
        -0.038648515939712524
      ],
      [
        0.4179534614086151,
        -0.10233476758003235,
        -0.1877385377883911,
        0.214882493019104,
        -0.18537645041942596
      ],
      [
        0.32761576771736145,
        -0.23668955266475677,
        0.16585978865623474,
        -0.33019179105758667,
        -0.2991770803928375
      ],
      [
        0.02147235907614231,
        0.35132765769958496,
        -0.34395158290863037,
        -0.12013839185237885,
        0.20682987570762634
      ],
      [
        -0.0788661390542984,
        -0.39996111392974854,
        -0.003951775375753641,
        -0.15586623549461365,
        0.10765507817268372
      ],
      [
        0.18282033503055573,
        -0.13555853068828583,
        -0.23030894994735718,
        0.26326698064804077,
        -0.38642755150794983
      ],
      [
        0.2170742005109787,
        0.17856420576572418,
        0.17630858719348907,
        -0.3108149468898773,
        0.1786392629146576
      ],
      [
        -0.26570621132850647,
        0.20105844736099243,
        -0.20701898634433746,
        0.09963281452655792,
        0.006107457913458347
      ],
      [
        -0.308040052652359,
        -0.41564300656318665,
        -0.10628810524940491,
        0.2650223672389984,
        -0.10110825300216675
      ],
      [
        -0.11447035521268845,
        -0.277102530002594,
        -0.3239288926124573,
        -0.03750578314065933,
        -0.11816383898258209
      ],
      [
        0.16122958064079285,
        0.4356171190738678,
        -0.3062918186187744,
        -0.13613851368427277,
        0.16711167991161346
      ],
      [
        -0.300669401884079,
        -0.04835999757051468,
        -0.22558163106441498,
        0.2856064736843109,
        -0.0509793646633625
      ],
      [
        0.03793959692120552,
        0.26713240146636963,
        -0.3156322240829468,
        -0.24273952841758728,
        0.3454601466655731
      ],
      [
        0.17651326954364777,
        -0.041261374950408936,
        0.444681853055954,
        0.3908289074897766,
        -0.19461485743522644
      ],
      [
        -0.12380284816026688,
        0.19502517580986023,
        -0.2776629328727722,
        -0.44574645161628723,
        -0.22453680634498596
      ],
      [
        -0.4082857072353363,
        0.2839689552783966,
        0.11438525468111038,
        -0.3775406777858734,
        -0.02003205567598343
      ],
      [
        0.42731305956840515,
        -0.26268187165260315,
        -0.28442835807800293,
        0.19343602657318115,
        -0.3171176016330719
      ],
      [
        -0.41839656233787537,
        0.25179922580718994,
        -0.05814303830265999,
        0.23823262751102448,
        -0.09177824854850769
      ],
      [
        0.4194280803203583,
        -0.18575559556484222,
        0.3704499304294586,
        -0.25558027625083923,
        -0.1583905965089798
      ]
    ],
    "actor.0.bias": [
      0.344242125749588,
      0.19944077730178833,
      -0.3250620365142822,
      -0.043343789875507355,
      0.265215128660202,
      -0.3451204299926758,
      0.01985991932451725,
      0.27510878443717957,
      -0.34267017245292664,
      0.1713220179080963,
      -0.4335813522338867,
      -0.41944244503974915,
      0.008632839657366276,
      -0.4029347896575928,
      -0.2050158530473709,
      0.264905720949173,
      -0.08639585971832275,
      -0.29793503880500793,
      0.36613649129867554,
      -0.4382459223270416,
      0.09252985566854477,
      -0.29384878277778625,
      -0.2502184510231018,
      0.035080231726169586,
      0.43929728865623474,
      -0.11990528553724289,
      -0.4454537332057953,
      0.09762533009052277,
      -0.17922259867191315,
      -0.29998186230659485,
      0.17548446357250214,
      0.175422802567482,
      -0.22011369466781616,
      0.03041999228298664,
      0.06596824526786804,
      0.03188899904489517,
      -0.07026854902505875,
      -0.2583927810192108,
      0.24572007358074188,
      0.33672720193862915,
      0.36287111043930054,
      0.37021011114120483,
      -0.020609337836503983,
      0.03704645484685898,
      -0.17666441202163696,
      -0.10724617540836334,
      0.11345969885587692,
      0.03689277917146683,
      -0.32179734110832214,
      -0.31878599524497986,
      0.20841187238693237,
      0.3423530161380768,
      0.41577282547950745,
      0.27202439308166504,
      0.2561161518096924,
      0.1886502355337143,
      0.30265823006629944,
      -0.11348013579845428,
      0.06794560700654984,
      0.17934072017669678,
      0.09562122076749802,
      -0.0373828187584877,
      -0.23624111711978912,
      -0.3193909823894501,
      -0.25636667013168335,
      0.04213826730847359,
      0.41206416487693787,
      -0.16409172117710114,
      -0.36396685242652893,
      -0.390668123960495,
      0.17566709220409393,
      0.1845896989107132,
      -0.24030689895153046,
      -0.17471323907375336,
      0.34752529859542847,
      -0.37978020310401917,
      0.26143190264701843,
      0.016216954216361046,
      -0.2114059329032898,
      0.43090659379959106,
      -0.29511064291000366,
      0.4044460356235504,
      0.36946430802345276,
      0.15249431133270264,
      0.29253166913986206,
      0.10731053352355957,
      0.37328943610191345,
      0.1009591594338417,
      -0.44658520817756653,
      -0.18749286234378815,
      0.06645452231168747,
      0.313133180141449,
      -0.130755215883255,
      0.16355402767658234,
      0.16955000162124634,
      0.039836812764406204,
      -0.3673156499862671,
      0.4272926151752472,
      -0.21683239936828613,
      0.06937215477228165,
      -0.17281857132911682,
      0.11534485965967178,
      0.30142292380332947,
      0.09547610580921173,
      -0.19306984543800354,
      0.10029730945825577,
      -0.3649248480796814,
      0.3771556615829468,
      0.2394430786371231,
      0.3195032775402069,
      0.11194370687007904,
      -0.4441455006599426,
      -0.3190726637840271,
      -0.4050855040550232,
      0.2600013315677643,
      0.43218958377838135,
      0.2922367751598358,
      -0.17908507585525513,
      -0.2709072530269623,
      -0.25773754715919495,
      0.42175787687301636,
      -0.42873847484588623,
      -0.43850216269493103,
      0.18695499002933502,
      0.043527860194444656,
      -0.23158149421215057,
      -0.25112178921699524,
      -0.43112149834632874
    ],
    "actor.2.weight": [
      [
        0.028812849894165993,
        -0.04199126735329628,
        -0.0258860532194376,
        0.045154474675655365,
        -0.07019723951816559,
        0.08571147173643112,
        -0.027626048773527145,
        0.05519914627075195,
        -0.013290280476212502,
        0.0614248625934124,
        -0.05025337263941765,
        -0.018192488700151443,
        -0.04500245302915573,
        0.05933719500899315,
        -0.08670477569103241,
        0.057337380945682526,
        -0.0011200933950021863,
        -0.05506325885653496,
        -0.026721522212028503,
        -0.009278839454054832,
        -0.02782236598432064,
        -0.0377245657145977,
        -0.022604722529649734,
        0.010421951301395893,
        0.04406827315688133,
        0.015832528471946716,
        0.06524313986301422,
        -0.015732932835817337,
        0.07345874607563019,
        0.030657367780804634,
        -0.061603911221027374,
        0.058167342096567154,
        0.0199690330773592,
        0.057870108634233475,
        -0.08533848822116852,
        -0.006926709786057472,
        -0.08329220861196518,
        -0.01918918639421463,
        -0.030734948813915253,
        -0.05577995628118515,
        -0.05670823156833649,
        0.06942608207464218,
        0.04123743996024132,
        0.028814196586608887,
        0.0171327143907547,
        0.026760971173644066,
        0.009664755314588547,
        -0.0866531953215599,
        -0.011201770044863224,
        0.05741975083947182,
        -0.012544997036457062,
        0.014252912253141403,
        0.05553088337182999,
        0.05310429632663727,
        -0.016664598137140274,
        0.07315331697463989,
        -0.034078408032655716,
        -0.0036633152049034834,
        0.07244836539030075,
        -0.04818597808480263,
        0.08635871857404709,
        -0.04374800622463226,
        -0.04386265203356743,
        0.06684836000204086,
        0.06201990693807602,
        -0.06347107142210007,
        0.04058092460036278,
        0.0051720659248530865,
        -0.06901390105485916,
        -0.0246096421033144,
        0.006457730196416378,
        -0.0805620327591896,
        -0.004606360103935003,
        0.020897436887025833,
        0.0671476200222969,
        0.06414535641670227,
        -0.03566091135144234,
        0.04314509779214859,
        0.019965797662734985,
        -0.0038171610794961452,
        -0.0661609023809433,
        0.026295606046915054,
        0.0799604207277298,
        -0.07321694493293762,
        -0.004933725576847792,
        0.05280320718884468,
        0.0013184871058911085,
        0.062189001590013504,
        -0.01108760666102171,
        -0.04770852252840996,
        -0.07120059430599213,
        -0.05193578824400902,
        -0.01795267127454281,
        0.05616520345211029,
        0.007951934821903706,
        0.00622690562158823,
        0.06999652832746506,
        0.021973231807351112,
        -0.038420286029577255,
        -0.028438236564397812,
        0.05147003382444382,
        -0.036656592041254044,
        0.029785873368382454,
        0.03656551241874695,
        0.0025068141985684633,
        -0.06085008755326271,
        -0.05012362450361252,
        -0.08023694902658463,
        0.029938727617263794,
        -0.08492887020111084,
        -0.05105829983949661,
        0.08227687329053879,
        -0.0012817997485399246,
        0.04185023531317711,
        -0.04516148939728737,
        -0.01966155134141445,
        -0.0427236407995224,
        0.03200675919651985,
        -0.05765195190906525,
        -0.03893059864640236,
        0.020418688654899597,
        0.005247349850833416,
        -0.04344296082854271,
        0.006078215315937996,
        -0.016842909157276154,
        -0.08629080653190613,
        0.08146359026432037,
        -0.07338147610425949
      ],
      [
        0.02775486186146736,
        0.050924625247716904,
        -0.01734866201877594,
        -0.025666873902082443,
        0.08269454538822174,
        0.06526768952608109,
        -0.014218317344784737,
        -0.030188975855708122,
        -0.04604749381542206,
        0.0713178962469101,
        -0.0493781603872776,
        0.03078598529100418,
        0.023171013221144676,
        0.06700330972671509,
        -0.001832279609516263,
        0.04659378528594971,
        -0.050089411437511444,
        -0.0337858647108078,
        -0.034711502492427826,
        -0.08620089292526245,
        -0.08062702417373657,
        0.04504316672682762,
        0.04064144566655159,
        -0.023538455367088318,
        -0.07957787811756134,
        0.058704376220703125,
        0.0843396782875061,
        0.08699000626802444,
        -0.037944529205560684,
        -0.07765092700719833,
        0.058302972465753555,
        0.04367392882704735,
        0.06797562539577484,
        0.021945839747786522,
        0.05875952169299126,
        -0.04033152759075165,
        -0.07054431736469269,
        0.012580739334225655,
        0.07662266492843628,
        -0.05635078251361847,
        0.047196727246046066,
        -0.035946574062108994,
        -0.05343606695532799,
        -0.023223228752613068,
        0.08818363398313522,
        0.07493159919977188,
        0.07351242750883102,
        0.08604863286018372,
        -0.004162689670920372,
        0.040028903633356094,
        0.02914532646536827,
        -0.03557959571480751,
        0.05917457863688469,
        -0.010311725549399853,
        -0.03379741683602333,
        0.05117787420749664,
        0.08595965057611465,
        0.06700611114501953,
        0.0033209710381925106,
        -0.056741759181022644,
        0.08317732065916061,
        0.03554942458868027,
        0.07403719425201416,
        -0.027300579473376274,
        0.05130754038691521,
        0.0032241572625935078,
        0.06334355473518372,
        0.01967112347483635,
        -0.03849947452545166,
        0.03990640863776207,
        0.08296390622854233,
        -0.05840001627802849,
        0.08689139783382416,
        0.07170546799898148,
        0.07534253597259521,
        0.018002061173319817,
        -0.026734834536910057,
        -0.02841036394238472,
        -0.010228079743683338,
        -0.05738171562552452,
        0.03403728827834129,
        0.043275680392980576,
        -0.019625024870038033,
        0.07741133868694305,
        0.031181810423731804,
        0.08879509568214417,
        0.08159247785806656,
        -0.015322358347475529,
        -0.07357780635356903,
        -0.05722561478614807,
        0.0863906592130661,
        -0.05245247110724449,
        0.005012600217014551,
        0.058301396667957306,
        -0.029806679114699364,
        0.052027951925992966,
        -0.06055699288845062,
        0.0163453109562397,
        0.039320483803749084,
        -0.0725548267364502,
        -0.03351839259266853,
        -0.04352051764726639,
        -0.015143753960728645,
        0.0836775004863739,
        0.07693829387426376,
        0.04659136384725571,
        -0.040328625589609146,
        -0.015498902648687363,
        0.009484400972723961,
        0.08650686591863632,
        -0.07270646095275879,
        -0.022441919893026352,
        -0.07426996529102325,
        0.031720053404569626,
        -0.01276386622339487,
        -0.038366228342056274,
        -0.07962171733379364,
        -0.030333010479807854,
        -0.07772653549909592,
        0.030792148783802986,
        -0.08167287707328796,
        -0.044094011187553406,
        0.08701350539922714,
        -0.08657894283533096,
        -0.07393012940883636,
        -0.06897067278623581,
        -0.05787289887666702,
        0.06875132024288177
      ],
      [
        -0.027183162048459053,
        -0.06951156258583069,
        0.05103669688105583,
        0.07818467915058136,
        0.04508413374423981,
        0.00946795754134655,
        0.017680270597338676,
        0.03536069020628929,
        0.0769580528140068,
        0.05189051479101181,
        -0.07007207721471786,
        -0.06973780691623688,
        -0.05448165163397789,
        -0.039719998836517334,
        0.07720734924077988,
        -0.08689448237419128,
        -0.011666419915854931,
        0.06579934805631638,
        0.034863587468862534,
        -0.04620404168963432,
        -0.0022444373462349176,
        -0.0731293335556984,
        -0.057430047541856766,
        -0.07494208216667175,
        -0.063382588326931,
        0.08439752459526062,
        -0.014908368699252605,
        -0.047410693019628525,
        -0.04201231524348259,
        -0.07209792733192444,
        -0.04894764721393585,
        0.01006473507732153,
        -0.05530935898423195,
        0.012600919231772423,
        0.03341294452548027,
        0.0617339201271534,
        -0.04886176064610481,
        -0.01927432045340538,
        0.08855259418487549,
        -0.00832202099263668,
        -0.07765154540538788,
        -0.02869531325995922,
        0.027211420238018036,
        -0.014624319039285183,
        0.02999567799270153,
        -0.0708686113357544,
        0.042058780789375305,
        -0.0376676544547081,
        -0.03435467556118965,
        -0.006886887829750776,
        0.08710633963346481,
        0.06908153742551804,
        0.07720469683408737,
        -0.011650537140667439,
        0.06346474587917328,
        -0.002327352063730359,
        0.06141139566898346,
        -0.03143171966075897,
        -0.04544876143336296,
        -0.06212538480758667,
        -0.003099164692685008,
        -0.03959351405501366,
        0.06873662769794464,
        -0.04470212385058403,
        0.04786192625761032,
        -0.0467459112405777,
        0.049490127712488174,
        0.004330465104430914,
        -0.051555611193180084,
        0.0032251032534986734,
        -0.08074817061424255,
        -0.009437398985028267,
        -0.0536498986184597,
        -0.08112640678882599,
        0.08087006211280823,
        0.051453378051519394,
        0.020064150914549828,
        0.051753364503383636,
        -0.07213933765888214,
        -0.045225635170936584,
        -0.04311998561024666,
        -0.05384773015975952,
        -0.017058396711945534,
        0.06438656896352768,
        -0.05711367726325989,
        0.015758950263261795,
        0.0373079851269722,
        -0.04366731271147728,
        0.03510422259569168,
        -0.024736298248171806,
        0.03791626915335655,
        0.08106206357479095,
        0.024619434028863907,
        -0.05816223844885826,
        -0.05525385960936546,
        0.0704428181052208,
        -0.024697190150618553,
        0.08530981838703156,
        -0.06593895703554153,
        -0.046805817633867264,
        0.08545045554637909,
        0.004898385610431433,
        -0.04256679490208626,
        0.008295660838484764,
        -0.007833881303668022,
        -0.0783550888299942,
        0.02678683213889599,
        0.04851518198847771,
        4.209487815387547e-05,
        -0.07161685824394226,
        -0.025219395756721497,
        0.03359730914235115,
        -0.0307628121227026,
        0.07021336257457733,
        -0.026384277269244194,
        -0.019142532721161842,
        0.05159700661897659,
        0.00840671919286251,
        0.049648724496364594,
        -0.061328958719968796,
        0.06607837229967117,
        -0.029212329536676407,
        -0.0003423451562412083,
        0.04543953016400337,
        0.025889746844768524,
        -0.031669002026319504,
        0.05016777664422989,
        -0.0068815709091722965
      ],
      [
        0.039424072951078415,
        -0.02494094707071781,
        0.004901318345218897,
        -0.02803691104054451,
        0.050223637372255325,
        0.06637532263994217,
        0.019631342962384224,
        0.0768909677863121,
        0.03075389564037323,
        -0.0759284719824791,
        -0.049924518913030624,
        -0.004980433266609907,
        -0.07220189273357391,
        0.035270605236291885,
        0.08192919194698334,
        -0.05424177274107933,
        -0.028164776042103767,
        -0.07319507002830505,
        0.021617094054818153,
        0.0038564724382013083,
        0.06331165879964828,
        -0.03306136652827263,
        -0.07532615959644318,
        0.08066383004188538,
        0.08608169853687286,
        -0.06002931296825409,
        -0.03223712369799614,
        -0.02389984019100666,
        -0.05567679926753044,
        -0.08233211934566498,
        0.06547106802463531,
        0.05237237364053726,
        0.04170404374599457,
        -0.07731989771127701,
        -0.020600151270627975,
        0.055443815886974335,
        0.043899763375520706,
        -0.020163174718618393,
        -0.00013920944184064865,
        0.037664733827114105,
        0.07628914713859558,
        0.08108936995267868,
        0.08335203677415848,
        0.07753562927246094,
        -0.03983495384454727,
        0.08468712121248245,
        -0.002201130846515298,
        -0.02364947274327278,
        0.07612451165914536,
        -0.009849327616393566,
        0.010925683192908764,
        -0.007895475253462791,
        -0.06381107121706009,
        -0.0682951882481575,
        0.07950611412525177,
        0.08477500081062317,
        -0.009716425091028214,
        -0.05577583238482475,
        0.08826133608818054,
        0.01878560148179531,
        0.046171411871910095,
        -0.07365631312131882,
        0.037205830216407776,
        0.00820631068199873,
        0.07950270175933838,
        0.06868165731430054,
        0.05083354189991951,
        0.023747889325022697,
        0.03286624327301979,
        0.0315927155315876,
        0.0838557556271553,
        0.05032883584499359,
        -0.003334839828312397,
        0.026498757302761078,
        -0.0339973047375679,
        0.07172569632530212,
        -0.04338734969496727,
        0.07952884584665298,
        0.06823011487722397,
        -0.06916740536689758,
        -0.07882191240787506,
        -0.003321561496704817,
        0.03996086120605469,
        0.07134197652339935,
        -0.07455793023109436,
        -0.02311290241777897,
        0.02291821874678135,
        -0.03024601750075817,
        -0.0713125616312027,
        0.02337423339486122,
        0.03941056504845619,
        -0.01186060719192028,
        0.047348085790872574,
        0.015772180631756783,
        0.07029575109481812,
        0.022094324231147766,
        0.02251279354095459,
        -0.017846127972006798,
        -0.04368803650140762,
        0.03591306135058403,
        0.08563751727342606,
        0.03112352266907692,
        -0.07998830825090408,
        0.05870029330253601,
        0.08583283424377441,
        -0.0035710050724446774,
        -0.057566042989492416,
        -0.02600768953561783,
        0.06174585223197937,
        0.045790404081344604,
        -0.010808607563376427,
        0.016683436930179596,
        -0.0006494144909083843,
        -0.08041533827781677,
        0.06015860661864281,
        -0.011719625443220139,
        -0.07441827654838562,
        0.021358728408813477,
        0.04902111738920212,
        -0.07743668556213379,
        -0.00550478370860219,
        -0.07769487798213959,
        0.025876332074403763,
        0.011251233518123627,
        0.04706428572535515,
        -0.019117839634418488,
        0.08461185544729233,
        -0.08183716237545013
      ],
      [
        -0.02090899832546711,
        -0.06481311470270157,
        -0.06407954543828964,
        0.07492546737194061,
        0.047138091176748276,
        0.07409228384494781,
        0.03766978159546852,
        -0.05032506585121155,
        -0.016666913405060768,
        -0.0772668719291687,
        0.07939724624156952,
        -0.009988372214138508,
        -0.002815285697579384,
        0.035318419337272644,
        -0.010211997665464878,
        -0.06360194832086563,
        0.003094305284321308,
        0.06269866973161697,
        0.057577989995479584,
        -0.08035042136907578,
        0.0805574581027031,
        0.03781159967184067,
        -0.08307750523090363,
        -0.008925034664571285,
        -0.058301545679569244,
        0.011314097791910172,
        -0.07784942537546158,
        -0.021708408370614052,
        0.06819754838943481,
        -0.013166986405849457,
        0.018367746844887733,
        -0.04517760127782822,
        0.06295748800039291,
        0.06964580714702606,
        -0.00014300949987955391,
        0.00527882669121027,
        0.08012136071920395,
        -0.08579874038696289,
        0.03801950812339783,
        -0.062295906245708466,
        -0.039780642837285995,
        -0.0865783840417862,
        0.02233526110649109,
        0.07340619713068008,
        -0.015617725439369678,
        0.03815973177552223,
        -0.011533261276781559,
        -0.07695731520652771,
        -0.07561424374580383,
        -0.001088630291633308,
        0.06154010072350502,
        0.062089864164590836,
        -0.03591564670205116,
        0.016822336241602898,
        0.07904620468616486,
        -0.06882952898740768,
        -0.08895748108625412,
        -0.08693914115428925,
        0.051571328192949295,
        -0.07362343370914459,
        -0.0769728422164917,
        0.030499804764986038,
        0.05169985443353653,
        0.04133247956633568,
        -0.0778568685054779,
        0.08315378427505493,
        0.060350723564624786,
        -0.02887938916683197,
        -0.06220769137144089,
        -0.04999491199851036,
        -0.04825770854949951,
        -0.07513752579689026,
        0.044194307178258896,
        0.06477902084589005,
        0.030067091807723045,
        0.0440862812101841,
        -0.052105192095041275,
        0.04725698381662369,
        0.07484912127256393,
        0.04672888293862343,
        0.07237887382507324,
        -0.03966450318694115,
        0.03626437485218048,
        -0.03248858451843262,
        -0.023187197744846344,
        0.08413205295801163,
        -0.005354716908186674,
        0.002655630698427558,
        0.007397393696010113,
        0.008785777725279331,
        -0.037285469472408295,
        0.06368950009346008,
        0.07651868462562561,
        -0.05043927952647209,
        -0.08386414498090744,
        -0.018736768513917923,
        -0.0410010926425457,
        0.05704532936215401,
        -0.02866174280643463,
        0.06171649694442749,
        0.02134174481034279,
        -0.0326848141849041,
        -0.04538378864526749,
        0.016994353383779526,
        -0.06991615891456604,
        -0.012682829052209854,
        -0.08458788692951202,
        -0.07901063561439514,
        -0.053100451827049255,
        0.046028878539800644,
        -0.06908707320690155,
        0.08572724461555481,
        -0.084147147834301,
        -0.07721301168203354,
        0.03813767433166504,
        0.0015353221679106355,
        0.06449625641107559,
        -0.019023442640900612,
        0.038538362830877304,
        0.06953321397304535,
        -0.06211473420262337,
        -0.060814063996076584,
        0.07821273058652878,
        0.07479309290647507,
        -0.002387839136645198,
        0.05210409685969353,
        -0.06282878667116165,
        0.07164213806390762
      ],
      [
        -0.0246046781539917,
        0.0447048619389534,
        -0.02224224992096424,
        -0.07191092520952225,
        -0.02968122996389866,
        -0.016624147072434425,
        0.005117969587445259,
        0.02177165448665619,
        -0.07743631303310394,
        -0.045818328857421875,
        -0.03641533851623535,
        0.018595565110445023,
        -0.05602903291583061,
        0.07328305393457413,
        -0.039968959987163544,
        0.08062626421451569,
        0.023942608386278152,
        0.03850432112812996,
        -0.023152625188231468,
        0.03691106662154198,
        -0.04284809157252312,
        0.003940017893910408,
        0.05508318543434143,
        -0.010517661459743977,
        -0.007720030378550291,
        0.006921053398400545,
        -0.05580982193350792,
        -0.06269015371799469,
        -0.014853575266897678,
        0.009621528908610344,
        0.0713491141796112,
        -0.0019531181314960122,
        -0.014835811220109463,
        0.020119646564126015,
        0.022473640739917755,
        -0.009805223904550076,
        0.03976977989077568,
        0.08680751174688339,
        -0.03176676481962204,
        -0.04075871407985687,
        -0.002963127102702856,
        0.08709754049777985,
        0.032227348536252975,
        -0.07493437826633453,
        0.06479186564683914,
        0.07092797756195068,
        0.07486981898546219,
        0.033798377960920334,
        -0.08319923281669617,
        0.011422816663980484,
        -0.0023884130641818047,
        -0.048538077622652054,
        -0.0592016875743866,
        -0.00663760956376791,
        0.07745876163244247,
        0.023665491491556168,
        0.008863492868840694,
        0.03231784328818321,
        -0.08054517954587936,
        0.048125918954610825,
        0.021205877885222435,
        -0.05287792161107063,
        -0.07798237353563309,
        -0.057814035564661026,
        0.02796619012951851,
        0.025408172979950905,
        0.015463889576494694,
        -0.018670793622732162,
        0.03994296118617058,
        -0.057771895080804825,
        0.04593544080853462,
        -0.04635369032621384,
        -0.044332507997751236,
        -0.06629958748817444,
        0.026539208367466927,
        -0.04823126271367073,
        0.05532955750823021,
        0.048639439046382904,
        -0.0035807208623737097,
        0.052008725702762604,
        0.050272922962903976,
        0.035206280648708344,
        -0.06696102768182755,
        -0.01924499310553074,
        -0.016484335064888,
        0.04638258367776871,
        -0.035341776907444,
        0.020315006375312805,
        0.03396786004304886,
        0.05945757031440735,
        0.08329913020133972,
        -0.018297994509339333,
        -0.07063460350036621,
        -0.07202525436878204,
        -0.01857026107609272,
        0.05488421022891998,
        -0.018182609230279922,
        -0.07173207402229309,
        -0.06103275343775749,
        -0.04864351078867912,
        -0.051179975271224976,
        0.0043578362092375755,
        -0.007667038589715958,
        -0.04691079631447792,
        -0.017057206481695175,
        -0.0431562103331089,
        -0.005058654583990574,
        0.03898929804563522,
        -0.007902915589511395,
        -0.020478924736380577,
        0.020429035648703575,
        0.05590410158038139,
        0.07526829838752747,
        -0.03865595906972885,
        -0.07429462671279907,
        0.02099766954779625,
        0.036465294659137726,
        0.009283908642828465,
        0.08482861518859863,
        0.04344264045357704,
        0.007605540566146374,
        0.057932786643505096,
        0.06183451786637306,
        -0.047512345016002655,
        -0.06695698946714401,
        -0.0017179566202685237,
        -0.029734328389167786,
        -0.05707824230194092
      ],
      [
        -0.06686555594205856,
        0.057854123413562775,
        -0.03734275698661804,
        -0.04776490107178688,
        0.0554489828646183,
        0.009128136560320854,
        0.015761632472276688,
        -0.028802700340747833,
        0.022881923243403435,
        0.05508870631456375,
        -0.05979767441749573,
        -0.015482757240533829,
        0.005218248814344406,
        0.07307194918394089,
        0.07224516570568085,
        0.05934768170118332,
        -0.03313983231782913,
        0.00134251918643713,
        -0.002848914358764887,
        -0.062076497822999954,
        -0.0625399649143219,
        -0.01601768471300602,
        -0.010828664526343346,
        0.031543370336294174,
        -0.0806598961353302,
        -0.041159335523843765,
        0.07171682268381119,
        0.013855800963938236,
        -0.061454128473997116,
        0.04333917796611786,
        -0.03323988988995552,
        -0.05079739913344383,
        -0.04025815427303314,
        -0.047512467950582504,
        -0.04887480288743973,
        0.014105203561484814,
        0.04181963950395584,
        0.04748114198446274,
        0.08712019771337509,
        0.07072532176971436,
        -0.04796130210161209,
        0.07332031428813934,
        -0.019642120227217674,
        0.04934992268681526,
        -0.0403146967291832,
        0.07602700591087341,
        -0.005053290631622076,
        0.029190421104431152,
        0.07800332456827164,
        -0.017625590786337852,
        0.033944860100746155,
        0.02355346828699112,
        -0.03229425847530365,
        0.0006055684061720967,
        0.07214662432670593,
        0.02129288576543331,
        0.06355268508195877,
        0.045166246592998505,
        0.04278925806283951,
        -0.038979366421699524,
        -0.020658455789089203,
        0.05602413788437843,
        0.0218085665255785,
        0.04423274099826813,
        0.06613828986883163,
        0.03899671137332916,
        0.03434038162231445,
        -0.03816577047109604,
        0.02773168496787548,
        0.0005373451276682317,
        0.05730091407895088,
        0.03529711440205574,
        -0.056320104748010635,
        0.05611668527126312,
        -0.01229910273104906,
        0.03591282293200493,
        -0.040793802589178085,
        -0.07877898961305618,
        0.03708483651280403,
        0.043168745934963226,
        0.07041583210229874,
        0.05252552404999733,
        0.040615618228912354,
        0.047813791781663895,
        0.02478906698524952,
        -0.03877578303217888,
        0.02048538438975811,
        -0.0692591592669487,
        -0.051696691662073135,
        0.07968585193157196,
        0.035480741411447525,
        0.03360224515199661,
        -0.007627241313457489,
        -0.08686847984790802,
        -0.02653365023434162,
        -0.03350294753909111,
        -0.030768554657697678,
        0.01604842022061348,
        -0.05530663579702377,
        -0.04960232228040695,
        -0.01774343103170395,
        -0.0775597020983696,
        -0.015768058598041534,
        -0.0028522461652755737,
        -0.004748131614178419,
        -0.03523480147123337,
        -0.023160085082054138,
        0.0682690218091011,
        0.050613801926374435,
        0.019346406683325768,
        -0.0624522790312767,
        -0.05474665388464928,
        0.04153396934270859,
        0.00048800293006934226,
        -0.005757116712629795,
        -0.029333893209695816,
        -0.06305235624313354,
        -0.04761429876089096,
        0.05201960355043411,
        0.06880077719688416,
        0.050294212996959686,
        -0.05437779799103737,
        -0.001062810537405312,
        -0.07613708078861237,
        -0.052006520330905914,
        -0.0642726868391037,
        0.027961861342191696,
        -0.08461225032806396
      ],
      [
        0.06310269981622696,
        0.07233937829732895,
        -0.008785808458924294,
        0.021179381757974625,
        0.03192911669611931,
        0.07878485321998596,
        0.006140034180134535,
        0.07970065623521805,
        0.03412283584475517,
        -0.02753956988453865,
        0.06551137566566467,
        0.026440264657139778,
        0.0354190319776535,
        0.012391655705869198,
        -0.04674241319298744,
        0.08122371882200241,
        0.01775272935628891,
        -0.011257035657763481,
        0.020156128332018852,
        -0.04398622363805771,
        0.025883879512548447,
        -0.0847422331571579,
        0.052336614578962326,
        0.0572429783642292,
        -0.05063668638467789,
        0.03762098401784897,
        0.008794044144451618,
        -0.029943574219942093,
        0.08256260305643082,
        -0.0017046850407496095,
        -0.055261511355638504,
        -0.08676007390022278,
        0.005920173600316048,
        -0.04603463411331177,
        -0.0823720395565033,
        -0.06630616635084152,
        0.06630419194698334,
        -0.046717915683984756,
        -0.054864805191755295,
        -0.049197133630514145,
        0.00469584297388792,
        -0.020239148288965225,
        -0.06898853927850723,
        -0.05528467893600464,
        -0.059986893087625504,
        0.01772003248333931,
        0.001210993155837059,
        0.07443815469741821,
        0.03278843313455582,
        0.018914850428700447,
        0.07339586317539215,
        0.018451731652021408,
        -0.041809916496276855,
        0.07464791089296341,
        -0.041815053671598434,
        -0.05835577845573425,
        0.06708395481109619,
        0.07749274373054504,
        0.05141094699501991,
        -0.019758766517043114,
        0.08189567178487778,
        0.04485360160470009,
        0.014140550047159195,
        0.005976274609565735,
        0.04146929085254669,
        -0.043266210705041885,
        -0.02959642931818962,
        0.04879820719361305,
        0.010331778787076473,
        -0.003650620114058256,
        -0.008086810819804668,
        0.00503524299710989,
        0.08881054818630219,
        0.0750306025147438,
        -0.08208046108484268,
        -0.06761611998081207,
        -0.06678690761327744,
        -0.002118027303367853,
        0.0230190921574831,
        -0.0478915311396122,
        0.04074450954794884,
        -0.08506949990987778,
        0.06037449464201927,
        -0.0032648160122334957,
        0.028844933956861496,
        0.06304791569709778,
        0.01072176918387413,
        -0.042095817625522614,
        -0.025895822793245316,
        0.08033423870801926,
        -0.01682942733168602,
        -0.002894422970712185,
        -0.07544008642435074,
        -0.05413467064499855,
        -0.006371984723955393,
        0.024101579561829567,
        -0.05512562394142151,
        0.003347973106428981,
        0.07926482707262039,
        0.0841275081038475,
        0.0021535702981054783,
        0.08650289475917816,
        0.08603031188249588,
        0.04190244525671005,
        0.06992509216070175,
        0.016953209415078163,
        -0.03282935544848442,
        0.07246533036231995,
        0.028953174129128456,
        0.01927860453724861,
        -0.0033564348705112934,
        -0.011040310375392437,
        -0.07319509238004684,
        -0.04400895908474922,
        -0.059908509254455566,
        -0.013463348150253296,
        0.04911019653081894,
        -0.04628540575504303,
        0.005005872342735529,
        -0.0329122431576252,
        -0.035992834717035294,
        0.02798672579228878,
        0.0330231711268425,
        0.07728880643844604,
        -0.01891726441681385,
        0.06543755531311035,
        -0.06566262245178223,
        0.0104472441598773
      ],
      [
        0.002619626000523567,
        0.08606458455324173,
        0.04404495656490326,
        -0.04741867631673813,
        0.042378466576337814,
        -0.0004987469874322414,
        -0.07012451440095901,
        -0.052218880504369736,
        -0.0628804862499237,
        0.07141242921352386,
        0.07509870827198029,
        -0.06565123051404953,
        0.04179297387599945,
        0.08510405570268631,
        -0.008110092021524906,
        0.05978701636195183,
        0.06693314760923386,
        0.04749760031700134,
        -0.03974843770265579,
        0.0756436139345169,
        0.02403852716088295,
        0.043688755482435226,
        -0.07805953919887543,
        0.0332002229988575,
        0.05212180316448212,
        -0.059963714331388474,
        -0.06091288849711418,
        -0.035308074206113815,
        0.04129495471715927,
        -0.033789049834012985,
        -0.010545078665018082,
        -0.08895178139209747,
        -0.02441783994436264,
        -0.031830817461013794,
        -0.08734004944562912,
        0.03496527299284935,
        0.006471623200923204,
        -0.07908590137958527,
        0.03962044045329094,
        0.05513467639684677,
        -0.0565338172018528,
        -0.03245040401816368,
        -0.037999656051397324,
        -0.029553359374403954,
        0.02024860680103302,
        0.060293152928352356,
        0.07125188410282135,
        -0.06785928457975388,
        0.08310706913471222,
        0.003188824513927102,
        -0.08356345444917679,
        0.04799555987119675,
        0.06658601015806198,
        -0.0124938590452075,
        -0.0833866074681282,
        0.06372904032468796,
        -0.05100931599736214,
        -0.0666317492723465,
        -0.024937260895967484,
        -0.0029698440339416265,
        0.012893090955913067,
        0.030616043135523796,
        0.02964952401816845,
        -0.0128479627892375,
        -0.05411533638834953,
        -0.030118508264422417,
        0.05247265100479126,
        0.018152466043829918,
        0.05356208235025406,
        0.0038109084125608206,
        0.006238101050257683,
        -0.0838748961687088,
        -0.01501536089926958,
        -0.049290142953395844,
        -0.08658955246210098,
        0.06955167651176453,
        0.04895780608057976,
        0.0796021819114685,
        0.07076483964920044,
        0.05793815851211548,
        -0.046688973903656006,
        0.07110106945037842,
        -0.07539600878953934,
        0.023210668936371803,
        -0.06554936617612839,
        0.0540287122130394,
        -0.01790470816195011,
        0.06929168105125427,
        0.02170746400952339,
        0.0610073022544384,
        -0.011986974626779556,
        -0.07308308780193329,
        -0.08610494434833527,
        -0.07988534867763519,
        -0.0469740591943264,
        0.07680605351924896,
        0.030762914568185806,
        0.007950587198138237,
        0.06276076287031174,
        -0.07135247439146042,
        0.0147547647356987,
        0.04631520062685013,
        -0.08730590343475342,
        -0.08039700984954834,
        0.08463630825281143,
        -0.016896696761250496,
        -0.07951390743255615,
        0.07314833253622055,
        0.0001820390170905739,
        0.04305393248796463,
        0.00769692612811923,
        0.036684997379779816,
        0.06525509804487228,
        0.03515208885073662,
        -0.07357148081064224,
        0.048420872539281845,
        -0.07193940877914429,
        0.04510122910141945,
        -0.07329994440078735,
        -0.02007802575826645,
        -0.010555919259786606,
        0.016301637515425682,
        0.04789477214217186,
        -0.06496333330869675,
        -0.07428551465272903,
        0.05320668965578079,
        -0.05911603197455406,
        -0.07064341753721237
      ],
      [
        -0.02145124226808548,
        -0.0281048770993948,
        -0.06660250574350357,
        -0.002434407826513052,
        0.02730010822415352,
        0.07909861207008362,
        0.024921508505940437,
        0.028099538758397102,
        0.0115007059648633,
        -0.048935823142528534,
        -0.00957138929516077,
        -0.01602790877223015,
        0.03569118678569794,
        0.04693381115794182,
        0.07811285555362701,
        -0.044409558176994324,
        0.00806509517133236,
        0.00943114422261715,
        -0.04407036304473877,
        0.05789586529135704,
        0.06819257885217667,
        0.012029158882796764,
        -0.056253716349601746,
        0.0670236274600029,
        0.06645750999450684,
        -0.04432934150099754,
        -0.049347713589668274,
        0.07958178222179413,
        -0.0765419751405716,
        -0.006555712781846523,
        -0.008384495973587036,
        -0.022581487894058228,
        -0.06605003029108047,
        -0.04027426242828369,
        -0.05150897055864334,
        0.013005701825022697,
        0.059219490736722946,
        -0.05243775621056557,
        0.07790433615446091,
        0.038042377680540085,
        -0.019481981173157692,
        0.059064291417598724,
        -0.020943956449627876,
        -0.02970966510474682,
        -0.0817890465259552,
        -0.028252916410565376,
        -0.03122740238904953,
        0.03669682517647743,
        -0.07846123725175858,
        0.07973030209541321,
        -0.000825366354547441,
        0.019292911514639854,
        -0.023470614105463028,
        -0.027949323877692223,
        -0.0581074096262455,
        -0.003307214006781578,
        0.06074322387576103,
        0.024631407111883163,
        0.027370596304535866,
        -0.06567730754613876,
        0.044352125376462936,
        -0.024476146325469017,
        -0.06565400213003159,
        -0.042334433645009995,
        -0.06499185413122177,
        -0.018661996349692345,
        0.0820666030049324,
        -0.03921899572014809,
        -0.028885891661047935,
        0.0666031464934349,
        -0.029399484395980835,
        0.036000799387693405,
        0.06343113631010056,
        0.04853217676281929,
        0.043121498078107834,
        0.06157317012548447,
        -0.0029253310058265924,
        -0.07322932034730911,
        -0.052309345453977585,
        0.0005330487038008869,
        -0.010184334591031075,
        0.01801254414021969,
        0.03569735586643219,
        -0.014537198469042778,
        0.038406290113925934,
        -0.08469533175230026,
        -0.004093402065336704,
        -0.07410029321908951,
        0.033609818667173386,
        0.06031118333339691,
        -0.034009262919425964,
        -0.017979102209210396,
        0.04003669694066048,
        -0.04063091054558754,
        0.04273635894060135,
        -0.059023723006248474,
        -0.001356711727567017,
        -0.002235403982922435,
        -0.07488232105970383,
        -0.008782196789979935,
        -0.009517548605799675,
        0.0004989918088540435,
        0.08237066864967346,
        -0.012479688972234726,
        0.050427939742803574,
        -0.026942560449242592,
        -0.048207227140665054,
        -0.008629475720226765,
        -0.05301472172141075,
        -0.03749113529920578,
        -0.02172372303903103,
        0.007215206511318684,
        -0.05031029134988785,
        -0.047830648720264435,
        -0.0632060244679451,
        -0.05398020148277283,
        -0.07920373976230621,
        -0.059851571917533875,
        -0.024363573640584946,
        -0.013362042605876923,
        0.05897165834903717,
        -0.004837166517972946,
        -0.04683568328619003,
        -0.07065027207136154,
        -0.03408947214484215,
        0.003465841058641672,
        -0.0695779100060463,
        -0.03373470902442932
      ],
      [
        0.008017227053642273,
        0.07937730848789215,
        0.0014165202155709267,
        -0.0829845741391182,
        -0.06260145455598831,
        -0.06513135135173798,
        0.060067638754844666,
        0.055589959025382996,
        0.0008366532856598496,
        -0.051967814564704895,
        -0.03864871710538864,
        -0.05183485150337219,
        0.0830598771572113,
        -0.07078050822019577,
        0.014736145734786987,
        0.040053289383649826,
        -0.07463744282722473,
        0.03609326481819153,
        0.04517900198698044,
        0.021440844982862473,
        0.08098399639129639,
        -0.04200045391917229,
        -0.08294370025396347,
        -0.053686320781707764,
        -0.07966399192810059,
        0.027485033497214317,
        0.020382007583975792,
        -0.03922790661454201,
        -0.0292216707020998,
        0.0499994233250618,
        -0.0010199316311627626,
        0.07510562241077423,
        -0.03504855930805206,
        0.01081367488950491,
        0.023243548348546028,
        -0.03014007955789566,
        0.06737463921308517,
        -0.026549434289336205,
        0.027655502781271935,
        -0.0700458213686943,
        0.02313358150422573,
        0.05991508066654205,
        -0.08437185734510422,
        0.08947262167930603,
        0.005430222023278475,
        0.08646728098392487,
        0.05600734055042267,
        0.049487095326185226,
        -0.005591216962784529,
        0.028919095173478127,
        0.03009732812643051,
        -0.05876736342906952,
        0.04122360795736313,
        0.07610565423965454,
        -0.026321303099393845,
        -0.059202976524829865,
        0.07609789073467255,
        0.0826113149523735,
        0.010237697511911392,
        -0.06391310691833496,
        -0.002533972728997469,
        0.0005900001269765198,
        0.06042003259062767,
        -0.0799371749162674,
        -0.05753818154335022,
        -0.007379818242043257,
        -0.01224098913371563,
        0.00740211782976985,
        0.08685722202062607,
        0.06606974452733994,
        0.08715078979730606,
        -0.08529814332723618,
        0.07757097482681274,
        -0.06742902845144272,
        -0.024914564564824104,
        0.05047846585512161,
        -0.02014896459877491,
        -0.04041271284222603,
        0.003191316034644842,
        0.08422292023897171,
        -0.008396444842219353,
        -0.08471199125051498,
        -0.019762232899665833,
        -0.07480024546384811,
        0.0015598952304571867,
        0.06428954750299454,
        0.07145129889249802,
        0.01690267026424408,
        -0.05963928997516632,
        -0.051272932440042496,
        0.04659541696310043,
        0.037769097834825516,
        -0.04735049977898598,
        0.021437250077724457,
        -0.030193503946065903,
        -0.06320197135210037,
        0.08657121658325195,
        0.042496081441640854,
        -0.031081050634384155,
        0.05161090940237045,
        -0.06345111131668091,
        0.0485374890267849,
        0.033329956233501434,
        -0.024445034563541412,
        -0.046231020241975784,
        0.005277072079479694,
        0.05500679835677147,
        0.007511995732784271,
        -0.0667496845126152,
        -0.05119173973798752,
        -0.008284040726721287,
        0.03750859946012497,
        0.051023781299591064,
        0.06572400778532028,
        0.07039902359247208,
        -0.006617416627705097,
        -0.04868210852146149,
        -0.06797640770673752,
        -0.0029505148995667696,
        0.07479774206876755,
        0.0365765355527401,
        0.03097773715853691,
        0.019458500668406487,
        -0.07522568851709366,
        -0.023549795150756836,
        -0.04294286668300629,
        -0.0739956796169281,
        0.06439806520938873
      ],
      [
        0.05839318409562111,
        0.0008498932584188879,
        -0.05566893517971039,
        0.02961025945842266,
        -0.06278003752231598,
        -0.07811550050973892,
        0.021756304427981377,
        0.024681026116013527,
        0.03291574493050575,
        0.08655819296836853,
        0.06514789909124374,
        -0.026990270242094994,
        0.05356039106845856,
        -0.07819486409425735,
        0.05585968866944313,
        -0.07877474278211594,
        -0.02780977264046669,
        0.055395081639289856,
        -0.009602121077477932,
        -0.06564930826425552,
        0.02964502014219761,
        0.06359046697616577,
        0.028922785073518753,
        0.05461417883634567,
        -0.03187793120741844,
        0.02783994749188423,
        -0.057184215635061264,
        -0.0012952013639733195,
        0.003196766832843423,
        -0.06167054548859596,
        0.011474852450191975,
        -0.04101162031292915,
        -0.04190325736999512,
        -0.08706779032945633,
        0.0323556512594223,
        0.0590110644698143,
        0.08935295045375824,
        0.07459616661071777,
        -0.0751035213470459,
        0.06542999297380447,
        0.08063914626836777,
        0.04679824411869049,
        0.054745323956012726,
        0.06347223371267319,
        0.05477744713425636,
        0.00833217054605484,
        -0.06457285583019257,
        0.011144321411848068,
        -0.07608121633529663,
        0.07808035612106323,
        0.08194436877965927,
        -0.030751435086131096,
        0.08887695521116257,
        -0.015475710853934288,
        -0.0697169154882431,
        0.04762573167681694,
        0.07318522036075592,
        0.0778624638915062,
        0.042232219129800797,
        0.06157280132174492,
        0.04983123764395714,
        0.04194207489490509,
        -0.07694245874881744,
        -0.031217483803629875,
        0.0112603222951293,
        0.06943835318088531,
        -0.008877656422555447,
        0.040777381509542465,
        -0.08341348171234131,
        -0.040170393884181976,
        0.026830732822418213,
        0.024581685662269592,
        0.013000613078474998,
        0.008306537754833698,
        0.052864920347929,
        -0.016108615323901176,
        0.059461742639541626,
        0.08920656144618988,
        -0.015072846785187721,
        -0.06920790672302246,
        0.017873726785182953,
        0.04242875427007675,
        0.04393119737505913,
        -0.07900916039943695,
        -0.009795833379030228,
        -0.0018787598237395287,
        0.03668062016367912,
        -0.01111714169383049,
        0.07134603708982468,
        -0.02662521041929722,
        0.057860832661390305,
        -0.08070617914199829,
        0.0858755111694336,
        0.015504387207329273,
        -0.04433585703372955,
        0.05950580909848213,
        -0.029784396290779114,
        -0.05053203925490379,
        -0.03793079033493996,
        0.08538012951612473,
        0.08141683042049408,
        0.02182217501103878,
        -0.009029668755829334,
        -0.05459282919764519,
        -0.030154043808579445,
        -0.08415499329566956,
        -0.08712659776210785,
        0.0058281985111534595,
        0.06511375308036804,
        0.00875239260494709,
        -0.07036649435758591,
        -0.02839442528784275,
        0.053058020770549774,
        0.01842389814555645,
        0.01693602092564106,
        -0.07929239422082901,
        -0.02405497618019581,
        0.07274329662322998,
        -0.03478538990020752,
        -0.039445385336875916,
        -0.07227952778339386,
        0.04701901227235794,
        0.025760164484381676,
        -0.009749969467520714,
        0.0625675767660141,
        0.051284246146678925,
        0.04670635983347893,
        0.049707964062690735
      ],
      [
        -0.012526582926511765,
        -0.029605111107230186,
        -0.0462646521627903,
        0.0098468828946352,
        -0.07147077471017838,
        -0.03320569917559624,
        -0.05815711244940758,
        0.028949560597538948,
        0.03522151708602905,
        -0.05673367157578468,
        0.030180346220731735,
        0.011073240078985691,
        0.06823304295539856,
        0.06841805577278137,
        0.05400647968053818,
        0.058572497218847275,
        0.00717270327731967,
        0.07892792671918869,
        -0.08890686929225922,
        0.066642627120018,
        0.06832554936408997,
        0.04129043221473694,
        -0.025307955220341682,
        -0.019471921026706696,
        0.045310501009225845,
        0.0005748060066252947,
        0.06422154605388641,
        0.02717757597565651,
        0.013678031042218208,
        -0.02199668437242508,
        -0.08033736795186996,
        -0.06829468905925751,
        -0.07351858168840408,
        -0.0769377201795578,
        -0.054344672709703445,
        -0.02019534632563591,
        0.05738961324095726,
        0.016527274623513222,
        0.0414075143635273,
        -0.06857731193304062,
        0.08017723262310028,
        0.07654090225696564,
        0.07095413655042648,
        -0.030289120972156525,
        0.0016936514293774962,
        0.017222026363015175,
        -0.03358303755521774,
        0.035842038691043854,
        -0.015767157077789307,
        -0.07281061261892319,
        -0.025400865823030472,
        0.08658640086650848,
        0.03850332275032997,
        0.039578989148139954,
        0.014604686759412289,
        0.02799934335052967,
        0.029815131798386574,
        -0.05440523847937584,
        0.01053063664585352,
        -0.026854021474719048,
        -0.0625968724489212,
        -0.06682632863521576,
        -0.01840291917324066,
        -0.08454620838165283,
        -0.08757723867893219,
        0.08106251806020737,
        0.004295740742236376,
        9.103937190957367e-05,
        -0.07209490984678268,
        0.021189553663134575,
        0.0694173201918602,
        0.08762256056070328,
        -0.07573466747999191,
        -0.026426400989294052,
        0.06848795711994171,
        0.07739188522100449,
        0.0862460732460022,
        -0.08193372935056686,
        -0.07297627627849579,
        -0.04741664230823517,
        0.045017194002866745,
        -0.07474056631326675,
        0.01216267328709364,
        0.05389714241027832,
        0.019779788330197334,
        -0.01928246021270752,
        0.04671066626906395,
        0.0101914769038558,
        0.05009730905294418,
        -0.05763835832476616,
        0.05939490720629692,
        0.00769951194524765,
        -0.07160448282957077,
        0.025706924498081207,
        -0.06160522252321243,
        0.07552982121706009,
        0.018320633098483086,
        -0.06940369307994843,
        -0.0011409941362217069,
        -0.011942368932068348,
        -0.032923709601163864,
        -0.08488477766513824,
        -0.058781616389751434,
        -0.07537221908569336,
        0.018048392608761787,
        0.0036220357287675142,
        0.012141264975070953,
        -0.08844491094350815,
        -0.05728849768638611,
        -0.055462926626205444,
        0.008938254788517952,
        -0.07670016586780548,
        0.05977160856127739,
        -0.05521748214960098,
        0.02017991989850998,
        0.07902052253484726,
        -0.03236966207623482,
        0.07756485044956207,
        -0.07619018852710724,
        0.0066599235869944096,
        -0.08455292880535126,
        -0.010222344659268856,
        0.08626462519168854,
        0.06588742882013321,
        0.0097837308421731,
        -0.04166293144226074,
        0.04867584630846977,
        -0.06990532577037811
      ],
      [
        0.05635935068130493,
        -0.06710918247699738,
        -0.06856187433004379,
        0.08068259060382843,
        -0.067134790122509,
        -0.042109690606594086,
        0.01342856977134943,
        -0.007263578940182924,
        0.005675574764609337,
        -0.04745553433895111,
        -0.03099864162504673,
        0.08692377060651779,
        0.06387120485305786,
        -0.06607048958539963,
        0.0025282353162765503,
        -0.07098892331123352,
        0.062414828687906265,
        -0.00039414677303284407,
        -0.044319961220026016,
        0.08089408278465271,
        0.050655547529459,
        -0.013363164849579334,
        -0.030907539650797844,
        0.011771412566304207,
        -0.05742431804537773,
        0.0024747177958488464,
        -0.025620482861995697,
        -0.06701552867889404,
        0.05161657556891441,
        -0.05167647823691368,
        -0.036103930324316025,
        -0.061592236161231995,
        0.018758581951260567,
        0.04561018943786621,
        0.040006138384342194,
        -0.02004563994705677,
        0.011077351868152618,
        -0.06948871165513992,
        -0.08288212865591049,
        -0.026824548840522766,
        -0.06899820268154144,
        -0.022444909438490868,
        0.0819396823644638,
        -0.07221437990665436,
        -0.06002577766776085,
        0.05184323340654373,
        -0.04403907433152199,
        0.03235314413905144,
        -0.011603858321905136,
        -0.07666011899709702,
        0.027359595522284508,
        -0.02513197436928749,
        -0.053975436836481094,
        0.06500546634197235,
        -0.00810999795794487,
        0.0276787169277668,
        -0.003179697785526514,
        -0.05574323982000351,
        0.006004545371979475,
        0.03152743726968765,
        -0.010097828693687916,
        0.008048465475440025,
        0.030427051708102226,
        0.056445490568876266,
        0.004746885038912296,
        -0.009713338688015938,
        -0.05650070682168007,
        -0.0305500291287899,
        -0.040128473192453384,
        -0.04087545722723007,
        -0.06003480404615402,
        -0.002029252238571644,
        -0.05576178431510925,
        0.012539621442556381,
        0.022793645039200783,
        0.07204154878854752,
        0.001732048811390996,
        0.06150158494710922,
        -0.05378226563334465,
        -0.026885565370321274,
        -0.03547601029276848,
        -0.0324217826128006,
        -0.06790420413017273,
        -0.07439959049224854,
        -0.0640198215842247,
        0.0756572037935257,
        -0.04176872596144676,
        0.038369741290807724,
        0.02984115667641163,
        0.010485298000276089,
        0.015133899636566639,
        -0.017195211723446846,
        -0.027633486315608025,
        0.00948326289653778,
        -0.0808037742972374,
        0.04324675351381302,
        -0.006428972817957401,
        -0.0637313723564148,
        0.08586398512125015,
        -0.0705755203962326,
        -0.030087942257523537,
        0.01299707405269146,
        0.05389240384101868,
        -0.008082931861281395,
        -0.008905739523470402,
        0.06300981342792511,
        0.07052641361951828,
        -0.006856438238173723,
        -0.051023371517658234,
        -0.0674097090959549,
        0.030229201540350914,
        -0.05750930309295654,
        0.027423059567809105,
        0.002754238899797201,
        0.0371318981051445,
        -0.06546653062105179,
        -0.07888872921466827,
        -0.03694407269358635,
        -0.03503051772713661,
        0.08541363477706909,
        -0.004684919491410255,
        -0.02186623588204384,
        -0.05221143737435341,
        -0.022522183135151863,
        0.026526089757680893,
        -0.04843473061919212,
        0.0711015909910202,
        -0.05598853528499603
      ],
      [
        -0.08287911117076874,
        0.044884659349918365,
        0.04645443335175514,
        0.08479137718677521,
        -0.0773208811879158,
        0.011111394502222538,
        0.02145031839609146,
        -0.01560122799128294,
        -0.020879069343209267,
        0.026689501479268074,
        0.008253314532339573,
        0.0037111423444002867,
        0.025433747097849846,
        0.05811158940196037,
        -0.0007680983399040997,
        0.038268595933914185,
        -0.018950242549180984,
        0.017129650339484215,
        0.056711211800575256,
        0.03198261186480522,
        -0.03987152501940727,
        -0.08459741622209549,
        -0.018014168366789818,
        0.0739145427942276,
        0.06264205276966095,
        0.012350472621619701,
        0.02565522864460945,
        -0.04391702637076378,
        -0.04622012749314308,
        0.0011228432413190603,
        0.05748354271054268,
        0.08579660207033157,
        0.05104320868849754,
        -0.08705805987119675,
        0.05485420674085617,
        0.0018432512879371643,
        -0.044563911855220795,
        -0.08750300854444504,
        0.028737105429172516,
        -0.07217126339673996,
        0.01477494090795517,
        0.08558448404073715,
        -0.05925237387418747,
        0.029576534405350685,
        -0.06536098569631577,
        -0.02829800918698311,
        0.06896346807479858,
        0.040032777935266495,
        0.023956479504704475,
        -0.04996297135949135,
        0.07968290150165558,
        -0.05139400437474251,
        0.06383781135082245,
        -0.06622396409511566,
        -0.06895403563976288,
        0.04903283715248108,
        0.062189675867557526,
        -0.06719335168600082,
        0.0476209782063961,
        0.012750093825161457,
        0.03380844369530678,
        0.022151069715619087,
        0.010708155110478401,
        0.03445126861333847,
        -0.06624897569417953,
        0.045701056718826294,
        -0.01912062242627144,
        -0.052590906620025635,
        0.03677988052368164,
        0.07212558388710022,
        0.06770126521587372,
        0.07279247790575027,
        -0.0737290158867836,
        -0.01661963015794754,
        0.053413622081279755,
        -0.0282962154597044,
        0.07956241816282272,
        -0.027108250185847282,
        0.0711899995803833,
        0.01408740971237421,
        -0.008990667760372162,
        -0.009391888976097107,
        0.023572012782096863,
        0.07512397319078445,
        0.00844550970941782,
        -0.06151244416832924,
        0.0543777160346508,
        0.003745646681636572,
        -0.08627738058567047,
        0.08865609765052795,
        -0.05758960545063019,
        0.0653754249215126,
        -0.07713602483272552,
        0.004429850727319717,
        0.06342002004384995,
        -0.0074411858804523945,
        -0.08065464347600937,
        -0.07637200504541397,
        0.02402389422059059,
        0.006842384580522776,
        0.06859122961759567,
        0.023746047168970108,
        0.04389405623078346,
        0.005333855748176575,
        -0.0329778753221035,
        -0.07354381680488586,
        -0.051146250218153,
        -0.06409343332052231,
        -0.054957617074251175,
        -0.026311390101909637,
        -0.028862373903393745,
        0.015308304689824581,
        -0.08603288233280182,
        0.04478127509355545,
        0.0382457859814167,
        0.01997268758714199,
        0.002294313395395875,
        -0.05499088764190674,
        -0.08296900987625122,
        0.00017731380648911,
        0.017379218712449074,
        0.005940200760960579,
        0.00819391943514347,
        -0.0625591054558754,
        0.057970255613327026,
        -0.06409038603305817,
        0.06405407935380936,
        -0.07238603383302689
      ],
      [
        -0.07740861177444458,
        -0.0021314797922968864,
        -0.03456548601388931,
        -0.05755097046494484,
        -0.05618905648589134,
        0.08021609485149384,
        -0.07655905187129974,
        0.023986991494894028,
        0.07204937934875488,
        0.0515240877866745,
        0.07940258085727692,
        0.017165331169962883,
        -0.08302369713783264,
        -0.049603529274463654,
        0.009126651100814342,
        -0.02850078046321869,
        0.009563312865793705,
        -0.042765118181705475,
        -0.024087008088827133,
        -0.04950784891843796,
        0.007976274006068707,
        -0.06677575409412384,
        -0.03285425528883934,
        0.03632943704724312,
        -0.001137809711508453,
        0.05590728670358658,
        -0.03519285097718239,
        0.06884552538394928,
        -0.018114587292075157,
        0.019236966967582703,
        -0.041846562176942825,
        0.04351295158267021,
        0.013457702472805977,
        0.020946554839611053,
        0.05060437321662903,
        -0.017856603488326073,
        -0.08693525195121765,
        -0.025136101990938187,
        -0.020646383985877037,
        0.07599057257175446,
        0.010832526721060276,
        0.045334380120038986,
        0.048583097755908966,
        -0.023147020488977432,
        -0.012106485664844513,
        0.06961864233016968,
        0.08211328834295273,
        -0.0021740496158599854,
        0.08305725455284119,
        0.026235278695821762,
        0.07937219738960266,
        -0.0032358106691390276,
        0.055317074060440063,
        0.0396982841193676,
        0.05322681739926338,
        0.045472510159015656,
        0.058778103440999985,
        -0.004155545495450497,
        -0.01883305236697197,
        -0.03904140740633011,
        -0.018489869311451912,
        0.0075409081764519215,
        -0.08137887716293335,
        0.0638546571135521,
        0.08116526901721954,
        0.04351866990327835,
        0.010836155153810978,
        -0.057384513318538666,
        0.010152921080589294,
        -0.008765892125666142,
        0.0043624285608530045,
        0.07962049543857574,
        0.0022003098856657743,
        -0.06954063475131989,
        0.04996124282479286,
        -0.08444138616323471,
        0.029699498787522316,
        0.04536337032914162,
        0.07513155043125153,
        -0.06651374697685242,
        0.08164315670728683,
        -0.05851273611187935,
        0.029144413769245148,
        -0.07877272367477417,
        0.06975267082452774,
        -0.0732887014746666,
        0.0783279538154602,
        0.047984279692173004,
        0.05089794471859932,
        -0.06359530985355377,
        -0.058629777282476425,
        -0.07290422916412354,
        -0.0008489621104672551,
        0.011953011155128479,
        0.01674758456647396,
        0.01076088473200798,
        -0.03504420816898346,
        -0.06425793468952179,
        0.04471409320831299,
        0.06443233042955399,
        -0.03816414251923561,
        0.03196799010038376,
        -0.02569407783448696,
        0.06852082908153534,
        0.013119596056640148,
        0.05602458119392395,
        0.009297051467001438,
        0.03200102597475052,
        0.0474243201315403,
        -0.047380439937114716,
        0.018071437254548073,
        0.06758329272270203,
        -0.04231635853648186,
        0.01553918793797493,
        -0.08654457330703735,
        0.041891999542713165,
        -0.010238169692456722,
        -0.005002260208129883,
        0.04667649418115616,
        0.07159135490655899,
        0.006768016144633293,
        -0.01909952238202095,
        0.01879114657640457,
        -0.018655946478247643,
        -0.08405414968729019,
        0.0864093080163002,
        0.05897538736462593,
        -0.07105455547571182
      ],
      [
        0.05570786073803902,
        0.04087456315755844,
        0.046842653304338455,
        -0.07988447695970535,
        -0.0017049338202923536,
        -0.05523180589079857,
        -0.08668392151594162,
        -0.06042107567191124,
        -0.07273342460393906,
        0.03567885980010033,
        -0.01680041290819645,
        -0.04388587176799774,
        -0.0002936581149697304,
        0.06978418678045273,
        0.02360900491476059,
        -0.04269931837916374,
        0.07889606058597565,
        -0.06262402981519699,
        -0.0696365088224411,
        0.05356135964393616,
        -0.08288907259702682,
        -0.07117229700088501,
        0.07776901870965958,
        0.08071482181549072,
        0.06651127338409424,
        -0.029730819165706635,
        -0.08232748508453369,
        0.07910288125276566,
        -0.07602015137672424,
        -0.031152179464697838,
        0.05119850113987923,
        -0.010534066706895828,
        0.06437822431325912,
        0.08877836912870407,
        0.003938715439289808,
        0.04802986606955528,
        0.08079274743795395,
        0.0059453160502016544,
        -0.04585392028093338,
        0.0018354420317336917,
        -0.03165706992149353,
        0.05276625603437424,
        -0.0037030763924121857,
        0.0655956044793129,
        -0.035020794719457626,
        -0.06591097265481949,
        -0.05660604313015938,
        0.05341220647096634,
        -0.050090234726667404,
        0.03518848493695259,
        0.058091141283512115,
        -0.023506304249167442,
        0.005891107954084873,
        -0.04318329319357872,
        0.08379513770341873,
        0.012910568155348301,
        -0.07396746426820755,
        -0.05937790498137474,
        -0.04196881875395775,
        0.06288769841194153,
        -0.056630298495292664,
        -0.013534012250602245,
        -0.06415431201457977,
        -0.05762752890586853,
        -0.06937406957149506,
        0.06644914299249649,
        -0.04997171089053154,
        -0.07903912663459778,
        -0.008663373067975044,
        -0.07077483832836151,
        -0.07124752551317215,
        -0.026429403573274612,
        -0.042408671230077744,
        -0.0669441670179367,
        -0.05452913045883179,
        -0.06467368453741074,
        0.01863892935216427,
        -0.0173246618360281,
        -0.07331941276788712,
        0.021132145076990128,
        -0.06332650035619736,
        0.06140024960041046,
        -0.08891645818948746,
        -0.06336531788110733,
        -0.014725573360919952,
        -0.06379735469818115,
        0.04669589921832085,
        -0.051218390464782715,
        0.0036475788801908493,
        0.0800807997584343,
        0.0041258190758526325,
        0.04572882503271103,
        -0.08142314851284027,
        0.053307220339775085,
        0.04155125468969345,
        -0.033916957676410675,
        -0.01707875356078148,
        -0.01811833865940571,
        -0.07918670773506165,
        0.04211115464568138,
        0.006358840968459845,
        -0.049784544855356216,
        0.058124858886003494,
        -0.01825605519115925,
        -0.02605999819934368,
        0.05096422880887985,
        -0.06390758603811264,
        -0.0792209655046463,
        -0.07028695195913315,
        -0.04606867954134941,
        0.07003626972436905,
        -0.009923589415848255,
        0.03210333362221718,
        -0.05169760063290596,
        0.0018285373225808144,
        0.08207172155380249,
        0.05381912365555763,
        -0.00481277983635664,
        -0.019948383793234825,
        -0.024683209136128426,
        -0.03171344846487045,
        0.007302539423108101,
        0.07565873116254807,
        -0.011371024884283543,
        0.015971675515174866,
        -0.06027543172240257,
        0.08282113075256348,
        0.012673190794885159
      ],
      [
        0.08244592696428299,
        0.06581316143274307,
        -0.05487242713570595,
        -0.06481873989105225,
        0.07568035274744034,
        -0.029890993610024452,
        0.026623712852597237,
        -0.06976263225078583,
        0.021987183019518852,
        -0.05471474677324295,
        0.013630962930619717,
        0.0869102030992508,
        -0.04446995258331299,
        0.03988754004240036,
        0.06081481650471687,
        0.01915864832699299,
        -0.0036709988489747047,
        0.01731226220726967,
        -0.0186973474919796,
        -0.08801359683275223,
        0.06190474331378937,
        -0.022006463259458542,
        0.08232608437538147,
        0.0776362270116806,
        -0.014412465505301952,
        0.0591258704662323,
        -0.021458657458424568,
        4.450354026630521e-06,
        -0.07347442209720612,
        0.08718647062778473,
        0.04552815854549408,
        -0.0738268718123436,
        0.03082881309092045,
        -0.021518917754292488,
        0.0574815459549427,
        0.008139288984239101,
        -0.02341148629784584,
        -0.01288694143295288,
        -0.017116818577051163,
        -0.032158657908439636,
        -0.056560005992650986,
        -0.029368463903665543,
        0.011339089833199978,
        -0.07747270911931992,
        0.0700572207570076,
        -0.0025749090127646923,
        0.06357839703559875,
        -0.04841429740190506,
        0.044866424053907394,
        0.025115082040429115,
        -0.020662348717451096,
        -0.037530139088630676,
        0.026881888508796692,
        -0.04865138605237007,
        -0.0864519253373146,
        0.04562215507030487,
        0.06922242045402527,
        0.04110400378704071,
        -0.07252396643161774,
        -0.0022646363358944654,
        0.010434716008603573,
        0.08128931373357773,
        -0.059748731553554535,
        0.010954971425235271,
        -0.0040847137570381165,
        0.0596703365445137,
        -0.07936323434114456,
        0.04441769793629646,
        0.0508074015378952,
        0.07658279687166214,
        0.062490057200193405,
        -0.04673038795590401,
        -0.03849020227789879,
        -0.038258448243141174,
        0.020863419398665428,
        -0.0016564195975661278,
        -0.069070965051651,
        -0.08745740354061127,
        -0.009483741596341133,
        -0.08718296885490417,
        -0.021463701501488686,
        -0.006849774159491062,
        0.00024534526164643466,
        -0.08129536360502243,
        0.0401696152985096,
        0.016991693526506424,
        0.013152179308235645,
        -0.01303618960082531,
        0.07050903886556625,
        0.06926637887954712,
        -0.0549432598054409,
        0.02224985882639885,
        -0.0619509220123291,
        -0.05689500644803047,
        -0.035708148032426834,
        -0.03133874014019966,
        0.08552175015211105,
        0.08260855823755264,
        -0.03059959039092064,
        0.048430901020765305,
        0.08760234713554382,
        0.045696813613176346,
        0.05572916567325592,
        0.0647638738155365,
        0.07231635600328445,
        0.0030775624327361584,
        0.05740554630756378,
        0.0636671856045723,
        -0.03250143676996231,
        -0.05240907892584801,
        0.01583297736942768,
        -0.05504191294312477,
        0.017654763534665108,
        -0.03315787762403488,
        -0.0590209923684597,
        0.0733388364315033,
        0.08239307999610901,
        0.05340912565588951,
        0.08253060281276703,
        0.0056212227791547775,
        0.026856431737542152,
        -0.06406953185796738,
        -0.007799264043569565,
        -0.08652980625629425,
        0.03896747902035713,
        -0.03596097230911255,
        -0.03767937794327736,
        0.06680245697498322
      ],
      [
        0.0774758979678154,
        0.04734720662236214,
        0.00635606050491333,
        0.05434899032115936,
        0.05642350763082504,
        0.02665766142308712,
        0.023127997294068336,
        0.011891436763107777,
        0.053944505751132965,
        -0.07165878266096115,
        0.034261930733919144,
        0.019704211503267288,
        0.08496546745300293,
        -0.040070656687021255,
        -0.018532956019043922,
        0.07157894223928452,
        0.03994161635637283,
        -0.03692829608917236,
        -0.08051179349422455,
        -0.04024339094758034,
        0.03649347648024559,
        0.08711236715316772,
        0.08671226352453232,
        -0.04446971416473389,
        -0.060010652989149094,
        0.05525120347738266,
        -0.007818551734089851,
        0.06030023843050003,
        -0.0692802146077156,
        0.03154914453625679,
        -0.024457933381199837,
        -0.01334915030747652,
        -0.047312259674072266,
        -0.08643358200788498,
        -0.05874989926815033,
        -0.006861099041998386,
        -0.07335982471704483,
        -0.018650976940989494,
        -0.027467502281069756,
        0.004838959779590368,
        0.07305296510457993,
        -0.007247250061482191,
        0.00815057847648859,
        -0.08839524537324905,
        0.014882591553032398,
        -0.08068042248487473,
        0.023598479107022285,
        -0.06979881972074509,
        -0.08050040155649185,
        -0.03971533849835396,
        0.06032168120145798,
        0.042077962309122086,
        0.07937820255756378,
        -0.0015854089288040996,
        -0.03686188533902168,
        0.02050420641899109,
        -0.05676252022385597,
        0.0539754219353199,
        0.08267189562320709,
        -0.0511246956884861,
        0.0805111899971962,
        -0.03608681261539459,
        0.04555045813322067,
        -0.03186618536710739,
        -0.039678286761045456,
        0.019835207611322403,
        0.026274926960468292,
        0.019398309290409088,
        -0.016883524134755135,
        0.0767543762922287,
        -0.041757453233003616,
        0.012682536616921425,
        0.037052810192108154,
        -0.08785117417573929,
        0.035344447940588,
        -0.052638791501522064,
        0.03723006322979927,
        -0.058560192584991455,
        -0.007241587154567242,
        -0.07164280861616135,
        0.020006408914923668,
        0.07925313711166382,
        0.05572274699807167,
        -0.04800709709525108,
        0.06736703217029572,
        0.019420409575104713,
        0.00154555169865489,
        -0.024885209277272224,
        0.08594559878110886,
        -0.06534100323915482,
        0.07020854204893112,
        0.06590502709150314,
        0.017008449882268906,
        0.029193859547376633,
        -0.048220954835414886,
        0.038164228200912476,
        0.0023815694730728865,
        -0.04249829798936844,
        0.023143673315644264,
        0.08190595358610153,
        0.0262177474796772,
        -0.06291881203651428,
        0.04622969776391983,
        0.028146054595708847,
        -0.023832662031054497,
        -0.03020556829869747,
        0.04717192053794861,
        0.07098056375980377,
        -0.03381815552711487,
        -0.05893382057547569,
        0.08102520555257797,
        -0.06851134449243546,
        0.0035455033648759127,
        -0.037832047790288925,
        0.014137373305857182,
        -0.05715647712349892,
        0.054136406630277634,
        0.06425695866346359,
        -0.06273437291383743,
        0.03032567724585533,
        0.010727868415415287,
        0.08540916442871094,
        -0.06873784214258194,
        -0.057071272283792496,
        -0.01832527108490467,
        -0.06656083464622498,
        -0.02897273562848568,
        -0.05049019679427147
      ],
      [
        0.008327122777700424,
        0.0331888347864151,
        -0.014337778091430664,
        0.03252057358622551,
        0.05629216134548187,
        -0.078804612159729,
        -0.04315866529941559,
        0.08473815023899078,
        0.05983371287584305,
        -0.08490544557571411,
        0.05035135895013809,
        -0.08034051954746246,
        0.0616983063519001,
        0.05057395622134209,
        0.01697300560772419,
        -0.082665354013443,
        -0.05532998591661453,
        0.08808332681655884,
        -0.06419804692268372,
        -0.07728186249732971,
        -0.07944954931735992,
        -0.0010117414640262723,
        0.04403964430093765,
        -0.049725014716386795,
        0.06421446800231934,
        0.06620585918426514,
        -0.04449950158596039,
        -0.046817995607852936,
        0.04556037858128548,
        0.056040797382593155,
        0.015963556244969368,
        0.04268636927008629,
        0.022959526628255844,
        -0.05799160897731781,
        -0.07865257561206818,
        -0.07178518921136856,
        -0.08947411924600601,
        -0.05577254295349121,
        -0.04828360676765442,
        -0.010753121227025986,
        -0.06466805934906006,
        0.08176643401384354,
        -0.04960904270410538,
        0.02639716863632202,
        -0.07658735662698746,
        -0.018024256452918053,
        -0.057805318385362625,
        0.07684535533189774,
        -0.041732389479875565,
        -0.022704478353261948,
        0.06810592114925385,
        -0.003953387029469013,
        0.06144160032272339,
        -0.04243096336722374,
        -0.05634574219584465,
        0.0673365369439125,
        0.04344601556658745,
        0.03526487946510315,
        0.06516240537166595,
        0.013524874113500118,
        0.04323668032884598,
        -0.04533535614609718,
        -0.017049545422196388,
        0.07663241028785706,
        -0.07034745812416077,
        0.0005550009664148092,
        -0.06391407549381256,
        0.05077080428600311,
        0.08466170728206635,
        0.05903489887714386,
        0.02226419933140278,
        -0.055318862199783325,
        -0.013873419724404812,
