{
  "policy_type": "mappo_timeout_policy",
  "algorithm": "mappo_ctde_gae",
  "episodes": 2,
  "nodes": 5,
  "seed": 9,
  "features": [
    "bias",
    "rtt_norm",
    "loss_rate",
    "log_gap_norm",
    "recent_split"
  ],
  "global_features": [
    "node_count_norm",
    "alive_fraction",
    "mean_rtt_norm",
    "mean_loss",
    "mean_log_gap_norm",
    "recent_split",
    "round_index_norm"
  ],
  "arms": {
    "very_short": [
      150.0,
      230.0
    ],
    "short": [
      280.0,
      420.0
    ],
    "medium": [
      520.0,
      760.0
    ],
    "long": [
      900.0,
      1300.0
    ],
    "very_long": [
      1450.0,
      2100.0
    ]
  },
  "actor_critic": {
    "actor.0.weight": [
      [
        0.13884799182415009,
        -0.17752394080162048,
        -0.018382208421826363,
        0.25009024143218994,
        0.3738386631011963
      ],
      [
        0.383124977350235,
        -0.21674789488315582,
        0.4034436047077179,
        -0.10492783784866333,
        -0.08010956645011902
      ],
      [
        0.40580645203590393,
        0.06357891112565994,
        -0.3213033378124237,
        -0.26416176557540894,
        0.012432903051376343
      ],
      [
        -0.011290845461189747,
        0.019307026639580727,
        -0.13510662317276,
        -0.044789865612983704,
        0.11766690015792847
      ],
      [
        0.17207762598991394,
        0.2855040431022644,
        0.3680654466152191,
        0.20503221452236176,
        -0.04759109020233154
      ],
      [
        -0.3800491690635681,
        0.3775148093700409,
        0.25564655661582947,
        0.4237365424633026,
        0.08622539043426514
      ],
      [
        0.1153477281332016,
        0.15195931494235992,
        0.34831035137176514,
        0.28526386618614197,
        0.20226216316223145
      ],
      [
        -0.08524263650178909,
        -0.22733207046985626,
        0.07573708891868591,
        0.2885441184043884,
        -0.01201397180557251
      ],
      [
        0.3940386176109314,
        -0.29749512672424316,
        0.2469647377729416,
        0.09739468991756439,
        -0.2979891002178192
      ],
      [
        0.2062632292509079,
        -0.25798559188842773,
        0.30626046657562256,
        0.24326300621032715,
        -0.3992796540260315
      ],
      [
        0.22982220351696014,
        0.0709325522184372,
        0.21425758302211761,
        0.2177847921848297,
        -0.06539753079414368
      ],
      [
        -0.17222654819488525,
        -0.09366768598556519,
        -0.16026251018047333,
        -0.4023277759552002,
        0.17065274715423584
      ],
      [
        -0.19317738711833954,
        0.10826127231121063,
        -0.11593439429998398,
        0.3174797296524048,
        0.03271609544754028
      ],
      [
        -0.41429316997528076,
        -0.0007106220000423491,
        -0.06625726073980331,
        -0.23665711283683777,
        0.38313305377960205
      ],
      [
        0.08274272084236145,
        -0.1388053596019745,
        -0.4432549476623535,
        0.4051724970340729,
        -0.34063029289245605
      ],
      [
        0.044022124260663986,
        0.2759818434715271,
        -0.37904423475265503,
        0.1454448103904724,
        0.42747294902801514
      ],
      [
        -0.180253267288208,
        -0.1500978022813797,
        -0.4037109315395355,
        -0.4459516704082489,
        -0.12401440739631653
      ],
      [
        0.3409409821033478,
        0.002342033665627241,
        -0.3380739092826843,
        0.28823021054267883,
        0.046687424182891846
      ],
      [
        0.4125733971595764,
        -0.4361496567726135,
        -0.4052652418613434,
        0.0485115721821785,
        -0.3546678423881531
      ],
      [
        -0.3817271590232849,
        0.31379756331443787,
        -0.3682813346385956,
        -0.3553535044193268,
        0.12965726852416992
      ],
      [
        0.14349053800106049,
        0.4199002981185913,
        -0.14188797771930695,
        0.04606037586927414,
        -0.273157000541687
      ],
      [
        0.0993126854300499,
        0.0748489573597908,
        -0.2011002004146576,
        0.33262208104133606,
        -0.0260583758354187
      ],
      [
        -0.09099654853343964,
        -0.14468121528625488,
        -0.08697990328073502,
        -0.060774825513362885,
        0.11372524499893188
      ],
      [
        0.3212912976741791,
        0.015114127658307552,
        0.39495307207107544,
        -0.13510358333587646,
        0.18482857942581177
      ],
      [
        -0.4182736277580261,
        0.2243928611278534,
        0.10808168351650238,
        0.16531501710414886,
        -0.36130547523498535
      ],
      [
        0.36119499802589417,
        -0.1819438338279724,
        -0.01749769039452076,
        0.29352331161499023,
        -0.4168929159641266
      ],
      [
        0.3187257945537567,
        -0.23740854859352112,
        -0.41767844557762146,
        -0.23394551873207092,
        -0.3522868752479553
      ],
      [
        0.34456342458724976,
        0.2329854667186737,
        -0.29450270533561707,
        0.17441926896572113,
        0.2016599178314209
      ],
      [
        0.023594358935952187,
        0.2409467250108719,
        -0.38177749514579773,
        0.3175897002220154,
        0.3126259446144104
      ],
      [
        0.011557822115719318,
        -0.0337316058576107,
        -0.075029157102108,
        -0.024334900081157684,
        -0.25814974308013916
      ],
      [
        0.1313031017780304,
        0.08217327296733856,
        -0.024558426812291145,
        0.44124865531921387,
        -0.019737452268600464
      ],
      [
        -0.3503461480140686,
        0.045689839869737625,
        -0.37142130732536316,
        -0.36293765902519226,
        -0.1893724799156189
      ],
      [
        -0.3572891652584076,
        -0.34612956643104553,
        -0.09673244506120682,
        0.03515531122684479,
        -0.023751556873321533
      ],
      [
        0.06850829720497131,
        0.020922783762216568,
        0.37242427468299866,
        0.05540115386247635,
        0.030802547931671143
      ],
      [
        0.02468106895685196,
        0.011623755097389221,
        -0.06694909185171127,
        -0.058419905602931976,
        0.38800913095474243
      ],
      [
        -0.026497138664126396,
        0.34579652547836304,
        0.18624117970466614,
        0.43447253108024597,
        0.38494378328323364
      ],
      [
        -0.3281271755695343,
        -0.3169556260108948,
        -0.39512336254119873,
        -0.4062739610671997,
        -0.105689138174057
      ],
      [
        -0.2751270830631256,
        0.08165857195854187,
        -0.26597946882247925,
        0.28073233366012573,
        0.4431893229484558
      ],
      [
        0.19911539554595947,
        0.13254912197589874,
        -0.42298591136932373,
        -0.32098281383514404,
        -0.10096374154090881
      ],
      [
        0.21354368329048157,
        0.06966538727283478,
        0.1295175552368164,
        -0.39435693621635437,
        0.3266034722328186
      ],
      [
        -0.3208921551704407,
        0.19830292463302612,
        0.28808093070983887,
        -0.01681782864034176,
        0.26952052116394043
      ],
      [
        0.18880213797092438,
        -0.026538854464888573,
        -0.42977914214134216,
        -0.2827466130256653,
        -0.02084749937057495
      ],
      [
        0.2790885269641876,
        0.13439005613327026,
        -0.03527168557047844,
        -0.22496992349624634,
        0.2639751434326172
      ],
      [
        0.051405660808086395,
        0.2842957377433777,
        0.13953131437301636,
        -0.0813148245215416,
        0.3655063509941101
      ],
      [
        -0.13991910219192505,
        -0.44583725929260254,
        0.13682909309864044,
        -0.28601372241973877,
        -0.2404009848833084
      ],
      [
        -0.4332064092159271,
        -0.374416321516037,
        -0.06955304741859436,
        -0.27044224739074707,
        0.14984053373336792
      ],
      [
        -0.29249128699302673,
        0.39329439401626587,
        0.4036627411842346,
        -0.06163715571165085,
        0.0006705522537231445
      ],
      [
        0.11806505918502808,
        -0.02672179415822029,
        -0.4245128333568573,
        -0.3143344521522522,
        -0.17395994067192078
      ],
      [
        0.21022669970989227,
        0.034202296286821365,
        -0.38780641555786133,
        -0.37819504737854004,
        0.34374743700027466
      ],
      [
        0.30541369318962097,
        -0.4286644160747528,
        0.3283224403858185,
        -0.14868146181106567,
        0.032792747020721436
      ],
      [
        -0.07186132669448853,
        0.14846520125865936,
        0.27542781829833984,
        0.1891653835773468,
        -0.2273673713207245
      ],
      [
        -0.16043654084205627,
        -0.0832206979393959,
        0.2804067134857178,
        0.21317023038864136,
        0.3841807246208191
      ],
      [
        0.39879855513572693,
        0.21955598890781403,
        0.22844217717647552,
        -0.2091701626777649,
        -0.3526332676410675
      ],
      [
        -0.2280326783657074,
        0.04465177282691002,
        -0.36300092935562134,
        0.17137208580970764,
        0.29989272356033325
      ],
      [
        0.31206151843070984,
        -0.34659743309020996,
        -0.03173395246267319,
        0.007134332321584225,
        0.11726707220077515
      ],
      [
        -0.363914430141449,
        0.3017522692680359,
        0.06014709547162056,
        -0.31060099601745605,
        0.018178343772888184
      ],
      [
        -0.007693876512348652,
        -0.09986753016710281,
        -0.297307550907135,
        0.10207220166921616,
        0.13255763053894043
      ],
      [
        0.1735057383775711,
        -0.2975796163082123,
        0.1528763622045517,
        -0.27765408158302307,
        0.33554232120513916
      ],
      [
        -0.013836437836289406,
        -0.232381671667099,
        0.20007634162902832,
        0.35127657651901245,
        0.24408173561096191
      ],
      [
        -0.0688338652253151,
        0.03500421717762947,
        -0.010456566698849201,
        0.19373756647109985,
        -0.4384649395942688
      ],
      [
        0.4202556312084198,
        -0.13629016280174255,
        -0.20117849111557007,
        -0.19554884731769562,
        0.44419312477111816
      ],
      [
        0.3175656199455261,
        -0.12507867813110352,
        0.3910534381866455,
        0.054446328431367874,
        -0.19080737233161926
      ],
      [
        0.1711084097623825,
        0.010462810285389423,
        -0.08375109732151031,
        0.15610122680664062,
        0.17030060291290283
      ],
      [
        -0.4187171161174774,
        -0.13840632140636444,
        0.18269169330596924,
        0.34492227435112,
        -0.28866878151893616
      ],
      [
        0.30436187982559204,
        -0.2893996238708496,
        -0.059097934514284134,
        0.09194543212652206,
        -0.4312760829925537
      ],
      [
        0.4113025963306427,
        0.04165792837738991,
        0.2725560665130615,
        -0.40966033935546875,
        0.10220140218734741
      ],
      [
        -0.3684949278831482,
        -0.31429335474967957,
        -0.36815643310546875,
        -0.02178998477756977,
        -0.2547091245651245
      ],
      [
        0.3804219663143158,
        0.002496379893273115,
        0.1501024216413498,
        0.12738274037837982,
        -0.21799249947071075
      ],
      [
        0.40459927916526794,
        -0.03279826417565346,
        -0.09734931588172913,
        -0.29381856322288513,
        -0.19391658902168274
      ],
      [
        -0.11644388735294342,
        0.4346091151237488,
        -0.2808094322681427,
        0.09924923628568649,
        0.025604575872421265
      ],
      [
        -0.40336763858795166,
        -0.3507925868034363,
        0.07361562550067902,
        -0.4208109676837921,
        -0.3050839900970459
      ],
      [
        0.3402475416660309,
        -0.30183279514312744,
        0.05069966986775398,
        0.052024565637111664,
        0.3246927261352539
      ],
      [
        -0.010840974748134613,
        0.11364927142858505,
        0.26389291882514954,
        0.07181701064109802,
        -0.16657626628875732
      ],
      [
        0.4409148693084717,
        -0.031734663993120193,
        0.02012813836336136,
        0.08863676339387894,
        -0.16049134731292725
      ],
      [
        -0.24060975015163422,
        0.06459828466176987,
        -0.39283186197280884,
        -0.30290916562080383,
        0.30088913440704346
      ],
      [
        0.04183150827884674,
        0.24363136291503906,
        0.2980198562145233,
        0.2339918613433838,
        -0.4443119168281555
      ],
      [
        0.28377681970596313,
        0.0013199406675994396,
        0.34860241413116455,
        0.17000748217105865,
        0.3525351881980896
      ],
      [
        0.23517398536205292,
        0.1550879180431366,
        -0.32511818408966064,
        0.39230820536613464,
        0.17370134592056274
      ],
      [
        0.08841894567012787,
        0.13855212926864624,
        0.07873230427503586,
        0.26854854822158813,
        -0.40115809440612793
      ],
      [
        0.3593234419822693,
        -0.17784348130226135,
        -0.351261168718338,
        -0.1697559356689453,
        0.28799664974212646
      ],
      [
        -0.3016008734703064,
        0.34408479928970337,
        0.19526582956314087,
        0.16420452296733856,
        -0.07107391953468323
      ],
      [
        0.02749703638255596,
        0.12384077161550522,
        0.1838342696428299,
        -0.025077782571315765,
        0.4193847179412842
      ],
      [
        -0.32244163751602173,
        -0.3667912185192108,
        -0.4367845058441162,
        0.08434592187404633,
        -0.1227060854434967
      ],
      [
        -0.15428447723388672,
        0.4463692009449005,
        -0.3169133961200714,
        0.04129929840564728,
        0.09698140621185303
      ],
      [
        0.42028120160102844,
        0.39986369013786316,
        0.3337137699127197,
        0.4061262011528015,
        0.14921939373016357
      ],
      [
        -0.15273548662662506,
        0.20270782709121704,
        0.18661455810070038,
        -0.2257087230682373,
        0.2805957794189453
      ],
      [
        -0.11011844128370285,
        0.040651142597198486,
        0.09457967430353165,
        -0.044277291744947433,
        0.42281574010849
      ],
      [
        0.09050135314464569,
        0.03220043703913689,
        -0.27091237902641296,
        0.04303944483399391,
        0.1436535120010376
      ],
      [
        0.013640842400491238,
        0.2995299696922302,
        0.41657671332359314,
        0.4110160171985626,
        -0.02204194664955139
      ],
      [
        0.29163599014282227,
        0.33288607001304626,
        -0.28606995940208435,
        -0.40762457251548767,
        -0.09871882200241089
      ],
      [
        0.21310459077358246,
        -0.24495548009872437,
        0.00939929485321045,
        0.11387168616056442,
        -0.12003904581069946
      ],
      [
        -0.40378066897392273,
        0.42018261551856995,
        -0.07161790877580643,
        0.3856428861618042,
        0.2744104862213135
      ],
      [
        -0.1033921018242836,
        0.24593758583068848,
        0.06151798740029335,
        0.10509829223155975,
        -0.11738038063049316
      ],
      [
        -0.33775368332862854,
        0.28749990463256836,
        0.19598276913166046,
        0.3923170268535614,
        0.19503897428512573
      ],
      [
        0.014807935804128647,
        -0.12979945540428162,
        -0.2055356502532959,
        0.4390805661678314,
        0.251742959022522
      ],
      [
        -0.1126040369272232,
        -0.1332380324602127,
        -0.01977478712797165,
        0.439005583524704,
        0.12153762578964233
      ],
      [
        0.3325943946838379,
        0.1108204647898674,
        0.01609204337000847,
        0.3201140761375427,
        -0.23996751010417938
      ],
      [
        -0.25966113805770874,
        0.36889347434043884,
        0.1578405499458313,
        -0.29400184750556946,
        -0.44693779945373535
      ],
      [
        -0.1572761982679367,
        0.1927083283662796,
        0.31521525979042053,
        -0.09898442775011063,
        0.12074220180511475
      ],
      [
        -0.1368803232908249,
        0.04091178998351097,
        0.07573913037776947,
        -0.11362045258283615,
        0.16322243213653564
      ],
      [
        -0.11212040483951569,
        0.19729429483413696,
        -0.04691449925303459,
        -0.12683811783790588,
        0.4324805736541748
      ],
      [
        -0.13684865832328796,
        0.11678320169448853,
        -0.3316246271133423,
        0.42215535044670105,
        -0.3819040358066559
      ],
      [
        0.25062915682792664,
        -0.039756469428539276,
        -0.0955214574933052,
        -0.2220328152179718,
        0.10057258605957031
      ],
      [
        -0.33679550886154175,
        0.2373877763748169,
        -0.40732887387275696,
        -0.4365590810775757,
        0.3510463833808899
      ],
      [
        0.13919076323509216,
        0.013542383909225464,
        0.33576351404190063,
        -0.07364311814308167,
        -0.12782153487205505
      ],
      [
        -0.4090796709060669,
        0.3619336485862732,
        -0.2935693562030792,
        -0.0038739475421607494,
        -0.4242495596408844
      ],
      [
        -0.1003653034567833,
        -0.16014544665813446,
        -0.3932802081108093,
        -0.3646213412284851,
        -0.12349700927734375
      ],
      [
        0.09324274957180023,
        0.3901814818382263,
        -0.1549912393093109,
        0.26131340861320496,
        -0.018787860870361328
      ],
      [
        0.04581723362207413,
        0.3193822503089905,
        0.3748529553413391,
        0.28104427456855774,
        -0.041607946157455444
      ],
      [
        -0.4259827733039856,
        -0.43203023076057434,
        0.2593640685081482,
        0.332088440656662,
        0.29108160734176636
      ],
      [
        0.4059727191925049,
        -0.3515591621398926,
        0.09973592311143875,
        -0.28004589676856995,
        0.03362724184989929
      ],
      [
        -0.11435537040233612,
        0.03933699429035187,
        0.4317237138748169,
        -0.291408896446228,
        -0.08984476327896118
      ],
      [
        0.010410375893115997,
        -0.024748394265770912,
        -0.3280991017818451,
        -0.08628720790147781,
        -0.4411703050136566
      ],
      [
        -0.12398742139339447,
        0.3407997786998749,
        -0.391505628824234,
        -0.0025685566943138838,
        0.3643955588340759
      ],
      [
        -0.1250668168067932,
        0.1995323747396469,
        -0.1361958384513855,
        -0.36726394295692444,
        -0.1248081624507904
      ],
      [
        -0.15827280282974243,
        0.37733277678489685,
        -0.17152932286262512,
        0.23158672451972961,
        -0.37343189120292664
      ],
      [
        0.4212753176689148,
        0.15791036188602448,
        -0.4158565104007721,
        -0.43046265840530396,
        0.09596741199493408
      ],
      [
        -0.2798045575618744,
        0.0540226511657238,
        0.014829372987151146,
        0.12291623651981354,
        0.11939561367034912
      ],
      [
        -0.13904975354671478,
        -0.03560918569564819,
        0.13847824931144714,
        0.06326142698526382,
        0.3701643943786621
      ],
      [
        -0.012454671785235405,
        -0.16772648692131042,
        -0.08231929689645767,
        0.34487077593803406,
        -0.08541777729988098
      ],
      [
        0.22594082355499268,
        0.36854201555252075,
        -0.30954664945602417,
        0.31457188725471497,
        -0.24381551146507263
      ],
      [
        0.37776583433151245,
        -0.2972102761268616,
        -0.36879122257232666,
        -0.3833889663219452,
        -0.07195281982421875
      ],
      [
        0.06935553252696991,
        0.1577267050743103,
        -0.22437424957752228,
        -0.15181367099285126,
        0.1167677640914917
      ],
      [
        0.3995100259780884,
        -0.1485804170370102,
        0.4093186557292938,
        -0.1712874323129654,
        -0.272560179233551
      ],
      [
        0.36840295791625977,
        -0.18155120313167572,
        -0.11699576675891876,
        0.2661825716495514,
        0.4036110043525696
      ],
      [
        0.22556893527507782,
        0.17747025191783905,
        -0.020796773955225945,
        -0.21972788870334625,
        0.4311005473136902
      ],
      [
        -0.2980993092060089,
        0.27737993001937866,
        0.25178810954093933,
        -0.28350144624710083,
        0.3428459167480469
      ],
      [
        -0.3751846253871918,
        0.35938018560409546,
        -0.41330471634864807,
        -0.003177393926307559,
        -0.19036266207695007
      ]
    ],
    "actor.0.bias": [
      0.2730071246623993,
      -0.4178192913532257,
      0.12499149143695831,
      -0.3440890908241272,
      -0.05169288069009781,
      0.01598292402923107,
      0.06619934737682343,
      0.08206545561552048,
      -0.22483719885349274,
      -0.08254389464855194,
      0.12284404784440994,
      0.18922218680381775,
      -0.03917431831359863,
      -0.3773197829723358,
      -0.10680574178695679,
      0.34117376804351807,
      0.06279829889535904,
      -0.00524327764287591,
      -0.3953690826892853,
      0.21317149698734283,
      -0.44517236948013306,
      0.10212715715169907,
      0.4212709069252014,
      0.15454721450805664,
      0.01111683901399374,
      0.4290432035923004,
      -0.09643231332302094,
      0.19189922511577606,
      0.044908829033374786,
      0.3552265465259552,
      -0.1633487343788147,
      -0.3364924192428589,
      0.1921924203634262,
      0.39669182896614075,
      0.3927466869354248,
      0.01788838393986225,
      -0.4168928563594818,
      0.15538035333156586,
      0.001202231622301042,
      0.13897797465324402,
      0.09527768194675446,
      0.048206113278865814,
      0.09615518897771835,
      -0.16106069087982178,
      -0.446994811296463,
      0.3239567279815674,
      0.08311744034290314,
      -0.01205786969512701,
      0.18279676139354706,
      -0.15780992805957794,
      -0.317193865776062,
      0.00428039813414216,
      -0.09997222572565079,
      -0.3659871518611908,
      -0.2732701003551483,
      -0.07354240864515305,
      0.3684174418449402,
      0.37334170937538147,
      -0.38179779052734375,
      -0.16402433812618256,
      -0.09301193058490753,
      -0.10191893577575684,
      -0.40274879336357117,
      0.22957643866539001,
      -0.16559942066669464,
      -0.2665371000766754,
      -0.07145421206951141,
      0.19557161629199982,
      -0.021800406277179718,
      0.31021615862846375,
      0.33456823229789734,
      0.24971048533916473,
      -0.06745745986700058,
      -0.4169219732284546,
      -0.13890093564987183,
      0.3341847360134125,
      0.3952220678329468,
      0.3761385679244995,
      0.2972657382488251,
      -0.23077872395515442,
      -0.10295386612415314,
      0.2601810395717621,
      0.23728320002555847,
      -0.013706901110708714,
      -0.10337019711732864,
      -0.07633600383996964,
      0.26270976662635803,
      -0.2374589443206787,
      -0.41855236887931824,
      0.39353227615356445,
      -0.2969862222671509,
      -0.20559626817703247,
      -0.05239424854516983,
      -0.03259182348847389,
      0.11115151643753052,
      0.06523279845714569,
      0.31763172149658203,
      -0.3796902596950531,
      -0.18993093073368073,
      -0.18476440012454987,
      0.0018856850219890475,
      -0.13149720430374146,
      -0.3859403431415558,
      -0.3580905795097351,
      0.2746238708496094,
      0.29698288440704346,
      -0.40786051750183105,
      -0.05737130343914032,
      0.00046587103861384094,
      -0.01611264981329441,
      0.07705993205308914,
      0.3203687369823456,
      -0.09301098436117172,
      0.031043576076626778,
      -0.19570907950401306,
      -0.3545536696910858,
      -0.23368775844573975,
      0.03127305209636688,
      0.3362956941127777,
      -0.3656516969203949,
      0.4155292212963104,
      -0.09225807338953018,
      0.21096596121788025,
      0.43222159147262573,
      0.2654004693031311,
      0.3662501573562622,
      -0.2201959788799286,
      -0.28224414587020874
    ],
    "actor.2.weight": [
      [
        -0.07068555057048798,
        0.058597270399332047,
        0.08166788518428802,
        0.04318241402506828,
        -0.06541633605957031,
        0.04539020359516144,
        -0.06591300666332245,
        -0.06450030952692032,
        -0.048584844917058945,
        0.08588270843029022,
        -0.07063233107328415,
        0.05732744187116623,
        -0.05524645000696182,
        -0.03766103461384773,
        0.07345204055309296,
        -0.043278198689222336,
        0.018932295963168144,
        0.02448524907231331,
        -0.04128497093915939,
        -0.03678027540445328,
        -0.0601414293050766,
        -0.05827527865767479,
        -0.0015468144556507468,
        0.06281465291976929,
        0.02251519076526165,
        -0.04177815467119217,
        0.04910758510231972,
        0.08773843199014664,
        -0.002340450417250395,
        0.08371516317129135,
        -0.06137212738394737,
        0.03590906038880348,
        -0.013497257605195045,
        -0.015068519860506058,
        -0.048039790242910385,
        0.07673601806163788,
        -0.03281578794121742,
        -0.020400669425725937,
        0.03869752213358879,
        0.053509559482336044,
        -0.07520443201065063,
        0.0230241846293211,
        0.06301936507225037,
        0.02526702918112278,
        0.06479190289974213,
        -0.020934082567691803,
        0.02085966244339943,
        -0.07709062844514847,
        -0.002296983962878585,
        0.07049547880887985,
        0.04566174000501633,
        -0.07290070503950119,
        -0.024180812761187553,
        0.06614953279495239,
        0.06915420293807983,
        -0.011407876387238503,
        0.03784199431538582,
        -0.04769822582602501,
        0.04863624647259712,
        -0.07969614863395691,
        0.02518901787698269,
        -0.027273621410131454,
        0.02211865410208702,
        0.06440388411283493,
        0.02981976605951786,
        -0.005953103769570589,
        -0.07068075239658356,
        -0.0496247373521328,
        0.06833433359861374,
        -0.06890635192394257,
        -0.07346109300851822,
        -0.06483137607574463,
        -0.008489719592034817,
        -0.0566897876560688,
        -0.007603146135807037,
        -0.06511121988296509,
        0.02179093286395073,
        0.05368531495332718,
        -0.03315127268433571,
        0.050592489540576935,
        0.013054569251835346,
        0.06690787523984909,
        -0.019987385720014572,
        -0.06940265744924545,
        0.007852275855839252,
        0.01671806164085865,
        -0.07595066726207733,
        -0.07611731439828873,
        0.043846555054187775,
        0.030008310452103615,
        0.04842739179730415,
        0.07952328771352768,
        -0.021925335749983788,
        0.004805052652955055,
        0.010380549356341362,
        0.04008675739169121,
        -0.05294673517346382,
        0.06649504601955414,
        0.058748893439769745,
        0.05624038353562355,
        -0.024474048987030983,
        0.02930356189608574,
        0.012444106861948967,
        0.06615979224443436,
        0.053138066083192825,
        0.02933521755039692,
        -0.03437362611293793,
        -0.028270523995161057,
        0.059879034757614136,
        -0.0175411906093359,
        0.07001572102308273,
        -0.011218602769076824,
        -0.05511661618947983,
        0.04374188929796219,
        0.07638080418109894,
        -0.0232571829110384,
        0.054650772362947464,
        -0.07739964872598648,
        -0.02550864964723587,
        -0.04629191756248474,
        -0.009073584340512753,
        0.07185962796211243,
        -0.08319570869207382,
        0.08912138640880585,
        0.01237259991466999,
        -0.05830911174416542,
        -0.048705924302339554,
        0.023766379803419113
      ],
      [
        0.06056501716375351,
        0.01802687533199787,
        -0.05098999664187431,
        -0.041958168148994446,
        0.07591504603624344,
        0.07179861515760422,
        0.07329700142145157,
        0.07889117300510406,
        0.00471037533134222,
        0.0693357065320015,
        0.03432970494031906,
        -0.01862465962767601,
        -0.02800244279205799,
        -0.06890500336885452,
        -0.035195205360651016,
        0.012505563907325268,
        -0.031657520681619644,
        -0.0027444143779575825,
        0.04439007490873337,
        0.0321788527071476,
        0.05362015962600708,
        -0.0845843181014061,
        0.008140698075294495,
        0.05880492180585861,
        -0.047176655381917953,
        0.004710004664957523,
        -0.07178272306919098,
        0.0771017000079155,
        -0.07779199630022049,
        0.0285221878439188,
        -0.05983578413724899,
        -0.009421294555068016,
        0.06412650644779205,
        -0.0566621869802475,
        -0.06572039425373077,
        0.003401616122573614,
        -0.04625232145190239,
        0.06142938509583473,
        -0.07747527211904526,
        -0.05390499159693718,
        0.08564557880163193,
        0.00425371527671814,
        0.08074731379747391,
        -0.06413167715072632,
        -0.032908592373132706,
        -0.040679700672626495,
        0.044653233140707016,
        -0.0879424586892128,
        -0.044532254338264465,
        0.03132380545139313,
        0.07477311044931412,
        0.04958069324493408,
        -0.020495714619755745,
        0.04748435690999031,
        0.0374050997197628,
        0.001135416328907013,
        0.03943092003464699,
        -0.0758318081498146,
        -0.004120960831642151,
        -0.011680563911795616,
        -0.07288170605897903,
        0.049287840723991394,
        -0.016165319830179214,
        -0.03923282027244568,
        0.0314909964799881,
        -0.054934658110141754,
        -0.032724130898714066,
        0.0338778980076313,
        0.07118344306945801,
        -0.08689428120851517,
        -0.0022301487624645233,
        0.023680446669459343,
        0.07499827444553375,
        -0.06042085215449333,
        0.02661418542265892,
        -0.04784613847732544,
        -0.04191598668694496,
        -0.01640559360384941,
        -0.08390538394451141,
        -0.034686584025621414,
        -0.004533635918051004,
        -0.039881400763988495,
        0.010196425020694733,
        0.015894044190645218,
        -0.06604895740747452,
        -0.053249698132276535,
        0.07209412753582001,
        -0.04220721498131752,
        -0.012062561698257923,
        0.024772977456450462,
        0.03914572671055794,
        0.00432662945240736,
        -0.04262176901102066,
        0.03003884106874466,
        -0.018507763743400574,
        -0.04547411948442459,
        -0.023202762007713318,
        0.01893628016114235,
        -0.07902611047029495,
        -0.004681035876274109,
        0.0717448815703392,
        0.05060231313109398,
        0.08332181721925735,
        0.0594107061624527,
        0.08650251477956772,
        0.030584771186113358,
        0.021311605349183083,
        0.07638956606388092,
        -0.011219777166843414,
        -0.015879429876804352,
        -0.08324670046567917,
        -0.07444004714488983,
        -0.06551232188940048,
        -0.006950529292225838,
        -0.0035463618114590645,
        0.0713304877281189,
        0.022715242579579353,
        -0.07447586208581924,
        0.05706208199262619,
        -0.07271931320428848,
        -0.03990074247121811,
        0.06251660734415054,
        -0.08450618386268616,
        0.08048564940690994,
        -0.0675482526421547,
        -0.03388157859444618,
        -0.05286170542240143,
        0.008237597532570362
      ],
      [
        -0.05668039992451668,
        0.005889627151191235,
        0.07106684148311615,
        -0.028052307665348053,
        -0.0002951770438812673,
        -0.039669591933488846,
        0.005981929134577513,
        -0.06294061243534088,
        -0.0018089499790221453,
        0.02726849913597107,
        0.011867200955748558,
        0.056135840713977814,
        -0.0619029626250267,
        -0.08193981647491455,
        0.029941152781248093,
        -0.055921513587236404,
        0.003617290873080492,
        0.04025615006685257,
        -0.08316966891288757,
        0.07839755713939667,
        0.0737636387348175,
        -0.019796013832092285,
        -0.045662347227334976,
        0.028255073353648186,
        -0.07054144889116287,
        -0.0020431256853044033,
        0.00250729126855731,
        0.018076257780194283,
        -0.05331055819988251,
        0.03416308015584946,
        -0.057802923023700714,
        0.042435172945261,
        0.05304029956459999,
        0.03842594847083092,
        -0.005886954255402088,
        -0.066094309091568,
        -0.05939209833741188,
        0.04692491516470909,
        0.006574593484401703,
        0.05224441736936569,
        0.0273231640458107,
        -0.0194228682667017,
        0.03536637872457504,
        -0.07589863240718842,
        -0.01158995646983385,
        0.0030515044927597046,
        -0.03975827991962433,
        -0.027698226273059845,
        0.02245672047138214,
        -0.061516374349594116,
        0.046217307448387146,
        -0.05763274058699608,
        -0.08535276353359222,
        0.03583560138940811,
        -0.010038932785391808,
        -0.031725697219371796,
        0.0023208954371511936,
        -0.0834110826253891,
        -0.027426734566688538,
        0.04124840348958969,
        0.07701694965362549,
        -0.05640104413032532,
        0.08340905606746674,
        -0.03273889422416687,
        -0.06414403021335602,
        -0.05833117663860321,
        0.027092859148979187,
        0.06206328049302101,
        -0.0034321590792387724,
        0.043719418346881866,
        0.06924647837877274,
        -0.05278433486819267,
        0.0682082399725914,
        0.013949442654848099,
        -0.05585973709821701,
        -0.020028235390782356,
        -0.06811172515153885,
        -0.08588206022977829,
        0.04465897008776665,
        -0.021282076835632324,
        -0.060258589684963226,
        -0.07608919590711594,
        0.0359867699444294,
        0.007446705363690853,
        0.023804591968655586,
        -0.045054852962493896,
        -0.08676844090223312,
        -0.06593552231788635,
        -0.04685548320412636,
        0.08599689602851868,
        0.08799666911363602,
        0.04430649057030678,
        0.030710693448781967,
        0.020010946318507195,
        0.08052331954240799,
        -0.04672964662313461,
        0.08581218123435974,
        -0.06436864286661148,
        0.039809904992580414,
        0.01054591964930296,
        -0.08437969535589218,
        0.06245105341076851,
        0.06903862208127975,
        -0.0383126474916935,
        -0.04213271290063858,
        -0.001496239798143506,
        -0.015073247253894806,
        0.030676227062940598,
        0.07555117458105087,
        0.07057614624500275,
        -0.02248452976346016,
        0.06471813470125198,
        0.05657185614109039,
        0.0011576978722587228,
        0.04310290142893791,
        0.0005564787425100803,
        -0.05598535016179085,
        0.006098323967307806,
        -0.0045362478122115135,
        0.027948006987571716,
        -0.028261126950383186,
        0.020536990836262703,
        -0.05625370889902115,
        -0.03453921899199486,
        -0.058101870119571686,
        -0.03078245371580124,
        -0.03272184357047081,
        -0.019808538258075714
      ],
      [
        0.029890501871705055,
        -0.049759600311517715,
        0.07893051207065582,
        -0.04640371724963188,
        -0.07988573610782623,
        -0.0180861484259367,
        -0.02261047065258026,
        0.042364053428173065,
        0.035273902118206024,
        0.04008432477712631,
        -0.05649396404623985,
        0.044698718935251236,
        0.014732524752616882,
        0.02637733891606331,
        0.03830210119485855,
        0.01693686470389366,
        -0.0741804912686348,
        0.03716558963060379,
        0.011572449468076229,
        -0.04881473630666733,
        0.017212262377142906,
        -0.08784732967615128,
        0.06548771262168884,
        0.06218654662370682,
        -0.010101290419697762,
        -0.02657354064285755,
        0.033469248563051224,
        -0.07468944787979126,
        0.045080263167619705,
        -0.04079561308026314,
        0.07303750514984131,
        -0.021578898653388023,
        0.05609015002846718,
        -0.05918291211128235,
        0.0798858031630516,
        0.030883217230439186,
        -0.050243932753801346,
        0.0653516948223114,
        0.06268853694200516,
        -0.06515103578567505,
        -0.06837986409664154,
        -0.02200665883719921,
        -0.08618047833442688,
        -0.07339217513799667,
        -0.00434729503467679,
        -0.05041046440601349,
        0.06470771133899689,
        -0.08017829805612564,
        0.0476049929857254,
        0.08370819687843323,
        0.07446354627609253,
        0.019292056560516357,
        0.04332916811108589,
        0.049402639269828796,
        0.01766269840300083,
        -0.0554184764623642,
        -0.04502090811729431,
        -0.0650031566619873,
        -0.045593004673719406,
        -0.032963644713163376,
        -0.06153044477105141,
        -0.06123533472418785,
        -0.07363153249025345,
        0.0365729033946991,
        -0.027732741087675095,
        -0.0789249911904335,
        0.08745293319225311,
        -0.0263369157910347,
        0.01010892167687416,
        -0.03901233151555061,
        -0.007824801839888096,
        0.07866372168064117,
        0.083332359790802,
        0.0030404406134039164,
        0.03361283987760544,
        0.05136475712060928,
        -0.018114900216460228,
        0.07034861296415329,
        -0.07875704765319824,
        0.023499030619859695,
        -0.04465213790535927,
        0.05274228751659393,
        0.009331442415714264,
        -0.025125637650489807,
        -0.04181094840168953,
        0.05162932351231575,
        0.052542876452207565,
        0.024765510112047195,
        -0.03767605498433113,
        -0.013930288143455982,
        0.04387639835476875,
        -0.007276974618434906,
        -0.07378887385129929,
        0.08873441070318222,
        0.009131309576332569,
        -0.020889490842819214,
        0.016263358294963837,
        -0.05481831729412079,
        0.024965757504105568,
        -0.0625503659248352,
        -0.08488849550485611,
        -0.038311295211315155,
        -0.03358524665236473,
        -0.002321874024346471,
        0.0849921926856041,
        0.05995319411158562,
        0.0732233002781868,
        -0.0453551784157753,
        -0.07885123044252396,
        0.023042377084493637,
        0.041775867342948914,
        0.010495224967598915,
        0.020342418923974037,
        0.056332916021347046,
        0.04122130200266838,
        0.06327549368143082,
        -0.08718732744455338,
        -0.07383120059967041,
        -0.007074794266372919,
        0.04778448864817619,
        0.01710396632552147,
        0.005658329930156469,
        0.009363334625959396,
        0.05612076073884964,
        0.057522907853126526,
        0.033393021672964096,
        0.02167852781713009,
        -0.008364706300199032
      ],
      [
        0.04954579100012779,
        0.07981905341148376,
        -0.07975520193576813,
        0.01821058988571167,
        -0.02413225546479225,
        0.004955305252224207,
        -0.04361804202198982,
        0.032417114824056625,
        0.04564960300922394,
        0.0002725899685174227,
        0.007792906370013952,
        -0.06269817054271698,
        0.08736969530582428,
        -0.08583447337150574,
        0.05787063017487526,
        -0.0851987823843956,
        -0.07486186176538467,
        0.006966613698750734,
        -0.028979910537600517,
        -0.06375595927238464,
        -0.04281027987599373,
        0.08691953122615814,
        -0.011491483077406883,
        -0.03156689181923866,
        -0.03137936815619469,
        -0.05804707854986191,
        -0.07949095964431763,
        0.022812917828559875,
        -0.07386971265077591,
        0.08740255236625671,
        0.08697596937417984,
        0.06239309906959534,
        -0.05327298492193222,
        0.015674373134970665,
        -0.056809138506650925,
        0.032340310513973236,
        0.011158652603626251,
        0.01536798756569624,
        -0.04407984018325806,
        0.024980729445815086,
        0.0629868432879448,
        -0.07199050486087799,
        -0.08136484026908875,
        -0.029482616111636162,
        -0.04294733330607414,
        -0.06919851154088974,
        0.07191716134548187,
        0.0770798996090889,
        -0.029307782649993896,
        -0.08685821294784546,
        -0.05542929843068123,
        0.009229415096342564,
        0.05603482946753502,
        -0.05371079221367836,
        0.0840315893292427,
        0.045660216361284256,
        0.017528416588902473,
        -0.08246039599180222,
        0.07349655032157898,
        0.026912085711956024,
        0.036376308649778366,
        -0.03701610118150711,
        -0.065559983253479,
        -0.05567660927772522,
        0.0020708453375846148,
        -0.011062267236411572,
        0.03903406858444214,
        -0.08675426989793777,
        0.03351198509335518,
        0.0025754827074706554,
        0.029774507507681847,
        -0.023119401186704636,
        0.08380676060914993,
        0.07797092944383621,
        -0.021609319373965263,
        0.0022537282202392817,
        -0.061880212277173996,
        0.05291573330760002,
        0.019876156002283096,
        0.029274839907884598,
        -0.037586063146591187,
        0.008026034571230412,
        -0.014619688503444195,
        0.022196130827069283,
        0.007690756116062403,
        -0.008215128444135189,
        0.0266942847520113,
        0.0018973276019096375,
        -0.058279864490032196,
        0.07743905484676361,
        -0.04824967309832573,
        -0.03570598363876343,
        -0.004297657869756222,
        -0.010373619385063648,
        -0.051969263702631,
        -0.017840096727013588,
        -0.014604599215090275,
        0.04032987356185913,
        0.045031238347291946,
        -0.0758284479379654,
        0.06780645251274109,
        -0.04174195975065231,
        -0.05426592007279396,
        -0.007606351748108864,
        -0.05314403027296066,
        0.026783650740981102,
        -0.03810235112905502,
        0.006050484720617533,
        -0.07106062769889832,
        0.061756234616041183,
        0.07622282952070236,
        0.07618434727191925,
        -0.003960209432989359,
        -0.0451086163520813,
        0.007324318867176771,
        0.05554748326539993,
        0.04411550611257553,
        0.06185484677553177,
        -0.06371700763702393,
        0.056299999356269836,
        -0.009738177061080933,
        -0.08670998364686966,
        -0.05929618328809738,
        0.013057727366685867,
        0.04165269806981087,
        0.02581658959388733,
        0.04828798025846481,
        0.01129726879298687
      ],
      [
        0.040112875401973724,
        -0.030139226466417313,
        0.03743878751993179,
        0.0645022988319397,
        -0.03191482648253441,
        0.03465275838971138,
        0.07836607098579407,
        -0.023858657106757164,
        -0.0337676964700222,
        -0.06898707151412964,
        0.01889123022556305,
        -0.06893953680992126,
        -0.05518215522170067,
        -0.031684353947639465,
        -0.08563128858804703,
        -0.017460748553276062,
        0.08223659545183182,
        0.04737245664000511,
        -0.033716533333063126,
        0.07869863510131836,
        -0.053196247667074203,
        -0.0859290361404419,
        -0.025946522131562233,
        0.031405724585056305,
        -0.06963776797056198,
        0.05152369663119316,
        0.08322024345397949,
        0.03758181259036064,
        -0.04638790711760521,
        -0.025237223133444786,
        0.00731793325394392,
        0.03255106881260872,
        -0.07767695933580399,
        -0.04137494042515755,
        0.04954039677977562,
        -0.029850268736481667,
        -0.04347129538655281,
        -0.060737743973731995,
        0.06641258299350739,
        0.030443742871284485,
        0.05242267996072769,
        -0.01137704961001873,
        0.015378052368760109,
        -0.07617159932851791,
        0.022276904433965683,
        -0.08335442841053009,
        -0.011090978980064392,
        -0.007067669183015823,
        -0.07306326925754547,
        -0.037146516144275665,
        0.08402060717344284,
        -0.07230675965547562,
        -0.03591703251004219,
        -0.06753461807966232,
        0.056740012019872665,
        -0.004401433747261763,
        0.06747142225503922,
        -0.04542018473148346,
        0.07899133861064911,
        -0.07262399047613144,
        0.03604169189929962,
        0.00886391382664442,
        0.06555958837270737,
        0.024573644623160362,
        0.05800224095582962,
        0.008951895870268345,
        0.018002992495894432,
        -0.0026716815773397684,
        -0.05438680201768875,
        -0.02609175071120262,
        -0.04440901055932045,
        -0.08642122149467468,
        -0.06719405949115753,
        -0.038756903260946274,
        -0.039338745176792145,
        0.08267395943403244,
        -0.02480931021273136,
        -0.04152802377939224,
        0.07041715085506439,
        0.05891928821802139,
        -0.07307787984609604,
        -0.00021071851369924843,
        0.030327653512358665,
        0.010780639946460724,
        -0.0337308794260025,
        0.04016146436333656,
        -0.03297270089387894,
        -0.03507566079497337,
        -0.00185389444231987,
        0.08097098767757416,
        0.06896869093179703,
        -0.0032766542863100767,
        0.04667432978749275,
        -0.07453328371047974,
        -0.018778666853904724,
        -0.05217477306723595,
        0.04401203617453575,
        -0.01886148937046528,
        -0.016101859509944916,
        -0.07120596617460251,
        -0.07227696478366852,
        -0.05937125161290169,
        -0.06129367649555206,
        -0.004350768867880106,
        0.07347346842288971,
        0.0818682536482811,
        -0.07696187496185303,
        0.054532863199710846,
        0.07152338325977325,
        -0.011656669899821281,
        -0.023808831349015236,
        0.03606025502085686,
        0.041937798261642456,
        -0.04399031028151512,
        0.028828805312514305,
        0.0001325669582001865,
        0.0743250921368599,
        0.016458511352539062,
        0.01551595889031887,
        0.0878886729478836,
        -0.06511183083057404,
        0.05216541513800621,
        0.044637419283390045,
        -0.05341729521751404,
        -0.041818682104349136,
        0.006109010893851519,
        -0.025741780176758766,
        -0.06542600691318512
      ],
      [
        -0.005132816266268492,
        0.03819839283823967,
        0.005542526952922344,
        -0.03796400874853134,
        0.0786929577589035,
        0.01674392819404602,
        0.027488240972161293,
        0.06950642168521881,
        0.08836760371923447,
        0.014512472786009312,
        -0.07546986639499664,
        -0.07409198582172394,
        -0.0751236155629158,
        0.032938942313194275,
        -0.06082330271601677,
        -0.07229514420032501,
        -0.05153807997703552,
        -0.045529142022132874,
        -0.056026507169008255,
        0.03739876672625542,
        0.0552569180727005,
        -0.05267804488539696,
        -0.004756910260766745,
        0.0734611451625824,
        -0.06233026087284088,
        -0.023130862042307854,
        -0.030185041949152946,
        0.05844608321785927,
        -0.04111284017562866,
        0.041744034737348557,
        -0.013617323711514473,
        -0.00437953183427453,
        -0.03206789866089821,
        -0.04313797131180763,
        0.01110783126205206,
        0.06506139785051346,
        0.028917213901877403,
        -0.023479575291275978,
        0.0017365653766319156,
        0.03849739953875542,
        0.01494581252336502,
        0.045857708901166916,
        0.08876509219408035,
        0.07513368874788284,
        0.000977710005827248,
        0.038240980356931686,
        -0.02282092720270157,
        -0.03673175722360611,
        -0.04409835487604141,
        -0.06432311981916428,
        0.0825335904955864,
        -0.02580430917441845,
        -0.05029677599668503,
        0.018594736233353615,
        -0.018569931387901306,
        0.07119931280612946,
        -0.04494777321815491,
        -0.0033030640333890915,
        0.06177586689591408,
        0.009053132496774197,
        0.024452917277812958,
        -0.06578086316585541,
        0.004457139875739813,
        0.08590905368328094,
        0.008121326565742493,
        0.07402558624744415,
        -0.028493136167526245,
        0.0078120483085513115,
        -0.054211925715208054,
        0.0007637994131073356,
        0.029293078929185867,
        -0.06384068727493286,
        -0.01344820111989975,
        -0.03494519367814064,
        0.036731503903865814,
        0.04034164547920227,
        -0.02755028009414673,
        0.05185454338788986,
        -0.06950601935386658,
        0.009864226914942265,
        0.0824231430888176,
        -0.08088687807321548,
        0.04250378534197807,
        -0.018956173211336136,
        -0.04682853817939758,
        0.0018553368281573057,
        0.07607831060886383,
        0.08189529925584793,
        0.05321161821484566,
        0.00749663170427084,
        0.008355436846613884,
        0.00019474129658192396,
        0.049730025231838226,
        0.05532490462064743,
        0.04408133774995804,
        0.03960992395877838,
        -0.04228132218122482,
        0.07969259470701218,
        -0.02261212468147278,
        0.02409263886511326,
        0.02117735706269741,
        -0.03407033532857895,
        0.029501138255000114,
        -0.06621139496564865,
        0.06533578038215637,
        -0.08635096251964569,
        -0.03780855983495712,
        -0.055485960096120834,
        -0.06518339365720749,
        -0.05062350258231163,
        0.05232684314250946,
        0.029532160609960556,
        0.06825117021799088,
        -0.07990144938230515,
        0.036396972835063934,
        0.03433309122920036,
        -0.004449664615094662,
        -0.043707896023988724,
        0.07148115336894989,
        -0.08783482760190964,
        -0.033823899924755096,
        -0.06735118478536606,
        -0.06119847670197487,
        -0.07259302586317062,
        0.07741372287273407,
        -0.047969259321689606,
        -0.056493330746889114,
        -0.08808283507823944
      ],
      [
        0.02678145281970501,
        -0.049786679446697235,
        0.0025478762108832598,
        0.00892828218638897,
        -0.05922520160675049,
        0.08470498770475388,
        -0.03868341073393822,
        -0.07493804395198822,
        -0.08113670349121094,
        0.0060409908182919025,
        0.050000064074993134,
        -0.06555996835231781,
        -0.08330565690994263,
        -0.08394080400466919,
        0.032645367085933685,
        -0.057070519775152206,
        0.02969685010612011,
        0.061440762132406235,
        -0.025951290503144264,
        -0.003624511882662773,
        -0.014686043374240398,
        0.01966443844139576,
        0.02249928005039692,
        -0.08687589317560196,
        -0.03618106618523598,
        0.030913488939404488,
        0.0646551251411438,
        0.019835665822029114,
        -0.07121899724006653,
        0.045788753777742386,
        -0.03066847287118435,
        0.0645906925201416,
        0.04575181007385254,
        -0.05620412155985832,
        -0.035875171422958374,
        -0.04620729759335518,
        -0.06630589067935944,
        0.04699559509754181,
        0.01298245508223772,
        -0.07090059667825699,
        0.07966799288988113,
        0.05538469925522804,
        -0.03292066231369972,
        0.030284781008958817,
        0.008696749806404114,
        -0.025790274143218994,
        0.04793793335556984,
        -0.05085233971476555,
        -0.08075980097055435,
        -0.011702114716172218,
        -0.08434495329856873,
        0.03527797758579254,
        0.07188791781663895,
        -0.00026983380666933954,
        -0.020771821960806847,
        0.003337566275149584,
        0.07073434442281723,
        0.02507074736058712,
        0.010805187746882439,
        -0.03241734579205513,
        -0.04468666762113571,
        0.06644399464130402,
        -0.045991525053977966,
        0.05191894248127937,
        0.070057712495327,
        -0.05030478537082672,
        -0.011627892032265663,
        0.01574385166168213,
        0.023996824398636818,
        0.05057468265295029,
        0.07657502591609955,
        0.014569403603672981,
        -0.0007473638979718089,
        0.06388384848833084,
        0.06658362597227097,
        -0.07639268040657043,
        0.04428912699222565,
        0.04458766430616379,
        0.05251810699701309,
        0.03621861711144447,
        0.04926202446222305,
        -0.008358338847756386,
        0.014542033895850182,
        0.04277384281158447,
        -0.0302798580378294,
        -0.07703905552625656,
        -0.01327145379036665,
        0.05374745652079582,
        -0.03244171664118767,
        0.008526396006345749,
        -0.011845610104501247,
        -0.003752052318304777,
        0.08620446920394897,
        -0.08574957400560379,
        -0.0008185192127712071,
        -0.027123983949422836,
        0.036143794655799866,
        0.0158027783036232,
        0.009504571557044983,
        0.0026856744661927223,
        0.012085327878594398,
        -0.0815875306725502,
        -0.029291518032550812,
        -0.009661172516644001,
        0.004008421208709478,
        -0.05226391553878784,
        -0.0804983600974083,
        -0.07466413080692291,
        0.0420159287750721,
        -0.08203915506601334,
        -0.0745210126042366,
        -0.009084333665668964,
        0.08022013306617737,
        0.014446457847952843,
        -0.04387896507978439,
        -0.07978837937116623,
        0.03179549053311348,
        -0.037191811949014664,
        -0.012493613176047802,
        -0.051850445568561554,
        0.027403978630900383,
        -0.04491279646754265,
        0.053292494267225266,
        -0.07608612626791,
        -0.009797375649213791,
        -0.015722738578915596,
        -0.04696398973464966,
        0.07188407331705093
      ],
      [
        -0.011875291354954243,
        0.016210036352276802,
        0.045698318630456924,
        -0.04709354415535927,
        0.01206306554377079,
        0.082981176674366,
        0.07501881569623947,
        -0.042678605765104294,
        0.0672043040394783,
        -0.081514373421669,
        -0.061105042695999146,
        0.04184330999851227,
        0.06458155065774918,
        -0.04791227728128433,
        0.006408371962606907,
        0.03142187371850014,
        0.07444050908088684,
        -0.06187829375267029,
        0.047363653779029846,
        0.05490027368068695,
        0.02990512177348137,
        0.008307870477437973,
        -0.08460120111703873,
        -0.03943870589137077,
        -0.07272613048553467,
        0.03537281975150108,
        0.051431648433208466,
        0.006475512403994799,
        -0.011113109067082405,
        0.009269021451473236,
        0.07321926206350327,
        -0.013573474250733852,
        -0.036412887275218964,
        0.08814264833927155,
        -0.005905101075768471,
        0.06914620846509933,
        0.08350939303636551,
        -0.0814959928393364,
        -0.037570904940366745,
        -0.0847325474023819,
        -0.035282790660858154,
        0.05572649464011192,
        0.012837790884077549,
        -0.05690217390656471,
        -0.009803607128560543,
        -0.03211267292499542,
        -0.017261603847146034,
        -0.033440735191106796,
        -0.0811377540230751,
        -0.05634363740682602,
        0.012071040458977222,
        -0.06873437017202377,
        0.021669836714863777,
        -0.010480388067662716,
        -0.03812697157263756,
        0.07127098739147186,
        0.05989214777946472,
        -0.00046480714809149504,
        -0.034378744661808014,
        -0.07632286101579666,
        0.043971192091703415,
        -0.01146029680967331,
        0.0370042659342289,
        0.00729259243234992,
        0.0013442751951515675,
        0.08186134696006775,
        -0.031810492277145386,
        0.027112245559692383,
        0.05115799978375435,
        -0.06809458881616592,
        -0.05215929076075554,
        -0.07878106087446213,
        -0.04192119464278221,
        0.026081087067723274,
        0.03589986264705658,
        -0.008877480402588844,
        -0.03999001532793045,
        -0.06617099046707153,
        0.05989791452884674,
        0.06334824860095978,
        -0.038721583783626556,
        -0.015076351352036,
        -0.05707448720932007,
        -0.04263923689723015,
        0.025681762024760246,
        0.029200313612818718,
        0.044211093336343765,
        -0.030069835484027863,
        0.01094644796103239,
        -0.04893307760357857,
        -0.03496519848704338,
        -0.049885012209415436,
        -0.04763629287481308,
        0.03148593008518219,
        -0.02995930425822735,
        -0.08699705451726913,
        -0.06722888350486755,
        -0.07052133232355118,
        0.04311568662524223,
        -0.006284635979682207,
        -0.005793246440589428,
        -0.06748028844594955,
        -0.0087518859654665,
        0.07966867089271545,
        0.03660621494054794,
        0.033058345317840576,
        -0.06684944778680801,
        0.06100698560476303,
        -0.021482232958078384,
        -0.002495452528819442,
        0.05098139867186546,
        0.011887648142874241,
        0.07659681886434555,
        0.0790557861328125,
        -0.07384221255779266,
        -0.018421512097120285,
        0.08040312677621841,
        0.05052710324525833,
        -0.02829495631158352,
        -0.0349578857421875,
        0.040813740342855453,
        0.08726853877305984,
        -0.04027989134192467,
        0.02891426533460617,
        -0.08032255619764328,
        0.05285937339067459,
        -0.06228531897068024,
        0.03581298515200615
      ],
      [
        -0.05322255939245224,
        -0.01551782339811325,
        -0.004326074384152889,
        -0.040563881397247314,
        -0.08152133971452713,
        -0.07956399023532867,
        0.00830393098294735,
        -0.03826628625392914,
        -0.07403802871704102,
        0.04012759402394295,
        -0.017497610300779343,
        -0.08925554156303406,
        -0.08594255894422531,
        0.004109358415007591,
        -0.0052854083478450775,
        0.02824007160961628,
        -0.0459117665886879,
        0.02189859002828598,
        0.03377349302172661,
        -0.051182471215724945,
        -0.034983985126018524,
        -0.06977707147598267,
        -0.032861724495887756,
        -0.00704303290694952,
        0.07045972347259521,
        0.06403546035289764,
        -0.046209342777729034,
        0.021020233631134033,
        -0.08093571662902832,
        0.03795669972896576,
        -0.034946542233228683,
        0.08786026388406754,
        -0.0698360875248909,
        -0.04475204274058342,
        0.02436075545847416,
        0.05526982992887497,
        0.04491908475756645,
        -0.060940053313970566,
        0.01448764931410551,
        0.0672653391957283,
        0.06072309613227844,
        -0.026903439313173294,
        0.011705473065376282,
        0.028149330988526344,
        0.056821778416633606,
        0.02676529437303543,
        -0.044910576194524765,
        0.0033293201122432947,
        -0.05419033393263817,
        0.007278001867234707,
        0.022760985419154167,
        0.043075256049633026,
        0.04266113415360451,
        0.022411629557609558,
        0.0260576494038105,
        -0.06284794211387634,
        0.07343731075525284,
        0.0061987838707864285,
        0.029095062986016273,
        0.03124627098441124,
        -0.0514754056930542,
        -0.07616972923278809,
        0.07808246463537216,
        0.0606527142226696,
        -0.005648400168865919,
        -0.002718511037528515,
        0.008796175941824913,
        -0.017537860199809074,
        0.010128188878297806,
        0.04218384623527527,
        0.061169203370809555,
        0.0636613741517067,
        -0.033907853066921234,
        -0.07692712545394897,
        0.08667170256376266,
        -0.0751037523150444,
        -0.07619071006774902,
        0.0701390877366066,
        0.004437885247170925,
        0.011626127175986767,
        -0.0071134609170258045,
        -0.08127973973751068,
        -0.036732424050569534,
        0.06895306706428528,
        -0.06138128414750099,
        0.0224823746830225,
        -0.003683599177747965,
        0.012710891664028168,
        -0.06405133008956909,
        0.018920067697763443,
        -0.025999808683991432,
        -0.04583941400051117,
        -0.04047917202115059,
        -0.010518995113670826,
        -0.00692932540550828,
        0.07908902317285538,
        -0.08790331333875656,
        -0.010651638731360435,
        0.07411104440689087,
        0.07853777706623077,
        -0.03497673198580742,
        0.008055665530264378,
        0.04174065217375755,
        0.08280075341463089,
        0.07661119103431702,
        0.03921126201748848,
        0.0805586501955986,
        -0.050255682319402695,
        -0.05997159332036972,
        -0.01600201241672039,
        -0.01728134974837303,
        -0.03274845331907272,
        -0.007919549010694027,
        -0.044040337204933167,
        -0.0017619238933548331,
        0.02054298110306263,
        0.08446475118398666,
        0.04773508012294769,
        -0.046859633177518845,
        0.00788768008351326,
        -0.02548479475080967,
        0.04404653236269951,
        -0.009808564558625221,
        -0.04806031286716461,
        0.07404334098100662,
        0.032731421291828156,
        -0.03982330113649368,
        0.03596218675374985
      ],
      [
        0.05911068618297577,
        0.0715213343501091,
        -0.0559878945350647,
        -0.0017451487947255373,
        -0.02571307122707367,
        -0.08644337952136993,
        -0.03542960807681084,
        -0.027114950120449066,
        -0.05902288109064102,
        0.022082889452576637,
        -0.05360661819577217,
        0.08382623642683029,
        -0.07640175521373749,
        -0.05953009054064751,
        0.07673276215791702,
        0.0849262923002243,
        -0.054199572652578354,
        -0.08313997089862823,
        -0.024094490334391594,
        0.07227810472249985,
        -0.038025517016649246,
        -0.05432942137122154,
        -0.0032319710589945316,
        0.029060132801532745,
        -0.07324472814798355,
        -0.053922154009342194,
        -0.05476842448115349,
        -0.0717017725110054,
        0.030216889455914497,
        0.06546977162361145,
        0.046811774373054504,
        -0.05845104902982712,
        -0.07736843824386597,
        -0.015075837261974812,
        -0.022175149992108345,
        0.03524571284651756,
        -0.06896118074655533,
        0.04450007155537605,
        -0.05717465654015541,
        -0.0020528282038867474,
        -0.01168938260525465,
        -0.04006829485297203,
        -0.07239149510860443,
        -0.05641128122806549,
        -0.07466866075992584,
        -0.03976517543196678,
        -0.06819294393062592,
        0.0697670504450798,
        0.05808950960636139,
        -0.08328147977590561,
        -0.025916406884789467,
        -0.08716066926717758,
        0.029591796919703484,
        -0.08646586537361145,
        0.012526837177574635,
        -0.0018058267887681723,
        0.0541987307369709,
        0.06318295001983643,
        -0.0012101872125640512,
        -0.051259469240903854,
        -0.07000237703323364,
        -0.08144225925207138,
        -0.0707274004817009,
        -0.047718595713377,
        0.04868043214082718,
        -0.002492243889719248,
        -0.07666025310754776,
        -0.0582953616976738,
        -0.07385560870170593,
        -0.047125525772571564,
        0.06996899843215942,
        0.08211719244718552,
        0.03406792879104614,
        -0.0658584013581276,
        -0.04702398553490639,
        -0.06270923465490341,
        -0.05976962670683861,
        0.015706347301602364,
        0.020536668598651886,
        -0.04698991775512695,
        0.07252734899520874,
        -0.001459888881072402,
        0.0837433710694313,
        0.0781739205121994,
        -0.053941402584314346,
        -0.061276745051145554,
        -0.07912162691354752,
        0.07782468944787979,
        0.04225270450115204,
        -0.08542110025882721,
        0.049487028270959854,
        -0.013441300950944424,
        -0.013126305304467678,
        0.07208937406539917,
        -0.011177752166986465,
        -0.07158610224723816,
        -0.07759716361761093,
        0.04537443071603775,
        -0.005130053032189608,
        -0.027456820011138916,
        0.07807677984237671,
        0.012107806280255318,
        -0.004601421300321817,
        0.07256036251783371,
        0.05890078470110893,
        0.08023636788129807,
        0.07384397834539413,
        0.035235002636909485,
        0.04141126573085785,
        -0.05929039046168327,
        0.013534266501665115,
        0.06547410041093826,
        0.0325821228325367,
        -0.00013700654380954802,
        0.002261407906189561,
        0.0691521093249321,
        -0.08372271060943604,
        -0.0716707780957222,
        -0.024200668558478355,
        0.050509609282016754,
        0.07133184373378754,
        0.0007480960339307785,
        -0.06842567771673203,
        0.08242316544055939,
        0.06041990965604782,
        -0.04545324295759201,
        -0.004976998083293438,
        -0.05021795630455017
      ],
      [
        -0.0669998750090599,
        -0.013149174861609936,
        -0.0632915198802948,
        -0.02543308585882187,
        0.08283006399869919,
        -0.04379286244511604,
        -0.04702240973711014,
        -0.08555139601230621,
        0.08340393751859665,
        0.0822756364941597,
        -0.03953823074698448,
        -0.04021434858441353,
        0.035448379814624786,
        -0.014484136365354061,
        -0.012879802845418453,
        0.0013571248855441809,
        -0.08237052708864212,
        -0.024416334927082062,
        0.08115154504776001,
        0.07810462266206741,
        0.06059589609503746,
        0.0739593356847763,
        -0.015024599619209766,
        0.06838396936655045,
        -0.05705300346016884,
        0.04627588391304016,
        -0.03167717903852463,
        -0.08317762613296509,
        0.044804248958826065,
        0.08809341490268707,
        -0.06815135478973389,
        0.06392768770456314,
        0.018926702439785004,
        -0.07718948274850845,
        0.02727043256163597,
        0.07330644130706787,
        0.060205116868019104,
        -0.005948735401034355,
        -0.014673751778900623,
        -0.018982717767357826,
        -0.08855383098125458,
        -0.035696327686309814,
        0.08569652587175369,
        -0.07849587500095367,
        0.02642509527504444,
        0.005022092256695032,
        -0.05659375712275505,
        0.08080989122390747,
        -0.07378838956356049,
        0.06212272867560387,
        0.030850175768136978,
        -0.023263070732355118,
        0.04972197860479355,
        -0.04399208724498749,
        0.05736355856060982,
        0.05874963104724884,
        -0.005142502021044493,
        -0.08358802646398544,
        -0.08935471624135971,
        -0.0450546070933342,
        0.07871873676776886,
        -0.04047590494155884,
        -0.08154600858688354,
        0.03257797285914421,
        0.08579279482364655,
        0.06276732683181763,
        0.017270226031541824,
        0.05059206113219261,
        -0.01754373125731945,
        -0.016900258138775826,
        0.041328538209199905,
        0.024228783324360847,
        -0.06517185270786285,
        0.08623486012220383,
        0.08365481346845627,
        -0.008226816542446613,
        0.01783905178308487,
        0.024938741698861122,
        0.0665765330195427,
        0.0004991204477846622,
        0.06731507927179337,
        -0.0018099521985277534,
        0.05656423792243004,
        0.04306206479668617,
        0.012537049129605293,
        -0.01317232009023428,
        0.00668690400198102,
        -0.004655395168811083,
        -0.07275698333978653,
        0.023020435124635696,
        -0.037113212049007416,
        -0.05448019877076149,
        -0.07979793846607208,
        -0.0904015451669693,
        0.030933495610952377,
        -0.019346950575709343,
        0.05745173990726471,
        0.017238358035683632,
        -0.07539968937635422,
        0.005369471851736307,
        -0.04745789244771004,
        -0.030023761093616486,
        0.036107998341321945,
        0.0687389075756073,
        -0.024647334590554237,
        -0.052523303776979446,
        -0.08607368171215057,
        0.04871589317917824,
        -0.07312342524528503,
        0.02849956788122654,
        -0.02063448540866375,
        -0.004836029373109341,
        0.056317538022994995,
        0.07454660534858704,
        0.018989359959959984,
        -0.03326267749071121,
        0.05999632552266121,
        -0.07203467935323715,
        0.03533857315778732,
        0.07301676273345947,
        0.03427569568157196,
        -0.027302704751491547,
        -8.671809337101877e-05,
        0.0029954526107758284,
        0.020472386851906776,
        0.07027815282344818,
        -0.05238400772213936,
        0.06536582857370377
      ],
      [
        0.03068334050476551,
        0.08299319446086884,
        -0.03850815072655678,
        0.003982138354331255,
        0.025299450382590294,
        0.07465080916881561,
        0.05952751263976097,
        0.07074923068284988,
        -0.001978450221940875,
        -0.0260333139449358,
        0.06782758235931396,
        0.07408594340085983,
        0.07115106284618378,
        -0.06047390401363373,
        -0.008826609700918198,
        0.02100442722439766,
        0.028037995100021362,
        -0.08228456974029541,
        -0.01481929887086153,
        -0.041844144463539124,
        0.040093548595905304,
        -0.02835519053041935,
        -0.08858820050954819,
        -0.07915057986974716,
        -0.036331016570329666,
        -0.05917223542928696,
        -0.004243948962539434,
        -0.00148620770778507,
        0.04018472507596016,
        0.03970419615507126,
        -0.0586857832968235,
        0.01571051776409149,
        0.04780403897166252,
        0.06312205642461777,
        -0.060773175209760666,
        -0.03988996520638466,
        0.04300887882709503,
        -0.0032005533576011658,
        0.04614537954330444,
        -0.07636153697967529,
        -0.03222132474184036,
        0.06404449045658112,
        0.047135330736637115,
        0.05223996564745903,
        0.08202584087848663,
        0.029701145365834236,
        0.0008559103589504957,
        0.03823891654610634,
        0.05913076549768448,
        -0.0814497098326683,
        -0.00994584895670414,
        0.06344372779130936,
        0.018543176352977753,
        -0.06376607716083527,
        -0.0711117535829544,
        0.0666138306260109,
        -0.0008713100105524063,
        0.060429733246564865,
        0.06198529154062271,
        -0.06116887927055359,
        0.07335391640663147,
        0.08445120602846146,
        -0.04280509427189827,
        -0.06006646901369095,
        -0.052432477474212646,
        0.05731569230556488,
        0.013299393467605114,
        0.012683219276368618,
        0.054811399430036545,
        0.051239967346191406,
        -0.02793785184621811,
        -0.084294393658638,
        -0.079045869410038,
        0.010400972329080105,
        0.029366139322519302,
        -0.01551008876413107,
        0.014125796034932137,
        0.013010678812861443,
        0.017633792012929916,
        -0.05823090299963951,
        -0.044750336557626724,
        -0.016356242820620537,
        -0.06705038994550705,
        0.08247382938861847,
        0.0038021933287382126,
        -0.08351412415504456,
        -0.06280083954334259,
        0.017794301733374596,
        -0.08574192970991135,
        0.008834573440253735,
        0.02322637103497982,
        -0.03564183786511421,
        0.06184525787830353,
        -0.07544425129890442,
        -0.07686212658882141,
        -0.07845072448253632,
        -0.02544376254081726,
        0.08647570013999939,
        0.008832264691591263,
        0.032377392053604126,
        -0.03346540778875351,
        -0.03058505430817604,
        0.06036889925599098,
        -0.055566925555467606,
        0.014005511067807674,
        0.01948254182934761,
        0.06026850640773773,
        -0.033707719296216965,
        -0.030014285817742348,
        -0.04903875291347504,
        0.057176053524017334,
        -0.08713426440954208,
        0.032203588634729385,
        -0.003242735518142581,
        -0.07677936553955078,
        -0.08103667944669724,
        -0.08725139498710632,
        -0.0005358605412766337,
        -0.06119328364729881,
        -0.039599329233169556,
        0.0754237249493599,
        -0.016601702198386192,
        0.05659498646855354,
        0.02401655912399292,
        0.06002870202064514,
        -0.0684199407696724,
        -0.015798034146428108,
        -0.0011391841107979417
      ],
      [
        -0.027805816382169724,
        -0.03711844980716705,
        -0.042401865124702454,
        -0.0818234235048294,
        -0.03673481568694115,
        0.004360871855169535,
        0.0630159005522728,
        0.02011186070740223,
        0.08659439533948898,
        -0.04206060618162155,
        -0.02822956070303917,
        0.027422064915299416,
        -0.07838847488164902,
        -0.059972938150167465,
        -0.08073693513870239,
        0.08291225880384445,
        0.004001812543720007,
        0.018936291337013245,
        0.017596030607819557,
        0.08109452575445175,
        -0.03587821498513222,
        -0.02554437518119812,
        0.08072186261415482,
        -0.06427010893821716,
        -0.014193241484463215,
        0.026565149426460266,
        -0.028438856825232506,
        0.003849739208817482,
        0.0423281230032444,
        -0.055774156004190445,
        -0.01813339628279209,
        0.007638884708285332,
        0.03761513531208038,
        -0.07373379170894623,
        0.06021282076835632,
        -0.026347488164901733,
        0.009881436824798584,
        -0.06011836975812912,
        -0.057847101241350174,
        0.015022417530417442,
        0.03671932592988014,
        0.02014642208814621,
        0.06768687814474106,
        0.03455513343214989,
        -0.041866451501846313,
        -0.07868494093418121,
        0.02389645017683506,
        0.07656485587358475,
        -0.05866893380880356,
        0.06580942869186401,
        -0.033710137009620667,
        -0.00016467750538140535,
        0.00888977013528347,
        0.07708834111690521,
        0.008117260411381721,
        -0.0033043716102838516,
        0.03645530715584755,
        0.08266810327768326,
        -0.06400033831596375,
        0.06544928252696991,
        0.08187474310398102,
        -0.07166481763124466,
        -0.008090313524007797,
        0.023644424974918365,
        0.011557597666978836,
        -0.05190679803490639,
        0.07553176581859589,
        0.05580001696944237,
        -0.014071803539991379,
        -0.0730813518166542,
        -0.07977482676506042,
        0.018163340166211128,
        0.002895553596317768,
        -0.05368059501051903,
        0.008254935033619404,
        0.08768533170223236,
        0.08436908572912216,
        -0.028989100828766823,
        -0.008768475614488125,
        0.02995525673031807,
        0.07589001953601837,
        0.005038789007812738,
        0.011432305909693241,
        -0.04807037115097046,
        -0.07450241595506668,
        0.061561938375234604,
        0.03384639695286751,
        0.029221881181001663,
        -0.0020280578173696995,
        -0.021057602018117905,
        0.007838910445570946,
        -0.05776112526655197,
        -0.044805653393268585,
        0.04026421904563904,
        0.08272015303373337,
        0.0183061845600605,
        0.06727023422718048,
        0.02748858742415905,
        0.0016927473479881883,
        0.058037806302309036,
        -0.044299591332674026,
        0.024334359914064407,
        -0.0056437901221215725,
        -0.01745479740202427,
        -0.024784795939922333,
        0.04999378323554993,
        0.03781069070100784,
        -0.0811852365732193,
        -0.059905339032411575,
        -0.02327723242342472,
        -0.07137760519981384,
        -0.022004228085279465,
        -0.08041413873434067,
        0.013979915529489517,
        -0.09057306498289108,
        -0.011232411488890648,
        0.03188246116042137,
        -0.032881155610084534,
        0.020553316920995712,
        -0.010973197408020496,
        0.011433434672653675,
        0.0547630712389946,
        -0.04718189686536789,
        -0.04355248063802719,
        0.015076925978064537,
        -0.05306508019566536,
        0.06407671421766281,
        0.056927092373371124
      ],
      [
        -0.02191225439310074,
        0.08247406035661697,
        -0.022249581292271614,
        -0.05278608947992325,
        -0.08268482983112335,
        -0.0049328007735311985,
        -0.07300230860710144,
        -0.054683052003383636,
        -0.08801267296075821,
        -0.06718700379133224,
        0.04509411379694939,
        0.059066615998744965,
        0.07893147319555283,
        0.030840763822197914,
        0.02190042845904827,
        -0.04126051813364029,
        -0.062278036028146744,
        0.006782328709959984,
        -0.005395269021391869,
        0.06585650146007538,
        0.03945649042725563,
        -0.01793813146650791,
        -0.07611414045095444,
        -0.044124387204647064,
        -0.05479203537106514,
        0.029013490304350853,
        0.017146561294794083,
        0.056286200881004333,
        0.00993639137595892,
        0.02824164181947708,
        0.05405758321285248,
        0.024864304810762405,
        -0.03905028849840164,
        0.03490765765309334,
        0.055554989725351334,
        -0.01259724609553814,
        0.051410894840955734,
        0.04258396103978157,
        0.021602831780910492,
        -0.06680237501859665,
        0.0884551852941513,
        0.03269173949956894,
        -0.0711899921298027,
        -0.042591847479343414,
        -0.08309232443571091,
        -0.03700925037264824,
        -0.03197432681918144,
        0.0473836213350296,
        0.008007309399545193,
        -0.07172046601772308,
        0.027522722259163857,
        0.07002636045217514,
        -0.02405514568090439,
        -0.03469015285372734,
        0.06824702769517899,
        -0.06533748656511307,
        0.05691147968173027,
        -0.08043228089809418,
        -0.005036691203713417,
        -0.051734354346990585,
        -0.0384940430521965,
        -0.0005096272216178477,
        -0.011229830794036388,
        -0.07406596839427948,
        -0.08694186061620712,
        0.033939801156520844,
        0.0839499905705452,
        -0.062443509697914124,
        0.012851464562118053,
        -0.03229419142007828,
        0.07008093595504761,
        0.052653227001428604,
        -0.08052857965230942,
        0.05184273421764374,
        0.08832006901502609,
        0.051882553845644,
        0.055653344839811325,
        -0.023708077147603035,
        -0.070925273001194,
        -0.07755791395902634,
        0.003236523363739252,
        0.024976078420877457,
        0.023145345970988274,
        0.021549571305513382,
        -0.05193597823381424,
        -0.057351287454366684,
        0.02850927598774433,
        0.01534343883395195,
        0.0015310950111597776,
        0.080296590924263,
        -0.006143117789179087,
        -0.031525976955890656,
        -0.07236922532320023,
        0.00957945454865694,
        0.006310892757028341,
        0.03922773897647858,
        0.041243042796850204,
        0.032492950558662415,
        -0.057345807552337646,
        0.07704301178455353,
        0.029477428644895554,
        -0.08185441046953201,
        -0.08708667755126953,
        -0.011462406255304813,
        -0.025401771068572998,
        -0.07174282521009445,
        0.08747147768735886,
        -0.0197052750736475,
        -0.020322803407907486,
        0.08596768975257874,
        -0.06073843315243721,
        -0.012136867269873619,
        0.04646863415837288,
        0.05054311081767082,
        -0.019048389047384262,
        0.02556084841489792,
        0.018023326992988586,
        -0.07480807602405548,
        0.018590718507766724,
        0.0658324807882309,
        0.0717051550745964,
        0.07524368166923523,
        -0.08391424268484116,
        0.022479524835944176,
        -0.06373865902423859,
        -0.007727846037596464,
        -0.05719819292426109,
        -0.0542498417198658
      ],
      [
        -0.03883669897913933,
        -0.0678040087223053,
        0.0135258873924613,
        -0.011995170265436172,
        -0.07076626271009445,
        -0.052868135273456573,
        -0.07061372697353363,
        0.058354273438453674,
        0.05773182585835457,
        -0.07424581050872803,
        0.04008422791957855,
        0.015473666600883007,
        -0.058894988149404526,
        -0.08190744370222092,
        -0.01014747004956007,
        0.08611492067575455,
        -0.008786337450146675,
        -0.029949957504868507,
        0.05731726810336113,
        0.05338917300105095,
        0.06876539438962936,
        0.07848086953163147,
        -0.07309842854738235,
        -0.01842487044632435,
        -0.033520717173814774,
        0.06782577931880951,
        0.07982073724269867,
        -0.03333267569541931,
        -0.057414114475250244,
        -0.05850641801953316,
        -0.03519265353679657,
        0.07702627032995224,
        -0.08099052309989929,
        0.003737539052963257,
        0.01998227834701538,
        -0.03343498334288597,
        -0.02300354838371277,
        -0.02611914649605751,
        -0.06076929345726967,
        0.05359368771314621,
        0.05720323696732521,
        -0.06153492256999016,
        -0.06002616882324219,
        0.06244640424847603,
        -0.014822352677583694,
        0.004579420201480389,
        -0.0615704171359539,
        -0.00371945695951581,
        0.008953590877354145,
        0.013329535722732544,
        0.045991744846105576,
        0.05363736301660538,
        -0.052747223526239395,
        -0.06259322911500931,
        0.0013427045196294785,
        0.013715716078877449,
        0.056796517223119736,
        0.05616571381688118,
        0.0361492857336998,
        -0.011788271367549896,
        0.04577780142426491,
        0.030736040323972702,
        -0.027230912819504738,
        0.029130561277270317,
        0.01310755591839552,
        0.01750575751066208,
        0.05870212987065315,
        0.029133135452866554,
        -0.04301030561327934,
        -0.06931132823228836,
        -0.04838206619024277,
        -0.08538027852773666,
        0.04433802142739296,
        -0.07353239506483078,
        -0.05694829672574997,
        -0.0473703034222126,
        0.09052375704050064,
        0.05217127129435539,
        -0.02191823720932007,
        0.07934930920600891,
        0.04296998679637909,
        -0.07504384964704514,
        0.022835690528154373,
        0.030665718019008636,
        -0.020003288984298706,
        -0.02702651359140873,
        -0.01704806461930275,
        -0.0610894113779068,
        -0.07376807928085327,
        0.025390706956386566,
        -0.005066855810582638,
        -0.06071025878190994,
        0.012873467057943344,
        0.003269769251346588,
        0.001860620453953743,
        0.07248092442750931,
        0.005985028110444546,
        0.021945735439658165,
        -0.03289913013577461,
        0.039218269288539886,
        0.051352743059396744,
        0.014804873615503311,
        0.02611105889081955,
        -0.06424859911203384,
        0.039142459630966187,
        0.04320737347006798,
        -0.06443534791469574,
        0.086383156478405,
        0.0870244950056076,
        -0.005665206350386143,
        -0.08230872452259064,
        -0.028989924117922783,
        -0.032034337520599365,
        0.032073069363832474,
        -0.013652694411575794,
        -0.04615311697125435,
        0.06454343348741531,
        -0.015053528361022472,
        -0.03791797533631325,
        0.047100309282541275,
        0.01891808770596981,
        0.038297850638628006,
        -0.05712331831455231,
        0.06216401234269142,
        0.08870464563369751,
        -0.0033105467446148396,
        -0.053505267947912216,
        -0.027529055252671242
      ],
      [
        0.0751376673579216,
        0.045251406729221344,
        -0.005460075568407774,
        -0.003652045037597418,
        0.07635629177093506,
        0.02895740047097206,
        -0.012599300593137741,
        -0.026143038645386696,
        0.02655632421374321,
        0.06554240733385086,
        0.015026197768747807,
        0.07099351286888123,
        0.07751279324293137,
        0.059880051761865616,
        -0.01149202324450016,
        0.008194990456104279,
        -0.03268878161907196,
        0.05860590562224388,
        -0.055339179933071136,
        0.04949234798550606,
        -0.05829288437962532,
        -0.016457315534353256,
        0.02819623425602913,
        -0.006390804424881935,
        0.029180582612752914,
        -0.08744069933891296,
        0.052490536123514175,
        -0.04852438345551491,
        0.07388070970773697,
        0.08319644629955292,
        -0.006637871265411377,
        0.05982446298003197,
        -0.04697412997484207,
        -0.03189163655042648,
        0.07786467671394348,
        -0.004806657321751118,
        0.07801926136016846,
        -0.044952549040317535,
        0.03596937656402588,
        -0.08300533145666122,
        -0.08781468123197556,
        -0.08352188766002655,
        0.049518290907144547,
        0.04487613961100578,
        -0.08699989318847656,
        -0.014473648741841316,
        0.023464685305953026,
        -0.06826885789632797,
        0.04441063478589058,
        0.08999872207641602,
        0.01497942116111517,
        -0.05341063439846039,
        -0.07313861697912216,
        -0.08774225413799286,
        0.0757337436079979,
        0.048068445175886154,
        0.04977588355541229,
        0.0459059439599514,
        -0.028843745589256287,
        -0.014344853349030018,
        0.023016933351755142,
        0.029254663735628128,
        0.038822583854198456,
        0.016204025596380234,
        -0.00998712982982397,
        -0.018386438488960266,
        0.034203413873910904,
        -0.044080037623643875,
        -0.02261601947247982,
        0.0222841277718544,
        0.07978009432554245,
        -0.031299374997615814,
        -0.08897566050291061,
        -0.059023212641477585,
        -0.009030094370245934,
        -0.017228517681360245,
        0.029180295765399933,
        0.08224369585514069,
        0.016461431980133057,
        -0.05726044997572899,
        -0.010634002275764942,
        0.0006493894034065306,
        -0.04605657979846001,
        -0.018230987712740898,
        0.006196448113769293,
        0.031389269977808,
        -0.07960770279169083,
        0.028554627671837807,
        0.014783384278416634,
        0.08753462880849838,
        -0.0849517285823822,
        0.06627161800861359,
        -0.025745516642928123,
        0.06424235552549362,
        -0.06731966137886047,
        0.07079601287841797,
        -0.004410140682011843,
        0.024244625121355057,
        0.07438325136899948,
        -0.0872652679681778,
        -0.013544057495892048,
        -0.034721504896879196,
        0.007726524490863085,
        0.0613606795668602,
        0.015480493195354939,
        -0.023792890831828117,
        0.015195926651358604,
        0.06592024862766266,
        -0.07813114672899246,
        -0.00824237521737814,
        -0.0538998506963253,
        -0.016691546887159348,
        -0.016348201781511307,
        -0.039493121206760406,
        -0.08763851970434189,
        -0.07805559039115906,
        0.03886120393872261,
        0.035273559391498566,
        0.08454493433237076,
        -0.05386907979846001,
        -0.010079245083034039,
        0.08964673429727554,
        -0.03708978369832039,
        -0.007135970517992973,
        -0.0345429964363575,
        -0.07819916307926178,
        0.06106662005186081,
        -0.07717575877904892
      ],
      [
        -0.06606981158256531,
        0.081313855946064,
        -0.02662084437906742,
        -0.032346002757549286,
        -0.030538680031895638,
        -0.06556560844182968,
        -0.003525778651237488,
        0.015508165583014488,
        -0.04768383130431175,
        0.023026173934340477,
        0.06728211790323257,
        -0.06164957955479622,
        -0.024183671921491623,
        -0.03432890772819519,
        -0.057665735483169556,
        0.005152035504579544,
        -0.045539844781160355,
        0.01987767592072487,
        -0.015782644972205162,
        -0.07765143364667892,
        -0.016574827954173088,
        0.06277595460414886,
        0.0699106976389885,
        -0.07327383011579514,
        -0.07286974042654037,
        0.06903944909572601,
        -0.05845427140593529,
        0.027616599574685097,
        -0.05073011666536331,
        -0.011591475456953049,
        0.054274220019578934,
        -0.07504020631313324,
        0.019849682226777077,
        -0.015562870539724827,
        0.011857171542942524,
        0.04847990348935127,
        0.0173818226903677,
        0.05722707882523537,
        0.0486665740609169,
        0.0641225054860115,
        0.08580926805734634,
        -0.019771503284573555,
        -0.04158208146691322,
        0.07559631764888763,
        0.042118243873119354,
        -0.04091310128569603,
        -0.03421006724238396,
        -0.021051302552223206,
        0.06978455185890198,
        0.0811258852481842,
        0.03664807602763176,
        -0.05335715040564537,
        -0.028921999037265778,
        -0.04231023043394089,
        -0.08118480443954468,
        -0.05454516410827637,
        -0.015875348821282387,
        -0.04548359662294388,
        -0.05332397297024727,
        -0.0002728983527049422,
        -0.022948486730456352,
        0.042514413595199585,
        -0.049544308334589005,
        -0.04072271287441254,
        0.03851551190018654,
        0.04845631867647171,
        -0.013545524328947067,
        0.03422687202692032,
        -0.033019114285707474,
        -0.04690609872341156,
        -0.03499136492609978,
        0.041085854172706604,
        0.08362037688493729,
        0.036132365465164185,
        0.08954024314880371,
        -0.05242009460926056,
        0.06084871292114258,
        -0.07464270293712616,
        0.002095205709338188,
        -0.006004897877573967,
        -0.019509337842464447,
        -0.055511802434921265,
        0.0008845526026561856,
        -0.08520697802305222,
        0.031036440283060074,
        -0.054004546254873276,
        -0.07868234813213348,
        -0.029198549687862396,
        -0.05592098459601402,
        -0.015986550599336624,
        0.011481969617307186,
        0.02019002102315426,
        0.003777626669034362,
        -0.023703616112470627,
        -0.015589151531457901,
        0.05240052193403244,
        -0.06524224579334259,
        0.04526199772953987,
        -0.07403218001127243,
        -0.04477857053279877,
        0.0323452353477478,
        0.01983969658613205,
        0.054296303540468216,
        0.015456553548574448,
        -0.017417239025235176,
        0.07635247707366943,
        -0.06162382662296295,
        0.07149240374565125,
        0.003539117518812418,
        0.06861777603626251,
        -0.061067529022693634,
        0.0034177261404693127,
        -0.0199570469558239,
        -0.06245806813240051,
        -0.06078433617949486,
        -0.01912461221218109,
        0.04214423522353172,
        -0.0014651576057076454,
        -0.08164451271295547,
        0.03208685666322708,
        0.08225206285715103,
        0.004723220132291317,
        0.01801706664264202,
        0.0028257081285119057,
        -0.06617109477519989,
        0.04697883129119873,
        -0.017390409484505653,
        0.04225238412618637
      ],
      [
        0.05258161202073097,
        -0.006777482107281685,
        -0.08721008896827698,
        0.08289692550897598,
        0.017167558893561363,
        0.024942250922322273,
        0.07156489044427872,
        -0.07589512318372726,
        0.04586672782897949,
        0.001994658960029483,
        -0.03217581659555435,
        -0.026723705232143402,
        0.05395166203379631,
        -0.0031211108434945345,
        -0.07447962462902069,
        -0.008771947585046291,
        -0.03541727364063263,
        -0.08410361409187317,
        0.08252163231372833,
        -0.044562868773937225,
        0.0031513774301856756,
        -0.07615512609481812,
        -0.07078240066766739,
        0.05006183311343193,
        -0.01994962990283966,
        -0.08984638750553131,
        -0.03471226245164871,
        -0.03392019495368004,
        -0.0331488661468029,
        -0.07842642813920975,
        -0.06447646766901016,
        -0.08084540069103241,
        -0.03773719444870949,
        0.03221661224961281,
        -0.04030920937657356,
        0.05040503665804863,
        -0.02302791178226471,
        0.005848717410117388,
        0.04291346296668053,
        -0.07173164188861847,
        -0.037978898733854294,
        -0.04062948375940323,
        -0.07794846594333649,
        -0.027181625366210938,
        -0.0018733739852905273,
        -0.06420053541660309,
        0.04941597580909729,
        0.055725276470184326,
        -0.06966262310743332,
        -0.08369458466768265,
        -0.04548642411828041,
        0.03781476244330406,
        -0.014906223863363266,
        -0.07816535234451294,
        -0.03387279435992241,
        0.015046351589262486,
        0.07706909626722336,
        -0.05759403854608536,
        0.021304329857230186,
        -0.06021425127983093,
        -0.00999377854168415,
        0.03944403678178787,
        -0.06992489844560623,
        0.06372371315956116,
        -0.06732524931430817,
        -0.018182402476668358,
        -0.059421807527542114,
        -0.052172742784023285,
        0.03195764124393463,
        -0.05483159422874451,
        -0.020735476166009903,
        0.06987588852643967,
        0.055717408657073975,
        0.0774371400475502,
        0.003991112112998962,
        -0.0057549383491277695,
        0.031174488365650177,
        -0.05559033900499344,
        -0.08255383372306824,
        0.07867652922868729,
        -0.06107644736766815,
        -0.010987630113959312,
        -0.05071307346224785,
        -0.0800161212682724,
        0.04956396296620369,
        -0.008757936768233776,
        -0.02640378847718239,
        0.045850969851017,
        0.028197212144732475,
        0.021462680771946907,
        -0.07614173740148544,
        -0.038806769996881485,
        -0.0037426501512527466,
        0.058262407779693604,
        -0.05745679512619972,
        -0.08434683084487915,
        -0.02987820655107498,
        0.0868907943367958,
        -0.04694659262895584,
        -0.04607461392879486,
        0.03205787390470505,
        0.03381657972931862,
        -0.08202429860830307,
        -0.040182191878557205,
        -0.011372033506631851,
        0.03366000950336456,
        0.07498522847890854,
        0.043037209659814835,
        0.07966478914022446,
        -0.0038425070233643055,
        -0.029697051271796227,
        0.02770315296947956,
        0.08002734184265137,
        -0.014321296475827694,
        -0.04133501648902893,
        -0.033480945974588394,
        -0.010406825691461563,
        0.029632670804858208,
        -0.08746764063835144,
        -0.0046335430815815926,
        0.04190771281719208,
        -0.0032242934685200453,
        -0.0030503293965011835,
        -0.00976592767983675,
        -0.023447252810001373,
        -0.027174320071935654,
        -0.02174585871398449,
        0.04184950888156891
      ],
      [
        -0.05632418021559715,
        0.06672780960798264,
        0.07281867414712906,
        0.04249466583132744,
        0.05051475763320923,
        0.0747438594698906,
        0.022782055661082268,
        -0.024976344779133797,
        -0.02945265918970108,
        -0.049518730491399765,
        -0.030957991257309914,
        0.0746818333864212,
        -0.048237111419439316,
        -0.012635390274226665,
        -0.0028519935440272093,
        -0.017040567472577095,
        0.03564862906932831,
        0.01687365584075451,
        0.032191187143325806,
        -0.0604294091463089,
        0.06592094153165817,
        0.06172247603535652,
        0.04326067492365837,
        -0.02998485416173935,
        -0.02250652015209198,
        -0.00240132724866271,
        0.025183476507663727,
        0.028550107032060623,
        0.06355860084295273,
        -0.013252933509647846,
        0.01588531956076622,
        -0.055791307240724564,
        0.05642043426632881,
        0.005009090527892113,
        -0.06391574442386627,
        -0.0024341417010873556,
        0.010273663327097893,
        0.04248558729887009,
        -0.04056530073285103,
        0.033175140619277954,
        -0.05136707052588463,
        0.045967742800712585,
        0.04225790128111839,
        0.019739709794521332,
        -0.026793114840984344,
        0.034167174249887466,
        0.026861054822802544,
        0.08354461193084717,
        0.06472014635801315,
        -0.0389721654355526,
        0.027804693207144737,
        0.049062009900808334,
        0.06541913747787476,
        -0.053303420543670654,
        0.07997992634773254,
        0.06836069375276566,
        0.019417794421315193,
        -0.014199580997228622,
        0.043023671954870224,
        -0.023931892588734627,
        -0.01444262731820345,
        0.030252782627940178,
        0.020157556980848312,
        -0.009342636913061142,
        0.011603573337197304,
        0.05795077607035637,
        0.024449409916996956,
        0.08536353707313538,
        -0.032384805381298065,
        0.02463710308074951,
        -0.015932537615299225,
